<?xml version="1.0" encoding="UTF-8"?>
<BIF VERSION="0.3"  xmlns="http://www.cs.ubc.ca/labs/lci/fopi/ve/XMLBIFv0_3"
	xmlns:xsi="http://www.w3.org/2001/XMLSchema-instance"
	xsi:schemaLocation="http://www.cs.ubc.ca/labs/lci/fopi/ve/XMLBIFv0_3 http://www.cs.ubc.ca/labs/lci/fopi/ve/XMLBIFv0_3/XMLBIFv0_3.xsd">
<NETWORK>
<NAME>Untitled</NAME>

<VARIABLE TYPE="nature">
	<NAME>Huellas</NAME>
	<OUTCOME>T</OUTCOME>
	<OUTCOME>F</OUTCOME>
	<PROPERTY>position = (7060.533203125, 5059.31005859375)</PROPERTY>
</VARIABLE>

<VARIABLE TYPE="nature">
	<NAME>Motivo</NAME>
	<OUTCOME>T</OUTCOME>
	<OUTCOME>F</OUTCOME>
	<PROPERTY>position = (7539.93115234375, 5048.16162109375)</PROPERTY>
</VARIABLE>

<VARIABLE TYPE="nature">
	<NAME>No-Coartada</NAME>
	<OUTCOME>T</OUTCOME>
	<OUTCOME>F</OUTCOME>
	<PROPERTY>position = (7759.7138671875, 5098.2626953125)</PROPERTY>
</VARIABLE>

<VARIABLE TYPE="nature">
	<NAME>Culpable</NAME>
	<OUTCOME>T</OUTCOME>
	<OUTCOME>F</OUTCOME>
	<PROPERTY>position = (7532.4970703125, 5390.0556640625)</PROPERTY>
</VARIABLE>

<VARIABLE TYPE="nature">
	<NAME>Propiedad-Arma</NAME>
	<OUTCOME>T</OUTCOME>
	<OUTCOME>F</OUTCOME>
	<PROPERTY>position = (7246.88037109375, 5375.49755859375)</PROPERTY>
</VARIABLE>

<VARIABLE TYPE="nature">
	<NAME>Coartada-No-Confirmada</NAME>
	<OUTCOME>T</OUTCOME>
	<OUTCOME>F</OUTCOME>
	<PROPERTY>position = (7915.466796875, 5194.79833984375)</PROPERTY>
</VARIABLE>

<VARIABLE TYPE="nature">
	<NAME>Cámara</NAME>
	<OUTCOME>T</OUTCOME>
	<OUTCOME>F</OUTCOME>
	<PROPERTY>position = (7927.56005859375, 5397.412109375)</PROPERTY>
</VARIABLE>

<VARIABLE TYPE="nature">
	<NAME>Testigo</NAME>
	<OUTCOME>T</OUTCOME>
	<OUTCOME>F</OUTCOME>
	<PROPERTY>position = (7667.23291015625, 5388.5048828125)</PROPERTY>
</VARIABLE>

<DEFINITION>
	<FOR>Huellas</FOR>
	<TABLE>0.9 0.1</TABLE>
</DEFINITION>

<DEFINITION>
	<FOR>Motivo</FOR>
	<TABLE>0.5 0.5</TABLE>
</DEFINITION>

<DEFINITION>
	<FOR>No-Coartada</FOR>
	<GIVEN>Coartada-No-Confirmada</GIVEN>
	<GIVEN>Cámara</GIVEN>
	<GIVEN>Testigo</GIVEN>
	<TABLE>0.3 0.7 0.3 0.7 0.3 0.7 0.3 0.7 0.3 0.7 0.3 0.7 0.3 0.7 0.3 0.7</TABLE>
</DEFINITION>

<DEFINITION>
	<FOR>Culpable</FOR>
	<GIVEN>Huellas</GIVEN>
	<GIVEN>Motivo</GIVEN>
	<GIVEN>No-Coartada</GIVEN>
	<GIVEN>Propiedad-Arma</GIVEN>
	<TABLE>0.9 0.1 0.9 0.1 0.9 0.1 0.9 0.1 0.5 0.5 0.32 0.68 0.3 0.7 0.55 0.45 0.8 0.2 0.8 0.2 0.8 0.2 0.8 0.2 0.2 0.8 0.6 0.4 0.15 0.85 0.05 0.95</TABLE>
</DEFINITION>

<DEFINITION>
	<FOR>Propiedad-Arma</FOR>
	<TABLE>0.8 0.2</TABLE>
</DEFINITION>

<DEFINITION>
	<FOR>Coartada-No-Confirmada</FOR>
	<TABLE>0.3 0.7</TABLE>
</DEFINITION>

<DEFINITION>
	<FOR>Cámara</FOR>
	<TABLE>0.2 0.8</TABLE>
</DEFINITION>

<DEFINITION>
	<FOR>Testigo</FOR>
	<TABLE>0.4 0.6</TABLE>
</DEFINITION>
</NETWORK>
</BIF>
