
\data\
ngram 1=6906
ngram 2=22505
ngram 3=1901

\1-grams:
-3.644648	#	-0.3212919
-4.547738	#100%escrutat	-0.08126462
-4.246708	#1714	-0.08058731
-4.547738	#25STv3	-0.05388923
-3.848768	#272S2015	-0.1318206
-4.547738	#27Rac1	-0.05388923
-1.429804	#27S	-0.3688632
-4.246708	#27S15	-0.04882714
-2.330254	#27S2015	-0.4677441
-4.246708	#27S8aldia	-0.05308904
-4.547738	#27SAD	-0.05388923
-4.070617	#27SCamp	-0.0767995
-3.246708	#27SCatRadio	-0.310441
-4.246708	#27SEbre	-0.08093226
-4.547738	#27SOlesa	-0.08127692
-4.246708	#27SPallars	-0.2507363
-3.945678	#27SRAC1	-0.1403752
-4.547738	#27SRac1	-0.08120308
-4.547738	#27SReus	-0.06486332
-4.547738	#27STV	-0.06486332
-1.963407	#27STV3	-0.3615116
-3.769587	#27SVOr	-0.5548152
-4.547738	#27Scatradio	-0.07656321
-4.070617	#27Sdesdedins	-0.509279
-2.502415	#27Srac1	-0.4178098
-4.547738	#27Srac1Si	-0.07844988
-3.945678	#27Stv3	-0.07906872
-4.547738	#27km	-0.08127692
-4.246708	#27rac1	-0.2779148
-2.046679	#27s	-0.3533964
-3.205315	#27s2015	-0.1909537
-4.246708	#27s2015VotaIndependencia	-0.05383682
-4.547738	#27s7aldia	-0.08120308
-3.468557	#27s8aldia	-0.1942181
-4.547738	#27sCatRadio	-0.0812277
-4.070617	#27sEPA	-0.4838893
-4.547738	#27sPallars	-0.0812277
-3.506345	#27sRAC1	-0.1447333
-4.246708	#27sRac1	-0.04882714
-3.70264	#27sTV3	-0.1966034
-3.945678	#27scatradio	-0.07595326
-4.547738	#27sep75	-0.08130153
-4.547738	#27sept	-0.05388923
-4.547738	#27september	-0.08130153
-4.547738	#27snd	-0.05388923
-2.924489	#27srac1	-0.5957206
-4.547738	#27sresultats	-0.08130153
-4.547738	#27srtve	-0.05388923
-3.070616	#27stv3	-0.2406545
-4.070617	#28S	-0.05381059
-4.547738	#2bg3	-0.06486332
-4.547738	#3d9f	-0.08130153
-4.547738	#8aldia	-0.08116616
-4.070617	#9N	-0.04207883
-4.547738	#AD27s	-0.08115385
-4.547738	#AGAINSTuit	-0.08130153
-4.070617	#ANC	-0.05240572
-4.547738	#Acudit	-0.08125231
-4.547738	#AdeuBorbons	-0.08130153
-4.246708	#AdeuEspanya	-0.07738344
-4.547738	#AdeuTribunalConstitucional	-0.08130153
-4.547738	#AdiosPapa	-0.05388923
-4.547738	#Albiol	-0.08096918
-4.547738	#AlbiolPresident	-0.08101844
-4.547738	#Alcoi	-0.08006935
-4.547738	#Alpens	-0.07739584
-4.547738	#AltEmporda	-0.08006935
-4.547738	#AltaSegarra	-0.07927892
-4.547738	#AmFAVORta	-0.08058729
-4.547738	#Anaconda	-0.08130153
-4.547738	#AnemBe	-0.07739584
-4.246708	#ApoderadosCs	-0.05387614
-4.246708	#AraEsLHora	-0.08095688
-4.547738	#Arbucies	-0.08130153
-4.547738	#Argelaguer	-0.08074748
-4.547738	#ArturMas	-0.08094456
-4.547738	#Asco	-0.08120308
-4.246708	#AvuiEsElDia	-0.05341717
-4.547738	#BCN	-0.07904398
-3.506345	#Badalona	-0.1957696
-4.547738	#Bages	-0.05388923
-4.547738	#Barbera	-0.08103075
-3.769587	#Barcelona	-0.3015767
-4.547738	#Barcelones	-0.07373026
-4.547738	#Barceloneta	-0.08130153
-4.547738	#Bcn	-0.08109231
-4.547738	#Bellver	-0.06770372
-4.547738	#BernatiGerard	-0.08130153
-4.547738	#Bonanit	-0.08130153
-4.547738	#Breda	-0.08121539
-4.547738	#CAT	-0.07373026
-4.547738	#CSQEP	-0.08126462
-3.371647	#CUP	-0.05477295
-4.547738	#CadenaSer	-0.07097952
-4.547738	#Calaf	-0.08130153
-4.246708	#Calella	-0.08111694
-4.547738	#Camarasa	-0.08128922
-4.547738	#Campdevanol	-0.0802914
-4.547738	#Capmany	-0.08130153
-4.547738	#Cardedeu	-0.07097952
-4.547738	#CartagenaSiSi	-0.05388923
-4.547738	#Castelldefels	-0.08130153
-4.547738	#CatParlaCtxt	-0.07656321
-3.40161	#CatSiQueEsPot27S	-0.6310493
-4.547738	#Catalans	-0.08130153
-4.070617	#Catalonia	-0.05384991
-4.547738	#CataloniaIsNotSpain	-0.05388923
-4.547738	#CataloniaSaysYES	-0.05388923
-4.246708	#CataloniaVotes	-0.05387614
-4.547738	#CataloniaisnotSpain	-0.05388923
-3.769587	#Cataluna	-0.03619431
-4.547738	#CatalunaEsEspana	-0.05388923
-2.924489	#Catalunya	-0.1575666
-4.547738	#CatalunyaIndependent	-0.08130153
-4.547738	#CatalunyaIsNotSpain	-0.05388923
-4.547738	#CatalunyaLliure	-0.08087067
-3.945678	#CatalunyaSiQueEsPot	-0.1408608
-4.547738	#CatalunyaestimaEspanya	-0.05388923
-4.547738	#Cerdanya	-0.08099381
-4.547738	#Champions	-0.08128922
-4.547738	#Ciudadanos	-0.08121539
-4.547738	#Ciutatans	-0.07844988
-4.547738	#Clot	-0.07994594
-4.547738	#Comencemd9	-0.06486332
-4.547738	#Congres	-0.0812277
-4.547738	#CridaConstituent	-0.07995828
-4.547738	#Cs	-0.07378034
-4.070617	#Cup	-0.03202445
-3.945678	#DUI	-0.3304445
-4.547738	#DUIja	-0.07992125
-4.547738	#DeGranVullViureEnUnPaisLliure	-0.05388923
-4.547738	#Demagogia	-0.05388923
-4.547738	#Democracia	-0.05388923
-4.547738	#DiaDeLaIllusio	-0.05388923
-4.547738	#DiaDeLaResistenciaAntifranquista	-0.08127692
-4.547738	#DiaDeReis	-0.06486332
-4.547738	#Disidentes	-0.05388923
-4.547738	#Duran	-0.07373026
-4.547738	#DuranalPalace	-0.05388923
-4.547738	#ESP	-0.08073516
-4.246708	#ElMonEnsMira	-0.07268981
-4.547738	#ElVoTDeLaMevaVida	-0.08128922
-4.070617	#ElVotDeLaMevaVida	-0.1969112
-4.547738	#ElVotDeLaNostraVida	-0.05388923
-4.547738	#ElVotdeLaMevaVida	-0.08022973
-4.547738	#ElVotdelaTevaVida	-0.0809815
-4.246708	#Elecciones27S	-0.05378438
-4.070617	#EleccionesCatalanas	-0.05276065
-4.070617	#Eleccions	-0.08095688
-3.70264	#Eleccions2015	-0.227659
-3.116374	#Eleccions27S	-0.3875426
-4.547738	#Eleccions27s	-0.05388923
-4.070617	#EleccionsCatalanes	-0.05377126
-4.547738	#EleccionsCatalanes2015	-0.05388923
-4.547738	#EleccionsCatalunya	-0.05388923
-4.547738	#EnquestesCasolanes	-0.07739584
-4.547738	#EsPodenFerFotosAlsCollegisElectorals	-0.05388923
-4.547738	#EscolaCavallBernat	-0.05388923
-4.547738	#Escrivim	-0.08127692
-4.547738	#Espana	-0.08119078
-4.547738	#Esplugues	-0.05388923
-4.547738	#FMMolins	-0.05388923
-4.547738	#FelizDomingo	-0.05388923
-4.547738	#FemHisto	-0.05388923
-3.70264	#FemHistoria	-0.0832102
-4.547738	#FentPais	-0.05388923
-3.644648	#Fetsinoparaules	-0.248932
-4.547738	#Fonollosa	-0.07994594
-4.547738	#FortPienc	-0.05388923
-4.547738	#FotemElCamp	-0.08073516
-4.547738	#Freedom	-0.05388923
-4.547738	#FreedomForCatalonia	-0.05388923
-4.547738	#Freedomforcatalonia	-0.08128922
-4.547738	#Futur	-0.06770372
-4.547738	#GanesDeCelebrarHo	-0.08128922
-3.945678	#Garrotxa	-0.1411624
-4.547738	#GavetdelaConca	-0.08130153
-4.246708	#Gelida	-0.06357073
-4.246708	#Girona	-0.07987189
-4.547738	#Girones	-0.08112924
-4.547738	#Gorvernemnos	-0.07672489
-4.547738	#Govermemnos	-0.05388923
-2.904285	#Governemnos	-0.4884908
-4.547738	#GovernemnosTot	-0.0808953
-4.547738	#Graciespervenir	-0.06486332
-4.246708	#Gramenet	-0.0638398
-3.769587	#Granollers	-0.05996701
-3.468557	#Guanyarem	-0.5972268
-3.945678	#GuanyaremJunts	-0.1233271
-4.246708	#GuanyaremPerTu	-0.03634446
-2.603255	#GuanyemJunts	-0.454772
-4.547738	#Guanyemjunts	-0.05388923
-4.547738	#HaArribatElDia	-0.07739584
-4.547738	#HemVotatHemGuanyat	-0.08022973
-4.547738	#HipocresiaAmbMajuscules	-0.07656321
-4.547738	#HistoriadeCatalunya	-0.08126462
-4.246708	#Histories27S	-0.05386303
-4.547738	#HolaEuropa	-0.08130153
-4.547738	#HolaJusticiaSocial	-0.05388923
-4.547738	#HolaRepublica	-0.08130153
-4.547738	#HoraDelCanvi	-0.05388923
-4.246708	#IIIRepublica27s	-0.05176086
-4.547738	#IMAGINA	-0.07994594
-4.547738	#INDEPENDENCIA	-0.06486332
-4.547738	#Iceta27S	-0.05388923
-4.547738	#Ilargietaizargorria	-0.08006935
-4.547738	#Independecia	-0.07995828
-2.991435	#Independencia	-0.3721902
-4.547738	#IndependenciaJa	-0.05388923
-4.547738	#InesPresidenta	-0.08127692
-4.547738	#Isona	-0.08116616
-4.547738	#JoCUP	-0.06486332
-4.547738	#JuntosLoPetamos	-0.07927892
-3.268984	#JuntsGuanyem	-0.2675935
-4.547738	#JuntsPel3Percent	-0.07992125
-4.246708	#JuntsPelSI	-0.03634446
-2.506345	#JuntsPelSi	-0.2848848
-4.547738	#JuntsPelSiel	-0.07378034
-4.547738	#JuntsiMillor	-0.08130153
-3.769587	#JuntspelSi	-0.1081154
-4.547738	#Juntspelsi	-0.08073516
-3.945678	#Juntsperguanyar	-0.3824285
-4.246708	#JxSi	-0.2779763
-3.644648	#L6cat	-0.1182163
-4.547738	#LLEIDA	-0.05388923
-4.547738	#LaDada	-0.05388923
-4.547738	#LaRapita	-0.0760529
-4.547738	#LaSonrisaPolitica	-0.05388923
-4.547738	#Lapedaladadelatevavida	-0.05388923
-4.547738	#LavostraMerda	-0.05388923
-4.547738	#LesBorges	-0.07124405
-4.547738	#LesBorgesDelCamp	-0.08130153
-4.547738	#Lleida	-0.05388923
-4.246708	#Llibertat	-0.05387614
-4.547738	#LlicadAmunt	-0.08127692
-4.547738	#Lloret	-0.08130153
-4.547738	#Llotetdemar	-0.07927892
-4.547738	#Llucanes	-0.08127692
-4.547738	#Madrid	-0.07656321
-4.246708	#Manresa	-0.06081917
-4.547738	#MarcaEspana	-0.05388923
-4.547738	#Maresme	-0.08079676
-4.547738	#Martorell	-0.08022973
-4.547738	#MarxemCagantLlets	-0.08130153
-4.547738	#MarxemJa	-0.05388923
-4.547738	#MarxemQueJaFemTard	-0.05388923
-4.070617	#Mas	-0.05116777
-3.593495	#Mataro	-0.02287345
-4.246708	#MejorUnidos	-0.05387614
-4.547738	#Menorca	-0.08127692
-4.547738	#Messi	-0.06486332
-4.547738	#MesticVotantASobre	-0.0812277
-4.547738	#Moianes	-0.06486332
-4.547738	#Montblanc	-0.08114155
-4.547738	#Montcau	-0.07739584
-4.547738	#NO	-0.08120308
-4.547738	#Nervis	-0.06486332
-4.547738	#NitElteuVot	-0.08128922
-4.547738	#NoSonUnesEleccionsQualsevol	-0.05388923
-4.246708	#NoTenimPor	-0.0812154
-4.547738	#NoTincPor	-0.08130153
-4.070617	#NouPais	-0.2013596
-4.070617	#Olesa	-0.04958227
-4.547738	#OmplimLesUrnes	-0.05388923
-4.547738	#OmplimLlefia	-0.08073516
-4.547738	#PANZERISCOMING	-0.0799953
-4.547738	#PASDEGEGANT	-0.06486332
-4.547738	#PEROESTOQUEES	-0.06486332
-3.945678	#PP	-0.03899737
-4.547738	#PP12	-0.07927892
-4.547738	#PSC	-0.0812277
-4.547738	#Pais	-0.08126462
-4.547738	#PaisValencia	-0.08130153
-4.547738	#PaisosCatalans	-0.05388923
-4.547738	#Palace	-0.06486332
-4.547738	#Palestina	-0.07373026
-3.945678	#PerCatalunya	-0.1236957
-4.547738	#PerTots	-0.05388923
-4.070617	#PlantemCara	-0.1637559
-4.547738	#PlantemCarabasses	-0.05388923
-4.547738	#Plebiscit	-0.05388923
-4.547738	#Plebiscitaries27S	-0.05388923
-4.547738	#PobleSec	-0.05388923
-4.547738	#Podemos	-0.05388923
-4.547738	#QueNinguEsQuediACasa	-0.08126462
-4.547738	#QueNoVotinPerTu	-0.05388923
-4.246708	#Rajoy	-0.07364262
-4.547738	#Republica	-0.08124001
-3.70264	#RepublicaCatalana	-0.1840908
-4.547738	#Reus	-0.07097952
-4.547738	#Riudoms	-0.08059961
-4.547738	#Rubicity	-0.07124405
-4.547738	#Rupia	-0.07994594
-4.547738	#SALT	-0.06486332
-4.070617	#SI	-0.1747462
-4.547738	#SQV	-0.07124405
-4.246708	#SantAndreu	-0.2617104
-4.547738	#SantBoi	-0.05388923
-4.547738	#SantJuliadeVilatorta	-0.08130153
-4.547738	#SantPereTorello	-0.07097952
-4.547738	#SantSadurni	-0.08128922
-4.547738	#SantaColoma	-0.06770372
-4.547738	#Santcugat	-0.08130153
-4.547738	#Santllu	-0.05388923
-4.547738	#Sants	-0.08125231
-4.547738	#SelfService	-0.06486332
-4.547738	#SelvadelCamp	-0.05388923
-3.945678	#Si	-0.03425153
-4.070617	#SiQueEsPot	-0.0538368
-4.547738	#Sitges	-0.08127692
-4.246708	#SobiraniaConstituent	-0.2780748
-3.945678	#SomElVent	-0.3303527
-3.116374	#SomLaHistoria	-0.2999895
-4.547738	#SomLaRehostia	-0.06486332
-4.547738	#SomLaTramuntana	-0.05388923
-4.547738	#Somhi	-0.05388923
-3.945678	#SomriureCUP	-0.1507562
-4.547738	#Spain	-0.05388923
-4.547738	#Sudanell	-0.07748275
-4.246708	#TV3	-0.05387614
-4.547738	#Taiwan	-0.08106768
-4.547738	#Taquicardia	-0.05388923
-4.547738	#Taradell	-0.0808953
-4.547738	#Taradell27S	-0.06486332
-3.945678	#Tarragona	-0.1410313
-4.547738	#TerraAlta	-0.07124405
-4.547738	#Terrassa	-0.07895739
-4.547738	#Tgn	-0.0760529
-4.547738	#TheNewYorkTimes	-0.08120308
-4.246708	#Tortosa	-0.06344254
-4.547738	#TotComenca27S	-0.05388923
-4.246708	#Tremp	-0.0779294
-4.547738	#Trempat	-0.08127692
-4.547738	#Txiqui	-0.05388923
-4.246708	#Ulldecona	-0.07371775
-4.547738	#UnaNacioUnOrgull	-0.05388923
-4.246708	#Unio	-0.08128924
-4.547738	#UnionstesRates	-0.08104306
-4.547738	#UnitatPopular	-0.08077212
-4.547738	#VERGONYA	-0.06486332
-4.547738	#VallDeCardos	-0.07994594
-4.547738	#Vilaplana	-0.07672489
-4.547738	#Vilaplana27S2015	-0.05388923
-4.246708	#VimbodiiPoblet	-0.06473552
-4.070617	#ViscaCatalunya	-0.1745234
-3.769587	#ViscaCatalunyaLliure	-0.1982391
-4.547738	#ViscaQueterunya	-0.05388923
-4.547738	#Visionari	-0.05388923
-4.547738	#VivaEspana	-0.05388923
-4.547738	#VotaCUPCC	-0.05388923
-3.10058	#VotaPerMi	-0.2019308
-4.547738	#Votar	-0.06486332
-3.644648	#VotarePerTu	-0.03011824
-4.246708	#VotemiGuanyem	-0.2777177
-4.547738	#VotoPerTu	-0.08096918
-4.547738	#Votopertu	-0.06486332
-4.547738	#Votsenseamenaces	-0.05388923
-4.547738	#WhatsApp	-0.07994594
-4.547738	#aFAVORtoflant	-0.06486332
-4.246708	#adeuespanya	-0.08105539
-4.547738	#afondu	-0.07739584
-4.547738	#agendapublica	-0.08130153
-4.547738	#aialcor	-0.08130153
-4.547738	#alguhohaviadedir	-0.05388923
-4.547738	#ambdoscollons	-0.07739584
-4.547738	#amor	-0.07927892
-4.246708	#anaconda	-0.06485055
-4.547738	#anavemlents	-0.08128922
-4.070617	#anhel	-0.0812154
-4.070617	#apeudurna	-0.07465581
-4.547738	#apoderades	-0.05388923
-4.547738	#apoderat	-0.08130153
-4.547738	#app	-0.07739584
-4.547738	#ara	-0.08130153
-3.225518	#araeslhora	-0.06541448
-4.246708	#aramateix	-0.07095434
-4.547738	#aramteix	-0.08128922
-4.547738	#aratoca	-0.08126462
-4.547738	#arenys	-0.08130153
-4.547738	#arenysdemar	-0.07739584
-4.547738	#avancem	-0.08094456
-4.547738	#avotar	-0.06486332
-4.547738	#avuieseldia	-0.07739584
-4.547738	#baixllobregat	-0.07672489
-4.070617	#barcelona	-0.07569158
-4.547738	#bbc	-0.08130153
-4.547738	#blablacotxe	-0.06486332
-4.547738	#boardgames	-0.08130153
-4.547738	#bondiaRepublica	-0.05388923
-4.547738	#buenomigsomriure	-0.05388923
-4.246708	#caldesdemontbui	-0.07109293
-4.547738	#camialallibertat	-0.06770372
-4.547738	#caminantcapalaindependencia	-0.08127692
-4.547738	#canviemlahistoria	-0.05388923
-4.547738	#capcalera	-0.06770372
-4.547738	#capgrossos	-0.05388923
-4.547738	#carmeforcadell	-0.08055031
-4.246708	#cat	-0.06479943
-4.547738	#catalans	-0.08128922
-4.547738	#catalansreadytovote	-0.08130153
-4.547738	#catalansvote	-0.05388923
-3.848768	#catalonia	-0.03568894
-4.070617	#cataloniaisnotspain	-0.05350899
-3.945678	#cataluna	-0.3834886
-4.547738	#cataluny	-0.05388923
-3.167526	#catalunya	-0.2881415
-4.547738	#catalunyagrafias	-0.05388923
-4.547738	#catalunyaisnotspain	-0.08105537
-3.506345	#catalunyalliure	-0.3076906
-4.547738	#cerviadeter	-0.05388923
-4.246708	#ciu	-0.2780625
-4.547738	#civisme	-0.08101844
-4.547738	#cnn	-0.05388923
-4.246708	#compol	-0.03634446
-4.547738	#comunacabra	-0.06486332
-4.547738	#concadebarbera	-0.08130153
-4.547738	#confianca	-0.08127692
-4.547738	#conscienciats	-0.08130153
-4.547738	#cordemaria	-0.05388923
-4.547738	#cosesdetv3	-0.07739584
-3.945678	#cup	-0.0493307
-4.246708	#cupcridaconstituent	-0.2507363
-4.547738	#cupnacional	-0.08096918
-4.547738	#curios	-0.08130153
-4.547738	#dades	-0.08130153
-4.547738	#decidim	-0.07739584
-3.945678	#democracia	-0.1410706
-4.547738	#democracy	-0.08111692
-4.547738	#denuncia	-0.08130153
-4.547738	#desobediencia	-0.08116616
-4.547738	#diahistoric	-0.08130153
-4.547738	#dignitat	-0.06486332
-4.547738	#donecperficiam	-0.05388923
-4.246708	#dretadecidir	-0.05383682
-4.547738	#dretataronja	-0.05388923
-4.547738	#dui	-0.05388923
-4.246708	#e15	-0.05382371
-4.547738	#e27S	-0.06486332
-4.547738	#eclipsi	-0.08115385
-4.547738	#elcaloret	-0.06486332
-4.547738	#elcugatenc27s	-0.05388923
-4.547738	#eleccionesA3	-0.05388923
-2.518354	#eleccionescatalanas	-0.4378397
-3.40161	#eleccions	-0.1158254
-3.644648	#eleccions2015	-0.1694033
-4.070617	#eleccions27S	-0.07584113
-3.945678	#eleccions27s	-0.07637659
-4.547738	#eleccions27s2015	-0.05388923
-4.547738	#eleccionsacatalunya	-0.05388923
-4.547738	#eleccionsadictic	-0.05388923
-3.268984	#eleccionscatalanes	-0.4432379
-4.547738	#eleccionscatalunya	-0.05388923
-4.547738	#eleccionsestatals	-0.06770372
-4.547738	#eleccionstv3	-0.07124405
-4.547738	#elfuturdetots	-0.05388923
-4.547738	#ells	-0.08130153
-4.547738	#elmonensmira	-0.08117847
-4.547738	#elportdelaselva	-0.07097952
-3.433794	#elvotdelamevavida	-0.369687
-4.070617	#elvotdelanostravida	-0.07707293
-3.246708	#elvotdelatevavida	-0.3159453
-4.547738	#elvotdelavostravida	-0.08115385
-4.547738	#elvotmesimportantdelatevavida	-0.05388923
-4.547738	#emocio	-0.08128922
-4.246708	#emvotoasobre	-0.08095688
-4.547738	#endavant	-0.08127692
-4.547738	#epicfail	-0.06486332
-4.547738	#erc	-0.08130153
-4.547738	#ereccions	-0.06486332
-4.547738	#escrutini	-0.06486332
-4.246708	#espanyoles	-0.08128924
-4.246708	#esperanca	-0.0812154
-4.547738	#esplugadefrancoli	-0.08130153
-4.547738	#esquerra	-0.05388923
-4.547738	#estapassant	-0.05388923
-4.547738	#estatpropi	-0.05388923
-4.547738	#estelada	-0.08130153
-4.547738	#estemfenthistoria	-0.06486332
-4.547738	#estempsdeservalents	-0.08124001
-4.547738	#etfelicitofill	-0.08116616
-4.547738	#fastig	-0.07656321
-3.547738	#fb	-1.036344
-4.547738	#fcb	-0.08130153
-4.547738	#felicitat	-0.05388923
-4.246708	#femhistoria	-0.07864802
-4.547738	#fempais	-0.08130153
-4.246708	#fenthistoria	-0.07994595
-4.547738	#ferranpresident	-0.05388923
-4.246708	#figueres	-0.05384992
-4.246708	#fotemelcamp	-0.08128924
-4.547738	#fotoshistoriques	-0.08130153
-4.547738	#franquisme	-0.08006935
-4.070617	#freedom	-0.08120309
-4.547738	#freedomcatalonia	-0.08130153
-4.547738	#fuet	-0.08127692
-4.547738	#futur	-0.05388923
-4.547738	#glosaelectoral	-0.06486332
-4.547738	#gobierno	-0.05388923
-4.547738	#governem	-0.05388923
-3.506345	#governemnos	-0.1174479
-4.547738	#gracies	-0.05388923
-4.547738	#graciespresident	-0.05388923
-3.292465	#guanyarem	-0.4270939
-4.246708	#guanyaremjunts	-0.08068589
-4.547738	#guanyem	-0.06486332
-3.433794	#guanyemjunts	-0.3016447
-4.547738	#guixols	-0.08093224
-4.547738	#hedit	-0.06486332
-4.547738	#hemguanyat	-0.05388923
-4.547738	#hevotatpertu	-0.08022973
-4.547738	#historia	-0.07866038
-4.547738	#hooligans	-0.05388923
-3.848768	#hovolemtot	-0.1165664
-4.547738	#i	-0.05388923
-4.547738	#igersbarcelona	-0.08130153
-4.547738	#igerscatalunya	-0.08130153
-4.547738	#igersgirona	-0.05388923
-4.547738	#iggers	-0.05388923
-3.945678	#illusio	-0.06348099
-4.547738	#indepe	-0.08130153
-4.547738	#indepencia	-0.07995828
-2.79955	#independencia	-0.3593847
-4.547738	#independent	-0.08130153
-4.547738	#independentisme	-0.08127692
-4.547738	#indepes	-0.06486332
-4.547738	#inespresidenta	-0.05388923
-4.547738	#info27s	-0.08130153
-4.547738	#ironiadelavida	-0.05388923
-4.547738	#jahemguanyat	-0.05388923
-4.246708	#jahevotat	-0.2507363
-4.547738	#jocbrut	-0.05388923
-4.547738	#jocdetrons	-0.0806982
-4.547738	#johevotat	-0.05388923
-4.547738	#jojahevotat	-0.07994594
-4.547738	#josi	-0.06486332
-4.547738	#jotambehiera	-0.08130153
-4.547738	#jovoto	-0.05388923
-4.547738	#juntespelsi	-0.06486332
-4.547738	#juntsPelSi	-0.08128922
-4.547738	#juntspelSi	-0.05388923
-3.10058	#juntspelsi	-0.1748976
-4.547738	#juntsxsi	-0.08130153
-4.547738	#kaweds	-0.08130153
-4.547738	#laConca	-0.05388923
-4.547738	#laflama	-0.08062426
-4.070617	#laforcadelseny	-0.1572277
-4.547738	#lamentable	-0.0799953
-4.547738	#lanitquetotcomenca	-0.05388923
-4.547738	#lariba	-0.08121539
-4.547738	#lasexta	-0.07097952
-4.547738	#lateva	-0.05388923
-4.547738	#lenemicacasa	-0.06486332
-4.547738	#llavaneres	-0.08130153
-4.547738	#lleida	-0.08039005
-3.644648	#llibertat	-0.08668137
-4.547738	#llicodedemocracia	-0.08073516
-4.547738	#lliure	-0.08087067
-4.070617	#lliures	-0.03620797
-4.547738	#llll	-0.08128922
-4.070617	#lluita	-0.08119078
-4.246708	#locomia	-0.2507363
-4.547738	#madeinSpain	-0.0799953
-4.547738	#madremia	-0.07739584
-4.547738	#mama	-0.07739584
-4.547738	#mamutosapiens	-0.06486332
-4.547738	#maresme	-0.06486332
-4.547738	#marquemelfutur	-0.07739584
-4.070617	#marxem	-0.1747462
-4.547738	#mataro	-0.06486332
-4.547738	#mathsfail	-0.05388923
-4.547738	#matisos	-0.05388923
-4.547738	#mediocres	-0.05388923
-3.945678	#mejorjuntos	-0.3837348
-4.547738	#memoria	-0.05388923
-4.547738	#millorunits	-0.08101844
-4.547738	#mipresidenta	-0.08127692
-4.547738	#modepiconadora	-0.06486332
-4.547738	#motiudefinitiu	-0.05388923
-4.547738	#nature	-0.08130153
-4.246708	#nervis	-0.08127694
-4.547738	#nomorelies	-0.05388923
-4.547738	#nosLasQuitanDeLasManos	-0.06486332
-4.547738	#nouestat	-0.08096918
-4.246708	#noupais	-0.04580671
-4.547738	#novadreta	-0.08130153
-3.70264	#oCUPemLesUrnes	-0.1614197
-4.547738	#ocupemlesurnes	-0.05388923
-4.070617	#oletu	-0.1697103
-4.547738	#olot	-0.08062426
-4.547738	#omplimlesurnes	-0.08127692
-4.547738	#optimisme	-0.08128922
-4.547738	#orgulldepais	-0.05388923
-4.547738	#orgulldepare	-0.08006935
-4.547738	#osona	-0.05388923
-4.547738	#paisoscatalans	-0.08130153
-4.547738	#parchis	-0.08128922
-4.547738	#pareifill	-0.08130153
-4.547738	#paris	-0.08101844
-4.246708	#parlament	-0.07572899
-3.848768	#participacio	-0.1393711
-4.547738	#patetic	-0.08130153
-4.246708	#pelldegallina	-0.06432628
-4.547738	#pensemhi	-0.06486332
-4.547738	#penseuhi	-0.07656321
-4.547738	#pepcuuu	-0.05388923
-4.547738	#perunfuturmillor	-0.08130153
-4.547738	#pervosaltreshevotat	-0.05388923
-4.246708	#piticollons	-0.2617104
-4.547738	#plantegemobjectius	-0.07739584
-4.547738	#plantemcara	-0.05388923
-4.547738	#plebiscitaries	-0.08062426
-4.547738	#pleguem	-0.06486332
-4.246708	#poble	-0.2780625
-4.547738	#poblenou	-0.08105537
-4.547738	#potserhistoric	-0.05388923
-4.547738	#pregunteselperiodico	-0.05388923
-4.547738	#presidemesa	-0.06486332
-4.246708	#presidentMas	-0.06769104
-4.547738	#presidentperundia	-0.05388923
-4.547738	#procesconstituent	-0.08096918
-4.547738	#psoe	-0.05388923
-4.547738	#queSHanCregut	-0.05388923
-4.547738	#quinpais	-0.06486332
-4.547738	#referendum	-0.08062426
-4.547738	#renfe	-0.05388923
-4.070617	#republicacatalana	-0.0684648
-4.547738	#revolta	-0.08126462
-3.945678	#revolucio	-0.08103076
-4.547738	#ruptura	-0.08120308
-4.547738	#sabadell	-0.07748275
-3.644648	#santsadurni	-0.4930282
-4.547738	#seguirem	-0.08130153
-4.547738	#seny	-0.06486332
-4.547738	#senyera	-0.08105537
-4.547738	#sfc182	-0.07739584
-4.070617	#si	-0.06976821
-4.547738	#sinovotemnoensqueixem	-0.08104306
-3.769587	#sobiranisme	-0.2283923
-4.246708	#sobiranista	-0.07600309
-4.547738	#somlahistoria	-0.05388923
-2.543417	#somriureCUP	-0.4038117
-4.547738	#somriurecup	-0.06770372
-4.547738	#sondeig	-0.07656321
-4.547738	#sondeigtv3	-0.05388923
-4.547738	#spiegelonline	-0.05388923
-4.547738	#tabe	-0.05388923
-4.547738	#taxista	-0.08128922
-4.547738	#teletres	-0.08130153
-4.547738	#temaserio	-0.07656321
-4.547738	#tenimmemoria	-0.05388923
-3.945678	#tenimpressa	-0.3301691
-4.547738	#terrassa	-0.08130153
-4.547738	#thepointofnoreturn	-0.05388923
-4.547738	#todayistheday	-0.08096918
-4.547738	#torello	-0.07748275
-4.547738	#total	-0.07097952
-4.070617	#totsavotar	-0.1698827
-4.547738	#traidors	-0.08121539
-4.547738	#transparencia	-0.06770372
-4.547738	#trobadesquevalenunmon	-0.08130153
-4.547738	#truestory	-0.07739584
-4.246708	#tv3	-0.06906006
-4.547738	#tweetSerios	-0.07739584
-4.547738	#unionista	-0.08063658
-4.547738	#unionistes	-0.08127692
-4.547738	#unpaisunsentiment	-0.05388923
-4.547738	#urnes	-0.06486332
-4.547738	#usFelicitoFills	-0.05388923
-4.547738	#usfelicitofills	-0.08094456
-4.547738	#vaaa	-0.08130153
-4.246708	#vergonya	-0.06344254
-4.246708	#viladecans	-0.276126
-4.547738	#vilafranca	-0.06486332
-4.547738	#vilamajor	-0.07904398
-4.547738	#villarato	-0.06486332
-4.070617	#viscacatalunya	-0.08127692
-4.547738	#viscalaterralliure	-0.05388923
-4.070617	#vot	-0.07884604
-4.547738	#vota	-0.05388923
-4.547738	#votaccesible	-0.08130153
-4.547738	#votajuntsxsi	-0.06486332
-4.547738	#votaperm	-0.05388923
-4.070617	#votapermi	-0.08005701
-4.246708	#votar	-0.07738344
-4.547738	#votem	-0.05388923
-4.547738	#votexterior	-0.07739584
-4.246708	#votopertu	-0.08061195
-4.547738	#votperlaindependencia	-0.07739584
-4.547738	#vullindependencia	-0.05388923
-4.547738	#vullvotar	-0.08104306
-3.042588	%	-0.7095576
-4.070617	&gt	-0.08127692
-4.547738	&gt&gt	-0.08130153
-4.547738	&gtParticipacio	-0.08130153
-4.547738	'	-0.0803284
-4.246708	''	-0.08128924
-4.547738	'''	-0.07739584
-4.547738	''fractura	-0.08130153
-4.547738	'Catalunya	-0.0760529
-4.547738	'El	-0.08130153
-4.547738	'Memoria	-0.0812277
-4.547738	'meme'	-0.08130153
-4.547738	'oju'	-0.07378034
-4.547738	'presidenta'	-0.08125231
-4.547738	'si	-0.08130153
-4.246708	--&gt	-0.07745793
-3.08534	0	-0.9436298
-4.547738	002%	-0.08040238
-4.547738	009%	-0.07994594
-4.547738	01	-0.06486332
-4.246708	011%	-0.07951374
-4.246708	02	-0.278124
-4.246708	02%	-0.06629223
-4.547738	028	-0.07994594
-3.848768	03	-0.252973
-4.547738	036%	-0.07943959
-4.547738	03M	-0.08130153
-4.547738	042%	-0.05388923
-4.547738	05%	-0.07994594
-4.547738	050%	-0.07943959
-4.547738	069	-0.07994594
-4.547738	07%	-0.07994594
-4.547738	085%	-0.08127692
-4.547738	09	-0.08119078
-4.547738	09%	-0.07994594
-4.547738	0900	-0.08104306
-4.547738	095	-0.07994594
-4.547738	095%	-0.06486332
-3.016259	1	-0.1106622
-2.570014	10	-0.4203643
-4.547738	10%	-0.07817732
-4.547738	10'5%	-0.07994594
-3.644648	100	-0.2066481
-3.371647	100%	-0.2617502
-4.246708	1000	-0.08124002
-4.070617	100000	-0.2003104
-4.547738	10000km	-0.08130153
-4.547738	1001	-0.07672489
-4.547738	1001%	-0.08040238
-4.547738	1007	-0.06770372
-4.547738	1009	-0.06486332
-4.547738	102	-0.08078444
-4.246708	103	-0.08055033
-4.547738	1045h	-0.07904398
-4.547738	105	-0.08127692
-4.547738	1056	-0.08130153
-4.547738	1056483	-0.08130153
-4.547738	107	-0.08078444
-4.547738	1087	-0.07927892
-4.547738	109%	-0.08009402
-4.547738	10M	-0.06770372
-2.840168	11	-0.4941033
-4.547738	11%	-0.07927892
-4.547738	1110	-0.07817732
-3.769587	1113	-0.1190631
-4.547738	112	-0.08104306
-4.547738	1142%	-0.07656321
-4.547738	1143	-0.07381789
-4.547738	1171	-0.08014338
-4.547738	118	-0.08130153
-4.547738	119%	-0.08130153
-4.246708	1191%	-0.07985955
-4.246708	11S	-0.05387614
-3.167526	12	-0.127453
-4.246708	12%	-0.07960021
-4.547738	12000	-0.07943959
-4.246708	121	-0.0812154
-3.848768	1214	-0.2263822
-4.547738	1262%	-0.07927892
-4.547738	127	-0.08127692
-4.547738	12781	-0.08130153
-4.547738	128	-0.08039005
-4.547738	128%	-0.08039005
-4.246708	12h	-0.07096694
-3.644648	13	-0.1066337
-4.246708	13%	-0.07922948
-4.547738	130	-0.08128922
-4.070617	1300	-0.05293144
-4.547738	1309%	-0.08009402
-4.547738	131%	-0.07994594
-4.547738	1314	-0.0812277
-4.547738	1330h	-0.08127692
-4.547738	1335h	-0.08116616
-4.547738	1349%	-0.08009402
-4.547738	1351%	-0.08009402
-4.547738	1354%	-0.08009402
-4.547738	1357%	-0.08009402
-4.547738	136	-0.07927892
-4.547738	1369%	-0.08009402
-4.547738	1373%	-0.08009402
-3.371647	13h	-0.1263985
-3.70264	14	-0.09725651
-4.547738	14%	-0.08130153
-4.547738	140	-0.08014338
-4.547738	1400	-0.08130153
-4.547738	1400h	-0.0803284
-4.547738	141	-0.08039005
-4.547738	14129	-0.08014338
-3.945678	1416	-0.07963727
-4.547738	142%	-0.07994594
-4.547738	1426	-0.08091993
-4.246708	1426%	-0.07985955
-4.547738	145000	-0.07943959
-4.246708	14h	-0.0680337
-3.506345	15	-0.06090944
-4.547738	15%	-0.07994594
-4.547738	150000	-0.07943959
-4.547738	150000o	-0.07943959
-4.547738	1516%	-0.08014338
-4.547738	152	-0.08009402
-4.547738	1525%	-0.08009402
-4.547738	153	-0.08096918
-4.547738	1555	-0.07932836
-4.547738	156	-0.08009402
-4.547738	1567	-0.07943959
-4.547738	1572	-0.07943959
-4.547738	1592%	-0.08014338
-3.246708	16	-0.4965413
-4.246708	1600	-0.08124002
-4.547738	1604%	-0.08014338
-4.547738	161	-0.08104306
-4.246708	163	-0.2780994
-4.547738	164%	-0.07994594
-4.547738	165	-0.07943959
-4.547738	1673%	-0.08014338
-4.547738	16M	-0.08128922
-4.547738	16hextraoficial	-0.07124405
-3.246708	17	-0.4627328
-3.769587	17%	-0.1863212
-4.547738	17'16%	-0.07994594
-4.547738	17'65%	-0.08040238
-4.547738	1705h	-0.05388923
-4.547738	171%	-0.07994594
-4.547738	1714	-0.07682435
-4.547738	1714h#27S	-0.08108
-4.547738	1715%	-0.08014338
-4.070617	1716%	-0.2007428
-4.246708	1719	-0.08128924
-4.547738	1728%	-0.08014338
-4.547738	174	-0.08056264
-4.547738	1740818	-0.07943959
-4.547738	175	-0.08104306
-4.547738	1782%	-0.08014338
-4.246708	1791%	-0.06649597
-4.547738	1798	-0.07943959
-4.547738	17M&gt2015	-0.08130153
-4.547738	17h	-0.07097952
-4.547738	17h46	-0.08073516
-3.225518	18	-0.3631911
-4.070617	18%	-0.07898213
-4.547738	18'44%	-0.06770372
-4.547738	180	-0.07739584
-4.070617	1800	-0.04312801
-4.547738	180000	-0.08087067
-4.547738	1800000	-0.08106768
-4.070617	1800h	-0.05411198
-4.547738	1815	-0.07932836
-4.547738	181800	-0.08126462
-4.547738	1829%	-0.08128922
-4.547738	183	-0.08014338
-4.547738	1847%	-0.08099381
-4.547738	1850	-0.07097952
-4.547738	1861753	-0.07943959
-4.547738	1871	-0.08126462
-4.547738	1887564	-0.07943959
-3.317289	18h	-0.1220636
-3.644648	19	-0.07884603
-4.547738	1900	-0.08114155
-4.246708	190000	-0.2777177
-4.547738	1900000	-0.08087067
-4.547738	1909000	-0.08064891
-4.547738	1915	-0.08112924
-4.547738	1916541	-0.07943959
-3.945678	1921	-0.07918002
-4.547738	193	-0.08074748
-4.547738	1931	-0.0760529
-4.547738	1942	-0.08096918
-4.547738	1944203	-0.07943959
-4.547738	1945	-0.07373026
-3.945678	1975	-0.05272122
-4.070617	1980	-0.185721
-4.246708	1988	-0.07370523
-4.246708	1992	-0.08126463
-4.547738	1997013	-0.08130153
-4.246708	1999	-0.08126463
-4.547738	19MSegur	-0.07378034
-4.547738	1Mes	-0.08120308
-4.547738	1Si	-0.07124405
-3.945678	1a	-0.1682356
-4.547738	1cara	-0.07672489
-4.547738	1de3	-0.08126462
-3.945678	1er	-0.07648857
-4.547738	1gran	-0.08126462
-4.547738	1h	-0.07672489
-4.070617	1r	-0.06903473
-4.547738	1vot	-0.08128922
-3.149798	2	-0.08954538
-4.246708	2%	-0.276793
-3.848768	20	-0.1487331
-3.644648	20%	-0.06857917
-4.246708	2000	-0.08059963
-4.246708	200000	-0.07899451
-4.547738	2001CUP	-0.08130153
-4.246708	2003	-0.08125232
-4.070617	2006	-0.07368018
-4.547738	200mil	-0.08126462
-3.945678	2010	-0.04575329
-4.547738	2011	-0.07866038
-2.848768	2012	-0.06403674
-4.547738	20122015	-0.07672489
-4.547738	2012324cat	-0.08106768
-4.547738	2012socialistescat	-0.08106768
-4.547738	2013	-0.08117847
-4.547738	2014	-0.08040238
-3.292465	2015	-0.08890031
-4.547738	2015CiUamb	-0.08130153
-4.246708	2016	-0.2780379
-4.547738	2019	-0.08130153
-4.547738	202%	-0.0812277
-4.547738	203	-0.08056264
-4.547738	2032%	-0.08056264
-4.246708	205%	-0.07990892
-4.547738	20D	-0.07672489
-3.593495	20h	-0.05198469
-3.945678	21	-0.08005702
-4.547738	21%	-0.07866038
-4.547738	214	-0.07927892
-4.547738	2169%	-0.08014338
-4.547738	2171%	-0.07994594
-4.547738	21Esquerra	-0.08128922
-4.547738	21h	-0.08091993
-3.644648	22	-0.06074176
-4.547738	22%	-0.08039005
-4.547738	222%	-0.07994594
-4.547738	2235%	-0.08014338
-4.547738	22477	-0.08039005
-4.547738	2259%	-0.06486332
-3.371647	23	-0.4059862
-4.547738	230	-0.0812277
-4.547738	2300	-0.08120308
-4.547738	232	-0.08111692
-4.547738	233	-0.08056264
-4.547738	236	-0.08130153
-4.547738	2368	-0.07927892
-4.547738	237	-0.05388923
-3.506345	24	-0.2796612
-4.547738	24'7	-0.08063658
-4.547738	241CSQP	-0.08130153
-4.547738	245%	-0.05388923
-4.547738	2451%	-0.07994594
-4.547738	24906	-0.08130153
-3.029224	25	-0.5212863
-3.848768	25%	-0.07248894
-4.547738	251	-0.08130153
-4.547738	25112012	-0.07877178
-4.547738	2597	-0.08130153
-4.547738	25S	-0.08121539
-4.547738	26%	-0.07373026
-4.547738	268%	-0.08130153
-4.547738	2697	-0.08121539
-3.547738	27	-0.03276807
-4.547738	273	-0.05388923
-4.547738	2743%	-0.08096918
-4.547738	279	-0.08130153
-3.593495	27S	-0.01939681
-4.547738	27Srac1	-0.07656321
-4.547738	27mil	-0.07943959
-4.070617	27s	-0.06375012
-4.547738	27sCatRadio	-0.08130153
-4.547738	27stv3	-0.05388923
-4.246708	28	-0.07856135
-4.547738	2820%	-0.08130153
-4.547738	2827%	-0.07994594
-4.547738	284	-0.0802914
-4.547738	28S	-0.07097952
-4.246708	29	-0.08091994
-4.547738	294	-0.08104306
-4.547738	2943	-0.07373026
-4.547738	297	-0.07927892
-4.547738	2A	-0.08127692
-3.848768	2a	-0.3036544
-4.547738	2de3	-0.08114155
-4.246708	2h	-0.06767835
-4.246708	2n	-0.04899948
-4.246708	2on	-0.08110463
-4.547738	2ona	-0.08095687
-3.08534	3	-0.07102218
-3.468557	3%	-0.02623867
-3.769587	30	-0.07922946
-3.945678	30%	-0.1507177
-3.945678	300	-0.3557385
-4.547738	3000	-0.08127692
-4.547738	300000	-0.07943959
-4.547738	301	-0.08078444
-4.547738	302	-0.08039005
-4.547738	304	-0.08039005
-4.547738	307	-0.08130153
-4.547738	308	-0.07927892
-4.246708	30min	-0.07614008
-4.547738	310mil	-0.07943959
-4.547738	314	-0.06770372
-4.547738	3165%	-0.07739584
-4.246708	32	-0.07969902
-4.547738	32%	-0.07994594
-4.547738	320	-0.08124001
-4.547738	3224%	-0.08121539
-4.547738	324	-0.08130153
-3.468557	324cat	-0.04636714
-4.547738	326%	-0.07994594
-4.547738	3261%	-0.07994594
-4.547738	33%	-0.08104306
-4.547738	33M	-0.08073516
-4.246708	34%	-0.08067357
-4.547738	3421%	-0.08040238
-4.547738	3451%	-0.08039005
-4.246708	3474%	-0.06744975
-4.547738	3478%	-0.06770372
-4.246708	35	-0.07670003
-3.769587	35%	-0.1203963
-4.547738	3507%	-0.06486332
-4.246708	3508%	-0.06485055
-4.547738	3509%	-0.07124405
-4.547738	3540%	-0.06770372
-4.547738	355%	-0.07994594
-4.547738	3562%	-0.07097952
-3.769587	36	-0.07832601
-4.547738	36%	-0.07373026
-4.547738	36'65%	-0.06770372
-4.547738	365	-0.08009402
-4.547738	3653%	-0.07994594
-3.945678	37	-0.06895879
-4.547738	3715%	-0.06770372
-4.547738	3719%	-0.06770372
-4.246708	38%	-0.06750056
-4.547738	3907%	-0.08126462
-4.547738	3912%	-0.05388923
-4.547738	3913%	-0.06486332
-4.547738	392	-0.08039005
-4.547738	3928%	-0.08121539
-4.547738	3943%	-0.08121539
-4.547738	395%	-0.08073516
-4.547738	396%	-0.08130153
-4.547738	3961%	-0.08084603
-4.246708	3969%	-0.276793
-4.246708	3a	-0.08084605
-4.547738	3de3	-0.08031607
-4.547738	3gerardpique	-0.08120308
-4.547738	3h	-0.08130153
-4.547738	3minuts	-0.08125231
-3.246708	4	-0.1086025
-3.644648	40	-0.3470298
-4.547738	40%	-0.07097952
-4.547738	4000	-0.07943959
-4.547738	4014%	-0.08121539
-4.547738	4019000	-0.08040238
-4.547738	4043%	-0.08121539
-4.547738	40436	-0.08130153
-4.547738	40anys	-0.08127692
-4.246708	41	-0.08103076
-4.246708	41%	-0.08122771
-4.547738	4119%	-0.08121539
-4.547738	414	-0.08106768
-4.547738	416%	-0.05388923
-4.547738	4166%	-0.08121539
-4.246708	419	-0.2777301
-4.547738	42	-0.08112924
-4.547738	42000	-0.07672489
-4.547738	4242%	-0.07866038
-4.547738	4266%	-0.05388923
-4.547738	4288%	-0.08121539
-4.547738	43%	-0.08130153
-4.547738	431683%	-0.07927892
-4.547738	433%	-0.08014338
-4.547738	43308	-0.08120308
-4.547738	4364	-0.08056264
-4.246708	438%	-0.07903162
-4.246708	4385%	-0.07985955
-4.246708	44	-0.07904399
-4.246708	44%	-0.06344254
-4.547738	4484%	-0.08039005
-4.070617	45%	-0.07896976
-4.547738	45'9%	-0.06770372
-4.547738	451	-0.08014338
-4.246708	452%	-0.07951374
-4.547738	46	-0.08121539
-4.547738	47	-0.08124001
-3.848768	47%	-0.2713749
-4.547738	47'25%	-0.08040238
-4.547738	4718%	-0.07097952
-4.547738	4738	-0.08127692
-4.547738	474	-0.08058729
-4.547738	475%	-0.08040238
-4.547738	476	-0.08096918
-4.547738	4778%	-0.07656321
-4.547738	4779	-0.08091993
-4.547738	478%	-0.07097952
-4.547738	4782%	-0.08112924
-4.547738	4783%	-0.08130153
-4.547738	4784%	-0.08127692
-4.547738	4785%	-0.0799953
-4.547738	4786%	-0.08128922
-4.070617	4787%	-0.1972225
-3.848768	48%	-0.2807472
-4.547738	48%de	-0.07943959
-4.547738	4802%	-0.0799953
-4.547738	4807%	-0.07994594
-4.547738	484%	-0.08056264
-4.547738	487%	-0.08130153
-4.547738	4875%	-0.0806982
-4.547738	4876	-0.08126462
-4.246708	49%	-0.07096694
-4.547738	4918%	-0.08109231
-4.246708	498%	-0.07530503
-4.547738	4M	-0.07943959
-4.246708	4a	-0.07361757
-3.246708	5	-0.0882519
-4.547738	5%	-0.07994594
-4.547738	50	-0.08091993
-3.468557	50%	-0.2388501
-4.547738	5000	-0.07943959
-4.547738	5026%	-0.08130153
-4.547738	505	-0.07943959
-4.547738	5055	-0.08091993
-4.547738	507	-0.07943959
-4.547738	5079%	-0.08009402
-4.547738	50CiU	-0.08095687
-4.547738	51	-0.08048868
-4.547738	51%	-0.08127692
-4.547738	5135%	-0.06486332
-4.547738	515%	-0.08128922
-3.945678	52	-0.07282784
-4.547738	52%	-0.07994594
-4.547738	521%	-0.07994594
-4.246708	5214%	-0.08079677
-4.547738	5216%	-0.08127692
-4.547738	52escons	-0.08126462
-4.547738	5314736	-0.08087067
-4.547738	536%	-0.08040238
-4.246708	54	-0.08020508
-4.547738	54%	-0.08128922
-4.547738	540	-0.0812277
-4.547738	542%	-0.06770372
-4.547738	5499%	-0.08031607
-4.547738	55	-0.08106768
-4.246708	55%	-0.05387614
-4.547738	5537%	-0.06770372
-4.547738	555	-0.08127692
-3.945678	56	-0.08037773
-4.246708	56%	-0.07884605
-4.547738	57	-0.07672489
-4.547738	570	-0.07943959
-4.547738	571%	-0.07994594
-4.547738	572892	-0.07748275
-4.547738	573%	-0.08040238
-4.547738	576%	-0.06486332
-4.547738	579	-0.07373026
-4.547738	579%	-0.08039005
-4.070617	58	-0.07995828
-4.547738	5842	-0.07927892
-4.547738	589%	-0.08040238
-4.547738	59'12%	-0.06770372
-4.547738	5921	-0.08126462
-4.246708	5a	-0.08083373
-4.547738	5am	-0.07994594
-4.547738	5min	-0.08088298
-3.343618	6	-0.06955362
-4.547738	60	-0.0809815
-3.769587	60%	-0.2183016
-4.547738	6008%	-0.07994594
-4.246708	600km	-0.2645508
-4.070617	61	-0.08055032
-4.246708	61%	-0.08083373
-3.070616	62	-0.3675804
-4.547738	6210	-0.07672489
-4.547738	6251%	-0.08128922
-4.547738	6274%	-0.07097952
-3.132764	63	-0.3840774
-3.70264	63%	-0.1678339
-4.547738	63'15%	-0.07097952
-4.547738	630	-0.06770372
-4.246708	6314%	-0.06318604
-4.547738	636	-0.08130153
-4.547738	636%	-0.07932836
-4.547738	6365	-0.07927892
-3.945678	6366	-0.07964961
-4.547738	637%	-0.08056264
-4.547738	63e	-0.08127692
-3.371647	64	-0.301273
-4.246708	64%	-0.06699219
-4.547738	6420%	-0.08079676
-4.547738	6422%	-0.06486332
-3.848768	65%	-0.05632014
-4.547738	65369	-0.08120308
-4.547738	6588%	-0.08106768
-4.547738	66	-0.08084603
-4.547738	6667%	-0.06486332
-4.547738	66JxS	-0.08101844
-4.070617	67	-0.08008169
-4.547738	67'76%	-0.06770372
-4.547738	670%	-0.08056264
-4.547738	671	-0.08104306
-4.547738	6731%	-0.07994594
-4.547738	6794%	-0.07748275
-3.70264	68	-0.1065689
-4.246708	69	-0.0634169
-4.547738	69%	-0.07817732
-4.547738	6903	-0.08091993
-4.547738	6a	-0.08120308
-3.205315	7	-0.1411504
-4.246708	7%	-0.07983486
-3.945678	70	-0.07814014
-3.547738	70%	-0.1249292
-4.547738	702	-0.07927892
-4.246708	707%	-0.2762867
-4.246708	7078%	-0.276793
-4.547738	708	-0.06486332
-4.547738	7094%	-0.07905634
-3.644648	71	-0.1622955
-4.246708	71%	-0.064467
-4.547738	7140	-0.07672489
-4.547738	715%	-0.06770372
-3.167526	72	-0.3461854
-4.547738	72%	-0.07994594
-4.547738	7263	-0.0760529
-4.547738	73	-0.0809815
-4.547738	73%	-0.08128922
-4.547738	73'52%	-0.07097952
-4.547738	7363%	-0.06770372
-4.246708	74	-0.2773358
-4.070617	743%	-0.07942723
-4.246708	75	-0.08104308
-3.945678	75%	-0.1425236
-4.547738	7533%	-0.07969901
-4.547738	7543%	-0.05388923
-4.246708	755	-0.07931601
-4.547738	76	-0.08091993
-4.246708	76%	-0.06766565
-4.547738	7695%	-0.06770372
-4.547738	77	-0.08091993
-3.70264	77%	-0.2687253
-4.547738	7731%	-0.06770372
-4.547738	7733%	-0.06770372
-4.547738	774%	-0.08130153
-4.547738	776	-0.07943959
-3.945678	78	-0.07884604
-4.246708	78%	-0.07964963
-4.547738	782%	-0.0799953
-4.547738	7839	-0.08091993
-4.547738	784%	-0.0799953
-4.246708	785%	-0.2768424
-4.547738	79	-0.08084603
-4.070617	79%	-0.1977324
-4.547738	796%	-0.06770372
-4.547738	798%	-0.0799953
-4.547738	7a	-0.08120308
-4.547738	7h	-0.08121539
-3.70264	8	-0.06400628
-4.547738	8%	-0.08022973
-4.246708	80	-0.08090763
-3.945678	80%	-0.06459488
-4.547738	80%#GuanyemJunts	-0.08006935
-4.547738	8015%	-0.06770372
-4.547738	802%	-0.0812277
-4.547738	805%	-0.07927892
-4.547738	8080%	-0.07994594
-4.547738	8085%	-0.08127692
-4.547738	81%	-0.06770372
-4.547738	82%	-0.06770372
-4.547738	821%	-0.08130153
-4.547738	822%	-0.0812277
-4.547738	8255%	-0.06770372
-4.547738	826%	-0.0812277
-4.547738	8274%	-0.08130153
-4.547738	828%	-0.07927892
-4.246708	829%	-0.07961257
-4.070617	83	-0.0667505
-4.547738	83%	-0.06770372
-4.547738	833%	-0.07739584
-4.547738	838%	-0.0812277
-4.246708	84%	-0.06560388
-4.547738	841%	-0.0812277
-4.547738	845%	-0.0812277
-4.070617	85	-0.07914291
-4.246708	85%	-0.07983486
-4.547738	8551%	-0.07097952
-4.547738	857%	-0.07943959
-4.547738	858%	-0.07927892
-4.547738	86	-0.08078444
-4.246708	86%	-0.06957865
-4.547738	862%	-0.07927892
-4.547738	8653%	-0.07994594
-4.547738	8660%	-0.06770372
-4.246708	87	-0.08039007
-4.547738	88	-0.08074748
-4.547738	882%	-0.08130153
-4.547738	89%	-0.07927892
-4.547738	89'55%	-0.07994594
-4.547738	896%	-0.07927892
-4.547738	897%	-0.07927892
-4.547738	8TV	-0.08055031
-3.848768	8aldia	-0.2663474
-3.042588	9	-0.1466007
-4.070617	90	-0.05290516
-4.246708	90%	-0.07930365
-4.547738	900	-0.07672489
-4.547738	903	-0.08112924
-4.547738	909%	-0.08126462
-4.547738	91	-0.07943959
-4.547738	91%	-0.07994594
-3.848768	911	-0.2021398
-4.547738	9163%	-0.06770372
-4.547738	917	-0.07994594
-4.547738	9174%	-0.07994594
-4.547738	92	-0.08091993
-4.246708	93	-0.08051335
-4.547738	93%	-0.06486332
-4.246708	94%	-0.07806578
-4.246708	95	-0.08039007
-4.547738	95%	-0.08130153
-4.547738	953%	-0.08130153
-4.547738	956	-0.08128922
-4.547738	96	-0.08103075
-4.547738	96%	-0.07943959
-4.246708	963%	-0.07985955
-4.547738	966%	-0.07994594
-4.547738	966167	-0.08130153
-4.547738	97	-0.08114155
-4.070617	97%	-0.07802858
-4.547738	973%	-0.07994594
-4.547738	9741%	-0.07994594
-4.547738	977%	-0.07943959
-4.547738	9786%	-0.07994594
-4.547738	9822%	-0.06770372
-4.547738	9865%	-0.07994594
-4.246708	99%	-0.07988423
-4.547738	9933	-0.08009402
-3.547738	9N	-0.1114045
-4.547738	9h	-0.08127692
-1.213284	</s>
-99	<s>	-0.7469876
-4.54834	<unk>
-1.987831	A	-0.3385524
-4.547738	A3	-0.0773586
-4.547738	A3Noticias	-0.08099381
-4.547738	ACONSEGUINT	-0.08126462
-4.547738	ACTIVAT	-0.08130153
-4.070617	AFAVORta	-0.511277
-4.547738	AGAINSTar	-0.08128922
-4.547738	AGAINSTaven	-0.07381789
-4.547738	AGAINSTociacions	-0.08111692
-4.547738	AGAINSTociar	-0.07866038
-4.547738	AGAINSTra	-0.06770372
-4.246708	AGAINSTre	-0.07092913
-4.246708	AGAINSTuit	-0.05703637
-4.547738	AGRAIT	-0.08130153
-4.547738	AJUDEU	-0.08095687
-4.547738	AL	-0.08127692
-4.070617	AMB	-0.08127692
-4.547738	AMOR	-0.07682435
-4.547738	AN	-0.08130153
-4.547738	ANA	-0.08130153
-4.547738	ANAC	-0.08130153
-4.547738	ANACO	-0.08130153
-4.547738	ANACON	-0.08130153
-4.547738	ANACOND	-0.08130153
-4.547738	ANACONDA	-0.08124001
-4.246708	ANALISI	-0.08062427
-4.547738	ANCMontgat	-0.08130153
-4.547738	ANEU	-0.07682435
-4.547738	ANTI	-0.08130153
-4.547738	ANTICAPITALISTA	-0.0812277
-4.547738	AQUESTA	-0.08130153
-3.848768	ARA	-0.1440087
-4.547738	ARTUR	-0.08128922
-3.848768	ATENCIO	-0.2868069
-4.547738	AVANT	-0.05388923
-4.246708	AVUI	-0.08125232
-4.547738	Ababs	-0.06770372
-3.769587	Abans	-0.1223376
-4.547738	Abertis	-0.08040238
-4.246708	Acabant	-0.05996703
-4.547738	Acabar	-0.06770372
-4.547738	Acabat	-0.06770372
-4.547738	Acabe	-0.08127692
-4.547738	Acabem	-0.08127692
-4.246708	Acaben	-0.06767835
-3.371647	Acabo	-0.6410871
-4.547738	Acceptaran	-0.07381789
-4.547738	Aclaparadora	-0.08117847
-3.945678	Acompanyant	-0.07051307
-4.547738	Acompanyats	-0.08040238
-4.547738	Aconseguir	-0.07748275
-4.547738	Aconseguirem	-0.0808953
-4.246708	Actualitzacio	-0.07576638
-4.070617	Acusacions	-0.4977038
-4.547738	AdaColau	-0.07866038
-3.468557	Adeu	-0.1565418
-4.547738	Adeusiau	-0.07656321
-4.547738	Adria	-0.06770372
-4.547738	Afluencia	-0.08127692
-4.547738	Agafant	-0.08130153
-4.547738	Agrada	-0.08130153
-4.547738	Aguanteu	-0.08130153
-4.246708	Ah	-0.07898214
-4.547738	Ahhhh	-0.07994594
-3.70264	Ahir	-0.2154659
-3.769587	Ai	-0.1297039
-4.547738	Aii	-0.08124001
-4.547738	Aiii	-0.07378034
-4.547738	Aix	-0.08024207
-4.547738	Aixeca't	-0.07373026
-4.547738	Aixecarse	-0.07866038
-3.343618	Aixi	-0.1102202
-2.87564	Aixo	-0.3935201
-4.547738	AjAlpicat	-0.05388923
-4.547738	Ajuntament	-0.08130153
-4.547738	AjuntamentOlesa	-0.08096918
-2.639253	Al	-0.2064454
-4.547738	AlJazeera	-0.07097952
-4.547738	Ala	-0.08105537
-4.547738	Alba	-0.07817732
-4.547738	AlbaPXaus	-0.05388923
-4.070617	Albert	-0.2021478
-4.547738	AlbertJordana	-0.08128922
-3.593495	AlbertRivera	-0.1823331
-3.343618	Albiol	-0.1099161
-3.167526	AlbiolXG	-0.05570186
-4.547738	Albiooool	-0.08130153
-4.547738	Alcalde	-0.07373026
-4.547738	Alceu	-0.08000765
-4.547738	Alco	-0.07124405
-4.547738	Alegria	-0.07097952
-4.547738	Alemanya	-0.08130153
-4.547738	Alergia	-0.08126462
-3.945678	Alerta	-0.3504607
-4.547738	Aleshores	-0.08096918
-3.225518	Algu	-0.186495
-4.246708	Algun	-0.0812031
-4.070617	Alguna	-0.5111539
-4.547738	Algunes	-0.08130153
-3.848768	Alguns	-0.07962491
-4.246708	AliciaSCamacho	-0.08089531
-4.547738	Alla	-0.0760529
-4.246708	Allau	-0.2645508
-4.547738	Allergia	-0.08126462
-4.246708	Allo	-0.2706274
-4.547738	Alplicacio	-0.08119078
-3.40161	Als	-0.1296074
-4.547738	Alsina	-0.08130153
-4.547738	Alt	-0.07373026
-3.848768	Alta	-0.05557663
-4.547738	Altissima	-0.07969901
-4.547738	Altre	-0.08109231
-4.070617	Altres	-0.08074749
-4.547738	Altres128	-0.08130153
-4.547738	Altres17%	-0.08022973
-4.547738	Altres81	-0.08130153
-4.547738	AmFAVORta	-0.0802914
-2.48704	Amb	-0.4061388
-3.945678	Ambient	-0.06523375
-3.945678	Amics	-0.07903162
-4.547738	Amiguets	-0.07373026
-4.547738	Amipa	-0.08128922
-4.070617	Amunt	-0.06473551
-4.547738	Anaconda	-0.08128922
-3.848768	Analisi	-0.06481221
-4.547738	Analisis	-0.08068588
-4.246708	Analitzem	-0.06357073
-4.547738	Anam	-0.08067355
-3.769587	Anar	-0.483337
-4.547738	Anatomia	-0.06770372
-4.547738	Anava	-0.07097952
-4.547738	Anavem	-0.08126462
-4.547738	Anaven	-0.08126462
-4.547738	Andres	-0.08130153
-4.070617	Andreu	-0.1875319
-4.547738	AndreuAcosta	-0.05388923
-4.547738	AndreuTw	-0.07895739
-4.547738	Anecdotes	-0.07097952
-3.468557	Anem	-0.3404183
-4.070617	Aneu	-0.07092912
-4.547738	AngelesRives	-0.07097952
-4.547738	Anglaterra	-0.07994594
-4.547738	Anima	-0.07373026
-4.547738	Animo	-0.07097952
-3.769587	Anims	-0.1212148
-4.547738	Anire	-0.07097952
-4.070617	AnnaGaSabate	-0.07910582
-4.547738	AnnaPunsoda	-0.08130153
-4.547738	Anticapitalisme	-0.08130153
-4.547738	Antics	-0.08119078
-4.246708	Antoni	-0.06756406
-4.246708	Antonio	-0.278124
-4.547738	AntonioBanos	-0.08096918
-3.945678	Any	-0.1544207
-3.593495	Apa	-0.06699219
-4.547738	Aparteu	-0.07742067
-3.945678	Aplaudiments	-0.04829642
-3.945678	Aplicacio	-0.1640401
-4.246708	Apoderada	-0.2645508
-4.547738	Apoderades	-0.06770372
-4.547738	Apoderat	-0.08130153
-3.644648	Apoderats	-0.3385003
-4.547738	App	-0.07672489
-4.547738	Aprofitan	-0.07124405
-3.945678	Aprofiteu	-0.04848224
-4.547738	Aprofito	-0.07672489
-4.547738	Aproximadament	-0.07905634
-4.547738	Apunt	-0.07905634
-4.547738	Aq	-0.08114155
-4.547738	Aquell	-0.08130153
-4.547738	Aquella	-0.08126462
-4.070617	Aquells	-0.5102421
-2.934954	Aquest	-0.2629607
-3.149798	Aquesta	-0.4034709
-4.246708	Aquestes	-0.277533
-3.70264	Aquests	-0.1644464
-3.371647	Aqui	-0.09006125
-2.440528	Ara	-0.3571556
-3.945678	Araeslhora	-0.341515
-4.547738	Aran	-0.07817732
-4.547738	Arbitre	-0.08130153
-4.547738	Area	-0.08130153
-4.547738	Argumentar	-0.07844988
-4.547738	Arguments	-0.07097952
-4.547738	AriiBrotonss	-0.07672489
-4.547738	Armes	-0.06770372
-4.547738	Arrambades	-0.07895739
-4.547738	Arrasare	-0.07124405
-4.547738	Arrenquem	-0.07381789
-3.848768	Arriba	-0.06957864
-4.547738	Arribar	-0.08126462
-4.547738	Arribara	-0.08071052
-4.246708	Arribat	-0.06330149
-4.547738	Arribem	-0.07895739
-4.547738	Arriben	-0.08115385
-3.371647	Arrimadas	-0.08206557
-4.547738	ArrimadasFAVORem	-0.08090761
-3.769587	Arrimades	-0.04136446
-4.547738	Arros	-0.07817732
-4.246708	Arrufat	-0.0792542
-4.547738	Article	-0.08088298
-3.10058	Artur	-1.225889
-3.769587	ArturMasCat	-0.1112249
-4.070617	Asi	-0.07868514
-4.547738	Assumim	-0.07124405
-4.547738	Atancio	-0.08126462
-3.644648	Atencio	-0.07327928
-4.547738	Atent	-0.08101844
-4.547738	Atentament	-0.07748275
-4.547738	Atents	-0.08101844
-4.547738	Aterrem	-0.08062426
-4.547738	Atraccio	-0.08130153
-4.547738	Atur	-0.08058729
-3.848768	Au	-0.1406294
-4.246708	Audio	-0.2645508
-4.246708	Augment	-0.06752596
-4.246708	August	-0.2645508
-4.547738	Aumenta	-0.08130153
-4.547738	Aurrera	-0.079316
-4.547738	Aut	-0.08115385
-4.547738	Autonomia	-0.08116616
-4.547738	Avanca	-0.08115385
-4.547738	Avenc	-0.06770372
-4.547738	Aventura	-0.06486332
-4.246708	Avi	-0.08108001
-4.547738	Avia	-0.06770372
-4.547738	Aviam	-0.08127692
-4.070617	Aviat	-0.06348099
-4.547738	Aviso	-0.07994594
-4.547738	Avitu	-0.08117847
-2.233871	Avui	-0.4184798
-4.547738	BAIX	-0.08130153
-4.547738	BBC	-0.08105537
-4.246708	BBCNews	-0.0753175
-4.246708	BBCWorld	-0.07508041
-3.945678	BCN	-0.2603281
-4.547738	BEN	-0.08128922
-4.547738	BRINDIS	-0.07672489
-4.547738	BRUTAL	-0.06486332
-4.547738	Bachs	-0.05388923
-4.547738	Badajoz	-0.0812277
-3.70264	Badalona	-0.04373216
-4.246708	Baix	-0.08125232
-4.547738	Balenya	-0.07994594
-4.547738	Ball	-0.06770372
-4.070617	Banos	-0.07635169
-3.945678	Barca	-0.07852419
-4.547738	BarcaLas	-0.08130153
-4.246708	BarcaMadrid	-0.06979349
-4.070617	Barcelo	-0.5112646
-3.246708	Barcelona	-0.06742018
-4.547738	BarcelonaVic	-0.07672489
-4.547738	Barcelones	-0.07656321
-4.547738	Baro	-0.08106768
-4.547738	Barri	-0.08056264
-4.547738	Barris	-0.08106768
-4.547738	Bartomeu	-0.0808953
-4.547738	Baskonia	-0.08120308
-4.547738	Baste	-0.07373026
-4.547738	Batet	-0.07817732
-4.547738	Bayer	-0.08130153
-4.070617	Bcn	-0.06238994
-4.246708	Be	-0.07889555
-4.547738	Benet	-0.08130153
-4.547738	Benvinguts	-0.08104306
-4.547738	Berlin	-0.07373026
-4.547738	Bernat	-0.08112924
-4.547738	Berti	-0.05388923
-4.547738	Besos	-0.05388923
-4.547738	Bestial	-0.06486332
-4.547738	Bingo	-0.06486332
-4.547738	Bisbal	-0.08130153
-3.945678	Blanc	-0.167718
-4.547738	Blanc20	-0.08130153
-4.547738	Blanc23	-0.08022973
-4.547738	Blanc5	-0.08116616
-4.246708	Blancs	-0.08090763
-4.246708	Bloc	-0.08067357
-4.547738	Boi	-0.07932836
-4.547738	Boig	-0.07672489
-4.547738	Boix	-0.08130153
-3.547738	Bon	-0.4846202
-3.848768	Bona	-0.1490906
-4.547738	Bones	-0.08115385
-4.547738	Bons	-0.08061194
-4.547738	Boqueria	-0.08125231
-4.547738	Bordils	-0.08130153
-3.769587	Born	-0.07785497
-4.547738	Braille	-0.07097952
-4.547738	Bravo	-0.0799953
-4.547738	Brillu	-0.08095687
-4.547738	Brutaaaal	-0.07739584
-4.246708	Brutal	-0.06932575
-4.547738	Bye	-0.08127692
-4.547738	C	-0.0812277
-3.644648	C'S	-0.2046848
-2.672677	C's	-0.2963961
-4.547738	C's2570%	-0.08130153
-4.547738	C's2577%	-0.08130153
-4.547738	C's2982215	-0.08130153
-4.547738	C's644	-0.08130153
-4.547738	C's679	-0.08130153
-4.547738	C's713	-0.08130153
-4.547738	C's93%	-0.08128922
-4.547738	C's96%	-0.08128922
-4.547738	C'sPPPSC	-0.08099381
-4.246708	CAGADA	-0.08128924
-4.547738	CALB	-0.06770372
-4.547738	CAMARA	-0.08130153
-4.547738	CAMP	-0.08125231
-4.547738	CANALETES	-0.08094456
-4.547738	CANDIDATS	-0.08130153
-3.70264	CAT	-0.08271765
-4.246708	CATALANS	-0.07962492
-3.945678	CATALUNYA	-0.1403883
-4.547738	CC	-0.08125231
-4.547738	CCOvidiMontllor	-0.08127692
-4.547738	CConstituent	-0.05388923
-3.547738	CDC	-0.07382789
-4.070617	CEIP	-0.5110431
-4.070617	CIU	-0.5111662
-4.246708	CIUERC	-0.08128924
-4.246708	CIUERCCUP	-0.278124
-4.547738	CIUERCLaporta	-0.08130153
-4.547738	COFFEE	-0.05388923
-4.547738	CONVOCA	-0.08126462
-4.246708	COP	-0.05383682
-4.547738	CS	-0.08126462
-3.70264	CSQEE	-0.9019195
-3.10058	CSQEP	-0.1697449
-4.547738	CSQEP1710123	-0.08130153
-4.547738	CSQEP541	-0.08130153
-4.547738	CSQEP591	-0.08130153
-4.547738	CSQEP618	-0.08130153
-4.246708	CSQEP81%	-0.08128924
-4.547738	CSQEPPSC	-0.08130153
-3.10058	CSQP	-0.6566048
-4.547738	CST	-0.07097952
-4.547738	CUNI	-0.08055031
-2.330254	CUP	-0.2000249
-4.547738	CUP#27S	-0.05388923
-4.547738	CUP154%	-0.05388923
-4.547738	CUP3	-0.08127692
-4.547738	CUP65	-0.08130153
-4.547738	CUP663	-0.08130153
-4.547738	CUP689%	-0.05388923
-4.547738	CUP697	-0.08130153
-4.547738	CUP755	-0.08130153
-4.547738	CUP988	-0.08121539
-4.246708	CUP99%	-0.2781363
-4.547738	CUPGirona	-0.07656321
-4.547738	CUPNACIONAL	-0.07373026
-4.246708	CUPTarragona	-0.07671247
-4.547738	CUPamb	-0.08121539
-4.547738	CUPpladurgell	-0.05388923
-4.547738	CUPstap	-0.06486332
-4.547738	Cabanyes	-0.08130153
-4.547738	Cada	-0.0802914
-4.246708	Cadascu	-0.07147067
-4.547738	Caidos	-0.07373026
-4.547738	Caixa	-0.07672489
-3.769587	Cal	-0.07253915
-4.547738	Calaf	-0.08078444
-3.945678	Caldra	-0.08126462
-4.547738	Cambridge	-0.07672489
-4.547738	Caminem	-0.08130153
-4.246708	Camp	-0.08124002
-4.547738	Campeones	-0.08121539
-3.945678	Can	-0.08120309
-4.547738	Canas#27S	-0.05388923
-4.246708	Canigo	-0.05703637
-4.246708	Cantonigros	-0.06997035
-4.547738	Canviem	-0.07124405
-4.246708	Cap	-0.07931601
-4.547738	Cara	-0.07381789
-4.547738	Cardedeu	-0.0760529
-4.547738	Carlus	-0.07378034
-4.547738	Carme	-0.08130153
-4.070617	Carrizosa	-0.196824
-4.547738	Cartagena	-0.08127692
-4.547738	Casal	-0.08130153
-4.547738	Casals	-0.07124405
-4.547738	Casino	-0.08130153
-4.547738	Castellfollit	-0.07817732
-4.547738	Castello	-0.07373026
-3.70264	Cat	-0.2812969
-4.547738	CatEsp	-0.05388923
-4.547738	CatSi	-0.08130153
-3.945678	CatSiqueesPot	-0.1674836
-4.547738	CatSiqueesPot442%	-0.08130153
-4.547738	CatSiqueesPot840%	-0.08130153
-4.547738	CatSiqueespot	-0.08130153
-3.945678	Catala	-0.1617583
-4.246708	Catalana	-0.06477387
-3.468557	Catalans	-0.1399908
-4.547738	Catalnya	-0.08111692
-4.547738	Cataluna	-0.08128922
-2.502415	Catalunya	-0.1605044
-3.848768	CatalunyaPlural	-0.8508875
-4.547738	CatalunyaRadio	-0.08130153
-4.547738	Catalunyales	-0.08130153
-4.547738	Catalunyapero	-0.08117847
-4.547738	Catsi	-0.07378034
-4.547738	Catsiqueespot	-0.08128922
-4.547738	Cava	-0.05388923
-4.547738	Cavall	-0.08130153
-4.547738	Cd's	-0.0808953
-4.547738	CdC34ERC21	-0.08130153
-4.246708	Celebro	-0.2706274
-4.547738	Celra	-0.07124405
-4.547738	Cementiri	-0.08130153
-4.547738	Center	-0.07672489
-4.070617	Centre	-0.06767833
-4.547738	Cerdanyola	-0.08130153
-4.246708	Cero	-0.08128924
-4.547738	Cervello	-0.0808953
-4.070617	Cervia	-0.4977038
-4.246708	Cesar	-0.2781363
-3.945678	Champions	-0.05237942
-4.547738	Chocolatero	-0.07373026
-3.644648	CiU	-0.2450758
-4.547738	CiUERC	-0.08058729
-4.547738	CiUERCCUP	-0.08130153
-4.547738	CiUERCCUPSI	-0.08127692
-4.547738	Citroen	-0.06486332
-4.547738	City	-0.08115385
-4.547738	Ciu	-0.08128922
-4.547738	Ciudadanos5	-0.08130153
-2.967954	CiudadanosCs	-0.08455774
-2.866497	Ciutadans	-0.0383999
-3.225518	CiutadansCs	-0.05097195
-4.547738	Ciutat	-0.08130153
-4.547738	Civil	-0.08128922
-4.547738	Coherencia	-0.07927892
-4.070617	Collegi	-0.08077212
-3.945678	Coloma	-0.3445216
-3.644648	Com	-0.06932574
-4.246708	Comenca	-0.08114156
-4.547738	Compte	-0.08128922
-4.547738	Comunidad	-0.06770372
-4.547738	Con	-0.08128922
-4.547738	Condor	-0.06770372
-4.547738	Conesa	-0.0812277
-4.547738	Conill	-0.07373026
-4.547738	Cono	-0.08130153
-4.547738	Cons	-0.08130153
-4.547738	Constanti	-0.08116616
-4.547738	Construimla	-0.06486332
-4.547738	Content	-0.08121539
-4.547738	Continuen	-0.08099381
-4.547738	Convencut	-0.07378034
-4.547738	Convergencia	-0.0773586
-3.769587	ConvergenciaCAT	-0.23719
-4.547738	Cor	-0.08130153
-4.547738	Cornella	-0.08039005
-4.246708	Corts	-0.07365514
-4.547738	Coses	-0.07097952
-4.547738	Cotarelo	-0.07097952
-3.848768	Crec	-0.8598045
-4.547738	Creen	-0.08127692
-4.547738	Crispetes	-0.06486332
-4.547738	Cristina	-0.08130153
-4.547738	Cristinencs	-0.07748275
-4.547738	Crits	-0.08126462
-3.371647	Cs	-0.2062714
-4.547738	Cs18	-0.08130153
-4.547738	CsPSCPPunio1685642	-0.08120308
-4.547738	CsQeP	-0.08130153
-4.547738	CsRegionMurcia	-0.08130153
-4.547738	Csiespot	-0.08105537
-4.547738	Csqep	-0.08130153
-4.547738	Csqep18	-0.08130153
-4.547738	Csqep21	-0.05388923
-4.547738	Cuales	-0.08064891
-4.547738	Cuando	-0.08130153
-4.547738	Cuatro	-0.08130153
-3.848768	Cues	-0.06849016
-4.547738	Cultural	-0.07817732
-3.205315	Cup	-0.1052043
-4.547738	Cup10	-0.08130153
-4.547738	Cupnacional	-0.08095687
-4.246708	D	-0.07863564
-4.547738	D'	-0.08130153
-4.547738	D'ACORD	-0.08062426
-4.547738	D'esquerres	-0.08067355
-4.547738	DADES	-0.08130153
-3.945678	DE	-0.07924183
-4.246708	DEL	-0.08126463
-4.547738	DELS	-0.08130153
-4.547738	DEMOCRATICA	-0.08130153
-4.547738	DESPRES	-0.08130153
-4.070617	DIA	-0.08127692
-3.848768	DNI	-0.07969902
-4.547738	DNi	-0.07378034
-4.547738	DR	-0.08130153
-4.547738	DTM	-0.07373026
-4.547738	Dades	-0.06770372
-4.547738	Dann	-0.08124001
-4.547738	David	-0.08130153
-3.769587	De	-0.08053798
-4.547738	Dedicarem	-0.08126462
-4.246708	Del	-0.0807475
-4.246708	Delclos	-0.04287269
-4.547738	Dels	-0.08048868
-3.848768	Dema	-0.08104307
-4.547738	Demagometre	-0.08130153
-4.547738	Demanem	-0.07378034
-4.547738	Democracia	-0.07097952
-4.070617	DemocratesCAT	-0.1855037
-4.547738	DemocratesJoves	-0.08127692
-4.547738	Democratica	-0.06770372
-4.246708	Des	-0.2645508
-4.547738	Desclassificat	-0.08119078
-4.547738	Desitho	-0.06770372
-4.547738	Desitjo	-0.07378034
-4.547738	Desperta	-0.07994594
-4.547738	Despi	-0.05388923
-4.070617	Despres	-0.4977038
-4.547738	Desvern	-0.08117847
-4.246708	Dia	-0.08112925
-4.547738	Diagonal	-0.08130153
-4.547738	Dimitira	-0.08121539
-4.547738	Diputacio	-0.07992125
-4.547738	Diria	-0.07378034
-4.547738	Dit	-0.08130153
-4.547738	Diu	-0.07378034
-3.945678	Doncs	-0.08000765
-4.070617	Drassanes	-0.0804517
-4.547738	Duen	-0.07742067
-3.506345	Duran	-0.11118
-3.644648	DuranLleida	-0.03597584
-4.547738	DuraniLIeida	-0.07373026
-4.547738	EDAT	-0.08127692
-3.848768	EL	-0.0810677
-4.547738	ELECCIONS	-0.08130153
-4.547738	ELLS	-0.08130153
-4.070617	ELS	-0.08125231
-4.547738	EN	-0.08125231
-4.547738	ENS	-0.08130153
-4.547738	ENTENC	-0.05388923
-4.547738	ENTENEDOR	-0.05388923
-4.246708	EOI	-0.278124
-3.468557	ERC	-0.1501212
-3.945678	ES	-0.05379748
-4.547738	ESCOLTAR	-0.08055031
-4.547738	ESCONS	-0.07992125
-4.547738	ESCRUTAT	-0.08074748
-4.547738	ESCRUTINI	-0.08125231
-4.070617	ESP	-0.07637658
-4.547738	ESPANAZA	-0.06486332
-4.547738	ESTEM	-0.08130153
-4.246708	EUA	-0.05148419
-4.547738	EUROPA	-0.07748275
-4.547738	EXPRESSIO	-0.08130153
-4.547738	Eduardemeterio	-0.07992125
-4.547738	Eduardo	-0.08130153
-4.547738	Efecte	-0.08101844
-4.547738	Eixe	-0.0802914
-2.807375	El	-0.1188182
-4.547738	ElBornCC	-0.08124001
-4.547738	ElNoiBaliarda	-0.07866038
-3.547738	Eleccions	-0.09493681
-4.246708	Electoral	-0.06769104
-4.547738	Ella	-0.08127692
-4.547738	Ells	-0.07994594
-3.205315	Els	-0.1221365
-3.70264	Em	-0.2272662
-4.547738	Embarcant	-0.07097952
-4.547738	Emotiu	-0.07971136
-3.593495	En	-0.06838876
-3.945678	Encara	-0.1388359
-4.547738	Encetant	-0.07381789
-4.547738	Encetem	-0.07748275
-4.246708	Endavant	-0.07665029
-4.246708	Enhorabona	-0.07092913
-4.547738	Enrique	-0.07877178
-3.70264	Ens	-0.1281067
-4.246708	Entre	-0.08116618
-4.547738	Entremeliar	-0.08128922
-4.547738	Ep	-0.07373026
-4.547738	Equo	-0.05388923
-4.246708	Era	-0.0804024
-4.547738	Ereccions	-0.08130153
-4.547738	Ernestcosta	-0.08130153
-4.246708	ErnestoEkaizer	-0.08103076
-3.10058	Es	-0.0888624
-4.547738	Escardivol	-0.08130153
-4.547738	Escocia	-0.07381789
-4.246708	Escola	-0.08128924
-4.547738	Escoles	-0.07373026
-4.547738	Escoltant	-0.07097952
-4.547738	Escons	-0.08127692
-4.547738	Escrutini	-0.08112924
-4.547738	Esp	-0.07097952
-4.547738	Espadale	-0.0773586
-4.070617	Espadaler	-0.06755135
-4.547738	Espana	-0.0760529
-3.40161	Espanya	-0.1472844
-4.547738	Espanya'	-0.08125231
-4.547738	Espanyoles	-0.08127692
-4.547738	Espectacular	-0.08126462
-4.547738	Esperanca	-0.08130153
-4.246708	Esperant	-0.07306617
-3.945678	Esperem	-0.1535043
-3.593495	Espero	-0.3432917
-3.644648	EsquerraERC	-0.1364439
-3.945678	Esta	-0.1682972
-4.547738	Estan	-0.08130153
-4.246708	Estat	-0.06481221
-4.547738	Estelles	-0.07739584
-3.945678	Estem	-0.1660129
-4.070617	Estic	-0.08126462
-4.547738	Euia	-0.0760529
-4.547738	Euopa	-0.08101844
-4.070617	Europa	-0.08025441
-4.547738	Europeu	-0.07905634
-4.547738	Eurovisio	-0.08130153
-4.547738	Ex	-0.08056264
-4.547738	Excellent	-0.08126462
-4.547738	Expectativa	-0.08128922
-4.547738	Extemporani	-0.08130153
-4.547738	Extrapolem	-0.07097952
-4.547738	FAIL	-0.08125231
-4.547738	FALTAT	-0.08125231
-4.547738	FAVOR	-0.0773586
-4.547738	FAVOREUVOS	-0.08130153
-4.547738	FAVORSIBLE	-0.07973606
-3.769587	FAVORa	-0.06955335
-3.769587	FAVORar	-0.06345534
-4.547738	FAVORaran	-0.08130153
-4.547738	FAVORaria	-0.08127692
-4.547738	FAVORarien	-0.07895739
-4.547738	FAVORarnos	-0.08127692
-4.070617	FAVORat	-0.07111811
-4.547738	FAVORe	-0.08067355
-4.246708	FAVORem	-0.07867277
-4.547738	FAVORen	-0.07381789
-4.070617	FAVOReu	-0.2020617
-4.547738	FAVOReuvos	-0.08127692
-4.547738	FAVOReuvosho	-0.07895739
-4.547738	FAVORi	-0.07895739
-3.945678	FAVORicio	-0.0696292
-4.246708	FAVORiciona	-0.080883
-4.547738	FAVORicionament	-0.06770372
-4.547738	FAVORsibilitat	-0.08130153
-3.769587	FAVORsible	-0.1045722
-4.547738	FAVORsiblement	-0.08116616
-4.070617	FAVORsibles	-0.0805873
-4.547738	FAVORt	-0.08068588
-4.547738	FELICIDADES	-0.05388923
-4.246708	FORA	-0.080883
-4.547738	FOTO	-0.05388923
-4.547738	FOTRE	-0.08125231
-4.547738	FRANCO	-0.08124001
-4.547738	FUTUR	-0.06486332
-4.547738	Fa	-0.08130153
-4.547738	Fabra	-0.05388923
-4.547738	Fail	-0.05388923
-4.547738	Familia	-0.07992125
-4.547738	Farga	-0.06770372
-4.547738	Farigola	-0.07817732
-4.547738	Fatarella	-0.08130153
-4.547738	FatjoVilasLluis	-0.08128922
-4.547738	Faubert	-0.06770372
-4.547738	Febro	-0.07748275
-4.547738	Federico	-0.08127692
-4.547738	Feia	-0.0808953
-4.547738	Felicitat	-0.07381789
-3.945678	Felicitats	-0.07052568
-4.547738	Felipe	-0.08130153
-4.246708	Feliu	-0.06769104
-3.769587	Fem	-0.2572008
-4.246708	Femho	-0.07671247
-4.547738	Fernandez	-0.08128922
-4.547738	FerranPiqueF	-0.06770372
-4.246708	Fesho	-0.273572
-4.246708	Festa	-0.06767835
-4.547738	Fi	-0.08130153
-4.547738	Final	-0.08130153
-4.547738	Finalment	-0.08062426
-4.547738	Financament	-0.08120308
-3.769587	Fins	-0.1160741
-4.547738	Fira	-0.07097952
-4.547738	Foc	-0.08079676
-4.547738	Foment	-0.08130153
-4.547738	Forca	-0.08105537
-4.547738	Forcadell	-0.07373026
-4.547738	ForcadellCarme	-0.06770372
-4.547738	ForcadellMai	-0.0802914
-4.547738	Format	-0.08130153
-4.547738	Fortuna	-0.08128922
-4.547738	Fotli	-0.08130153
-4.547738	Foto	-0.07817732
-4.547738	Fotos	-0.07817732
-4.246708	Fracas	-0.07738344
-4.547738	Franca	-0.07373026
-4.547738	France24en	-0.08088298
-3.769587	Franco	-0.07551704
-4.547738	Friends	-0.08130153
-4.547738	Frontanya	-0.07381789
-4.547738	Frozen	-0.07739584
-4.547738	G	-0.08014338
-4.547738	GAS	-0.08128922
-4.547738	GENIAL	-0.08130153
-4.547738	GENIS	-0.06486332
-4.547738	GENUFLEXIO	-0.06486332
-4.547738	GOVERNEMNOS	-0.06486332
-4.547738	GRAN	-0.08130153
-4.547738	GUANYAR	-0.05388923
-4.547738	GUANYAREM	-0.08006935
-4.547738	GUANYEN	-0.08130153
-4.547738	Gales	-0.08116616
-4.547738	Gallina	-0.06770372
-4.070617	Garcia	-0.2019878
-4.547738	Garrigues	-0.07971136
-4.547738	Garrotxa	-0.08078444
-4.547738	Gas	-0.05388923
-4.547738	Geltru	-0.07989656
-4.547738	Gene	-0.05388923
-3.848768	Generalitat	-0.09944646
-4.547738	Generals	-0.08074748
-3.945678	Gent	-0.1548782
-4.547738	Gibert	-0.06486332
-4.547738	Giorgi	-0.08130153
-4.547738	Girauta	-0.06770372
-4.547738	Girls	-0.0808953
-3.506345	Girona	-0.07831065
-4.547738	Gonzalez	-0.08073516
-3.945678	Govern	-0.07580375
-4.246708	Governemnos	-0.2507363
-4.547738	Gra	-0.06770372
-4.547738	Gracia	-0.08074748
-3.644648	Gracies	-0.05736151
-4.547738	Graells	-0.07373026
-4.070617	Gran	-0.2006563
-4.547738	Grecia	-0.07378034
-4.547738	Guai	-0.05388923
-4.547738	Guanya	-0.08099381
-3.848768	Guanyarem	-0.05208999
-4.547738	Guanyem	-0.0812277
-4.547738	Guixols	-0.0799953
-4.547738	Gurtel	-0.08106768
-4.070617	HA	-0.08127692
-4.246708	HI	-0.278124
-4.547738	HISORTIC	-0.05388923
-4.246708	HISTORIA	-0.08128924
-4.547738	HISTRIONIC	-0.05388923
-4.246708	HO	-0.08128924
-4.547738	HOLOGRAMES	-0.08130153
-4.070617	Ha	-0.06715747
-4.246708	Han	-0.0812154
-4.547738	Harry	-0.08130153
-4.547738	Hauriem	-0.06770372
-4.547738	Havernos	-0.0812277
-3.945678	He	-0.08112924
-4.547738	Hegemonia	-0.08130153
-4.246708	Hem	-0.2771385
-4.547738	Hermano	-0.08127692
-4.547738	Heu	-0.08130153
-3.769587	Hi	-0.2557929
-3.848768	HiginiaRoig	-0.1195839
-4.547738	Historia	-0.0812277
-3.593495	Ho	-0.1576017
-4.547738	Honestament	-0.08130153
-4.547738	HoracioNPerez	-0.05388923
-4.246708	Horts	-0.04287269
-4.547738	Hosties	-0.08073516
-4.547738	Hotel	-0.08127692
-2.755346	I	-0.09933821
-4.070617	ICV	-0.04578
-4.547738	ICVEUiA	-0.06486332
-4.547738	ICVPSC	-0.07895739
-4.246708	IES	-0.08124002
-4.547738	IIII	-0.05388923
-4.547738	IN	-0.08130153
-4.547738	INDE	-0.08128922
-4.547738	INDEPENDENCE	-0.08130153
-4.246708	INDEPENDENCIA	-0.08075982
-4.547738	INDEPENDENT	-0.06486332
-4.547738	INDIVIDUS	-0.08128922
-4.246708	Iglesias	-0.0538106
-4.547738	Ignasi	-0.08128922
-4.547738	Ignorar	-0.08094456
-4.547738	Igual	-0.07378034
-4.246708	Igualada	-0.08082141
-3.848768	Illusio	-0.05361392
-4.547738	Illussio	-0.08119078
-4.547738	ImFAVORtos	-0.08120308
-4.547738	Immaculada	-0.05388923
-4.246708	Immensa	-0.2779763
-4.547738	Imperable	-0.07971136
-4.547738	Impresionant	-0.08128922
-4.547738	Incertesa	-0.08058729
-4.547738	Increible	-0.08073516
-4.547738	Inda	-0.08130153
-4.547738	Indecisno	-0.08130153
-3.769587	Independencia	-0.1249421
-4.246708	Independent	-0.07971138
-4.547738	Independents	-0.0773586
-4.246708	Ines	-0.2779763
-3.205315	InesArrimadas	-0.1369876
-4.547738	Infant	-0.08128922
-4.547738	Infojobs	-0.08091993
-4.246708	Inici	-0.2781363
-4.547738	Iniciativa	-0.07097952
-4.246708	Instagram	-0.07375532
-4.547738	Interessa	-0.07381789
-4.547738	Invencibles	-0.05388923
-4.547738	Isona	-0.08074748
-4.547738	Itaca	-0.08130153
-4.547738	Italia	-0.08077212
-4.547738	Ivars	-0.08130153
-4.547738	JA	-0.08130153
-4.246708	JEC	-0.03634446
-4.547738	JMArasaFort	-0.08126462
-4.547738	JMMartiRigau	-0.08130153
-4.246708	JPS	-0.07862326
-4.246708	JPSCUP	-0.08098152
-4.547738	JPSi	-0.07378034
-4.547738	JUNTS	-0.08130153
-3.644648	JXSI	-0.355231
-4.246708	JXSi	-0.07369271
-4.547738	JXSi62CUP10	-0.08101844
-3.547738	Ja	-0.1426226
-4.547738	Jajajjaja	-0.08128922
-4.070617	Jaume	-0.07968666
-4.547738	JaumeSole1	-0.07927892
-4.547738	JeanAbella	-0.08078444
-4.246708	Jesus	-0.05273438
-4.547738	Jnt	-0.08057497
-3.468557	Jo	-0.4565256
-4.246708	Joan	-0.08128924
-4.547738	JoanQueralt	-0.05388923
-4.547738	JoelJoanJuve	-0.08056264
-4.547738	Jordi	-0.08130153
-4.246708	JordiGraupera	-0.07941489
-4.070617	Jornada	-0.08120309
-4.246708	Josep	-0.08128924
-4.547738	JosepCuni	-0.08116616
-4.547738	Jove	-0.06770372
-4.070617	JpS	-0.07332941
-4.547738	JpS70	-0.08130153
-4.547738	Judes	-0.07817732
-4.547738	Julia	-0.0803284
-4.547738	Juls	-0.08057497
-4.070617	Junqueras	-0.0804517
-4.547738	Junta	-0.08128922
-2.88498	Junts	-0.7302979
-2.494659	JuntsPelSi	-0.2664125
-3.547738	JuntsPelSi2015	-0.1664941
-4.246708	JuntsPerqueSi	-0.05176086
-4.547738	Juntspelsicup	-0.08115385
-4.246708	JuntsxSi	-0.07096694
-4.547738	Juntsxsi	-0.08115385
-4.246708	Just	-0.08128924
-2.914269	JxS	-0.3709399
-4.547738	JxSCUP	-0.08130153
-4.070617	JxSI	-0.08104306
-3.00367	JxSi	-0.2368159
-4.547738	JxSi2974%	-0.08130153
-4.547738	JxSi3390	-0.08130153
-4.547738	JxSi3657	-0.08130153
-4.547738	JxSi3942	-0.08130153
-4.547738	JxSi4256	-0.08130153
-4.547738	JxSi508%	-0.08128922
-4.547738	JxSi865%	-0.08130153
-4.246708	JxSiCUP	-0.08128924
-4.547738	JxSiCUP72	-0.08099381
-4.547738	JxSiCUPUDC	-0.08127692
-4.547738	JxSiCup	-0.08056264
-4.070617	Jxsi	-0.07994594
-4.547738	Jxsicup	-0.08094456
-4.547738	Jxsicup1940316	-0.08130153
-4.547738	K	-0.08130153
-4.547738	Kansas	-0.08130153
-4.547738	L	-0.08106768
-4.547738	L'	-0.08130153
-4.547738	L'Aleixar	-0.07097952
-4.547738	L'HEM	-0.08128922
-4.547738	L'HORA	-0.08130153
-4.547738	L'Hospitalet	-0.05388923
-4.547738	L'abstencio	-0.06770372
-4.547738	L'absurd	-0.08128922
-4.547738	L'advertim	-0.07378034
-4.547738	L'anhel	-0.0760529
-4.547738	L'honora	-0.07373026
-4.547738	L'independencia	-0.0760529
-4.547738	L'independentisme	-0.0808953
-4.246708	L'unionisme	-0.07662541
-3.848768	LA	-0.1496693
-4.547738	LHORA	-0.08130153
-4.547738	LLEO	-0.06770372
-4.547738	LLIBERTAT	-0.06486332
-3.945678	LLIURE	-0.0629679
-4.547738	LLOBREGAT	-0.08055031
-4.547738	LLTVNoticies	-0.08130153
-4.547738	LOL	-0.07739584
-4.547738	LOOOOOOOL	-0.0799953
-4.547738	LP	-0.08130153
-2.762408	La	-0.07953347
-4.547738	La2	-0.08127692
-4.547738	LaDirecta	-0.05388923
-4.547738	LaSalleCongres	-0.07672489
-4.547738	Lectura	-0.07672489
-4.547738	Lena	-0.08130153
-3.848768	Les	-0.05360081
-4.547738	Leverkusen	-0.08091993
-4.070617	Li	-0.08109231
-4.547738	Libertad	-0.08073516
-4.547738	Llastima	-0.0773586
-4.547738	Llavaneres	-0.07124405
-4.547738	Llavors	-0.0808953
-4.246708	Llefia	-0.08031608
-4.547738	Llei	-0.08130153
-3.506345	Lleida	-0.0370671
-4.547738	Llico	-0.08120308
-4.070617	Lliure	-0.05243202
-4.547738	Lliurement	-0.08130153
-4.070617	Llobregat	-0.05069273
-4.547738	Lloreda	-0.0812277
-4.547738	Llorenc	-0.07905634
-4.547738	Llucia	-0.06486332
-4.070617	Lluis	-0.1885108
-3.468557	LluisRabell	-0.04816364
-4.547738	Lo	-0.08079676
-4.547738	Lolita	-0.07373026
-4.246708	Londres	-0.03634446
-4.547738	Lorca	-0.06486332
-4.547738	Loro	-0.08095687
-4.547738	Luis	-0.08130153
-4.547738	M'aixeco	-0.07866038
-4.547738	M'alegro	-0.07817732
-4.547738	M'amoina	-0.08128922
-4.547738	M'en	-0.0812277
-4.246708	M'estic	-0.08128924
-4.547738	M'he	-0.08110461
-4.547738	MAGNIFIC	-0.06486332
-4.547738	MAI	-0.08128922
-4.246708	MAJORIA	-0.08050103
-4.547738	MARIANO	-0.08130153
-4.246708	MAS	-0.07371775
-4.547738	MEMORIA	-0.0799953
-4.246708	MES	-0.06485055
-4.547738	MINECRAFT	-0.07995828
-4.547738	MJLecha	-0.08130153
-4.547738	MM	-0.08128922
-4.547738	MOLT	-0.08121539
-4.547738	Madre	-0.08130153
-3.506345	Madrid	-0.05178718
-4.547738	MadridSevilla	-0.05388923
-4.547738	Madridamb	-0.08130153
-4.547738	Madrit	-0.08121539
-4.246708	Mai	-0.2780256
-4.070617	MainatJM	-0.07973606
-4.246708	Major	-0.03937699
-3.593495	Majoria	-0.3384751
-4.547738	Majuscules	-0.08128922
-4.547738	Mama	-0.08111692
-4.547738	Mamuts	-0.08121539
-4.547738	Manchester	-0.07877178
-3.945678	Manresa	-0.0516423
-4.547738	Manxega	-0.07373026
-4.547738	Marato	-0.06770372
-4.547738	MarcaBCN	-0.08063658
-4.547738	Maria	-0.08130153
-3.848768	Mariano	-0.1033796
-4.246708	Maristes	-0.07742069
-4.547738	MartaBallllo	-0.08124001
-4.246708	Marti	-0.06769104
-4.547738	Martimaspons	-0.07739584
-4.547738	Martinez	-0.06770372
-4.246708	Marxem	-0.06344254
-2.776886	Mas	-0.0618531
-4.547738	Mas'	-0.07739584
-4.547738	MasCatalunya	-0.0760529
-4.547738	MasterCard	-0.05388923
-4.547738	Mataro	-0.08096918
-4.547738	Mataroni	-0.08124001
-4.547738	Mates	-0.08130153
-4.547738	Mayoria	-0.08091993
-4.547738	MayoriaSilenciosa	-0.08091993
-4.547738	Meca	-0.08128922
-4.547738	Mediterranifan	-0.08130153
-4.547738	Meg	-0.08130153
-4.547738	Meia	-0.08074748
-4.547738	MelciorComes	-0.08130153
-4.547738	Membres	-0.06770372
-4.547738	Mentre	-0.08128922
-4.547738	Menys	-0.08048868
-4.547738	Meritxell	-0.0760529
-4.547738	Merola	-0.08124001
-3.644648	Mes	-0.1947129
-3.848768	Mesa	-0.1441583
-4.547738	MesaA	-0.08130153
-3.769587	Meses	-0.1943004
-4.547738	Messi	-0.08130153
-4.547738	Mestre	-0.08130153
-4.246708	MeteoDelCamp	-0.2507363
-4.547738	Mi	-0.08130153
-4.547738	Miami	-0.08110461
-4.246708	Mina	-0.08103076
-4.547738	Mingo	-0.08110461
-4.547738	Mira	-0.08026673
-4.070617	Mirar	-0.04275167
-4.547738	Miro	-0.06770372
-4.547738	MiroDavid&gt	-0.08056264
-4.547738	Misercordia	-0.08130153
-4.547738	Misericordia	-0.08121539
-4.246708	Missatge	-0.07647614
-4.547738	Moia	-0.07994594
-4.547738	Moianes	-0.06486332
-4.547738	Molina	-0.08130153
-4.246708	Molins	-0.06624127
-4.547738	Mollo	-0.08074748
-3.593495	Molt	-0.05291831
-3.945678	Molta	-0.1679276
-4.547738	Moltes	-0.08119078
-4.547738	Moltissims	-0.0773586
-3.945678	Molts	-0.07163426
-4.246708	Moment	-0.08099383
-4.547738	MonDiari	-0.08130153
-4.547738	Monarquia	-0.08067355
-4.070617	Moncloa	-0.03630351
-4.547738	Montblanc	-0.07927892
-4.547738	Montcada	-0.07373026
-4.246708	Montilla	-0.07580376
-4.547738	Montllor	-0.08130153
-4.246708	Montserrat	-0.06485055
-4.547738	Multitud	-0.06770372
-4.547738	Mundial	-0.07817732
-4.547738	Municipals	-0.08130153
-4.547738	Murcia	-0.08128922
-4.547738	NINGU	-0.08130153
-3.070616	NO	-0.0738117
-4.547738	NONO	-0.08124001
-4.547738	NSNC	-0.08130153
-4.547738	Nadal	-0.08119078
-4.547738	Naut	-0.08130153
-4.547738	Necessitaria	-0.08099381
-4.246708	Necessito	-0.278124
-4.547738	Nervis	-0.07373026
-4.246708	Ni	-0.07086612
-4.547738	Ningu	-0.07932836
-2.87564	No	-0.1005386
-4.547738	NoX	-0.08130153
-4.070617	Nolasc	-0.1882821
-3.848768	Nomes	-0.07691138
-4.070617	Nosaltres	-0.1981673
-4.547738	Nose	-0.08026673
-4.547738	Nostra	-0.08128922
-4.070617	Nou	-0.06477386
-4.547738	Nova	-0.08130153
-4.547738	Nul	-0.08100612
-4.547738	Nul1	-0.08130153
-4.547738	Nul21	-0.08130153
-4.547738	Nulos	-0.08130153
-4.070617	Nuls	-0.2015321
-4.547738	Nuls14	-0.08022973
-4.547738	Nuls20	-0.08125231
-3.945678	O	-0.0799336
-4.547738	OFICIALS	-0.08130153
-4.246708	OJU	-0.05387614
-4.246708	ONU	-0.07369271
-4.547738	OUR	-0.08130153
-4.547738	OWN	-0.07682435
-4.547738	Obrimli	-0.07742067
-4.547738	Obviament	-0.08128922
-4.547738	Octubre	-0.07895739
-4.547738	Odena	-0.08125231
-4.547738	Oi	-0.08128922
-4.547738	Ojooooooooo	-0.05388923
-4.246708	On	-0.07562927
-4.547738	Onar	-0.05388923
-4.547738	Op	-0.05388923
-3.848768	Opina	-0.8570037
-4.547738	Opus	-0.08130153
-4.547738	Orgull	-0.06770372
-4.547738	Oriol	-0.08111692
-4.547738	OriolJunqueras	-0.0812277
-4.547738	Orrius	-0.08112924
-4.547738	Ostia	-0.08127692
-4.547738	Otros	-0.08130153
-4.547738	Ovidi	-0.08130153
-4.547738	P	-0.08130153
-3.70264	PACMA	-0.03826434
-4.070617	PARLAMENT	-0.04966168
-4.547738	PEL	-0.08095687
-4.547738	PENSEU	-0.08055031
-4.547738	PER	-0.08130153
-4.547738	PERO	-0.08130153
-4.547738	PINGANILLO	-0.08130153
-4.547738	PIglesias	-0.07097952
-4.547738	PLAU	-0.06486332
-4.547738	POBLE	-0.05388923
-4.547738	POCAVERGONYA	-0.05388923
-4.547738	PODEM	-0.07927892
-4.547738	POR	-0.08073516
-2.552103	PP	-0.306794
-4.547738	PP1116%	-0.08130153
-4.547738	PP1327%	-0.08130153
-4.547738	PP2	-0.08130153
-4.547738	PP9	-0.05388923
-4.246708	PPC	-0.2778655
-4.547738	PPC's	-0.07373026
-4.547738	PPCC	-0.0812277
-4.547738	PPCCIUTADANSPSCMILLOR	-0.08130153
-3.029224	PPCatalunya	-0.06308652
-3.848768	PPopular	-0.1340587
-4.547738	PRESIDENT	-0.07995828
-4.547738	PRIMER	-0.08128922
-2.570014	PSC	-0.3310841
-4.246708	PSC121%	-0.08128924
-4.547738	PSC1392%	-0.08130153
-4.547738	PSC2266163	-0.08130153
-4.547738	PSC4365%	-0.08130153
-4.547738	PSC8	-0.08130153
-4.547738	PSC810	-0.08130153
-4.547738	PSC875	-0.08130153
-4.547738	PSC923	-0.08130153
-4.547738	PSCPPCs	-0.07124405
-4.547738	PSCquan	-0.07905634
-3.848768	PSOE	-0.06617757
-4.547738	PSS	-0.08101844
-4.547738	PUC	-0.08130153
-4.547738	Pablo	-0.08128922
-3.70264	Pacma	-0.07081569
-4.547738	Pais	-0.07895739
-4.070617	Paisos	-0.5111662
-3.945678	Palace	-0.1301435
-4.547738	Palace#27STV3	-0.06486332
-4.246708	Palau	-0.06769104
-4.547738	Palausolita	-0.07373026
-4.547738	Palmas	-0.08130153
-4.547738	Papiol	-0.08130153
-4.547738	Paquito	-0.07381789
-4.547738	Paris	-0.08130153
-4.547738	Parla	-0.08130153
-3.371647	Parlament	-0.09773361
-4.547738	Parlamentari	-0.07097952
-4.547738	Parlareu	-0.06770372
-4.547738	Part	-0.08130153
-4.547738	Particip	-0.08128922
-3.468557	Participacio	-0.09290775
-4.547738	PartidoPACMA	-0.08130153
-4.246708	Partit	-0.08128924
-4.547738	Patirem	-0.08104306
-3.945678	Pau	-0.1683957
-4.547738	Pedra	-0.08130153
-4.547738	PedrosanchezSg	-0.08127692
-4.547738	Peguera	-0.06770372
-3.593495	Pel	-1.034534
-3.945678	Pels	-0.1606943
-4.246708	Penedes	-0.2617104
-4.547738	Peneuve	-0.06486332
-4.547738	Pensava	-0.07378034
-4.547738	Pensem	-0.07378034
-4.547738	Pension	-0.08130153
-4.547738	Penso	-0.07378034
-3.08534	Per	-0.08388099
-4.547738	Perdo	-0.08055031
-4.547738	Perdoneu	-0.07844988
-3.945678	Pere	-0.3444963
-4.547738	Periodistesorg	-0.05388923
-4.547738	Permeteume	-0.08024207
-3.769587	Pero	-0.1914846
-3.848768	Perque	-0.07609026
-4.547738	Piazza	-0.08130153
-4.547738	Pirata	-0.07739584
-4.547738	Pirates	-0.0812277
-4.547738	Pirates1	-0.08130153
-4.547738	Pisa	-0.08130153
-4.547738	PlJoanic	-0.06770372
-4.246708	Pla	-0.2645508
-4.547738	Platja	-0.06770372
-4.547738	PlebiscitSi	-0.08130153
-4.547738	Plegamans	-0.07124405
-4.547738	Plegara	-0.07381789
-4.547738	Plegue	-0.08130153
-4.547738	Pobrissons	-0.07844988
-4.070617	Podem	-0.0725266
-4.547738	PodemBCN	-0.08121539
-4.246708	Podeminiciativa	-0.08105539
-3.769587	Podemos	-0.1002094
-4.547738	Podrieu	-0.08124001
-4.246708	Pol	-0.08082141
-4.547738	Polcc	-0.08080908
-4.547738	Politicament	-0.07992125
-4.547738	Politics	-0.08117847
-4.547738	Pompeu	-0.08130153
-4.547738	Popular	-0.07656321
-4.246708	PopularesSBD	-0.0806366
-4.547738	Port	-0.08130153
-4.547738	Porteu	-0.08130153
-4.547738	Porto	-0.08121539
-4.070617	Pot	-0.0795508
-4.547738	Pot10	-0.0773586
-4.246708	Potser	-0.07942724
-4.547738	Pou	-0.05388923
-3.70264	Pp	-0.05273436
-4.547738	Pp109479	-0.08130153
-4.547738	Pp350	-0.08130153
-4.547738	Pp382	-0.08130153
-4.547738	Pp404	-0.08130153
-4.547738	Pp52%	-0.08130153
-4.547738	Pp53%	-0.08130153
-4.070617	Pq	-0.07714747
-4.547738	Pr	-0.08121539
-4.547738	Prat	-0.06770372
-4.547738	Premi	-0.08130153
-4.547738	Preneu	-0.08126462
-4.547738	Prengui	-0.08126462
-4.547738	Preocupant	-0.08096918
-4.246708	Presi	-0.07900688
-3.547738	President	-0.1641691
-4.547738	Presidents	-0.0808953
-4.547738	Preten	-0.07672489
-4.246708	Primer	-0.08105539
-4.246708	Primera	-0.08115387
-4.547738	Priorat	-0.08130153
-4.547738	Proces	-0.08119078
-4.547738	Programa	-0.08120308
-4.547738	Pronostico	-0.08128922
-4.547738	Provisional	-0.08022973
-3.945678	Psc	-0.06997033
-4.547738	Psc10	-0.08130153
-4.547738	Psc36	-0.08112924
-4.547738	Psoec	-0.0808953
-4.547738	Puc	-0.08088298
-4.070617	Puerta	-0.5081773
-4.547738	Pues	-0.08130153
-4.547738	Puigdalber	-0.08112924
-4.547738	Puigreig	-0.05388923
-4.547738	Pujen	-0.08130153
-4.246708	Pujol	-0.08128924
-4.547738	Punt	-0.05388923
-4.246708	Pura	-0.2781363
-4.547738	Putadon	-0.05388923
-4.547738	PxC	-0.08104306
-4.547738	QUE	-0.08130153
-4.547738	QWERTY13	-0.08130153
-4.547738	QWERTYPSOE	-0.08130153
-4.547738	Quan	-0.0812277
-4.547738	Quants	-0.08048868
-3.08534	Que	-0.1252899
-4.547738	Queda	-0.08126462
-4.547738	Queda't	-0.07097952
-4.070617	Qui	-0.07770613
-4.547738	QuicoSalles	-0.08130153
-4.070617	QuimMonzo	-0.1572277
-4.070617	Quin	-0.07600308
-3.945678	Quina	-0.08114155
-3.945678	Quins	-0.1678659
-4.547738	REAL	-0.06486332
-4.547738	REFERENDUM	-0.05388923
-4.547738	RES	-0.08128922
-4.547738	RTcom	-0.08101844
-4.547738	RU	-0.08127692
-4.547738	RabMMEvent	-0.06770372
-3.769587	Rabell	-0.09885296
-4.547738	Rac1ha	-0.08116616
-4.547738	Radhus	-0.08130153
-4.547738	RadioSeu	-0.06486332
-4.547738	Radiolot	-0.05388923
-3.945678	RaholaOficial	-0.1412279
-4.547738	Raimon	-0.08095687
-3.848768	Rajoy	-0.07319154
-4.547738	Rajoyquin	-0.08126462
-4.547738	Ramon	-0.08127692
-3.945678	RamonEspadaler	-0.07906872
-4.547738	Ramoneda	-0.05388923
-4.547738	Raro	-0.08130153
-3.945678	Recompte	-0.1672121
-4.246708	Record	-0.07711021
-4.547738	Recorda	-0.07995828
-4.070617	Recortes	-0.2017539
-4.547738	RecortesCero	-0.07373026
-4.547738	Referendum	-0.06486332
-4.547738	Regidors	-0.06770372
-4.547738	Regim	-0.08126462
-4.547738	Regimen	-0.07817732
-4.547738	Rei	-0.07844988
-4.547738	Reixac	-0.07866038
-4.547738	Rep	-0.0812277
-3.593495	Republica	-0.1498567
-4.070617	Res	-0.06278817
-4.547738	Responsable	-0.07817732
-4.547738	Resultat	-0.08068588
-4.070617	Resultats	-0.05702334
-4.547738	Resum	-0.06486332
-4.246708	Reus	-0.07556693
-4.547738	RevistaEsguard#27s	-0.08114155
-4.246708	Revolucio	-0.06719561
-4.547738	Ribagorca	-0.0812277
-4.547738	Ribera	-0.08130153
-4.547738	RicardUstrell	-0.07373026
-3.945678	Riera	-0.1471768
-4.547738	Ripollet	-0.06486332
-4.070617	Rivera	-0.07759445
-4.547738	Riveres	-0.07866038
-4.547738	Riviera	-0.0760529
-4.547738	Roc	-0.07373026
-4.547738	Roda	-0.06770372
-4.547738	Rodriguez	-0.08105537
-4.547738	Roig	-0.05388923
-4.547738	Romanes	-0.08078444
-3.945678	Romeva	-0.06983139
-4.547738	Rouco	-0.08130153
-4.547738	Rubi	-0.05388923
-4.547738	Rull	-0.07381789
-4.547738	Ruptura	-0.08128922
-4.547738	Ryan	-0.07097952
-4.547738	S	-0.08127692
-4.246708	S'ha	-0.2780256
-4.547738	S'han	-0.06770372
-4.547738	SEGADORS	-0.08104306
-4.547738	SEGUIR	-0.08130153
-4.246708	SERCatalunya	-0.2507363
-4.547738	SEREbre	-0.08130153
-4.547738	SEUSES	-0.08128922
-3.08534	SI	-0.04297629
-4.547738	SIIIII	-0.08130153
-4.547738	SISI	-0.08077212
-4.547738	SOC	-0.08130153
-4.547738	SOL	-0.08130153
-4.246708	SOM	-0.08127694
-4.547738	SOMHI	-0.08130153
-4.547738	SOMNI#27S	-0.05388923
-4.547738	STATE	-0.08127692
-4.547738	SUEDE	-0.0804517
-4.246708	Sabadell	-0.07600309
-4.547738	Sabees	-0.08055031
-4.547738	Sabem	-0.07381789
-4.547738	Sabeu	-0.07378034
-4.547738	Sageta	-0.06770372
-4.547738	Salamanca	-0.08130153
-4.547738	Salesians	-0.0812277
-4.547738	Sally	-0.0799953
-4.547738	Salt	-0.08063658
-4.547738	Salut	-0.08117847
-4.547738	Salvara	-0.08117847
-4.547738	Sanchezaquest	-0.08124001
-3.205315	Sant	-0.209915
-4.070617	Santa	-0.08124001
-4.547738	Santi	-0.08130153
-4.547738	Santpedor	-0.06770372
-3.945678	Sants	-0.05847823
-4.547738	Sao	-0.08130153
-4.246708	Sap	-0.2706274
-4.547738	Sapiens	-0.08126462
-4.547738	Sarkozy	-0.08127692
-4.547738	Sasserra	-0.07097952
-4.547738	Sau	-0.06770372
-4.246708	Se	-0.07356747
-4.547738	Seana	-0.0760529
-4.246708	Secretari	-0.2781117
-4.246708	Segadors	-0.06485055
-4.547738	Segeueix	-0.08116616
-4.246708	Segons	-0.0809692
-4.246708	Seguim	-0.06210712
-4.547738	Segur	-0.07378034
-3.945678	Sembla	-0.1561465
-4.547738	Sen	-0.08091993
-4.547738	Senador	-0.08091993
-4.547738	Senat	-0.05388923
-4.547738	Seni	-0.06486332
-3.593495	Sense	-0.1161183
-4.547738	Sentiments	-0.08127692
-3.945678	SentitCritic	-0.02278898
-4.547738	Sento	-0.08000765
-4.547738	Seny	-0.08073516
-4.547738	Senyors	-0.06770372
-4.547738	Seo	-0.06770372
-4.547738	Septiembre	-0.06770372
-3.945678	Sera	-0.1648104
-4.246708	Serem	-0.0812154
-4.547738	Sereu	-0.08130153
-4.246708	Seria	-0.08093226
-4.547738	Servidor	-0.08026673
-4.547738	Seu	-0.08130153
-2.678506	Si	-0.1144438
-4.547738	Si186	-0.08130153
-4.547738	SiNO	-0.08130153
-4.547738	SiNo	-0.07994594
-4.246708	SiSi	-0.07138256
-4.547738	SiX	-0.08130153
-4.547738	Siguem	-0.08128922
-4.246708	Sigui	-0.08084605
-4.246708	Silenciosa	-0.07737103
-4.547738	Silva	-0.08130153
-4.547738	Sino	-0.07378034
-4.547738	Siusplau	-0.08125231
-4.547738	Sobretot	-0.08091993
-4.547738	Soc	-0.08064891
-4.547738	Socialistes	-0.08100612
-4.547738	Societat	-0.08130153
-4.070617	Sol	-0.18785
-4.547738	Sol#unionismeonfire	-0.08125231
-4.246708	Som	-0.08114156
-3.433794	Somhi	-0.05635287
-4.547738	Somrieu	-0.08103075
-4.070617	Son	-0.06827465
-4.547738	Sona	-0.08128922
-4.246708	Sondeig	-0.08124002
-4.547738	Sorprenent	-0.08094456
-3.945678	Sort	-0.06504219
-4.547738	Sou	-0.08128922
-4.547738	Spagna	-0.08095687
-4.246708	Spain	-0.05356147
-4.547738	SqePot	-0.08105537
-4.547738	Sr	-0.08127692
-4.070617	St	-0.08124001
-4.547738	StMiquel	-0.06770372
-4.547738	Sta	-0.08126462
-4.547738	Standby	-0.08130153
-4.547738	Sud	-0.07866038
-4.547738	Suissa	-0.08130153
-4.547738	Sumant	-0.08096918
-4.547738	Sumen	-0.08114155
-4.547738	T1	-0.0799953
-4.547738	TAMBE	-0.07682435
-4.547738	TANCS	-0.0799953
-4.547738	TERCERA	-0.08130153
-4.246708	TERRA	-0.08125232
-4.547738	TERTULIA	-0.08127692
-4.547738	TGN60%	-0.08130153
-4.547738	TL	-0.07124405
-4.547738	TOT	-0.07905634
-4.547738	TREBALLAR	-0.07866038
-4.547738	TREBALLARSE	-0.08125231
-4.547738	TREU	-0.08127692
-4.547738	TRINCA	-0.08130153
-4.547738	TU	-0.08094456
-3.769587	TV	-0.05024359
-3.343618	TV3	-0.03571628
-4.070617	TVE	-0.08075981
-4.547738	TVs	-0.05388923
-4.547738	Taiwan	-0.07097952
-4.246708	Tambe	-0.07369271
-4.547738	Tan	-0.08125231
-4.547738	TancsADiagonal	-0.07373026
-4.547738	Target	-0.08064891
-3.468557	Tarragona	-0.1205627
-4.246708	Tarragones	-0.05318094
-4.547738	Tato	-0.07739584
-4.547738	Teia	-0.08130153
-4.547738	Telecinco	-0.07994594
-4.246708	Tenim	-0.2743298
-4.547738	Tenir	-0.08119078
-4.547738	Teniu	-0.07381789
-4.547738	Tensio	-0.08111692
-4.246708	Ter	-0.06477387
-4.547738	Tercer	-0.08095687
-4.547738	Tercera	-0.08128922
-4.547738	Terra	-0.06486332
-3.945678	Terrassa	-0.3306674
-4.547738	Tertulia	-0.08130153
-4.547738	Timeline	-0.08124001
-4.246708	Tinc	-0.07089133
-4.547738	Tirvia	-0.07097952
-4.547738	Toca	-0.08124001
-4.547738	Toni	-0.08130153
-4.547738	ToniCruanyes	-0.08026673
-4.547738	Tornarem	-0.07373026
-4.547738	Torroella	-0.08125231
-4.547738	Tossudament	-0.08130153
-3.848768	Tot	-0.07260194
-4.246708	Tota	-0.05440008
-4.246708	Totes	-0.2742678
-3.945678	Tothom	-0.1549163
-3.70264	Tots	-0.2013409
-4.547738	Totses	-0.07097952
-4.547738	Tous	-0.08130153
-4.547738	Trade	-0.08130153
-4.547738	Truquem	-0.0812277
-4.246708	Tu	-0.08094458
-4.547738	Turisme	-0.08055031
-4.547738	Tv3	-0.07748275
-4.547738	Tweetdeck	-0.07866038
-4.547738	Twitter	-0.08096918
-4.070617	UB	-0.05373193
-4.547738	UD	-0.08121539
-3.40161	UDC	-0.06118613
-4.547738	UE	-0.08106768
-4.547738	UEFA	-0.07656321
-4.246708	UN	-0.08128924
-4.547738	UP	-0.06486332
-4.547738	US	-0.08130153
-4.246708	USA	-0.07861088
-4.547738	Uff	-0.05388923
-4.547738	Ull	-0.08126462
-4.547738	Ultimos	-0.08130153
-3.18601	Un	-0.1597674
-3.70264	Una	-0.08051334
-4.070617	Unes	-0.08124001
-2.762408	Unio	-0.2787513
-4.547738	Unio158	-0.08130153
-4.547738	Unio169	-0.08125231
-4.547738	Unio176	-0.08130153
-4.547738	Unio23%	-0.08130153
-4.547738	Unio24	-0.08130153
-4.547738	Unio24%	-0.08130153
-4.547738	Unio288	-0.08125231
-4.547738	Unio6	-0.08130153
-4.547738	UnioCUP	-0.0806982
-4.547738	Unionisme	-0.08130153
-4.547738	Uniosiespot	-0.05388923
-4.246708	Unitat	-0.08052568
-4.547738	Unitat9	-0.079316
-4.547738	Universitat	-0.08130153
-4.246708	Uns	-0.06769104
-4.547738	Urgeix	-0.07378034
-4.547738	Urgel	-0.05388923
-4.246708	Urgell	-0.07864802
-4.547738	Us	-0.08130153
-4.547738	VALENCIAS	-0.08130153
-4.547738	VALOR	-0.08130153
-4.547738	VICTORIA	-0.07992125
-4.547738	VIDA	-0.08056264
-4.246708	VISCA	-0.0812031
-4.547738	VOLAR	-0.08125231
-4.547738	VOLEM	-0.08130153
-4.070617	VOTAR	-0.07284038
-4.547738	VOTAT	-0.07373026
-4.547738	VOTES	-0.08130153
-4.547738	VOTEU	-0.08062426
-4.547738	VOTS	-0.08055031
-4.547738	VOX	-0.05388923
-4.547738	Va	-0.08130153
-4.547738	Vaig	-0.07097952
-4.246708	Vaja	-0.08109232
-4.547738	Val	-0.07124405
-4.246708	Valencia	-0.07734619
-4.547738	Valenciana	-0.0799953
-4.246708	Valladolid	-0.07960021
-4.547738	Valle	-0.06770372
-4.246708	Valles	-0.05386303
-4.547738	Vallllobrega	-0.08130153
-4.547738	Valls	-0.07381789
-4.547738	Vamos	-0.08125231
-4.547738	Van	-0.07097952
-4.547738	Vanguardia	-0.05388923
-4.547738	VarelaEls	-0.08130153
-4.547738	VdCCUP	-0.08127692
-4.547738	Veges	-0.08109231
-4.547738	Veiem	-0.08024207
-4.547738	Veieu	-0.08115385
-4.547738	Veig	-0.07844988
-4.547738	Vell	-0.08130153
-4.547738	Vella	-0.07124405
-4.547738	Vendrell	-0.07097952
-4.547738	Veniu	-0.08064891
-4.547738	Verges	-0.08126462
-4.070617	Vergonya	-0.08074749
-4.246708	Veurem	-0.07271491
-4.246708	Via	-0.08109232
-4.246708	Vic	-0.05698432
-4.246708	Vicenc	-0.2772495
-4.547738	Vicent	-0.08130153
-4.547738	Vicis	-0.07373026
-4.246708	Victor	-0.2781117
-3.945678	Victoria	-0.0664705
-4.547738	Vidal	-0.08074748
-4.547738	Vigileu	-0.08103075
-4.547738	Vila	-0.06770372
-4.070617	VilaWeb	-0.08043937
-4.246708	Viladamat	-0.07065181
-4.246708	Vilafranca	-0.2750244
-4.246708	Vilanova	-0.05987655
-4.547738	Vilaweb	-0.08116616
-4.246708	Vilella	-0.2780994
-4.547738	Vilobi	-0.08130153
-4.547738	Vilovi	-0.08124001
-4.547738	Vina	-0.07097952
-4.070617	Vinga	-0.2013966
-4.547738	Virreina	-0.08127692
-3.056376	Visca	-0.5211055
-4.547738	Vistes	-0.07742067
-4.547738	Viva	-0.07124405
-4.547738	Volem	-0.08121539
-4.547738	Volkswagen	-0.08130153
-4.547738	Voste	-0.0760529
-4.246708	Vot	-0.2774713
-4.070617	Vota	-0.07971136
-4.547738	Vota't	-0.05388923
-4.246708	Votar	-0.07809057
-4.070617	Votem	-0.07862325
-4.547738	Voten	-0.07097952
-4.547738	Voteu	-0.07992125
-4.547738	Voto	-0.07672489
-4.547738	Vots	-0.08128922
-4.246708	Vox	-0.07892029
-4.547738	WANT	-0.08130153
-4.547738	WE	-0.08130153
-4.547738	Wolkswagen	-0.05388923
-4.547738	World	-0.08130153
-4.547738	X	-0.08128922
-4.547738	XD	-0.07656321
-4.547738	XQue	-0.08120308
-4.246708	XSalaimartin	-0.05384992
-4.547738	Xaro	-0.08128922
-1.62866	a	-0.2721771
-4.547738	aFAVORta	-0.0760529
-3.506345	abans	-0.1583871
-4.547738	abassegadorament	-0.05388923
-4.246708	abast	-0.277767
-4.547738	abc	-0.06770372
-4.547738	abcnews	-0.0773586
-4.547738	aboderats	-0.06770372
-4.547738	absencia	-0.08125231
-4.547738	absolut	-0.07373026
-3.371647	absoluta	-0.08783835
-4.547738	abstencio	-0.06770372
-4.547738	abuela	-0.08130153
-3.769587	acaba	-0.06729726
-4.547738	acabant	-0.07742067
-4.547738	acabapero	-0.0812277
-4.070617	acabar	-0.1885235
-4.547738	acabara	-0.08026673
-3.506345	acabat	-0.28361
-4.547738	acaben	-0.06770372
-4.246708	acabi	-0.07111812
-4.246708	acabo	-0.05730952
-4.547738	acceptar	-0.07742067
-4.246708	acceptat	-0.0673227
-4.547738	accepten	-0.07124405
-4.070617	acceptin	-0.06188842
-4.547738	accio	-0.08125231
-4.547738	accions	-0.07656321
-4.547738	aci	-0.08057497
-4.246708	aclaparadora	-0.06408311
-4.547738	aclapradora	-0.07656321
-4.547738	aclarir	-0.07124405
-4.547738	aco	-0.06486332
-4.070617	acompanyat	-0.1943003
-4.547738	aconsegueixi	-0.08121539
-4.246708	aconseguim	-0.07999532
-3.945678	aconseguir	-0.07720958
-4.070617	aconseguirem	-0.06048367
-4.547738	aconseguireu	-0.06486332
-4.547738	aconseguit	-0.08101844
-4.547738	acords	-0.07866038
-4.547738	acreditats	-0.07097952
-4.246708	actors	-0.08128924
-4.547738	actualitzacio	-0.06770372
-4.547738	actualitzant	-0.08119078
-4.547738	actuals	-0.07378034
-4.547738	actuant	-0.07866038
-4.547738	actuar	-0.08099381
-4.547738	acusant	-0.08124001
-3.468557	adeu	-0.06775451
-4.547738	adeus	-0.05388923
-4.547738	adient	-0.07672489
-4.547738	adios	-0.06486332
-4.547738	adonat	-0.08024207
-4.547738	adormit	-0.05388923
-4.547738	adverteix	-0.07378034
-4.547738	afavorir	-0.07844988
-4.547738	afavorira	-0.08124001
-4.547738	afegirse	-0.07866038
-4.547738	afermar	-0.08130153
-4.246708	afirma	-0.07148326
-4.070617	afluencia	-0.1779196
-4.547738	afluixar	-0.08091993
-4.547738	afontcu	-0.08130153
-4.547738	afusellament	-0.07817732
-4.547738	afusellaments	-0.06770372
-4.547738	afusellats	-0.08057497
-4.547738	afusellaven	-0.07905634
-4.070617	agafa	-0.1882059
-4.547738	agafar	-0.07748275
-4.547738	agafi	-0.07124405
-4.246708	agrada	-0.08024208
-4.547738	agraeix	-0.07124405
-4.547738	agraireu	-0.08125231
-4.547738	agredolc	-0.07672489
-4.547738	aguaitacat	-0.08130153
-4.547738	aguanta	-0.08103075
-4.547738	aguantat	-0.07373026
-4.547738	aguilucho	-0.08128922
-4.070617	ah	-0.07297837
-3.945678	ahir	-0.06044494
-3.848768	ahorapodemos	-0.302816
-4.246708	ai	-0.07379287
-4.246708	aires	-0.064467
-4.547738	aixeca	-0.07381789
-4.547738	aixecant	-0.07124405
-4.246708	aixecar	-0.07747035
-3.468557	aixi	-0.05719439
-3.246708	aixo	-0.09378228
-4.070617	ajuda	-0.1911692
-4.070617	ajudar	-0.1918249
-4.070617	ajudeu	-0.07076527
-4.547738	ajustat	-0.06486332
-4.547738	aka	-0.08130153
-2.266704	al	-0.1934503
-4.547738	albertmartnez	-0.08130153
-4.547738	albertn	-0.0760529
-4.547738	albertofdezxbcn	-0.08108
-4.547738	albiolxg	-0.08111692
-4.547738	alca	-0.08128922
-4.547738	alcada	-0.08130153
-4.547738	alcaldes	-0.08130153
-4.547738	alcaldesa	-0.08130153
-4.547738	alcat	-0.08110461
-4.547738	alcats	-0.05388923
-4.547738	alegrat	-0.08106768
-4.547738	alegre	-0.07373026
-3.945678	alegria	-0.07209951
-4.547738	aleixhiba	-0.08130153
-4.246708	alerta	-0.08085836
-4.547738	alexsantalo	-0.08130153
-4.246708	algo	-0.07091653
-3.644648	algu	-0.04149934
-3.848768	algun	-0.07055091
-3.593495	alguna	-0.1904385
-4.547738	algunes	-0.08130153
-4.547738	alguns	-0.08130153
-4.246708	aliens	-0.04287269
-4.547738	alimentar	-0.08128922
-4.547738	aliments	-0.08130153
-4.246708	alla	-0.06485055
-4.547738	allegrar	-0.0812277
-3.945678	allo	-0.1550306
-4.547738	allunyem	-0.06770372
-4.547738	almenys	-0.07844988
-3.167526	als	-0.1377983
-4.246708	alt	-0.08071054
-3.769587	alta	-0.1152718
-4.547738	altcamp	-0.08079676
-4.070617	altra	-0.08114155
-4.547738	altrament	-0.08130153
-3.547738	altre	-0.1134802
-3.547738	altres	-0.05226103
-4.547738	alts	-0.08128922
-4.547738	alucinen	-0.07817732
-4.547738	am	-0.08130153
-4.547738	amagat	-0.08128922
-4.547738	amanece	-0.07905634
-2.215299	amb	-0.3205788
-4.070617	ambaixades	-0.2020863
-4.547738	ambient	-0.08064891
-4.547738	ambiguitats	-0.06486332
-4.547738	ame	-0.08055031
-4.547738	amenacador	-0.06770372
-4.547738	amenacant	-0.06770372
-4.547738	amenacen	-0.06486332
-4.246708	amenaces	-0.06391665
-4.246708	amic	-0.08128924
-3.945678	amics	-0.06650869
-4.547738	amicsdelesarts	-0.06486332
-4.547738	amiguet	-0.08067355
-4.547738	amiguetes	-0.08120308
-4.547738	amor	-0.08130153
-4.547738	amoral	-0.07373026
-4.547738	amos	-0.08130153
-4.547738	amplia	-0.08117847
-4.547738	amunt	-0.06486332
-4.547738	an	-0.08130153
-4.547738	ana	-0.08130153
-4.547738	anac	-0.08130153
-4.547738	anaco	-0.08130153
-4.547738	anacon	-0.08130153
-4.547738	anacond	-0.08128922
-4.246708	anaconda	-0.06559112
-4.547738	anada	-0.08128922
-4.246708	analisi	-0.04899948
-4.246708	analitzar	-0.07828886
-4.547738	analitzarem	-0.08115385
-4.246708	anant	-0.07663785
-4.547738	anapastor	-0.08130153
-3.268984	anar	-0.4272527
-3.848768	anat	-0.06833805
-4.246708	anava	-0.08055033
-4.547738	anavem	-0.0812277
-4.547738	anaven	-0.0812277
-4.547738	and	-0.08130153
-4.547738	andaluca	-0.08074748
-4.547738	andaluz	-0.07672489
-4.547738	anem	-0.0812277
-3.945678	aneu	-0.1556016
-4.547738	angels	-0.08058729
-4.070617	animeu	-0.5009795
-4.547738	anira	-0.07895739
-4.547738	aniran	-0.07097952
-4.070617	anire	-0.1894494
-4.547738	anirem	-0.08000765
-4.547738	aniria	-0.08127692
-4.246708	aniversari	-0.07725926
-4.547738	annaandreu1	-0.08125231
-4.547738	annafenoy	-0.08130153
-4.547738	annapinolbeta	-0.08130153
-4.547738	annasafra	-0.079316
-4.246708	anoiadiari	-0.08027908
-4.547738	anomenar	-0.08096918
-3.70264	anteriors	-0.05501489
-4.547738	anti	-0.08058729
-4.547738	antic	-0.06770372
-4.547738	anticapitalistes	-0.05388923
-4.547738	anticatalanisme	-0.07373026
-4.246708	antonibassas	-0.08095688
-3.116374	antoniobanos	-0.06622812
-4.547738	anullar	-0.07943959
-4.547738	anunciar	-0.08128922
-4.547738	anuncii	-0.07124405
-4.070617	any	-0.07916765
-2.914269	anys	-0.1189794
-4.246708	apareix	-0.06627949
-4.547738	apartar	-0.07844988
-4.547738	aparteuvos	-0.07378034
-4.547738	aplaudeix	-0.07742067
-4.547738	aplaudiments	-0.07373026
-4.547738	aplicant	-0.07124405
-4.547738	apoderades	-0.08130153
-4.070617	apoderat	-0.0603933
-3.644648	apoderats	-0.1009002
-4.246708	aportar	-0.07380539
-4.547738	app	-0.07817732
-4.246708	apreneu	-0.05703637
-4.547738	aprofitem	-0.07381789
-4.547738	aprop	-0.07378034
-4.246708	aprox	-0.2507363
-4.547738	aproximadament	-0.07748275
-4.547738	aproximarse	-0.07895739
-4.547738	apuente	-0.08128922
-4.547738	apunt	-0.07672489
-4.547738	apunta	-0.07097952
-4.547738	apuntarvos	-0.08104306
-4.547738	aquell	-0.07378034
-4.547738	aquella	-0.08103075
-3.506345	aquells	-1.009899
-3.225518	aquest	-0.07311916
-3.268984	aquesta	-0.1884311
-3.848768	aquestes	-0.05157642
-3.506345	aquests	-0.2566812
-4.547738	aquet	-0.08128922
-3.433794	aqui	-0.05906416
-2.79955	ara	-0.1322786
-4.547738	ara#27STV3	-0.05388923
-4.547738	aragonesa	-0.06770372
-4.547738	aranagoiri	-0.07994594
-4.547738	arbitres	-0.07905634
-4.547738	arboa	-0.0773586
-4.547738	argumentant	-0.07097952
-4.246708	aritmetica	-0.05992826
-4.547738	arma	-0.07124405
-4.246708	armes	-0.05703637
-4.547738	arnauduran	-0.08120308
-4.547738	arofna	-0.08125231
-4.547738	arrasant	-0.08130153
-4.547738	arrassat	-0.08130153
-4.547738	arreglem	-0.08126462
-4.547738	arreglen	-0.07742067
-4.547738	arrenquem	-0.07381789
-4.547738	arreuEs	-0.08026673
-3.945678	arriba	-0.03997283
-4.547738	arribant	-0.07895739
-3.769587	arribar	-0.483337
-4.547738	arribare	-0.08063658
-3.506345	arribat	-0.2524708
-4.547738	arribava	-0.08104306
-4.246708	arribem	-0.2678266
-4.246708	arriben	-0.06767835
-4.246708	arribeu	-0.2781363
-4.070617	arribi	-0.06084496
-4.246708	arribo	-0.2678266
-4.547738	arrimada	-0.07097952
-4.070617	arrimadas	-0.07010923
-4.547738	arriman	-0.07672489
-4.547738	arromangarse	-0.07124405
-4.070617	article	-0.06115439
-4.547738	articles	-0.08130153
-4.547738	artur1983	-0.08130153
-4.547738	arza	-0.06770372
-4.547738	asco	-0.07373026
-4.547738	aser	-0.08130153
-4.547738	aspirines	-0.07097952
-4.547738	assebentara	-0.06770372
-4.547738	assegurat	-0.05388923
-4.547738	asseguts	-0.06770372
-3.40161	assemblea	-0.1608214
-4.547738	assenyalarho	-0.08115385
-4.547738	assistirem	-0.07097952
-4.246708	assoleixen	-0.07248895
-4.547738	assolellat	-0.06770372
-4.547738	assolir	-0.08130153
-4.547738	assolit	-0.08130153
-4.547738	at	-0.08130153
-4.246708	atencio	-0.07665029
-4.547738	atents	-0.07097952
-4.547738	atribuim	-0.07124405
-4.547738	aturar	-0.08006935
-4.547738	audiovisual	-0.08126462
-4.547738	aue	-0.0760529
-3.945678	augment	-0.05069273
-4.547738	augmenta	-0.06770372
-4.547738	augmentat	-0.07124405
-4.547738	augmenti	-0.06486332
-4.547738	auguri	-0.05388923
-4.547738	autocar	-0.06770372
-4.547738	autonomia	-0.07904398
-4.547738	autonomic	-0.07905634
-4.246708	autonomica	-0.080883
-4.070617	autonomiques	-0.07577883
-4.547738	aval	-0.06486332
-4.070617	avanc	-0.1879898
-4.246708	avancar	-0.05176086
-4.547738	avanci	-0.08115385
-4.547738	avant	-0.07866038
-4.547738	avantatges	-0.06770372
-4.547738	avenc	-0.08115385
-4.547738	avencos	-0.07905634
-4.547738	avenir	-0.05388923
-3.945678	avi	-0.06683956
-4.547738	avia	-0.08126462
-4.246708	aviam	-0.07929129
-4.246708	aviat	-0.08079677
-4.547738	avipep3	-0.08125231
-4.070617	avis	-0.193849
-2.70264	avui	-0.1327325
-4.246708	baixa	-0.07174747
-4.246708	baixant	-0.07246383
-4.246708	baixar	-0.05327282
-4.246708	baixat	-0.06711935
-4.547738	balco	-0.08130153
-4.547738	balla	-0.07656321
-4.547738	ballant	-0.07739584
-4.246708	ballar	-0.06485055
-4.547738	balls	-0.08130153
-4.547738	banc	-0.08130153
-3.945678	banda	-0.0771102
-4.547738	bandera	-0.06770372
-3.70264	banderes	-0.1205815
-4.547738	bandes	-0.05388923
-4.547738	banos	-0.05388923
-4.246708	barallem	-0.273572
-4.246708	barca	-0.2781363
-4.547738	barreja	-0.08111692
-4.070617	barri	-0.0802174
-4.246708	barrio	-0.07096694
-4.246708	barris	-0.06769104
-4.547738	barsiset	-0.08126462
-4.547738	basats	-0.07905634
-4.547738	basiques	-0.08064891
-4.547738	basquet	-0.08055031
-4.547738	bastant	-0.08130153
-4.246708	bat	-0.07075267
-4.246708	bcnencomu	-0.04580671
-3.18601	be	-0.09704405
-3.593495	ben	-0.08013105
-4.070617	beneficia	-0.07738343
-4.547738	beneficiadissim	-0.07905634
-4.547738	beneficii	-0.07895739
-4.547738	berenat	-0.08124001
-4.547738	berlin	-0.08125231
-4.547738	besavia	-0.08073516
-4.246708	besnets	-0.07840035
-4.547738	besora	-0.08130153
-4.547738	bestia	-0.06770372
-4.547738	beure	-0.08130153
-4.547738	bicicletes	-0.08126462
-4.547738	bien	-0.0773586
-4.547738	biga	-0.07097952
-4.547738	bigoti	-0.06486332
-4.547738	bilirrubina	-0.07373026
-4.547738	birres	-0.08130153
-4.547738	bitllet	-0.08062426
-3.70264	blanc	-0.1180018
-4.547738	blanco	-0.08116616
-4.246708	blancs	-0.06251846
-4.070617	blau	-0.08117847
-4.547738	blauPP	-0.05388923
-3.70264	bloc	-0.2110554
-4.547738	blocolesa	-0.0773586
-4.547738	bluf	-0.07373026
-4.246708	bo	-0.05703637
-3.08534	bon	-0.1439382
-3.547738	bona	-0.05990239
-4.547738	bonament	-0.08094456
-4.246708	bondat	-0.05386303
-4.246708	bones	-0.08115387
-4.547738	bonic	-0.08114155
-3.945678	bons	-0.1672368
-4.246708	born	-0.07989658
-4.547738	borratxera	-0.08114155
-4.547738	borratxos	-0.08130153
-4.246708	botiflers	-0.06767835
-4.547738	botigaavui	-0.08130153
-4.547738	botperque	-0.08078444
-4.547738	brac	-0.07373026
-4.547738	brigadistes	-0.08040238
-4.246708	britanic	-0.2779025
-4.547738	brodar	-0.08130153
-3.769587	broma	-0.02586137
-4.547738	bromes	-0.08130153
-4.547738	broquil	-0.08130153
-4.547738	bruta	-0.07373026
-4.246708	brutal	-0.06743705
-4.547738	bruto	-0.08106768
-4.547738	btv	-0.07672489
-3.433794	btvnoticies	-0.2860318
-4.547738	bucle	-0.08130153
-4.547738	buf	-0.08104306
-4.246708	buit	-0.06837609
-4.547738	bull	-0.08115385
-4.547738	burla	-0.08088298
-4.246708	buscar	-0.0688955
-4.547738	buscas	-0.08127692
-4.547738	busquem	-0.08120308
-4.547738	butletta	-0.07097952
