
\data\
ngram 1=6321
ngram 2=21087
ngram 3=2139
ngram 4=1103
ngram 5=669
ngram 6=474

\1-grams:
-3.836818	#	-0.2550064
-4.234757	#1DPremiosTelehit2015FB	-0.0468536
-4.535788	#27	-0.08454357
-1.409007	#27S	-0.5295762
-2.836818	#27S2015	-0.4384304
-4.535788	#27S2015el	-0.09351423
-4.535788	#27SCatRadio	-0.06531177
-4.535788	#27SDeberia	-0.09343833
-4.535788	#27SDia	-0.09347628
-4.535788	#27SEspanaEsIndivisible	-0.06531177
-4.535788	#27SEspanaIndivisible	-0.09351423
-4.535788	#27SQuiero	-0.09340038
-4.535788	#27SSi	-0.09036623
-3.004309	#27STV3	-0.6608396
-4.535788	#27Seleccions	-0.09351423
-4.234757	#27SenCuatro	-0.06458237
-3.581545	#27Srac1	-0.126806
-2.31568	#27s	-0.4878003
-4.234757	#27s2015	-0.07622685
-4.535788	#27s2015votaindependencia	-0.06531177
-4.234757	#27sTV3	-0.306192
-4.535788	#27srac1	-0.07625317
-4.535788	#27stv3	-0.09289405
-4.535788	#27stve	-0.09348893
-4.535788	#40anos	-0.09351423
-4.535788	#540votosde678	-0.06531177
-4.535788	#ABuenasHoras	-0.09333713
-4.535788	#ARVObjetivoCataluna	-0.07625317
-4.535788	#Adelante	-0.08551086
-4.234757	#Albiol	-0.09030253
-4.535788	#AleaJactaEst	-0.07625317
-4.535788	#AlvarodelPortillo	-0.09109178
-4.535788	#Amistad	-0.09351423
-4.535788	#Amor	-0.07625317
-2.902319	#ApoderadosCs	-0.2856895
-4.535788	#ArribaEspana	-0.09351423
-4.535788	#ArtuMas	-0.09334978
-3.69069	#ArturMas	-0.1364958
-4.535788	#AsambleaDeAndalucia	-0.06531177
-4.535788	#Asturias	-0.06531177
-4.535788	#BCN	-0.09350158
-4.234757	#BCNNaranja	-0.07431427
-4.535788	#Banos	-0.09194309
-4.535788	#Barca	-0.08551086
-3.757636	#Barcelona	-0.05054152
-4.535788	#BocaDeUrna	-0.09347628
-4.535788	#Bruselas	-0.08454357
-4.535788	#BuenasNochesYBuenaSuerte	-0.06531177
-4.234757	#BuenosDias	-0.06529828
-3.836818	#CATNaranja	-0.2537083
-4.535788	#CATnaranja	-0.06531177
-4.535788	#CIUERC	-0.09350158
-3.581545	#CUP	-0.134709
-4.535788	#Cambiemos	-0.07625317
-4.535788	#CaminemJunts	-0.09271669
-4.535788	#CaminemosJuntos	-0.09351423
-4.535788	#Carmel	-0.06531177
-4.535788	#CasaXCasa	-0.0911808
-4.535788	#Cat4everCtxt	-0.06531177
-4.234757	#CatNaranja	-0.306192
-3.69069	#CatParlaCtxt	-0.5686676
-4.535788	#CatSiQueEsPot	-0.09341303
-2.991719	#CatSiQueEsPot27S	-0.2611622
-4.535788	#Catal	-0.06531177
-4.234757	#CatalanElections	-0.306192
-4.234757	#Catalanas	-0.06524429
-4.535788	#CatalanyEspanol	-0.06531177
-4.535788	#Catalogne	-0.09342568
-4.234757	#Catalonia	-0.06528478
-4.535788	#CataloniaSaysYES	-0.07625317
-4.234757	#CataloniaVotes	-0.306192
-2.819784	#Cataluna	-0.4408483
-4.535788	#CatalunaCiudadana	-0.09166373
-4.535788	#CatalunaDecide	-0.07625317
-4.535788	#CatalunaDiceNo	-0.09142233
-4.535788	#CatalunaEsCiudadana	-0.09334978
-3.38966	#CatalunaEsEspana	-0.5658197
-4.535788	#CatalunaXaTodos	-0.06531177
-4.535788	#CatalunaesEspana	-0.09142233
-4.535788	#Catalunasevaalaquiebra	-0.06531177
-2.979485	#Catalunya	-0.2420052
-4.535788	#CatalunyaDecideix	-0.06531177
-4.058666	#CatalunyaEsEspana	-0.09091368
-4.535788	#CatalunyaLaHasCagao	-0.09348893
-4.535788	#CatalunyaRECORTAR	-0.08551086
-4.234757	#CatalunyaSiQueEsPot	-0.07622685
-4.535788	#Catalunyaque	-0.09350158
-4.535788	#Catastrofe	-0.07625317
-3.38966	#CatparlaCtxt	-1.192982
-4.535788	#Catsiespot	-0.09343833
-4.535788	#Ciudadanos	-0.09346364
-4.535788	#Ciutadans	-0.07625317
-4.535788	#ClaroClaro	-0.09351423
-4.535788	#ColmenarViejo	-0.09040445
-4.234757	#ComunicacionPolitica	-0.06529828
-4.535788	#ConEllosSi	-0.09302069
-4.535788	#Cs	-0.08533047
-4.535788	#DaPaloVotar	-0.07625317
-4.535788	#DaQuePensar	-0.06531177
-4.535788	#Democracia	-0.09315995
-4.535788	#Detallazo	-0.07625317
-4.535788	#Diciembre2015	-0.09351423
-4.234757	#Directo	-0.0468536
-4.535788	#DoYouHearThePeopleSing	-0.07625317
-4.234757	#DomingoDeGanarSeguidores	-0.06529828
-4.535788	#DomingoPasaDespacio	-0.06531177
-4.535788	#DudaRazonable	-0.06531177
-4.535788	#Duran	-0.06531177
-4.535788	#DuranILleida	-0.09337508
-4.535788	#Durcal	-0.09302069
-4.535788	#EQUIPAZO	-0.09350158
-4.234757	#ESPANA	-0.06529828
-4.535788	#EclipseLunar	-0.09351423
-4.535788	#ElCambioQueUne	-0.09351423
-4.535788	#ElCambioSensato	-0.09036623
-4.535788	#ElMonEnsMira	-0.09351423
-4.535788	#ElSignoDeLosTiempos	-0.07625317
-4.234757	#Elecciones	-0.09347629
-3.494395	#Elecciones27S	-0.1694777
-4.234757	#EleccionesA3	-0.0468536
-4.535788	#EleccionesAUTONOMICAS	-0.06531177
-4.535788	#EleccionesAutonomicas	-0.09307133
-2.933728	#EleccionesCatalanas	-0.3415526
-4.535788	#EleccionesCatalanasenlaSER	-0.09347628
-3.933728	#EleccionesCataluna	-0.3007769
-4.535788	#EleccionesGenerales	-0.07625317
-3.836818	#Eleccionescatalanas	-0.04681135
-4.535788	#EleccionescatalanasenlaSER	-0.09218419
-3.836818	#Eleccions2015	-0.3001426
-3.632698	#Eleccions27S	-0.3420251
-4.058666	#EleccionsCatalanes	-0.1918295
-4.535788	#ElecionesCatalanas	-0.09351423
-4.535788	#EnDirecto	-0.09272937
-4.535788	#EquipoNaranja	-0.09218419
-4.535788	#EsClarQueNoEsClar	-0.09351423
-3.08863	#Espana	-0.1497108
-4.234757	#EspanaUnida	-0.0677209
-4.535788	#Espanol	-0.09256462
-4.535788	#EstafaEstados	-0.09351423
-4.535788	#FANB	-0.06531177
-4.535788	#FairPlay	-0.07625317
-4.535788	#FanTotal	-0.08533047
-4.535788	#FelizDomigo	-0.06531177
-3.836818	#FelizDomingo	-0.137771
-4.234757	#Fiestadelademocracia	-0.07494833
-4.535788	#Fotoperiodismo	-0.09109178
-4.535788	#Fuengirola	-0.09351423
-4.535788	#GHDirecto	-0.09350158
-4.058666	#GerardPique	-0.09166373
-4.535788	#Google	-0.08454357
-3.69069	#Governemnos	-0.2500305
-3.632698	#GuanyemJunts	-0.102225
-4.535788	#HayaPaz	-0.07625317
-4.535788	#HoyNoTeQuedesEnCasa	-0.07625317
-4.535788	#ICETA27S	-0.06531177
-4.535788	#IESJaumeBalmes	-0.09317261
-4.535788	#IIIRepublica27s	-0.06531177
-4.535788	#Iceta	-0.09286872
-2.678455	#Iceta27S	-0.5792358
-4.535788	#IcetaLoPeta	-0.07625317
-4.234757	#Icetalopeta	-0.09283072
-4.058666	#Independencia	-0.1997139
-4.535788	#Independiente	-0.09334978
-3.581545	#InesPresidenta	-0.9717849
-4.535788	#Italia	-0.09333713
-4.058666	#JaqueAlRey	-0.2212159
-4.234757	#JornadaDeReflexio	-0.3343818
-4.535788	#JulioIglesias	-0.09186692
-4.535788	#Junqueras	-0.09350158
-4.535788	#JuntoaGanamos	-0.06531177
-4.535788	#JuntosHacemosMas	-0.06531177
-4.535788	#JuntosPorlSisegun	-0.09351423
-4.234757	#JuntsGuanyem	-0.0468536
-4.535788	#JuntsPel3Percent	-0.09345099
-3.280515	#JuntsPelSi	-0.1356384
-4.535788	#JuntsiMillor	-0.06531177
-4.535788	#JuntspelNO	-0.09283072
-4.535788	#Juntspelsi	-0.09318526
-4.535788	#Katalunia	-0.07625317
-4.535788	#L'hospitalet	-0.07625317
-4.234757	#L6Ncatalunavota	-0.09245053
-2.803394	#L6cat	-0.6752464
-4.535788	#LQSA	-0.08454357
-4.058666	#La6Cat	-0.452833
-3.757636	#La6cat	-0.4589018
-4.535788	#LaCatalunyaDeLaGent	-0.07625317
-4.535788	#Lectores	-0.08551086
-4.535788	#LeyDHont	-0.07625317
-4.535788	#LiberenACeballos	-0.06531177
-4.234757	#LlamadasQueUnen	-0.0932612
-4.535788	#LunaRoja	-0.09351423
-3.836818	#Madrid	-0.09077371
-3.632698	#Mas	-0.08705407
-4.535788	#Mas#	-0.08440153
-4.535788	#Mashaciendocuentas	-0.07625317
-3.757636	#MejorUnidos	-0.2509106
-4.535788	#MenosMal	-0.06531177
-4.535788	#Misterio	-0.09351423
-4.535788	#Moixent	-0.09351423
-4.535788	#NO	-0.08551086
-4.058666	#NOIndependencia	-0.1918295
-4.535788	#Nerviosdepolitologo	-0.06531177
-4.535788	#News	-0.09317261
-4.535788	#NitelTeuvot	-0.06531177
-4.535788	#Nivelon	-0.09289405
-4.535788	#Nomasfrentismos	-0.08533047
-4.535788	#Noticias27S	-0.06531177
-4.535788	#NoticiasFinDeSemanaA3	-0.09351423
-4.234757	#NuevaCatTodos	-0.06473105
-4.234757	#ObservatorioDialoga	-0.0725658
-4.535788	#Oleyole	-0.06531177
-4.535788	#OndaCero27S	-0.06531177
-4.535788	#PACMA	-0.08533047
-4.535788	#PODEMOS	-0.06531177
-3.69069	#PP	-0.1016695
-4.535788	#PPCataluna	-0.08454357
-4.535788	#PSC	-0.09351423
-4.535788	#PSOE	-0.09351423
-4.535788	#PapaEnEEUU	-0.07625317
-4.535788	#Parlament	-0.07759346
-4.535788	#PedroSanchez	-0.09351423
-3.69069	#Periscope	-0.2133075
-4.535788	#Peroquemeestascontando	-0.06531177
-3.933728	#PlantemCara	-0.1655883
-3.305339	#PlantemosCara	-0.2512788
-4.535788	#Podemos	-0.08870691
-4.535788	#Polibaruta	-0.09291938
-4.535788	#Policar	-0.09341303
-4.234757	#PorLaUnidadDeEspana	-0.06521729
-4.535788	#Porqueunpaisdivididonoprospera	-0.07625317
-4.535788	#PreguntaRabos	-0.09286872
-4.535788	#PublicoCAT27S	-0.07625317
-4.535788	#PublicoCAT27s	-0.07625317
-4.535788	#Quito	-0.09348893
-4.535788	#RCDE	-0.06531177
-4.535788	#RESPECTE	-0.06531177
-4.535788	#RazonarAntesdeVotar	-0.06531177
-4.535788	#ReadHappyNews	-0.06531177
-4.535788	#ReflexionesCunadianas	-0.07625317
-4.535788	#ReinoUnido	-0.06531177
-4.535788	#Resumen	-0.08533047
-4.535788	#Rigor	-0.06531177
-4.535788	#Ripollet	-0.06531177
-4.234757	#Roma	-0.3171334
-4.234757	#SI	-0.05675236
-4.535788	#Salt	-0.06531177
-4.535788	#SantFeliu	-0.09351423
-4.234757	#SantJustDesvern	-0.09102819
-4.535788	#SantaColoma	-0.09351423
-4.535788	#SensePor	-0.06531177
-4.535788	#SeparacionPoderes	-0.06531177
-4.535788	#Si	-0.09351423
-4.535788	#Sisepuede	-0.07625317
-4.535788	#Sitges	-0.06531177
-4.535788	#Socialistas	-0.09340038
-4.535788	#SoloGanasDe	-0.07625317
-4.058666	#SomLaHistoria	-0.2101797
-4.058666	#SomriureCUP	-0.09337507
-4.535788	#SotodelReal	-0.09351423
-4.535788	#Spain	-0.09351423
-4.535788	#StopGolpismo	-0.07625317
-4.535788	#SuperEclipse	-0.08551086
-4.535788	#Tarragona	-0.07625317
-4.535788	#Telecinco	-0.09252659
-4.535788	#Torremolinos	-0.09351423
-4.535788	#TotsJunts	-0.09337508
-4.535788	#TrueStory	-0.09327386
-4.535788	#UNGA70	-0.06531177
-4.535788	#URGENTE	-0.09350158
-3.933728	#UnidosGanamos	-0.3190056
-4.535788	#UnidosGanemos	-0.09331182
-4.234757	#Union	-0.09333713
-4.535788	#UnitsGuanyem	-0.06531177
-4.535788	#UtilizaBienTuVoto	-0.09322324
-4.535788	#UtilizaBienTuVotoCatalan	-0.09350158
-4.535788	#VOX	-0.09351423
-4.535788	#VaHomeVa	-0.06531177
-4.535788	#VaParaLargo	-0.06531177
-4.535788	#VamosJuntos	-0.09350158
-4.535788	#ViscaCatalunyaLliure	-0.09351423
-3.632698	#VivaEspana	-0.4458598
-4.535788	#VivaEspana#responsabilitat	-0.07625317
-4.535788	#Viviendoatope	-0.07625317
-4.234757	#VotaIceta	-0.06527129
-4.535788	#VotaPerMi	-0.09318526
-4.234757	#VotaSocialista	-0.06521729
-4.535788	#VotarePerTu	-0.07625317
-4.535788	#Vox	-0.09351423
-3.836818	#YoVotoNaranja	-0.1255975
-4.535788	#YoVotoaInes27S	-0.09271669
-4.535788	#YovotoaInes27S	-0.09346364
-4.535788	#a3cataluna	-0.06531177
-4.058666	#a3noticias	-0.06263126
-4.535788	#aaiceu	-0.06531177
-4.535788	#aburridodomingo	-0.06531177
-4.535788	#adeupresident	-0.09142233
-4.535788	#altaparticipacion	-0.07625317
-4.535788	#alucino	-0.09166373
-3.280515	#analistasbez	-0.5183875
-4.535788	#anticapitalista	-0.09332447
-4.535788	#apoderadosCs	-0.06531177
-4.234757	#apoderadoscs	-0.06485266
-4.535788	#araeslhora	-0.07625317
-4.234757	#arturmas	-0.332544
-4.535788	#autonomicas	-0.08870691
-4.535788	#avuinemavotar	-0.07625317
-4.535788	#backstage	-0.06531177
-4.535788	#baileiceta	-0.07625317
-4.535788	#basura	-0.09309665
-4.535788	#bcn	-0.09348893
-4.535788	#besos	-0.09351423
-4.535788	#boadilla	-0.09142233
-4.535788	#bonavista	-0.06531177
-4.535788	#boncopdefalc	-0.09351423
-4.535788	#bso	-0.09142233
-4.535788	#buenasnoches	-0.06531177
-4.535788	#buenosdiaas	-0.06531177
-4.535788	#byebyepopulismo	-0.09309665
-4.535788	#cadaverPolitico	-0.06531177
-4.234757	#caminemjunts	-0.06332329
-4.535788	#catalanaenmadrid	-0.06531177
-4.234757	#cataloniavotes	-0.306192
-3.632698	#cataluna	-0.1392295
-4.535788	#cataluna13Tv	-0.09337508
-4.535788	#cataluna13tv	-0.09289405
-4.535788	#catalunaEsEspana	-0.06531177
-3.933728	#catalunya	-0.1670015
-4.535788	#catalunyalliure	-0.08533047
-4.535788	#catnaranja	-0.08533047
-4.535788	#catparlaCTXT	-0.06531177
-4.058666	#catparlaCtxt	-0.452833
-3.836818	#catparlactxt	-0.2343933
-4.535788	#chapeau	-0.06531177
-4.535788	#chedocumentacion	-0.07625317
-4.535788	#ciencia	-0.09308399
-4.234757	#ciudadanos	-0.06523079
-4.058666	#ciutadans	-0.06769405
-4.058666	#clasicoselectorales	-0.04662822
-4.535788	#comentariostranscendentalesdelaseleccionescatalanas	-0.06531177
-4.535788	#concepto	-0.09142233
-4.535788	#conojosdenino	-0.09351423
-4.535788	#contenta	-0.06531177
-4.535788	#conunpar	-0.06531177
-4.535788	#convivencia	-0.09351423
-4.535788	#cuentaatras	-0.08533047
-4.535788	#cup	-0.06531177
-4.535788	#ddj	-0.06531177
-3.757636	#democracia	-0.04671276
-4.535788	#descansar	-0.09142233
-4.535788	#devantalerespoweralesurnes	-0.06531177
-4.535788	#diagonalmar	-0.09351423
-4.535788	#diahistorico	-0.06531177
-4.535788	#dignidad	-0.09351423
-4.535788	#dimisionMas	-0.07625317
-4.535788	#directa	-0.07625317
-4.234757	#directo	-0.06525779
-4.535788	#documentos	-0.09343833
-4.535788	#dog	-0.06531177
-4.535788	#doge	-0.06531177
-4.535788	#dw	-0.07625317
-3.421844	#elecccionescatalanas	-0.4956518
-4.535788	#eleccio	-0.06531177
-3.836818	#elecciones	-0.04576791
-4.234757	#elecciones2015	-0.07622685
-4.234757	#elecciones27S	-0.05655961
-3.213568	#eleccionesA3	-0.4833675
-1.728253	#eleccionescatalanas	-0.6709669
-4.535788	#eleccionescatalanas2015	-0.06531177
-4.535788	#eleccionescatalanasel	-0.09171454
-4.535788	#eleccionescatalanaspatriciadolz	-0.09272937
-4.535788	#eleccionescatalanes	-0.09142233
-4.535788	#eleccionescataluna	-0.06531177
-3.836818	#eleccions	-0.1519772
-3.933728	#eleccions2015	-0.04448132
-4.535788	#eleccions27S	-0.06531177
-3.234758	#eleccionscatalanes	-0.4730052
-4.535788	#eleccionsparlament2015	-0.09337508
-4.535788	#elecionescatalanas	-0.06531177
-4.535788	#electores	-0.09327386
-4.535788	#elnostrefutur	-0.06531177
-4.234757	#elvotdelatevavida	-0.06529828
-4.535788	#emocion	-0.09351423
-4.535788	#enajenado	-0.06531177
-4.535788	#eshumana	-0.09142233
-4.234757	#espana	-0.306192
-4.234757	#espanaunida	-0.0468536
-4.535788	#esperanza	-0.09350158
-4.535788	#estoSIimporta	-0.09142233
-4.535788	#estonovaconmigo	-0.07625317
-4.535788	#fail	-0.06531177
-4.535788	#fb	-0.06531177
-4.535788	#felicidades	-0.09351423
-4.535788	#firamedievalspm	-0.09346364
-4.535788	#formasdeoptimismo	-0.09327386
-4.535788	#fortpienc	-0.06531177
-4.535788	#freecat	-0.09351423
-4.535788	#friendship	-0.09351423
-4.234757	#governemnos	-0.05655961
-4.535788	#guanyem	-0.09351423
-4.535788	#guardia	-0.09351423
-4.535788	#haGanadoelNO	-0.06531177
-4.535788	#haymasopciones	-0.06531177
-4.535788	#hedicho	-0.09351423
-4.535788	#hipocritas	-0.09351423
-4.535788	#iceta	-0.06531177
-4.535788	#iceta27S	-0.09297004
-3.836818	#icetalopeta	-0.1172351
-4.535788	#ilusion	-0.09351423
-4.234757	#imparables	-0.306192
-4.535788	#indepencia	-0.09142233
-4.535788	#independanceday	-0.06531177
-4.535788	#independecewon	-0.06531177
-4.058666	#independencia	-0.09048086
-4.535788	#independentismo	-0.09328651
-4.535788	#independentista	-0.08533047
-4.535788	#indyref	-0.07625317
-4.234757	#inespresidenta	-0.306192
-4.535788	#invencibles	-0.07625317
-4.535788	#jaquealrey27s	-0.09346364
-4.535788	#joaquimruyra	-0.09351423
-4.535788	#jojahevotat	-0.09337508
-4.234757	#jornadaelectoral	-0.09338774
-4.535788	#jornadahistorica	-0.08533047
-4.535788	#jotambesoccatalana	-0.06531177
-4.535788	#jotestimo	-0.09142233
-4.535788	#junporsi	-0.09350158
-4.535788	#juntosporelno	-0.06531177
-4.535788	#juntspelsi	-0.09329917
-4.535788	#la6cat	-0.06531177
-4.535788	#ladada	-0.07625317
-4.535788	#lavidaendirecto	-0.09309665
-4.535788	#lugenpresse	-0.06531177
-4.234757	#madrid	-0.08503395
-4.535788	#manipular	-0.08533047
-4.535788	#masclaroagua	-0.06531177
-4.535788	#mascosta	-0.06531177
-4.535788	#meaburro	-0.06531177
-4.535788	#mejorunidos	-0.07625317
-4.535788	#mesaelectoral	-0.07625317
-4.535788	#mimetismos	-0.09040445
-4.535788	#morodenervis	-0.06531177
-4.535788	#muchpeople	-0.09351423
-4.535788	#mygod	-0.09346364
-4.535788	#nervios	-0.09194309
-4.535788	#nnggmoncloa	-0.09351423
-4.535788	#noMeEnganan	-0.09317261
-4.535788	#nohaymalqueporbiennovenga	-0.09142233
-4.535788	#noolvidamos	-0.06531177
-4.535788	#nopotser	-0.08533047
-4.535788	#nosomostanminoria	-0.06531177
-4.058666	#noticias	-0.2099096
-4.535788	#oCUPemLesUrnes	-0.09345099
-4.535788	#ojoaldato	-0.06531177
-4.234757	#opinionesciudadanas	-0.3171334
-4.535788	#ouyeah	-0.07625317
-4.058666	#pedrosanchez	-0.2382624
-4.535788	#pereza	-0.08533047
-4.058666	#periodismo	-0.04657185
-4.535788	#plantemoscara	-0.09351423
-4.535788	#plebiscito	-0.09109178
-4.535788	#poblenou	-0.06531177
-4.535788	#pocaverguenzapicha	-0.06531177
-4.535788	#polirika	-0.06531177
-4.535788	#politica	-0.09231104
-4.535788	#politicalcompass	-0.06531177
-4.535788	#politicosirresponsables	-0.08533047
-4.535788	#porqueunvasoesunvaso	-0.07625317
-4.535788	#porraselectorales	-0.09329917
-4.535788	#pp	-0.09351423
-4.535788	#ppelalamo	-0.09252659
-4.535788	#presidemesa	-0.07625317
-4.535788	#presidentamesaelectoral	-0.09351423
-4.535788	#proyecto	-0.06531177
-3.757636	#publicocat27S	-0.3392679
-4.234757	#publicocat27s	-0.06306561
-4.535788	#quegran	-0.08533047
-4.535788	#quenosetepase	-0.09332447
-4.535788	#quenovotinpertu	-0.09348893
-4.535788	#quesuerte	-0.06531177
-4.234757	#quinsFUCKINGnervis	-0.306192
-4.535788	#quote	-0.09351423
-4.535788	#rajoyquotes	-0.07625317
-4.535788	#referendum	-0.09347628
-4.535788	#religion	-0.09308399
-4.234757	#resultadoselectorales	-0.0468536
-4.535788	#revolucion	-0.07625317
-4.535788	#rockstarts	-0.09336243
-4.535788	#ruptura	-0.08551086
-4.535788	#sinprogramaciondetv	-0.09351423
-4.535788	#sinvosotrosnoseriaigual	-0.06531177
-3.331668	#somriureCUP	-0.3310658
-4.535788	#superluna	-0.08551086
-4.535788	#ticktack	-0.06531177
-4.535788	#tiemblo	-0.09142233
-4.535788	#todos	-0.08440153
-4.535788	#todosganan	-0.06531177
-4.535788	#trabajo	-0.08454357
-4.535788	#trabajobienhecho	-0.09327386
-4.535788	#tuNoPero	-0.09284338
-4.535788	#uffff	-0.09351423
-4.535788	#ultimahora	-0.09345099
-4.535788	#unpocodehumor	-0.06531177
-4.535788	#vaia	-0.07625317
-4.535788	#vayadia	-0.09351423
-4.535788	#verydemocracy	-0.09351423
-4.535788	#viscacatalunya	-0.07625317
-4.535788	#vivalalegion	-0.09351423
-4.535788	#votado	-0.08454357
-4.535788	#votar	-0.08551086
-4.535788	#wow	-0.09351423
-4.535788	#yoflipo	-0.09142233
-4.535788	#yomeindigno	-0.08533047
-4.535788	#yovoto	-0.06531177
-3.757636	#yovotoalbiol	-0.2096934
-4.535788	#zasca	-0.09297004
-3.581545	%	-0.2824181
-4.535788	&amp	-0.09302069
-4.058666	&gt	-0.09215881
-4.535788	&gtVideo	-0.09218419
-4.535788	&lt	-0.09329917
-4.058666	'	-0.05570496
-4.234757	'Al	-0.3343818
-4.535788	'Don't	-0.09351423
-4.535788	'Es	-0.08392338
-4.234757	'Genova'	-0.09106635
-3.933728	'Junts	-0.4137308
-4.234757	'Mira	-0.3340402
-4.535788	'Ohio'	-0.07759346
-4.535788	'Quien	-0.08362588
-4.535788	'Si'	-0.09302069
-4.535788	'Todo	-0.08547222
-4.535788	'Yo	-0.09346364
-4.535788	'colocan'	-0.09151129
-4.535788	'fiestatriunfo	-0.07759346
-4.535788	'ganar'	-0.09351423
-4.535788	'ha	-0.09255194
-4.535788	'mandato	-0.09351423
-4.535788	'mayoria	-0.09351423
-4.535788	'no	-0.09351423
-4.535788	'nueva	-0.09348893
-4.535788	'ohios'	-0.09283072
-4.535788	'puente'	-0.06531177
-4.535788	'sentido	-0.09351423
-4.535788	'seny'	-0.09081189
-4.058666	'si'	-0.2255765
-4.535788	'subliminal'	-0.09109178
-4.535788	'unionista'	-0.09317261
-4.535788	02	-0.09351423
-3.494395	1	-0.1095541
-4.535788	1%	-0.09271669
-2.944723	10	-0.2923532
-4.535788	10#27S	-0.06531177
-4.535788	10%	-0.09271669
-4.535788	100%	-0.09323589
-4.535788	1030	-0.09346364
-3.193365	11	-0.1943936
-4.535788	11%	-0.09271669
-4.058666	1113	-0.07522544
-4.535788	1146	-0.09350158
-4.535788	118%	-0.09166373
-4.535788	1191%	-0.09271669
-3.933728	12	-0.05666976
-4.535788	12%	-0.09308399
-4.535788	120000	-0.09351423
-4.535788	1214	-0.09193039
-3.632698	13	-0.4150636
-4.535788	13%	-0.09196847
-3.933728	1300	-0.3442386
-4.234757	1300h	-0.09161293
-4.535788	1330	-0.09346364
-4.535788	1335%	-0.09274203
-4.535788	1349%#eleccionescatalanas	-0.06531177
-4.058666	135	-0.06508227
-4.535788	13H	-0.09241249
-4.535788	13tves	-0.08362588
-4.058666	14	-0.06919476
-4.535788	14%	-0.09058275
-4.535788	1400	-0.09351423
-4.535788	1426%	-0.09271669
-4.535788	144	-0.09333713
-4.535788	15	-0.09351423
-4.535788	15%	-0.09271669
-4.535788	15000	-0.09351423
-4.535788	1512	-0.09351423
-4.535788	1575000	-0.09351423
-3.535788	16	-0.3345799
-4.535788	1605643	-0.09252659
-3.305339	17	-0.4489723
-4.058666	17%	-0.08967774
-4.535788	1714	-0.09343833
-4.535788	1716%	-0.09271669
-4.535788	1740	-0.09345099
-4.535788	1745h	-0.07625317
-4.535788	1753	-0.07625317
-4.535788	1788%	-0.09271669
-4.535788	1791%socialistescat	-0.09331182
-4.535788	1794%	-0.08533047
-3.69069	18	-0.2461262
-4.535788	180	-0.09346364
-3.757636	1800	-0.2447049
-4.234757	1800h	-0.09347629
-4.535788	180177	-0.09040445
-4.535788	1845Hs	-0.07625317
-3.69069	18h	-0.1374598
-3.836818	19	-0.06523079
-4.535788	191008	-0.09342568
-4.535788	1932	-0.09308399
-4.234757	1940h	-0.306192
-4.535788	1980	-0.08855342
-4.535788	19h	-0.07625317
-4.234757	1a	-0.09310932
-4.535788	1contenido	-0.09350158
-4.535788	1servicios	-0.09351423
-3.456606	2	-0.06007074
-4.058666	20	-0.09179072
-4.058666	20%	-0.4802379
-3.933728	2000	-0.09300802
-4.058666	2000h	-0.0932865
-3.757636	2010	-0.1422587
-2.750458	2012	-0.2050512
-4.535788	2012A	-0.08998387
-4.535788	2014	-0.09260264
-3.421844	2015	-0.1067879
-4.535788	20150927	-0.09331182
-4.535788	2015El	-0.09343833
-4.535788	2050	-0.09271669
-4.234757	2050%	-0.08450484
-4.535788	2059	-0.09332447
-4.535788	20H	-0.07625317
-4.058666	20h	-0.238275
-4.535788	20m	-0.07625317
-4.058666	21	-0.08385871
-4.535788	21h	-0.09332447
-3.757636	22	-0.1377295
-4.234757	222%	-0.09229836
-4.535788	226%	-0.09341303
-3.69069	23	-0.2853131
-4.535788	233%	-0.09318526
-3.535788	24	-0.4451176
-4.535788	2451%	-0.09271669
-4.535788	248%	-0.09274203
-4.234757	24h	-0.09350158
-3.933728	24htve	-0.1688021
-4.535788	24symbolses	-0.06531177
-3.120814	25	-0.3691646
-4.234757	25%	-0.07675298
-4.535788	27	-0.09340038
-3.836818	27S	-0.06118942
-4.535788	28	-0.09294471
-4.234757	2827%	-0.3335969
-4.535788	2851%	-0.09219687
-4.535788	28S	-0.09351423
-4.234757	2943%	-0.09279272
-4.535788	2Avance	-0.07625317
-4.535788	2a	-0.09319792
-4.535788	2hs	-0.07759346
-4.535788	2mujerescerca	-0.07759346
-3.632698	3	-0.2638788
-3.933728	3%	-0.09044266
-4.234757	30	-0.0932359
-4.535788	30%	-0.08551086
-4.535788	3000Dulce	-0.09351423
-4.535788	321	-0.08533047
-4.234757	3261%	-0.07675298
-4.535788	33%	-0.09271669
-4.535788	3478%	-0.09350158
-4.535788	35	-0.09324855
-3.581545	35%	-0.1819308
-4.535788	35%casi	-0.09345099
-4.535788	3503%	-0.06531177
-4.535788	3509%	-0.07759346
-4.058666	36%	-0.08490494
-4.535788	3653%	-0.09271669
-4.234757	3809%	-0.3342806
-4.535788	39%	-0.07759346
-4.234757	3913	-0.07742287
-4.535788	3928%CiudadanosCs	-0.09319792
-4.234757	3942%	-0.07714716
-4.535788	39545	-0.09347628
-4.234757	3969%	-0.05966075
-4.535788	3969%escrutado	-0.09308399
-3.494395	4	-0.1522756
-4.535788	40	-0.09343833
-3.757636	40%	-0.2185095
-4.535788	40min	-0.07759346
-4.234757	44%	-0.07751474
-4.535788	45	-0.09340038
-4.535788	45%	-0.07759346
-4.535788	45'	-0.08454357
-4.535788	4500	-0.09196847
-4.234757	452%	-0.3335969
-4.234757	47	-0.09283072
-3.632698	47%	-0.1657243
-4.535788	4718%	-0.07759346
-4.535788	4725%	-0.07759346
-4.535788	4728	-0.08551086
-4.234757	4729%	-0.07643738
-4.234757	473%	-0.0692349
-4.535788	4732%de	-0.09196847
-4.535788	4736%	-0.07759346
-4.535788	4737%	-0.08454357
-4.234757	474%	-0.3184737
-4.535788	4749	-0.09341303
-4.535788	475%	-0.08547222
-4.535788	4752	-0.09341303
-4.535788	4758%	-0.09196847
-4.535788	4758%Artur	-0.09351423
-4.535788	4759%	-0.08454357
-4.535788	4763%	-0.08454357
-4.535788	4775%	-0.08362588
-4.535788	4796%	-0.07759346
-4.535788	4799%	-0.09274203
-4.234757	48%	-0.07597671
-4.535788	4801%	-0.09260264
-4.535788	4805%	-0.0911808
-4.535788	4807%	-0.09271669
-4.535788	4854%	-0.08870691
-4.234757	49%	-0.09147317
-4.535788	498%	-0.09293205
-3.456606	5	-0.3588745
-4.234757	5%	-0.3325059
-4.535788	50	-0.09351423
-3.280515	50%	-0.3897342
-4.535788	500	-0.09324855
-4.535788	502%	-0.08870691
-4.535788	5033%	-0.06531177
-4.234757	51%	-0.3184737
-4.535788	5146%	-0.07625317
-4.234757	517%	-0.06731807
-4.535788	5173%	-0.09340038
-4.535788	5199%	-0.08533047
-4.234757	52	-0.08800299
-3.581545	52%	-0.2117759
-4.535788	5214%	-0.07759346
-4.535788	5221%	-0.08362588
-4.535788	5242%	-0.09351423
-4.535788	5242%Si	-0.09256462
-4.234757	5268%	-0.09058276
-4.535788	5271%	-0.09297004
-4.535788	5272	-0.07625317
-3.757636	53%	-0.06540625
-4.058666	535	-0.4806938
-4.058666	55	-0.09319791
-4.535788	55%	-0.09297004
-4.535788	5510798	-0.09283072
-4.535788	5557	-0.09193039
-4.535788	56%	-0.09271669
-4.535788	56'30%	-0.0908628
-4.535788	5637	-0.09271669
-4.535788	5637%	-0.09271669
-4.535788	5637&amp	-0.07759346
-4.535788	569	-0.09317261
-4.535788	57%	-0.09260264
-4.535788	593%	-0.09309665
-3.757636	6	-0.09134609
-4.234757	6'9%	-0.3325059
-4.535788	60	-0.09324855
-3.535788	60%	-0.2129427
-4.535788	60%escrutado	-0.07625317
-4.535788	6008	-0.09271669
-4.535788	6008%	-0.09271669
-4.535788	617%	-0.07759346
-3.257034	62	-0.2251325
-4.535788	62La	-0.09346364
-3.234758	63	-0.5694622
-3.933728	63%	-0.1712138
-4.535788	63'14%	-0.09337508
-4.234757	63'20%	-0.3343818
-4.535788	6308%	-0.08855342
-3.836818	6314%	-0.0675061
-4.234757	6320%	-0.09328651
-4.535788	6324	-0.09341303
-4.535788	6324%	-0.09036623
-4.535788	634%	-0.09345099
-4.234757	6366	-0.09181613
-4.535788	637%	-0.09271669
-4.058666	6373%	-0.0766478
-4.058666	64	-0.2364744
-4.535788	64%	-0.09341303
-3.632698	66	-0.3477758
-4.535788	6731%	-0.09271669
-4.535788	6776%	-0.09351423
-4.535788	6796%	-0.07759346
-4.234757	68	-0.09157482
-3.456606	7	-0.5685945
-4.058666	7%	-0.22855
-3.69069	70%	-0.2196086
-3.494395	71	-0.1807912
-3.581545	72	-0.6014091
-4.535788	72%	-0.08440153
-3.933728	73	-0.4126025
-4.535788	73%	-0.09271669
-4.535788	73%escrutado	-0.09166373
-4.535788	738%	-0.09271669
-4.535788	74%	-0.09271669
-3.933728	743%	-0.188493
-4.535788	7479	-0.07759346
-3.836818	75%	-0.06707618
-4.535788	76	-0.09193039
-4.535788	76%	-0.07759346
-4.535788	7649	-0.09341303
-4.535788	765%	-0.09271669
-4.535788	77	-0.09284338
-4.234757	77%	-0.07677927
-4.535788	771%	-0.07759346
-4.535788	773%	-0.09350158
-4.535788	775%	-0.07625317
-4.058666	8	-0.09114265
-4.234757	80	-0.09342569
-3.632698	80%	-0.03890945
-4.535788	8010%	-0.08533047
-4.535788	808%	-0.09351423
-4.535788	8080%	-0.09271669
-4.234757	82%	-0.09132066
-4.535788	8228%En	-0.07625317
-4.535788	823%	-0.09271669
-4.535788	84%	-0.07759346
-4.535788	842%	-0.06531177
-4.535788	8476	-0.09341303
-4.535788	8826%	-0.09271669
-4.535788	889%	-0.07759346
-4.535788	8955	-0.09341303
-4.535788	8aldia	-0.08551086
-3.38966	9	-0.4806244
-4.535788	9%	-0.09162563
-4.234757	90	-0.09172724
-4.535788	9063%	-0.09271669
-4.535788	911	-0.09345099
-4.535788	9181%	-0.09343833
-4.535788	92	-0.06531177
-4.535788	92%	-0.07759346
-4.535788	9255%	-0.09348893
-4.535788	95%	-0.09213344
-4.535788	96%	-0.07759346
-4.535788	9N	-0.09347628
-1.201334	</s>
-4.535788	<<Manana	-0.08870691
-4.535788	<<Me	-0.09329917
-4.535788	<<ojo	-0.08392338
-99	<s>	-0.4108521
-4.536629	<unk>
-2.716244	A	-0.2896938
-4.535788	A3Catalunya	-0.06531177
-3.494395	A3Noticias	-0.1635983
-4.535788	ABC	-0.09345099
-4.535788	ACABAT	-0.09345099
-4.535788	ACTUALIZACION	-0.09302069
-4.535788	AGRADA	-0.09351423
-4.535788	AJENews	-0.08533047
-4.535788	ALGUIEN	-0.09351423
-4.535788	AMPLIA	-0.09351423
-4.535788	AMas	-0.09351423
-4.535788	ANC	-0.09351423
-4.535788	ANDRESCANO42	-0.09351423
-4.535788	ANIMO	-0.06531177
-4.535788	AR	-0.09351423
-4.535788	ARRIMADAS	-0.08533047
-4.058666	ARTUR	-0.4809722
-4.535788	ATRAS	-0.09350158
-4.234757	AVE	-0.07747537
-4.234757	AbaldeMaria	-0.08491785
-4.234757	Abren	-0.3294336
-4.535788	Abrir	-0.08855342
-4.535788	Abucheos	-0.08551086
-4.535788	Aca	-0.09040445
-3.69069	Acabo	-1.096189
-4.535788	Acerto	-0.09040445
-4.535788	Aclarando	-0.09351423
-4.535788	Acordandonos	-0.07759346
-4.535788	Actimel	-0.09109178
-4.535788	Activo	-0.09109178
-4.535788	Actualidad	-0.09331182
-3.535788	ActualidadRT	-0.1924098
-4.535788	Acuerdo	-0.09351423
-4.234757	Ada	-0.09348893
-4.234757	AdaColau	-0.06529828
-4.535788	Adaptemosla	-0.08440153
-4.535788	Addair	-0.06531177
-4.535788	AdderEG	-0.09323589
-4.234757	Ademas	-0.07754099
-4.535788	Adios	-0.09350158
-4.535788	Adonde	-0.09342568
-4.535788	Agarraros	-0.08362588
-4.535788	AgataBarbany	-0.09351423
-4.535788	Aglezterol	-0.06531177
-4.535788	Agradecida	-0.08551086
-4.234757	Ah	-0.09279272
-4.535788	Ahi	-0.09231104
-3.17406	Ahora	-0.2325898
-4.535788	Aixi	-0.09351423
-4.535788	Ajram	-0.09218419
-3.456606	Al	-0.09247588
-4.535788	AlRojoVivo	-0.09351423
-4.535788	Albert	-0.09350158
-3.004309	AlbertRivera	-0.2303628
-3.456606	Albiol	-0.04183967
-3.137848	AlbiolXG	-0.112175
-4.535788	Alcalde	-0.07759346
-4.535788	Ale	-0.09256462
-4.535788	Alemania	-0.08551086
-4.535788	Algo	-0.08870691
-3.933728	Alguien	-0.0801965
-4.535788	Algun	-0.09351423
-4.234757	Alguna	-0.09322324
-4.234757	Algunos	-0.09334978
-4.535788	Alianza	-0.09350158
-4.535788	AliceSchwarm	-0.09346364
-4.535788	Alicia	-0.09342568
-4.535788	AliciaSCamacho	-0.09351423
-4.535788	Aliciaruizmoyan	-0.09351423
-4.535788	Alla	-0.09342568
-4.058666	Alucino	-0.06311986
-4.535788	Americana	-0.09040445
-4.535788	Amor	-0.08551086
-4.234757	Ana	-0.09350158
-4.535788	Analisi	-0.09350158
-4.535788	Analisis	-0.09058275
-4.234757	Andalucia	-0.09321058
-4.535788	AndaluciaTeresa	-0.09351423
-4.535788	Andaluza	-0.09350158
-4.535788	Andorra	-0.06531177
-4.535788	Angel	-0.09351423
-4.535788	Angelina	-0.09351423
-4.535788	Animalista	-0.08454357
-3.581545	Animo	-0.2214943
-4.535788	Anoche	-0.09351423
-4.535788	Anos	-0.09350158
-4.234757	Antoni	-0.093084
-3.757636	Antonio	-0.4871127
-4.535788	Apoderado	-0.07759346
-4.535788	Apoderados	-0.07759346
-4.535788	Apoyando	-0.09302069
-4.535788	Apuesta	-0.0911808
-4.535788	Apunta	-0.09348893
-3.280515	Aqui	-0.1290569
-4.535788	Aquiles	-0.09262799
-4.058666	Aragon	-0.09035348
-4.234757	Arbitro	-0.3248036
-4.535788	Arenas	-0.09351423
-4.535788	Armas	-0.07759346
-4.535788	Arriba	-0.09351423
-4.535788	Arribadas	-0.08551086
-4.058666	Arrimadas	-0.0839363
-4.535788	Arrimades	-0.09343833
-4.535788	Art	-0.09337508
-2.494395	Artur	-1.422006
-4.535788	ArturMas	-0.09351423
-3.836818	ArturMasCat	-0.05282544
-3.933728	Arturo	-0.1925413
-4.535788	ArturoDKC	-0.06531177
-4.535788	Artus	-0.0908628
-3.421844	Asi	-0.07576595
-4.535788	Asombrosa	-0.09213344
-4.535788	Asturias	-0.09261531
-4.535788	Asturias#Iceta27S	-0.06531177
-3.933728	Atentos	-0.08103035
-4.535788	Atocha	-0.06531177
-4.535788	Atraer	-0.08551086
-4.535788	Atras	-0.08454357
-4.234757	Aumenta	-0.08391045
-4.535788	Aumento	-0.09308399
-4.058666	Aun	-0.23367
-4.058666	Aunque	-0.07115661
-4.535788	Aupa	-0.09350158
-4.535788	Aute	-0.07625317
-4.535788	Autonomicas	-0.09040445
-4.234757	Avance	-0.07733099
-4.535788	Ave	-0.09351423
-4.535788	Avis	-0.09251391
-4.535788	Avui	-0.07625317
-4.234757	Ay	-0.09071007
-4.535788	Ayer	-0.09081189
-4.058666	Azana	-0.07255252
-4.234757	BAJO	-0.3343692
-4.234757	BANDERA	-0.07624001
-4.535788	BANOS	-0.09312198
-4.535788	BARCELONA	-0.08440153
-4.234757	BASTA	-0.3252817
-4.535788	BBC	-0.07625317
-4.058666	BCN	-0.06521728
-4.535788	BOCA	-0.09346364
-4.535788	BOND	-0.08362588
-4.058666	BRAVO	-0.06514978
-4.535788	BROMA	-0.09315995
-4.058666	Badalona	-0.09057001
-4.535788	Badia	-0.09351423
-4.535788	Bailanpeor	-0.08362588
-4.535788	Bailona	-0.09338773
-4.535788	Bajan	-0.08855342
-4.535788	Bajo	-0.08392338
-4.058666	Banderas	-0.07752785
-4.535788	Banez	-0.09351423
-3.535788	Banos	-0.253952
-4.535788	BanosCUPdescribe	-0.08392338
-4.535788	Barba	-0.08454357
-4.535788	Barbera	-0.09058275
-3.933728	Barca	-0.09209537
-3.08863	Barcelona	-0.06812395
-4.535788	Barrachina	-0.09350158
-4.535788	Barrio	-0.09351423
-4.058666	Basta	-0.09194307
-4.535788	Batacazo	-0.09274203
-4.535788	Batet	-0.09348893
-4.535788	Beals	-0.09297004
-4.234757	BeatrizTalegon	-0.06529828
-4.535788	Bermudas	-0.09348893
-4.535788	Bertin	-0.09351423
-4.535788	Besitos	-0.08551086
-4.535788	Bianca	-0.09231104
-4.058666	Bien	-0.089282
-4.234757	Bienvenidos	-0.3252817
-4.535788	Bildu	-0.06531177
-4.535788	Bipolar	-0.09345099
-4.535788	BobEstropajo	-0.09351423
-4.535788	Boi	-0.07759346
-3.757636	Bon	-0.7945987
-4.535788	Bona	-0.09351423
-4.535788	Bondia	-0.09346364
-3.933728	Born	-0.09022607
-4.535788	Borrego	-0.07625317
-4.234757	Borrel	-0.3343059
-4.234757	Borrell	-0.08491785
-4.535788	Bosh	-0.09081189
-4.535788	Botebote	-0.09351423
-4.234757	Botran	-0.07566055
-4.058666	Bravo	-0.09158751
-4.535788	Brillante	-0.09346364
-4.234757	Bruselas	-0.09251392
-4.535788	Brutal	-0.08547222
-4.234757	Buen	-0.09338774
-4.535788	Buena	-0.09347628
-4.535788	Buenisima	-0.08392338
-4.535788	Bueno	-0.0913715
-3.757636	Buenos	-0.4867837
-4.535788	Buscado	-0.09351423
-4.535788	Buti	-0.09267868
-4.535788	C	-0.09351423
-3.004309	C's	-0.2701149
-4.535788	CALLEEEEE	-0.09350158
-4.535788	CARAJO	-0.09348893
-4.234757	CAT	-0.09090097
-4.535788	CATALANES	-0.06531177
-4.535788	CATALUNYA	-0.08551086
-4.234757	CC	-0.09261532
-4.058666	CDC	-0.09324854
-4.535788	CDCERC62	-0.09351423
-4.535788	CDialoga	-0.09351423
-4.535788	CE	-0.09350158
-4.234757	CERA	-0.0808481
-4.234757	CIU	-0.08549799
-4.535788	CIUDADANOS	-0.09351423
-4.535788	CIUERC	-0.09275471
-4.535788	COM	-0.09351423
-4.535788	COMPROMIS	-0.09351423
-4.535788	CONA	-0.08547222
-4.535788	CONSIGUENOS	-0.09044266
-4.535788	CONVERGENCIA	-0.09331182
-4.535788	COPE	-0.09040445
-4.058666	CSP	-0.0927547
-3.69069	CSQEP	-0.07870722
-4.535788	CSQEP10	-0.08551086
-3.933728	CSQP	-0.08379405
-4.535788	CSQSP	-0.08551086
-2.36847	CUP	-0.1543023
-4.535788	CUPSSG	-0.06531177
-4.535788	C`s	-0.09338773
-4.535788	Cabe	-0.09347628
-4.535788	Cabot	-0.09345099
-4.535788	Cabrera	-0.07759346
-4.234757	Cada	-0.093084
-4.535788	Cadena	-0.09350158
-4.535788	Cadiz	-0.07759346
-4.535788	Cae	-0.07759346
-4.535788	Caer	-0.08454357
-4.535788	Calvino	-0.08551086
-4.535788	Camacho	-0.09351423
-3.933728	CamaraCivica	-0.3969253
-4.535788	Cambio	-0.06531177
-4.234757	Camino	-0.06812336
-4.535788	Can	-0.09271669
-4.535788	Canada	-0.06531177
-4.535788	Canal	-0.09351423
-4.535788	Canarias	-0.09337508
-4.535788	Canizares	-0.08454357
-4.234757	Canticos	-0.06827084
-4.535788	CapitanFrontera	-0.09351423
-4.535788	Cardenal	-0.09351423
-4.535788	Cargaditos	-0.07759346
-4.535788	Carmel	-0.07625317
-4.234757	CarmelaRios	-0.0468536
-4.535788	Carmen	-0.09351423
-4.535788	CarolinaDiazEsp	-0.06531177
-4.535788	Carpe	-0.09351423
-4.535788	Carrizosa	-0.09302069
-4.535788	Casi	-0.09205731
-4.535788	Casualidades	-0.07759346
-4.234757	Cat	-0.09059549
-4.535788	CatSiQueEsPot	-0.09303335
-3.632698	CatSiqueesPot	-0.4916229
-3.632698	Catalan	-0.3441818
-4.535788	Catalana	-0.08551086
-3.632698	Catalanas	-0.2071802
-3.632698	Catalanes	-0.05974279
-4.535788	Catalans	-0.08533047
-4.535788	Catalina	-0.09351423
-4.535788	Catalonia	-0.09351423
-2.418516	Cataluna	-0.1390307
-4.058666	Cataluna'	-0.06684761
-4.535788	CatalunaSal	-0.08440153
-2.795425	Catalunya	-0.1828028
-4.234757	CatalunyaPlural	-0.06482564
-4.535788	Catastrofe	-0.09142233
-4.535788	Catsiqespot	-0.09176534
-4.535788	Catsiqueespot	-0.08870691
-4.234757	Celebrando	-0.08348353
-4.535788	Cena	-0.09350158
-4.535788	Central	-0.09347628
-4.535788	Centre	-0.09351423
-4.535788	CepJSACadiz	-0.09351423
-4.535788	Cero	-0.09040445
-4.535788	Cerrados	-0.08855342
-4.535788	Champions	-0.07625317
-4.535788	Charlie	-0.09351423
-3.456606	CiU	-0.2332374
-4.535788	CiUERC68	-0.09272937
-4.535788	CiUERC71	-0.09193039
-4.234757	Cierran	-0.3294336
-4.535788	Cierto	-0.09284338
-4.535788	Cinco	-0.09340038
-4.535788	Cintora	-0.09040445
-4.234757	Ciu	-0.08549799
-4.535788	Ciudadania	-0.09219687
-4.234757	CiudadanoVille	-0.09264067
-3.104424	Ciudadanos	-0.1279478
-4.535788	Ciudadanos24	-0.09351423
-2.36847	CiudadanosCs	-0.2038513
-4.535788	CiudadanosPodemos	-0.09260264
-4.535788	Ciudadanoshablamos	-0.09040445
-3.305339	Ciutadans	-0.1466168
-4.535788	Ciutadans#eleccionescatalanas	-0.06531177
-3.456606	CiutadansCs	-0.06397665
-4.535788	Ciutandans	-0.09036623
-4.535788	Civismo	-0.06531177
-4.535788	Clar	-0.08362588
-4.535788	Clara	-0.09269135
-4.535788	Claramente	-0.08392338
-4.535788	Claro	-0.08362588
-4.535788	Club	-0.07759346
-4.535788	Cn	-0.09341303
-4.535788	Cobertura	-0.09332447
-4.535788	Colaborar	-0.09040445
-3.757636	Colas	-0.3744718
-4.535788	Colau	-0.09351423
-4.234757	Colegio	-0.3343692
-4.535788	Colocan	-0.08440153
-4.535788	Colon	-0.09340038
-4.234757	Com	-0.3343818
-4.535788	Comida	-0.09351423
-3.933728	Comienza	-0.1764223
-4.535788	Comienzan	-0.08855342
-3.257034	Como	-0.08538538
-4.535788	Companeros	-0.07759346
-4.535788	Comparece	-0.09338773
-4.535788	Compartid	-0.09044266
-4.535788	Complejo	-0.09350158
-2.736447	Con	-0.5913927
-4.535788	Conclusiones	-0.09351423
-4.535788	Confia	-0.08454357
-4.535788	Confio	-0.08551086
-4.535788	Conociendo	-0.08855342
-4.535788	Consejera	-0.07759346
-4.535788	Consitutucional	-0.08870691
-4.535788	Const	-0.09040445
-4.535788	Constitucion	-0.07625317
-4.535788	Constitucional	-0.09351423
-4.535788	Contad	-0.09040445
-4.535788	ContentaYa	-0.09346364
-4.234757	Contra	-0.07568691
-4.535788	Contraprogramando	-0.09205731
-4.535788	Contrate	-0.09044266
-4.234757	Convergencia	-0.08303029
-4.234757	ConvergenciaCAT	-0.05675236
-4.535788	ConvergenciaERC	-0.09350158
-4.535788	Conviene	-0.09351423
-4.234757	Convivencia	-0.06529828
-4.535788	Cope	-0.06531177
-4.535788	CopeCatalunya	-0.07625317
-4.535788	Cordura	-0.09348893
-4.535788	Cornet	-0.09350158
-4.535788	Corriereit	-0.09334978
-4.535788	Corta	-0.08547222
-4.535788	Cortocircuito	-0.09345099
-4.535788	Cortocircuitos	-0.09345099
-4.234757	Cosas	-0.09055729
-4.234757	Cospedal	-0.3263911
-4.535788	Creaba	-0.09347628
-4.535788	Cree	-0.08547222
-4.535788	Creen	-0.09351423
-3.69069	Creo	-1.102222
-4.535788	Crisis	-0.08551086
-4.535788	Cruz	-0.07759346
-3.69069	Cs	-0.08414312
-4.234757	CsAsturias	-0.06332329
-4.234757	CsBCNA	-0.3338629
-4.535788	CsBormujos	-0.06531177
-4.535788	CsCadizCiudad	-0.09142233
-4.535788	CsCambrils	-0.09166373
-4.535788	CsElVendrell	-0.09040445
-3.933728	CsGranada	-0.06187013
-4.535788	CsHospitalet	-0.06531177
-4.234757	CsMadrid	-0.09346364
-4.535788	CsMadridCiudad	-0.08551086
-4.535788	CsMalaga	-0.09323589
-4.535788	CsPuertollano	-0.06531177
-4.535788	CsSevilla	-0.09350158
-4.535788	CsTorredembarra	-0.09333713
-4.535788	CsTresCantos	-0.09351423
-4.535788	Csdeverdad	-0.09351423
-4.535788	CsiPot	-0.08551086
-4.535788	Csilva2Carlos	-0.09350158
-4.535788	CsqeP	-0.09341303
-4.058666	Cuales	-0.4804406
-4.058666	Cuando	-0.08253764
-4.535788	Cuanta	-0.09295738
-4.535788	Cuanto	-0.09350158
-4.535788	Cuantos	-0.09162563
-4.535788	Cuenta	-0.09348893
-4.535788	Cuentan	-0.09350158
-4.234757	Cues	-0.07624001
-4.535788	Cuesta	-0.09351423
-4.535788	Cultural	-0.09343833
-4.535788	Cumplido	-0.09272937
-4.535788	Cumpliendo	-0.09340038
-3.836818	Cup	-0.08549798
-4.535788	CupAunque	-0.08454357
-4.535788	Cupula	-0.09317261
-4.058666	Curioso	-0.066013
-3.933728	D	-0.09307133
-4.535788	D'Hondt	-0.09337508
-4.535788	D'Hont	-0.09336243
-3.632698	DE	-0.1972866
-4.535788	DERECHOS	-0.09342568
-4.535788	DICTADURA	-0.09351423
-4.535788	DIEZ	-0.09193039
-4.535788	DIFUNDELO	-0.09142233
-4.535788	DISMALAND	-0.09058275
-4.535788	DMoizteleSUR	-0.09340038
-4.058666	DNI	-0.092666
-4.535788	DONDE	-0.09351423
-4.535788	Dades	-0.07759346
-4.535788	DanielCeballos	-0.09350158
-3.933728	Dato	-0.1810835
-3.757636	Datos	-0.2221756
-4.234757	David	-0.08543357
-4.535788	DavidJimenezTWHabla	-0.09044266
-4.535788	DaviniaMari	-0.09351423
-4.058666	Dcorr17	-0.4797181
-3.07339	De	-0.3339989
-4.234757	DebatAlRojoVivo	-0.06493372
-4.535788	Debemos	-0.09351423
-4.535788	Deberia	-0.09294471
-4.234757	Decenas	-0.3184737
-4.535788	Decepcion	-0.08454357
-4.535788	Decidme	-0.08362588
-4.535788	Decir	-0.08362588
-3.933728	Dedicado	-0.336824
-4.234757	Defender	-0.3252817
-4.535788	Definitivamente	-0.09291938
-4.234757	Dejad	-0.08341882
-4.535788	Dejemos	-0.07759346
-4.535788	Dejen	-0.07759346
-4.535788	Delsurgr	-0.09351423
-4.058666	Democracia	-0.093046
-4.535788	DemosUC3M	-0.09337508
-4.535788	Demostrado	-0.09327386
-4.535788	Demostremos	-0.08362588
-4.234757	Derecho	-0.07123651
-4.535788	Derechos	-0.08440153
-4.535788	Desaparecen	-0.09350158
-4.535788	Desayuno	-0.08551086
-3.494395	Desde	-0.1191706
-4.535788	Deseando	-0.09345099
-4.535788	Desfibrillador	-0.07625317
-4.535788	Desfile	-0.07759346
-4.535788	Despacito	-0.08551086
-4.535788	Despegue	-0.09345099
-4.535788	Despertando	-0.08440153
-4.535788	Desplome	-0.09058275
-3.69069	Despues	-0.3851124
-4.535788	Detalles	-0.09227299
-3.632698	Dia	-0.1829632
-4.234757	Dialogo	-0.3263911
-4.535788	DiariARA	-0.09351423
-4.535788	Dias	-0.09327386
-4.234757	Diaz	-0.07622685
-3.836818	Dice	-0.161544
-4.058666	Dicen	-0.2265396
-4.535788	Dificil	-0.08870691
-4.535788	Digamos	-0.09350158
-4.535788	Digan	-0.0913715
-4.535788	Digno	-0.08551086
-4.234757	Dios	-0.0886046
-4.234757	Directo	-0.3342553
-4.535788	Disfrutad	-0.09058275
-4.234757	Disfrutando	-0.07435393
-4.535788	Divertido	-0.07625317
-4.535788	Divididos	-0.07625317
-4.535788	Doble	-0.09309665
-4.535788	Dolors	-0.09351423
-4.535788	Domingo	-0.07759346
-4.535788	Don	-0.09351423
-4.535788	Doncs	-0.09351423
-4.058666	Donde	-0.08218727
-4.535788	Donem	-0.09351423
-4.535788	Doraemon	-0.09351423
-4.234757	Duran	-0.0854851
-4.535788	DuranLleida	-0.07759346
-4.535788	Durante	-0.09345099
-4.535788	Durcal	-0.09350158
-4.535788	Duro	-0.07625317
-4.535788	ECONOMICO	-0.09294471
-4.234757	EEUU	-0.09285606
-4.535788	EFE	-0.09219687
-4.535788	EFEnoticias	-0.09350158
-4.535788	EH	-0.09314729
-3.69069	EL	-0.5976732
-4.234757	EN	-0.09348893
-4.234757	EPCatalunya	-0.3331532
-4.535788	ER	-0.09166373
-3.305339	ERC	-0.1287784
-4.535788	ERCCIU	-0.08551086
-4.535788	ERocabayera	-0.09166373
-4.234757	ES	-0.09350158
-4.535788	ESE	-0.09351423
-4.535788	ESP	-0.09194309
-3.69069	ESPANA	-0.2436079
-4.234757	ESPANOL	-0.06271274
-4.535788	ESTA	-0.08533047
-4.535788	EUiA	-0.08533047
-4.535788	Echo	-0.08454357
-4.234757	EconoDigital	-0.06382465
-4.535788	Economia	-0.09351423
-4.535788	Ecuatorial	-0.09351423
-4.535788	Eduardo	-0.09348893
-4.535788	Educacion	-0.09348893
-4.535788	Eixample	-0.09312198
-3.933728	Ejerciendo	-0.1723409
-2.510482	El	-0.1815099
-4.535788	ElDiagonal	-0.09351423
-3.69069	ElMundoEnVivo	-0.2498754
-3.155576	Elecciones	-0.3251217
-4.058666	Electoral	-0.06769405
-4.234757	Ellos	-0.07947864
-4.234757	Els	-0.09350158
-4.535788	Elsquatregats	-0.06531177
-4.234757	Embajada	-0.3184737
-4.535788	Emocionante	-0.07625317
-4.535788	Empezamos	-0.09322324
-3.933728	Empieza	-0.1701241
-2.63816	En	-0.2765459
-4.535788	Encima	-0.09036623
-4.535788	Encomendare	-0.08440153
-4.234757	Encuesta	-0.3184737
-4.535788	Endavant	-0.09323589
-3.193365	Enhorabuena	-0.3542468
-4.535788	Ensena	-0.08392338
-4.535788	Entiendo	-0.08362588
-4.058666	Entonces	-0.08449192
-4.535788	Entoncesh	-0.09171454
-4.535788	Entrando	-0.09304601
-3.836818	Entre	-0.08132963
-4.535788	Entrevistada	-0.0911808
-4.535788	Envejecimiento	-0.09351423
-4.234757	Enviadnos	-0.3343692
-4.535788	Enviado	-0.0911808
-4.535788	Envio	-0.09044266
-4.535788	Equo	-0.09081189
-4.234757	Era	-0.3339389
-4.535788	Eres	-0.09044266
-4.535788	ErnestoSuidry	-0.09343833
-3.421844	Es	-0.1807824
-4.234757	Escanos	-0.08505973
-4.535788	Escoces	-0.09347628
-4.234757	Escola	-0.09193039
-3.581545	Escrutado	-0.1788984
-4.535788	Escrutinio	-0.09205731
-4.058666	Escuchando	-0.2293645
-4.535788	Escuela	-0.09351423
-3.836818	Ese	-0.2711022
-3.757636	Eso	-0.4760618
-4.535788	Esos	-0.09343833
-2.684529	Espana	-0.1292844
-4.535788	EspanaX	-0.09342568
-4.535788	Espanistan	-0.08533047
-4.234757	Espanola	-0.08336703
-4.234757	Espanoles	-0.08869413
-4.535788	Espanols	-0.09328651
-4.535788	Esparza	-0.09351423
-3.933728	Especial	-0.3170939
-4.535788	Espectacular	-0.08547222
-4.535788	Esperamos	-0.0913715
-4.535788	Esperan	-0.09351423
-3.494395	Esperando	-0.3362272
-4.234757	Esperemos	-0.08524024
-3.836818	Espero	-0.2724602
-4.058666	EsquerraERC	-0.06769405
-3.581545	Esta	-0.2301539
-4.535788	Estacion	-0.09351423
-3.836818	Estado	-0.2667286
-4.535788	Estais	-0.09351423
-3.535788	Estamos	-0.1658063
-4.535788	Estan	-0.08855342
-4.535788	Estaras	-0.09347628
-4.535788	Estariamos	-0.09327386
-4.234757	Estatut	-0.07617421
-3.535788	Este	-0.2045926
-4.535788	EstherBazan	-0.08551086
-3.933728	Estilismo	-0.09028978
-3.494395	Esto	-0.2219903
-4.535788	Estos	-0.0924632
-3.494395	Estoy	-0.1472537
-4.535788	Estrenando	-0.09272937
-4.535788	Estupenda	-0.09327386
-4.535788	Etimologia	-0.07759346
-4.535788	Etxeberreala	-0.09318526
-4.535788	Euforia	-0.09317261
-3.933728	Europa	-0.06683417
-4.535788	Europea	-0.09205731
-4.535788	Europeos	-0.09351423
-4.535788	Euskadi	-0.09231104
-4.535788	Exactamente	-0.08362588
-4.535788	Excede	-0.09205731
-4.535788	Excelentes	-0.0924632
-4.535788	Excepto	-0.09271669
-4.535788	Exito	-0.09109178
-4.535788	Experiencia	-0.0929827
-4.535788	Explicado	-0.09307133
-4.535788	Expulsan	-0.08440153
-4.535788	Extranas	-0.09332447
-4.535788	FDF	-0.06531177
-4.535788	FF	-0.09337508
-4.234757	FIN	-0.3343059
-4.535788	FLA	-0.09351423
-4.535788	Familia	-0.09336243
-4.535788	Fan	-0.07759346
-4.535788	Fantastica	-0.09350158
-4.535788	Farga	-0.09351423
-4.535788	Fascistas	-0.09342568
-4.535788	Fdez	-0.09350158
-4.535788	Feliciano	-0.09350158
-3.836818	Felicidades	-0.1537191
-4.535788	Felicidades#eleccionescatalanas	-0.06531177
-4.535788	Felicitamos	-0.09205731
-4.535788	Felicitats	-0.06531177
-4.058666	Feliz	-0.07642421
-4.535788	Fent	-0.09337508
-4.058666	Fernandez	-0.09112993
-4.535788	Fernando	-0.07625317
-4.535788	Ferraz	-0.08547222
-4.535788	Ferreras	-0.08454357
-4.535788	Filipinas	-0.08551086
-4.234757	Fin	-0.3184737
-4.535788	Final	-0.07759346
-4.535788	Fito	-0.08551086
-4.535788	Flanders	-0.08533047
-4.535788	Flandes	-0.09351423
-4.535788	Flash	-0.09340038
-4.535788	Flipantesegun	-0.09328651
-4.535788	Flowerminx	-0.09348893
-4.234757	Fogars	-0.3184737
-4.234757	Fontana	-0.07622685
-4.535788	ForcadellCarme	-0.09336243
-4.535788	Forges	-0.09351423
-4.535788	Formacion	-0.09350158
-4.234757	Foto	-0.07756723
-4.535788	Fracasados	-0.09337508
-4.535788	Fracaso	-0.09351423
-4.535788	Fraga	-0.09348893
-4.535788	Fran	-0.09351423
-4.234757	FranHervias	-0.06529828
-4.234757	Francesc	-0.09350158
-4.535788	Francisco	-0.09351423
-4.535788	Franco	-0.09336243
-4.535788	Frente	-0.08440153
-4.535788	Frontanya	-0.09081189
-4.535788	Frontera	-0.07759346
-4.234757	Fuente	-0.3342679
-4.535788	Fuerte	-0.08551086
-4.535788	Fuerza	-0.08440153
-4.535788	Futuro	-0.09252659
-4.535788	G	-0.09351423
-4.535788	GAD3com	-0.08440153
-4.535788	GARA	-0.06531177
-4.535788	GLlamazares	-0.08870691
-4.535788	GOOOOOOOL	-0.09342568
-4.535788	GPPopular	-0.09351423
-4.535788	GPisarello	-0.08551086
-4.535788	GRACIAS	-0.09337508
-4.535788	GRAN	-0.09343833
-4.535788	GSantaCruzA3	-0.09336243
-4.535788	Gabilondo	-0.09260264
-4.535788	Gad3	-0.09109178
-4.535788	Galerias	-0.09351423
-4.535788	Galicia	-0.06531177
-4.535788	Gallego	-0.09312198
-3.933728	Gana	-0.08135564
-4.535788	Ganadores	-0.09166373
-4.535788	Ganaremos	-0.08533047
-4.234757	Ganas	-0.3184737
-3.69069	Garcia	-0.4018458
-4.535788	Generales	-0.07625317
-4.535788	Generalidad	-0.08362588
-3.836818	Generalitat	-0.1637021
-4.535788	Genova	-0.06531177
-4.234757	Gente	-0.07755411
-4.535788	Gestion	-0.07759346
-4.535788	GmppcO	-0.09321058
-4.535788	Go	-0.09351423
-4.535788	Gob	-0.09036623
-4.535788	Gobernacion	-0.06531177
-3.581545	Gobierno	-0.08238705
-4.535788	Godot	-0.07625317
-4.535788	Google	-0.07625317
-4.535788	Govern	-0.07625317
-4.535788	Gracia	-0.09351423
-3.69069	Gracias	-0.07427459
-3.632698	Gran	-0.1968562
-4.535788	Granada	-0.09218419
-3.836818	Grande	-0.09173994
-4.234757	Grandes	-0.09338774
-4.234757	Grandisimo	-0.09333713
-4.535788	Gritan	-0.09186692
-3.933728	Gritos	-0.1811623
-4.535788	Guardian	-0.09334978
-4.535788	Guatire	-0.09351423
-4.535788	GuilleCT1987	-0.09194309
-4.535788	Guillesaenz	-0.09351423
-4.535788	Guinea	-0.09351423
-4.535788	Gusten	-0.09272937
-4.535788	H	-0.07759346
-4.535788	HA	-0.09351423
-4.234757	HORA	-0.09328651
-3.494395	Ha	-0.3811173
-4.535788	Hablais	-0.07759346
-4.535788	Hablando	-0.08454357
-3.933728	Habra	-0.09220956
-4.535788	Habremos	-0.09332447
-4.535788	Habria	-0.09255194
-4.535788	Hace	-0.09294471
-4.535788	Hacer	-0.09343833
-4.234757	Haciendo	-0.0913588
-4.535788	Hagamos	-0.09251391
-4.535788	Hagan	-0.09044266
-4.234757	Han	-0.3339642
-3.933728	Hasta	-0.1855522
-3.305339	Hay	-0.2087206
-3.757636	He	-0.2452114
-4.234757	HelenaVillarRT	-0.09346364
-3.836818	Hemos	-0.2823595
-4.535788	Hernandez	-0.07625317
-4.535788	Herramientas	-0.09109178
-4.234757	HiginiaRoig	-0.06690142
-4.535788	Hipocritana	-0.09350158
-3.933728	Hola	-0.1800052
-4.535788	Hollywood	-0.08551086
-4.535788	Home	-0.07625317
-4.535788	Homenajes	-0.08440153
-4.535788	Homes	-0.09205731
-4.535788	Homs	-0.09348893
-4.535788	Hora	-0.09304601
-4.535788	Hora14	-0.09350158
-4.535788	Horta	-0.0929827
-4.058666	Hospitalet	-0.2355459
-4.535788	Hostion	-0.09058275
-2.803394	Hoy	-0.1876001
-4.535788	Huida	-0.09350158
-4.535788	Humanidad	-0.07625317
-4.535788	I	-0.09351423
-3.757636	ICV	-0.1222127
-4.535788	ICVEU	-0.08551086
-4.535788	ICVEUIA	-0.09347628
-3.933728	ICVPodemos	-0.3463992
-4.535788	ICatalunya	-0.07625317
-4.535788	INCREPAR	-0.09269135
-3.757636	INDEPENDENCIA	-0.1097993
-4.535788	INES	-0.09351423
-4.535788	INFORMACIO	-0.07625317
-4.535788	IRPF	-0.07625317
-4.535788	IS	-0.09351423
-4.535788	IU	-0.09305868
-4.535788	Iaio	-0.09351423
-3.137848	Iceta	-0.1296976
-4.535788	Ideas	-0.09348893
-4.535788	Identidades	-0.09351423
-3.836818	Iglesias	-0.08348352
-4.535788	IglesiasSi	-0.09213344
-4.234757	Ignatieff	-0.07617421
-4.234757	Igual	-0.07869414
-4.535788	Igualdad	-0.07759346
-4.535788	Igualitos	-0.07625317
-4.535788	Iker	-0.09351423
-4.535788	Ikurrinas	-0.08454357
-4.535788	Il	-0.09351423
-4.535788	Ilusion	-0.08533047
-4.535788	Ilusionada	-0.09337508
-4.535788	Ilustracion	-0.09351423
-4.234757	Imagen	-0.3184737
-4.234757	Imagina	-0.08345765
-4.535788	Imaginad	-0.09151129
-4.535788	Impecable	-0.08392338
-4.535788	Implicacion	-0.08551086
-4.058666	Importante	-0.08310801
-3.757636	Imposible	-0.3827551
-4.535788	Impresionante	-0.09347628
-4.535788	Impunidad	-0.07759346
-4.535788	InLibertatem	-0.07625317
-4.535788	Inaki	-0.09351423
-4.234757	Increible	-0.06625549
-4.535788	Increpan	-0.08440153
-4.058666	Inda	-0.09209537
-3.581545	Independencia	-0.0673315
-4.535788	Independent	-0.09351423
-4.058666	Independentistas	-0.09336242
-4.535788	Independiente	-0.08533047
-4.535788	Independientemente	-0.09058275
-4.535788	Independientes	-0.07625317
-4.535788	Indignante	-0.09342568
-4.058666	Ines	-0.2384522
-2.729608	InesArrimadas	-0.3016205
-4.535788	Informacion	-0.09312198
-4.234757	Informativamente	-0.3343185
-4.535788	Infraestructuras	-0.09351423
-4.535788	Innegable	-0.08547222
-4.535788	Inos	-0.09350158
-4.535788	Insisten	-0.08454357
-4.535788	Insisto	-0.09166373
-4.535788	Instagram	-0.08362588
-4.535788	Instaladas	-0.08454357
-4.535788	Inteligente	-0.08551086
-4.058666	Interesante	-0.09305866
-4.535788	Interior	-0.09345099
-4.535788	Internacional	-0.09058275
-4.535788	Internet	-0.08551086
-4.058666	Interventores	-0.4651147
-4.535788	Intriga	-0.0911808
-4.535788	Invencibles	-0.07625317
-4.535788	Ir	-0.08440153
-4.535788	Ironias	-0.07759346
-4.535788	Isabel	-0.09350158
-3.757636	Isaranjuez	-0.7952191
-4.535788	Italo	-0.09351423
-4.535788	Ixuxleg	-0.09351423
-4.535788	Izqda	-0.09219687
-4.535788	IzquierdaCentro	-0.09351423
-4.535788	J	-0.08855342
-4.535788	JPBellido	-0.06531177
-4.535788	JPS	-0.09166373
-4.535788	JUNTOS	-0.09341303
-4.535788	Jaen	-0.09044266
-4.535788	Jajajaja	-0.06531177
-4.535788	Jajajajaja	-0.09337508
-4.234757	Jaume	-0.05966075
-4.535788	Javiergaciaisac	-0.06531177
-4.535788	Jennifer	-0.09351423
-4.535788	JennyPerezTV	-0.08454357
-4.535788	Jhon	-0.09351423
-4.535788	Jimenez	-0.09351423
-4.234757	Jo	-0.09307133
-4.535788	Joan	-0.09351423
-4.535788	John	-0.09351423
-4.535788	Jolie	-0.09351423
-4.535788	Jonqueras	-0.09351423
-4.234757	Jordi	-0.09350158
-4.535788	JorgeGalindo	-0.09351423
-4.234757	Jornada	-0.09266602
-4.234757	Jose	-0.09348893
-4.535788	JoseMnlTejedor	-0.09351423
-4.535788	JoseMontillaA	-0.09351423
-3.933728	JoseantonioJun	-0.3451169
-4.535788	Josef	-0.09351423
-3.933728	Josep	-0.3343565
-4.234757	Juan	-0.09345099
-4.535788	JuanLuisOrtegaG	-0.09351423
-4.535788	JuandeRuano	-0.09351423
-3.030638	Junqueras	-0.09110513
-4.535788	Junquerasdan	-0.09336243
-4.234757	Junto	-0.0829007
-4.535788	Juntos	-0.0911808
-2.87303	Junts	-1.145216
-3.120814	JuntsPelSi	-0.05647942
-4.058666	JuntsxSi	-0.09267867
-4.535788	Juqueras	-0.08551086
-4.535788	Jurado	-0.09347628
-4.535788	Justicia	-0.09308399
-4.535788	Justo	-0.09252659
-4.535788	JxP	-0.09327386
-3.535788	JxS	-0.06432544
-4.535788	JxSI	-0.08551086
-2.991719	JxSi	-0.4375363
-4.535788	JxSi63	-0.09351423
-4.535788	JxSiCiUERC63	-0.09193039
-4.535788	Jxsi	-0.08551086
-4.535788	Karma36Koma	-0.09338773
-4.535788	L'Hospi	-0.09347628
-4.535788	L'Hospitalet	-0.08454357
-4.535788	L6NoticiasAhora	-0.08454357
-3.757636	LA	-0.2453
-4.234757	LAS	-0.09350158
-4.535788	LE	-0.09351423
-4.535788	LOL	-0.08533047
-4.234757	LOS	-0.09350158
-4.535788	LUISENRIQUE21	-0.08362588
-2.438878	La	-0.3331887
-4.058666	La1tve	-0.2005428
-4.535788	LaPorres	-0.09351423
-3.632698	LaSER	-0.03916754
-4.234757	LaVanguardia	-0.0468536
-4.535788	Laboral	-0.09219687
-4.535788	LaiaColomer	-0.09351423
-4.234757	Lanoche24h	-0.0468536
-3.213568	Las	-0.2170399
-4.535788	Lastima	-0.09350158
-4.535788	LatinaMadrid	-0.06531177
-4.535788	LauraHervas	-0.09343833
-3.933728	Le	-0.1969701
-4.535788	Lean	-0.09315995
-4.535788	Lecciones	-0.09058275
-4.234757	Lectura	-0.0932612
-4.535788	Leeds	-0.09142233
-4.535788	Legal	-0.08551086
-4.535788	Legaran	-0.08855342
-4.535788	LeguinaJ	-0.09328651
-4.535788	Lengua	-0.09351423
-4.535788	Les	-0.09337508
-4.535788	Levantad	-0.08547222
-4.058666	Ley	-0.09346362
-4.535788	Li	-0.09351423
-4.535788	LigaAnalisis	-0.09058275
-4.535788	Llarga	-0.09337508
-4.535788	Llegada	-0.07759346
-4.535788	Llegando	-0.08440153
-3.933728	Llego	-0.4061444
-4.234757	Lleida	-0.09224762
-4.535788	Llevo	-0.09307133
-4.058666	Llobregat	-0.07564736
-4.535788	Lloro	-0.07625317
-4.535788	Lluis	-0.09348893
-4.535788	Lluis321	-0.09351423
-4.058666	LluisRabell	-0.07541008
-2.933728	Lo	-0.3905288
-4.535788	Logica	-0.0932612
-4.058666	Londres	-0.2335037
-4.234757	Lopez	-0.09310932
-2.803394	Los	-0.228497
-4.535788	Lucha	-0.09341303
-4.535788	Luchando	-0.09347628
-4.535788	LuciaMendezEM	-0.07625317
-4.234757	Luego	-0.08526602
-4.535788	LuisCazorlaGS	-0.09338773
-3.836818	LuisSalvador	-0.06786851
-4.535788	M	-0.09351423
-4.535788	MANIPULAR	-0.09345099
-3.757636	MAS	-0.07654261
-4.535788	MAYORIA	-0.09351423
-4.535788	MENTIRA	-0.06531177
-4.535788	MIENTE	-0.09343833
-4.535788	MINTIENDO	-0.08870691
-4.535788	MOTOR	-0.09351423
-4.535788	MUJERES	-0.06531177
-4.535788	MUNDO	-0.09308399
-4.535788	MUY	-0.09351423
-4.535788	Madalenas	-0.09351423
-4.535788	Madou	-0.08547222
-4.234757	Madre	-0.3343692
-3.535788	Madrid	-0.05648765
-4.535788	Madriz	-0.08870691
-4.535788	Mae	-0.09351423
-4.535788	Mai	-0.09314729
-4.535788	Mal	-0.09299536
-4.535788	Manana	-0.09256462
-4.535788	ManelFontdevila	-0.08551086
-4.234757	Manuel	-0.07758035
-4.535788	Mar	-0.09308399
-4.535788	Maradona	-0.06531177
-4.535788	Maravilla	-0.07759346
-4.535788	Marco	-0.09351423
-4.535788	Marhuenda	-0.09351423
-4.234757	Maria	-0.09348893
-3.836818	Mariano	-0.1739424
-4.535788	MarioJohnson	-0.09350158
-2.213568	Mas	-0.195171
-4.535788	Mas#eleccionescatalanas	-0.0932612
-4.535788	MasEmpieza	-0.08547222
-4.535788	MasVolvera	-0.08440153
-4.535788	Masque	-0.08870691
-4.535788	Masretonto	-0.07625317
-4.535788	Mataro	-0.09345099
-4.535788	Mates	-0.06531177
-4.234757	Matias	-0.3343818
-4.535788	Mato	-0.08533047
-4.535788	MayoralRafa	-0.06531177
-4.535788	Mayores	-0.09291938
-3.632698	Mayoria	-0.3628222
-4.535788	Mdoloresdv	-0.09351423
-3.058666	Me	-0.2231591
-4.535788	Media	-0.09351423
-4.535788	Medios	-0.08454357
-4.535788	MenendezRNE	-0.08551086
-4.535788	Menores	-0.08551086
-3.933728	Menos	-0.05635299
-4.234757	Mensaje	-0.09350158
-4.535788	Menuda	-0.09307133
-4.535788	Meritxell	-0.09351423
-4.535788	Mesa	-0.09351423
-4.234757	Messi	-0.06424426
-3.38966	Mi	-0.2112811
-4.535788	Miembros	-0.07759346
-4.535788	Mienten	-0.09345099
-3.933728	Mientras	-0.1920421
-4.234757	Miguel	-0.09347629
-4.234757	Milan	-0.06790876
-3.494395	Miquel	-1.078865
-4.535788	MiquelIcetaA	-0.07759346
-3.69069	Mira	-0.5171775
-4.535788	Miro	-0.07759346
-4.058666	Mis	-0.09345098
-4.535788	Mmmm	-0.09314729
-4.535788	Molt	-0.09351423
-4.535788	Molta	-0.09351423
-4.058666	Momento	-0.2380345
-4.535788	Momentos	-0.08454357
-4.535788	Moncloa	-0.09284338
-4.535788	Montserrat	-0.09274203
-4.535788	Moto2	-0.08551086
-3.581545	Mucha	-0.2056565
-4.535788	Muchas	-0.09342568
-4.058666	Muchisima	-0.0913842
-3.933728	Mucho	-0.09229834
-3.836818	Muchos	-0.09036623
-4.535788	Mujeres	-0.09219687
-4.535788	Municipales	-0.09336243
-3.38966	Muy	-0.09226031
-4.535788	NAIZ	-0.08551086
-4.535788	NEUDCRNE	-0.09351423
-4.234757	NI	-0.09341304
-4.535788	NNGGEs	-0.09058275
-2.892335	NO	-0.1787678
-4.234757	NUESTRA	-0.09350158
-4.535788	Nachoanon	-0.09338773
-4.535788	Nacion	-0.09333713
-4.535788	Nacional	-0.08454357
-3.933728	Nada	-0.05570496
-3.836818	Nadie	-0.2818394
-4.535788	NathanKurtz01	-0.09351423
-4.535788	Nati	-0.09351423
-4.535788	Navarra	-0.09351423
-4.535788	Navarrisimo	-0.06531177
-4.234757	Navidad	-0.09107907
-4.535788	Necesaria	-0.09346364
-4.234757	Necesito	-0.3341288
-4.535788	Nena	-0.08440153
-3.757636	Ni	-0.150519
-4.535788	Ningun	-0.09347628
-4.535788	Ninguno	-0.08454357
-4.535788	Nino	-0.09351423
-2.672465	No	-0.2134564
-4.234757	Noche	-0.09275471
-4.535788	Nooooo	-0.09231104
-4.058666	Nos	-0.0932865
-4.535788	Nosotros	-0.08870691
-4.058666	Nuestra	-0.09347627
-4.234757	Nuestro	-0.09302069
-4.535788	Nuevo	-0.09351423
-3.69069	Nunca	-0.2139531
-4.535788	NuriaSalobral	-0.06531177
-3.836818	O	-0.08629601
-4.535788	OEAoficial	-0.09351423
-4.535788	OIDO	-0.09351423
-4.234757	OJO	-0.3328233
-4.535788	OS	-0.09329917
-4.535788	Obervukin	-0.08454357
-4.535788	Objetivo	-0.09348893
-4.535788	Ofrece	-0.09205731
-4.234757	Ohio	-0.09011137
-3.933728	Ojala	-0.07276484
-4.535788	Ojito	-0.09293205
-4.058666	Ojo	-0.06489318
-4.535788	Ojuuuu	-0.09346364
-4.535788	Oleeeeee	-0.09345099
-4.535788	Onda	-0.09351423
-4.234757	OndaCeroes	-0.06529828
-4.535788	Onega	-0.08362588
-4.535788	Ontobeltz	-0.09351423
-4.535788	Oo	-0.06531177
-4.058666	Opinion	-0.2223462
-4.535788	Optimismo	-0.09348893
-4.535788	Optimistic	-0.09351423
-4.058666	Orgullosa	-0.4651147
-4.535788	Orgullosos	-0.09346364
-3.331668	Oriol	-0.9961866
-4.535788	OriolMasip	-0.09351423
-4.234757	Ortega	-0.3263911
-3.421844	Os	-0.2406479
-4.535788	Osborne	-0.08551086
-4.058666	Otra	-0.2383889
-3.933728	Otro	-0.08177166
-4.234757	P	-0.09343833
-3.69069	PAIS	-0.2824129
-4.535788	PALABRA	-0.09342568
-4.535788	PASO	-0.09351423
-4.535788	PATETICO	-0.09227299
-4.535788	PATETICOS	-0.09213344
-4.535788	PEEEERO	-0.08870691
-4.535788	PENSADO	-0.08392338
-4.535788	PERSONAJE	-0.09351423
-4.535788	PERSONAJES	-0.09351423
-4.535788	PERSONAS	-0.08551086
-4.535788	PLEBISCITO	-0.08533047
-4.535788	PMI	-0.08440153
-4.234757	PODEMOS	-0.08531758
-4.535788	POR	-0.09351423
-2.743396	PP	-0.2322212
-4.234757	PP11	-0.09165104
-4.535788	PPAsamblea	-0.09251391
-4.535788	PPBarcelona	-0.09319792
-4.535788	PPC	-0.09040445
-3.120814	PPCatalunya	-0.08581941
-4.535788	PPPSOE	-0.08454357
-4.535788	PPSotodlReal	-0.09109178
-4.535788	PPStSadurni	-0.09345099
-3.359696	PPopular	-0.09948357
-4.535788	PPopularquenuncaPP	-0.06531177
-4.535788	PQuignard	-0.09351423
-4.535788	PRIORIDAD	-0.06531177
-4.535788	PROGRAMA	-0.09350158
-2.729608	PSC	-0.1748113
-4.535788	PSC18	-0.09350158
-4.535788	PSC19	-0.09350158
-4.535788	PSCBaix	-0.09310932
-3.535788	PSOE	-0.09335813
-3.933728	Pablo	-0.1973878
-4.535788	PabloMM	-0.09351423
-4.535788	Paciencia	-0.07625317
-4.535788	Paco	-0.09351423
-4.535788	Padre	-0.09351423
-4.535788	Pais	-0.09351423
-4.535788	Paisos	-0.09351423
-4.535788	Palabras	-0.09334978
-4.535788	Palace	-0.07759346
-4.535788	Palacio	-0.09350158
-4.535788	PalacioVz	-0.09351423
-4.234757	Palau	-0.3184737
-4.535788	Pancartas	-0.06531177
-4.535788	Papa	-0.09318526
-3.234758	Para	-0.1543587
-4.535788	Parad	-0.09256462
-3.836818	Parece	-0.3174338
-3.38966	Parlament	-0.3399847
-4.535788	ParlamentSi	-0.09332447
-4.234757	Parlamento	-0.0774885
-4.535788	Paro	-0.08551086
-3.421844	Participacion	-0.2476128
-4.234757	Partido	-0.09347629
-4.535788	PartidoPACMA	-0.07625317
-4.535788	Pasan	-0.08547222
-4.535788	Pasando	-0.08547222
-4.535788	Pasaporte	-0.08454357
-4.058666	Pase	-0.4788927
-4.535788	Pasear	-0.0911808
-4.535788	Paso	-0.09351423
-4.535788	PatiCambrils	-0.06531177
-4.535788	Patrimonio	-0.07759346
-4.535788	Paz	-0.09109178
-4.535788	Pedazo	-0.09351423
-3.494395	Pedro	-0.4651238
-4.535788	PedrosanchezSg	-0.09348893
-4.535788	Pegada	-0.09205731
-3.456606	Pel	-0.6943457
-4.535788	Pensadlo	-0.08533047
-4.535788	Pensiones	-0.09351423
-3.933728	PepaBueno	-0.0659591
-4.535788	Perdedores	-0.08551086
-4.535788	Perdemos	-0.09270402
-4.535788	Perdieron	-0.09347628
-4.535788	Perdon	-0.09350158
-4.535788	Perea	-0.08533047
-4.535788	Perezgo	-0.06531177
-4.535788	Periodistas	-0.07759346
-4.535788	Periscope	-0.09351423
-4.535788	Permitiran	-0.09351423
-3.38966	Pero	-0.1452162
-4.535788	Personas	-0.09351423
-4.535788	Pese	-0.08440153
-4.535788	Petons	-0.09350158
-4.535788	PiaCastro8	-0.08454357
-4.535788	Piel	-0.07759346
-4.535788	Pierde	-0.09348893
-4.535788	Pilar	-0.09350158
-4.535788	PilarDL	-0.09348893
-4.535788	Pillan	-0.08440153
-4.535788	Pinta	-0.09309665
-4.535788	Pitadas	-0.08440153
-4.535788	Plan	-0.07759346
-4.234757	Plebiscitarias	-0.07609522
-4.535788	Plebiscito	-0.09252659
-4.535788	Plegamans	-0.06531177
-4.535788	Pobre	-0.08440153
-4.535788	Poco	-0.09162563
-4.535788	Pocos	-0.09345099
-3.581545	Podemos	-0.06230523
-4.234757	Podemtgn	-0.06529828
-4.234757	Podria	-0.09258997
-4.535788	Politicas	-0.09351423
-4.535788	Polo	-0.07759346
-4.535788	Polvorinos	-0.08551086
-4.535788	Ponme	-0.09151129
-4.535788	Pontificador	-0.07759346
-4.234757	Popular	-0.09280539
-4.535788	Poquisimos	-0.09345099
-2.892335	Por	-0.3039499
-4.234757	Porcentuales	-0.06458237
-3.494395	Porque	-0.06848527
-4.535788	Port	-0.09351423
-4.535788	Portugal	-0.09351423
-4.535788	Posada	-0.09351423
-4.234757	Postureo	-0.07692384
-3.69069	Pot	-0.1153019
-4.535788	PouDeberian	-0.09351423
-4.535788	Pp	-0.08855342
-4.535788	Pq	-0.08547222
-4.535788	Prada	-0.08551086
-4.234757	Prats	-0.09167644
-4.535788	Precariedad	-0.09351423
-4.535788	Preciados	-0.09350158
-4.535788	Pregunta	-0.07759346
-4.234757	Preparada	-0.08303029
-4.535788	Preparado	-0.09109178
-4.535788	Preparados	-0.09109178
-3.933728	President	-0.1864352
-4.535788	PresidentMas	-0.09231104
-4.234757	Presidenta	-0.07515948
-4.535788	Presidente	-0.09342568
-4.535788	Presidira	-0.09341303
-4.535788	Presiento	-0.08362588
-4.535788	Prestancia	-0.08551086
-4.058666	Primer	-0.4809595
-3.933728	Primera	-0.1968182
-4.535788	Primeras	-0.09345099
-4.535788	Primeros	-0.09324855
-4.535788	Prioridad	-0.09219687
-4.535788	Privilegio	-0.09351423
-4.234757	Profetico	-0.08527891
-4.535788	Promo	-0.09347628
-4.535788	Proximo	-0.09348893
-4.535788	Publico	-0.09351423
-4.234757	Puerta	-0.09057003
-3.137848	Pues	-0.1960307
-4.535788	Pujol	-0.09331182
-3.836818	Q	-0.09210806
-4.535788	QUE	-0.09350158
-4.535788	QUEJE	-0.07625317
-4.535788	QUEREMOS	-0.09345099
-4.535788	QUIERE	-0.09345099
-4.535788	QWERTY	-0.09327386
-4.535788	Quan	-0.09327386
-2.63816	Que	-0.100336
-4.535788	Quebec	-0.09351423
-4.234757	Queda	-0.09107907
-4.535788	Queremos	-0.09151129
-3.456606	Quien	-0.1902972
-4.058666	Quienes	-0.09214612
-3.836818	Quiero	-0.0715426
-4.535788	Quina	-0.09351423
-4.535788	Quitad	-0.08547222
-4.234757	Quiza	-0.08391045
-4.234757	Quizas	-0.3263524
-4.535788	RECORTAN	-0.09036623
-4.535788	REPUGNANTE	-0.08533047
-4.535788	RETROACTIVO	-0.09341303
-4.535788	RNE	-0.08551086
-4.535788	ROBAN	-0.08551086
-4.058666	ROBANDO	-0.04681134
-4.535788	ROBAR	-0.09269135
-4.234757	RPardo1	-0.09347629
-3.421844	RT	-0.1542123
-4.535788	Rabat	-0.09318526
-4.058666	Rabell	-0.09253926
-4.535788	RabellEn	-0.09351423
-4.535788	Racismo	-0.09351423
-4.535788	Radio	-0.09351423
-3.213568	Rajoy	-0.114956
-4.535788	Rajoy#27S	-0.06531177
-4.535788	Ramblas	-0.08440153
-4.535788	RamonEspadaler	-0.09176534
-4.535788	Ramos	-0.09350158
-4.535788	Raul	-0.09338773
-4.535788	Reaccion	-0.07759346
-4.234757	Real	-0.09328651
-4.535788	Realidad	-0.08454357
-4.535788	Realizando	-0.09151129
-4.535788	Realmente	-0.08870691
-4.535788	Reciben	-0.08440153
-4.535788	Recien	-0.09350158
-4.535788	Recomendable	-0.0911808
-4.234757	Record	-0.07733099
-4.535788	Recordad	-0.08362588
-4.234757	Recordar	-0.07428783
-4.535788	Recordemos	-0.08547222
-4.234757	Recta	-0.3342679
-4.535788	Recuerden	-0.08362588
-4.535788	Recuerdo	-0.09350158
-4.535788	Referendum	-0.08454357
-4.535788	Reforma	-0.09058275
-4.535788	Refugiados	-0.06531177
-4.535788	Remite	-0.08547222
-4.535788	Reponiendo	-0.09348893
-4.535788	Reserva	-0.09351423
-4.535788	Respeto	-0.0913715
-4.535788	Resto	-0.09351423
-4.234757	Resultados	-0.07727847
-4.058666	Resumen	-0.2222675
-4.234757	Resumiendo	-0.09062096
-3.836818	Retweeted	-0.09160022
-4.535788	Reus	-0.07625317
-4.535788	Reyes	-0.09231104
-4.535788	Ricardo	-0.09351423
-4.234757	Rius	-0.3343312
-4.535788	Rival	-0.07759346
-4.535788	Rivera	-0.08440153
-4.535788	Rodeo	-0.09351423
-4.535788	Rodriguez	-0.09350158
-4.535788	Roi	-0.07625317
-4.234757	Rojo	-0.09348893
-4.535788	Roma	-0.09176534
-4.535788	Romanica	-0.09351423
-4.535788	RomeraMedina	-0.07625317
-4.535788	Romero	-0.09291938
-3.494395	Romeva	-0.09147947
-4.535788	Ronaldos	-0.0908628
-4.535788	Rondara	-0.09346364
-4.234757	Rosa	-0.07624001
-4.535788	Rose	-0.09351423
-4.535788	Roto	-0.07625317
-4.535788	Rubenak	-0.09351423
-4.535788	Rubiales127	-0.09346364
-4.535788	Ruby	-0.09351423
-4.535788	Rumbo	-0.08440153
-4.535788	Ruptly	-0.06531177
-4.535788	S	-0.09350158
-4.535788	S'HA	-0.09351423
-4.535788	S5	-0.08454357
-4.535788	SABE	-0.09351423
-4.535788	SALIR	-0.09348893
-4.234757	SE	-0.09350158
-4.535788	SEPA	-0.08454357
-4.234757	SER	-0.07300358
-4.535788	SERIO	-0.09309665
-3.535788	SI	-0.1712233
-4.535788	SINVERGUENZAS	-0.06531177
-4.058666	SOLA	-0.2384648
-4.535788	SSamtamaria	-0.08454357
-4.535788	SUERTE	-0.09297004
-4.535788	SaavedraVicvic	-0.09332447
-4.234757	Saben	-0.08354825
-4.058666	Sal	-0.2211895
-4.535788	Salamanca	-0.09040445
-4.535788	Saldra	-0.09334978
-4.535788	Saldria	-0.09297004
-4.535788	Salen	-0.08855342
-4.535788	Salga	-0.09171454
-4.535788	Salud	-0.09036623
-3.933728	Saludos	-0.1594888
-4.535788	Salut	-0.09269135
-4.535788	Salvador	-0.09351423
-4.234757	San	-0.09350158
-4.535788	SanAgustindelGuadalix	-0.09351423
-3.632698	Sanchez	-0.09057003
-4.535788	SanchezPSOE	-0.08551086
-4.535788	Sandragonfaus	-0.0908628
-4.535788	Sanidad	-0.09308399
-4.535788	Sanjurjo	-0.07759346
-3.836818	Sant	-0.2743016
-4.535788	Santa	-0.09351423
-4.535788	Sants	-0.09350158
-4.535788	Saquemos	-0.09351423
-3.280515	Se	-0.154008
-4.535788	Sea	-0.09343833
-4.535788	Sebastian	-0.09351423
-4.234757	Sede	-0.09342569
-4.058666	Seguimos	-0.09313462
-4.535788	Seguira	-0.09348893
-3.494395	Segun	-0.2506598
-4.234757	Segunda	-0.3340781
-4.234757	Segundo	-0.3343185
-4.535788	Seguro	-0.08998387
-4.234757	Selva	-0.07624001
-4.234757	Senadoesp	-0.09315995
-4.535788	Senal	-0.07759346
-4.234757	Senor	-0.09314729
-4.535788	Senoras	-0.07759346
-4.234757	Senores	-0.08810545
-4.535788	Sentor	-0.0908628
-4.535788	Separatistas	-0.09350158
-4.535788	Sera	-0.09291938
-4.535788	Sergio	-0.09351423
-4.535788	Serrano	-0.09272937
-4.535788	Servimedia	-0.06531177
-4.535788	Sesamo	-0.08362588
-3.933728	Sexta	-0.09210806
-4.535788	Shreck	-0.09213344
-2.591305	Si	-0.1034003
-3.933728	Si'	-0.07851088
-4.535788	SiCUP	-0.09348893
-4.535788	Siempre	-0.09345099
-4.535788	Siento	-0.08362588
-4.535788	SierraBoliviaMi	-0.09271669
-4.058666	Siete	-0.4806938
-3.933728	Sigamos	-0.4138701
-4.535788	Significa	-0.09351423
-3.69069	Sigue	-0.1130502
-3.632698	Siguiendo	-0.1155986
-4.535788	Simago	-0.08362588
-4.535788	Simon	-0.08533047
-4.234757	Simpatizantes	-0.07453894
-3.581545	Sin	-0.2044845
-4.535788	Sintomatico	-0.07625317
-4.535788	SirBlonde	-0.09256462
-4.535788	Sistema	-0.09288138
-4.535788	Sobran	-0.08855342
-4.535788	Sobrio	-0.08551086
-4.535788	SocCatLlib	-0.09351423
-4.535788	Sociales	-0.07625317
-4.535788	Socialistas	-0.09351423
-4.535788	Sociedad	-0.09219687
-4.535788	Socrates	-0.08362588
-4.535788	Sois	-0.09340038
-3.836818	Sol	-0.08682293
-4.535788	Soler	-0.09351423
-3.581545	Solo	-0.1839781
-4.535788	SolucionJusticia	-0.09347628
-4.535788	Sometido	-0.09205731
-4.058666	Somos	-0.08842546
-3.757636	Son	-0.08379406
-4.535788	Sonara	-0.08551086
-4.234757	Sondeo	-0.08493076
-4.535788	Sontenibilidad	-0.09219687
-4.234757	Sorayapp	-0.09350158
-4.535788	Sostres	-0.09081189
-4.234757	Soy	-0.09346364
-4.535788	Spain	-0.09350158
-4.535788	SputnikMundo	-0.07625317
-4.535788	Sr	-0.09342568
-4.535788	Su	-0.09343833
-4.234757	Sube	-0.08538202
-4.535788	Subidon	-0.07759346
-4.535788	Suceda	-0.0913715
-3.836818	Suerte	-0.06064408
-4.535788	Sumar	-0.09350158
-4.535788	SumerioA	-0.09350158
-4.535788	Superado	-0.08547222
-4.535788	Superando	-0.09343833
-4.234757	Supongo	-0.08258954
-4.535788	Supremo	-0.09286872
-4.535788	Sur	-0.09351423
-4.535788	Suscribo	-0.09345099
-4.535788	T5	-0.09350158
-4.535788	TAN	-0.09351423
-4.535788	TERRITORIAL	-0.06531177
-4.535788	TL	-0.09334978
-4.535788	TOMA	-0.09348893
-4.535788	TONTA	-0.08533047
-4.234757	TRAYECTO	-0.06529828
-4.535788	TRIPLICA	-0.09248856
-4.535788	TU	-0.09271669
-3.044426	TV3	-0.08120857
-4.535788	TVE	-0.08551086
-4.535788	TVVIDEO	-0.06531177
-4.535788	Talones	-0.08440153
-4.234757	Tambien	-0.09328651
-4.535788	Tampoco	-0.09348893
-4.535788	Tan	-0.09340038
-4.535788	Tanto	-0.09040445
-4.058666	Tarde	-0.2225562
-3.836818	Tarragona	-0.06184293
-4.234757	Taulet	-0.08453067
-4.535788	Tb	-0.09109178
-4.058666	Te	-0.09342568
-4.535788	Tejanos	-0.09348893
-4.058666	Tenemos	-0.2254461
-4.535788	Tenerife	-0.09343833
-3.757636	Tengo	-0.1365297
-4.535788	Tenia	-0.09313463
-4.535788	Teofilo	-0.09351423
-4.535788	Teoria	-0.09058275
-4.535788	Teoricamente	-0.08998387
-4.535788	Tergiversacion	-0.09342568
-4.535788	Termina	-0.08547222
-4.535788	Terrasa	-0.09040445
-4.535788	Thaliontil	-0.09040445
-4.535788	The	-0.09351423
-4.535788	TheIcedEyedGirl	-0.09252659
-4.535788	Tiempo	-0.09205731
-4.535788	Tierra	-0.09351423
-4.535788	Tito	-0.09351423
-4.058666	Toca	-0.09260263
-4.234757	Toda	-0.08310802
-4.535788	Today	-0.09351423
-3.359696	Todo	-0.1903278
-3.494395	Todos	-0.1929563
-4.535788	Tolerancia	-0.08551086
-4.058666	Toma	-0.09319791
-4.535788	Tomas	-0.09351423
-4.535788	Toni	-0.09351423
-4.535788	Topic	-0.09329917
-4.535788	Torino	-0.08870691
-4.535788	TormoEmigdio	-0.09346364
-4.535788	Tornen	-0.09351423
-4.535788	Total	-0.08362588
-4.535788	Trajes	-0.07759346
-4.535788	Tranquilo	-0.09334978
-4.535788	Transporte	-0.09347628
-3.933728	Tras	-0.1872129
-4.234757	Travessia	-0.3184737
-4.535788	Travolta	-0.07625317
-4.535788	Tremending	-0.09351423
-4.535788	Tremosa	-0.09256462
-4.535788	Triplicamos	-0.09040445
-4.535788	Truenos	-0.09350158
-4.535788	Tsunami	-0.09351423
-4.234757	Tu	-0.08177167
-4.535788	Tuits	-0.09351423
-4.535788	Turismo	-0.07625317
-4.535788	Tv3	-0.09350158
-3.836818	Twitter	-0.0644201
-4.535788	U	-0.09036623
-4.234757	UDC	-0.08468559
-4.535788	UE	-0.09350158
-4.234757	ULTIMA	-0.3343818
-4.535788	UN	-0.09351423
-4.058666	UNA	-0.4810101
-4.234757	UNIDA	-0.3343818
-4.234757	UNIDAD	-0.3343059
-4.535788	UPN	-0.09346364
-4.535788	UPYD	-0.09351423
-4.234757	UPyD	-0.0852918
-4.535788	US	-0.09351423
-4.535788	Uf	-0.06531177
-4.535788	Ultima	-0.09319792
-4.535788	Ultraderechistas	-0.09333713
-3.234758	Un	-0.1096933
-3.581545	Una	-0.09258996
-4.234757	Unas	-0.09210807
-4.058666	Unida	-0.2102067
-4.058666	Unidad	-0.05857923
-4.535788	Unidos	-0.09341303
-3.581545	Unio	-0.06810994
-4.234757	Union	-0.09340039
-4.535788	Universal	-0.09219687
-4.535788	Uno	-0.09329917
-4.535788	Unos	-0.0924632
-4.535788	Urnas	-0.09205731
-4.535788	Uyque	-0.09350158
-4.535788	VAMOS	-0.09341303
-4.535788	VERGONZOSO	-0.08533047
-4.535788	VIDEO	-0.07759346
-4.234757	VIVA	-0.3343185
-4.058666	VIVO	-0.4720648
-4.234757	VLG	-0.3343818
-3.933728	VOTA	-0.07268523
-4.535788	VOTOS	-0.09318526
-4.535788	VOX	-0.09350158
-4.535788	Va	-0.09231104
-4.535788	Vaaaamos	-0.06531177
-4.535788	Vale	-0.09256462
-4.535788	Valentia	-0.09351423
-4.535788	Valles	-0.08547222
-4.535788	Valora	-0.09338773
-4.535788	Valoracion	-0.07759346
-4.535788	Vamoos	-0.09348893
-3.421844	Vamos	-0.2166592
-4.535788	VamosCiudadanosCs	-0.08533047
-4.535788	Vanguardia	-0.09351423
-4.535788	Vas	-0.08440153
-4.535788	Vasco	-0.09351423
-3.933728	Vaya	-0.09100274
-4.535788	Vayase	-0.09345099
-4.535788	Vea	-0.09327386
-4.535788	Veamos	-0.09315995
-4.535788	Veis	-0.09348893
-4.535788	Venezuela	-0.09218419
-3.757636	Venga	-0.08336703
-4.234757	Veo	-0.3252817
-4.234757	Ver	-0.08078298
-4.535788	Verde	-0.08551086
-4.058666	Veremos	-0.08048332
-4.535788	Vergonzoso	-0.08855342
-4.234757	Verguenza	-0.0468536
-3.359696	Via	-0.5418118
-4.535788	VicenteVallesTV	-0.08551086
-4.234757	Victoria	-0.09057003
-4.535788	Vida	-0.09351423
-4.535788	VidalFolch	-0.09286872
-3.69069	Video	-0.07687126
-4.058666	Viendo	-0.2211501
-4.535788	Viladecans	-0.09142233
-4.058666	Vine	-0.4810101
-4.535788	Vineta	-0.09351423
-4.535788	Virreina	-0.08533047
-4.535788	Visca	-0.08392338
-4.535788	ViscaCat	-0.08533047
-4.234757	Visto	-0.07631897
-4.058666	Viva	-0.2279802
-4.535788	Viviendo	-0.09044266
-4.234757	Vivo	-0.09229836
-4.535788	VivoObjetivo	-0.09348893
-4.058666	Vota	-0.08233005
-4.058666	Votad	-0.07544963
-4.535788	Votada	-0.09351423
-4.058666	Votando	-0.08123857
-3.836818	Votar	-0.1691279
-4.535788	Voted	-0.09297004
-4.535788	Votemos	-0.09040445
-3.836818	Voto	-0.05783842
-4.234757	Votos	-0.09348893
-4.058666	Vox	-0.08437568
-4.535788	Voy	-0.08440153
-4.535788	VuelingClients	-0.08392338
-4.535788	WSJ	-0.09312198
-3.632698	X	-0.4796469
-4.535788	XGenero	-0.08551086
-4.535788	XI	-0.09351423
-4.535788	Xavier	-0.09351423
-4.234757	Xq	-0.3343818
-2.87303	Y	-0.1583956
-4.058666	YA	-0.06450123
-3.331668	Ya	-0.2140051
-4.535788	Yayo	-0.08440153
-3.494395	Yo	-0.08567832
-4.058666	YouTube	-0.452833
-4.535788	Zamora	-0.09308399
-4.535788	Zidane	-0.08551086
-1.682089	a	-0.3971353
-4.535788	abaco	-0.07625317
-4.234757	abces	-0.09059549
-4.535788	abertzaleespero	-0.08362588
-4.234757	abierto	-0.07415561
-4.535788	abiertos	-0.09343833
-4.535788	aboga	-0.0911808
-4.535788	about	-0.09351423
-4.234757	abrazo	-0.06927502
-4.234757	abre	-0.08837429
-4.535788	abrir	-0.09044266
-4.535788	abrirse	-0.08547222
-4.535788	abrochado	-0.09348893
-4.535788	abs	-0.08533047
-3.017274	absoluta	-0.2218019
-4.535788	absolutaAhora	-0.09332447
-4.535788	absoluto	-0.09058275
-3.933728	abstencion	-0.04977285
-4.535788	abstencionista	-0.06531177
-4.535788	abstenerse	-0.07759346
-4.535788	abstenga	-0.08392338
-4.234757	abstiene	-0.3248036
-4.535788	absulta	-0.08551086
-4.535788	absurdo	-0.09297004
-4.535788	abucheados	-0.08454357
-4.234757	abuelos	-0.3323026
-3.69069	acaba	-0.2122933
-4.535788	acabados	-0.08551086
-4.535788	acaban	-0.09337508
-4.535788	acabando	-0.08547222
-3.933728	acabar	-0.3231714
-4.234757	acabe	-0.3263524
-3.933728	acabo	-0.1731308
-4.535788	acentillo	-0.07759346
-4.535788	acepta	-0.08440153
-4.535788	aceptado	-0.08454357
-4.535788	aceptan	-0.08440153
-4.535788	acepte	-0.08392338
-4.234757	acepten	-0.08379406
-4.535788	acercara	-0.09205731
-4.234757	acertado	-0.09175264
-4.535788	acertar	-0.08533047
-4.535788	achacan	-0.08392338
-4.535788	acojonados	-0.08870691
-4.234757	acompanar	-0.3252817
-4.535788	acordais	-0.09329917
-4.535788	acordamos	-0.07759346
-4.535788	acordes	-0.09040445
-4.535788	acoso	-0.09343833
-4.535788	acreditados	-0.08454357
-4.535788	activo	-0.09109178
-4.535788	acto	-0.07759346
-4.535788	actor	-0.09328651
-4.535788	actos	-0.09337508
-4.535788	actualidad	-0.09350158
-4.535788	actualizar	-0.09248856
-4.535788	actualmente	-0.08551086
-4.535788	actuara	-0.09340038
-4.234757	acudan	-0.3252817
-4.535788	acude	-0.09205731
-4.234757	acudido	-0.3252817
-4.234757	acuerdo	-0.09039172
-4.535788	acuerdolos	-0.09283072
-4.535788	adelanta	-0.08440153
-4.535788	adelantando	-0.08547222
-4.535788	adelantara	-0.08855342
-3.757636	adelante	-0.1380489
-4.058666	ademas	-0.2367285
-3.757636	adios	-0.1206924
-4.535788	adjetivos	-0.09351423
-4.535788	admito	-0.08362588
-4.535788	adoptiva	-0.07759346
-4.535788	adorado	-0.09348893
-4.535788	adoras	-0.08440153
-4.535788	adriagallardo	-0.08551086
-4.535788	adricres97	-0.09348893
-4.535788	aduenan	-0.09058275
-4.535788	afectan	-0.07625317
-4.535788	afectar	-0.08440153
-3.933728	afirma	-0.1777611
-3.757636	afluencia	-0.2098421
-4.535788	afrontaremos	-0.09343833
-4.535788	agitan	-0.08855342
-4.535788	aglutina	-0.08855342
-4.535788	agolpando	-0.09351423
-4.535788	agotan	-0.08855342
-4.234757	agradecimiento	-0.3252817
-4.535788	agua	-0.07759346
-4.058666	aguanta	-0.2300356
-4.535788	aguantar	-0.08547222
-4.535788	ah	-0.09252659
-4.058666	ahi	-0.2290673
-4.535788	ahogue	-0.09334978
-2.86369	ahora	-0.1223897
-3.456606	ahorapodemos	-0.1135733
-2.47133	al	-0.1973694
-4.234757	ala	-0.08437569
-4.234757	alarde	-0.3343818
-4.535788	albiol	-0.09351423
-4.535788	alcaldesa	-0.07625317
-3.933728	alcanza	-0.3393569
-4.234757	alcanzar	-0.07568691
-4.234757	alegra	-0.06762694
-4.535788	alegria	-0.06531177
-4.234757	alegro	-0.09095187
-4.535788	alexborras	-0.09341303
-4.535788	alexcubero	-0.09219687
-4.535788	algarada	-0.09351423
-3.38966	algo	-0.2083041
-3.456606	alguien	-0.1184061
-3.836818	algun	-0.09312197
-4.535788	alguna	-0.09346364
-3.456606	algunos	-0.1686805
-4.535788	aliarse	-0.09040445
-4.535788	alienigenas	-0.08454357
-4.234757	alla	-0.09042993
-3.836818	alli	-0.09289405
-4.535788	alma	-0.09350158
-4.535788	alpargata	-0.08454357
-4.234757	alrededor	-0.3184737
-3.581545	alta	-0.2324607
-4.535788	altamente	-0.09351423
-4.234757	alternativa	-0.0839751
-4.058666	altisima	-0.4796546
-4.058666	alto	-0.0847501
-4.535788	altura	-0.07759346
-4.535788	alzara	-0.09044266
-4.535788	amanecemos	-0.09321058
-4.535788	amante	-0.07759346
-4.234757	ambiente	-0.06827084
-4.535788	ambos	-0.09351423
-4.535788	amenazan	-0.09040445
-4.234757	amigo	-0.3333941
-4.058666	amigos	-0.4803519
-4.535788	amiguito	-0.09142233
-4.535788	amiguitos	-0.09058275
-4.535788	amortizado	-0.08551086
-4.535788	amplia	-0.09213344
-4.535788	amplisima	-0.09269135
-4.535788	anadir	-0.07625317
-3.581545	analisis	-0.1207401
-4.535788	analistas	-0.09343833
-4.535788	analiza	-0.08855342
-4.535788	analizamos	-0.09040445
-4.058666	analizando	-0.07784266
-4.535788	analizar	-0.0924632
-4.535788	anapastor	-0.09351423
-3.757636	ancianos	-0.3163258
-4.535788	anda	-0.08392338
-4.535788	andaluces	-0.08362588
-4.535788	andalucia	-0.09328651
-4.535788	ando	-0.09342568
-4.535788	andreamarmol	-0.09351423
-4.234757	anecdotas	-0.3254238
-4.535788	angelesjimenez4	-0.09351423
-4.058666	anima	-0.4719227
-3.757636	animo	-0.1491856
-3.757636	ano	-0.2182224
-3.193365	anos	-0.129949
-4.535788	antagonicos	-0.09350158
-3.535788	ante	-0.1928194
-4.535788	antena3com	-0.08454357
-4.535788	anterior	-0.06531177
-3.933728	anteriores	-0.1929376
-3.581545	antes	-0.3497488
-4.535788	anti	-0.09351423
-4.234757	anticapitalista	-0.07589769
-3.535788	antoniobanos	-0.1301046
-4.535788	antoniofraguas	-0.09241249
-4.535788	anuncia	-0.09309665
-4.535788	anunciando	-0.08547222
-4.535788	anunciar	-0.08392338
-4.234757	anuncio	-0.3245061
-4.535788	anys	-0.09267868
-4.535788	apaga	-0.09109178
-4.234757	aparece	-0.08438861
-4.535788	aparecio	-0.08392338
-4.535788	aparentemente	-0.09350158
-4.535788	apartense	-0.08362588
-4.535788	apela	-0.08440153
-4.535788	apelamos	-0.09205731
-4.535788	apellido	-0.08440153
-4.535788	apenas	-0.09305868
-4.535788	apinados	-0.07625317
-4.535788	aplauda	-0.08440153
-4.234757	aplaudiendo	-0.3252817
-4.535788	aplausos	-0.08551086
-4.058666	aplicacion	-0.2186949
-4.535788	aplicados	-0.08454357
-4.535788	apocalipsis	-0.09351423
-4.535788	apoder	-0.09351423
-4.058666	apoderada	-0.07328192
-4.535788	apoderadas	-0.08454357
-4.535788	apoderado	-0.09309665
-3.933728	apoderados	-0.06721058
-4.535788	apoderadosas	-0.0929827
-4.234757	aporta	-0.09299537
-4.535788	apostando	-0.09271669
-4.234757	apoya	-0.07459179
-4.535788	apoyan	-0.06531177
-4.535788	apoyando	-0.09205731
-4.535788	apoyar	-0.08440153
-4.535788	apoyara	-0.09151129
-4.234757	apoyaria	-0.08249874
-3.359696	apoyo	-0.2320338
-4.535788	apps	-0.09351423
-4.535788	aprender	-0.09317261
-4.535788	aprendido	-0.08362588
-4.535788	aprendieron	-0.08440153
-4.535788	aprovechados	-0.09351423
-4.535788	aprox	-0.07759346
-4.535788	aproxima	-0.08547222
-3.836818	apuesta	-0.2699367
-4.535788	apuestan	-0.0911808
-4.058666	apunta	-0.2274357
-4.535788	aquel	-0.09251391
-4.535788	aquella	-0.09307133
-4.234757	aquello	-0.06731807
-3.933728	aquellos	-0.404298
-3.234758	aqui	-0.08861637
-4.234757	ara	-0.0839751
-4.535788	arde	-0.06531177
-4.535788	arder	-0.09302069
-4.535788	arranca	-0.08392338
-4.535788	arrasando	-0.07625317
-4.058666	arriba	-0.0900986
-4.234757	articulo	-0.06927502
-4.058666	artur	-0.09151128
-4.535788	ascenso	-0.07759346
-4.234757	asciende	-0.3329375
-4.535788	asco	-0.08551086
-4.234757	asegura	-0.3245061
-4.535788	aseguran	-0.08362588
-4.535788	asegurara	-0.09341303
-4.535788	aseguren	-0.09343833
-3.305339	asi	-0.09686252
-4.535788	asilo	-0.07759346
-4.535788	asin	-0.09307133
-4.535788	asqueroso	-0.09334978
-4.535788	asumid	-0.08362588
-4.535788	asunto	-0.07625317
-4.535788	asuntos	-0.08362588
-4.535788	atardecer	-0.09348893
-4.234757	atencion	-0.08683579
-4.234757	atenta	-0.08388459
-4.234757	atentamente	-0.08538202
-4.535788	atento	-0.08440153
-4.535788	aterrizado	-0.09309665
-4.535788	atonia	-0.09351423
-4.535788	atraganta	-0.08440153
-4.058666	atras	-0.07231354
-4.234757	atreve	-0.3252817
-4.535788	atribuyen	-0.08547222
-4.535788	auguran	-0.08855342
-4.535788	augure	-0.09346364
-4.535788	augusta	-0.09305868
-4.535788	aumenta	-0.0911808
-4.535788	aumentada	-0.08362588
-4.535788	aumentado	-0.09044266
-4.535788	aumentar	-0.09193039
-4.234757	aumento	-0.3184737
-3.331668	aun	-0.4180388
-3.757636	aunque	-0.08191459
-4.535788	ausencia	-0.09309665
-4.535788	autogobierno	-0.06531177
-4.535788	automaticas	-0.09351423
-4.535788	autonomica	-0.08551086
-3.581545	autonomicas	-0.08777092
-4.535788	autoproclamarse	-0.09350158
-4.535788	autoritarios	-0.09309665
-3.69069	avance	-0.3867743
-4.535788	avanza	-0.08547222
-4.535788	aventura	-0.09347628
-4.535788	aviso	-0.08551086
-4.535788	avotar	-0.09297004
-4.535788	avui	-0.09312198
-3.933728	ayer	-0.07132968
-4.535788	ayuda	-0.07759346
-4.535788	ayudan	-0.08440153
-4.535788	ayudando	-0.08440153
-4.234757	ayudar	-0.3252817
-4.535788	ayuntamiento	-0.07625317
-3.632698	baila	-0.2638915
-4.535788	bailado	-0.09322324
-4.234757	bailando	-0.09304602
-4.234757	bailar	-0.08360001
-3.69069	baile	-0.1179097
-4.234757	bailecito	-0.07523864
-4.535788	bailecitos	-0.08454357
-3.836818	bailes	-0.3124115
-4.535788	bailon	-0.08533047
-4.535788	bailoteos	-0.08533047
-3.836818	baja	-0.05599463
-4.535788	bajada	-0.09274203
-4.535788	bajado	-0.08440153
-4.234757	bajan	-0.08976706
-4.234757	bajando	-0.08524024
-4.535788	bajar	-0.08440153
-4.535788	bajon	-0.09351423
-4.234757	balcon	-0.07756723
-4.535788	bananera	-0.07759346
-4.535788	bancos	-0.08551086
-3.38966	bandera	-0.4897892
-3.421844	banderas	-0.2614818
-4.535788	banderasTodos	-0.09341303
-4.535788	banquete	-0.07759346
-4.535788	barbas	-0.08440153
-4.535788	barca	-0.09312198
-4.535788	bares	-0.08551086
-4.535788	barrido	-0.09348893
-3.69069	barrio	-0.1060562
-4.535788	barrios	-0.09351423
-4.535788	base	-0.09040445
-4.535788	bassileo	-0.09194309
-4.535788	basta	-0.09269135
-4.535788	bastante	-0.09313463
-4.535788	basura	-0.09332447
-4.234757	batacazo	-0.09057003
-4.535788	batalla	-0.07759346
-4.535788	be	-0.09351423
-4.535788	bebe	-0.09351423
-4.535788	belang	-0.08533047
-4.234757	beneficia	-0.09148588
-4.535788	beneficiar	-0.09205731
-3.757636	bezdiario	-0.1281052
-3.331668	bien	-0.02750235
-4.535788	bienestar	-0.09337508
-4.535788	binaria	-0.09351423
-4.535788	binomio	-0.07759346
-4.535788	birla	-0.09044266
-4.535788	bisagra	-0.09044266
-4.535788	blanca	-0.09058275
-3.933728	blanco	-0.1952701
-4.058666	bloque	-0.2225562
-4.234757	boca	-0.08438861
-4.535788	boicot	-0.08440153
-4.535788	bolitas	-0.09329917
-4.535788	bombo	-0.06531177
-4.535788	bon	-0.09351423
-4.234757	bonito	-0.09051909
-4.535788	borracho	-0.08551086
-4.535788	bote	-0.09284338
-4.535788	boteespanol	-0.08547222
-4.535788	boton	-0.09351423
-4.535788	bots	-0.08440153
-4.535788	bpberta	-0.09351423
-4.535788	bravo	-0.07625317
-4.535788	brecha	-0.09317261
-4.535788	brilla	-0.0911808
-4.535788	brillantes	-0.06531177
-4.535788	brindando	-0.09040445
-4.535788	brindaran	-0.09040445
-4.535788	broma	-0.09351423
-4.535788	brutal	-0.07625317
-4.535788	btendria	-0.09345099
-4.535788	btvnoticies	-0.06531177
-3.280515	buen	-0.2136074
-3.421844	buena	-0.120269
-4.535788	buendia	-0.09219687
-3.69069	bueno	-0.1233074
-3.836818	buenos	-0.2797145
-4.535788	bufa	-0.09318526
-4.535788	burgues	-0.09040445
-4.234757	burlandose	-0.3184737
-4.535788	burlar	-0.08392338
-4.535788	burro	-0.09347628
-4.535788	buscan	-0.09350158
-4.535788	buscando	-0.08547222
-3.836818	buscar	-0.08836148
-4.535788	buscarse	-0.09308399
-4.535788	busque	-0.08547222
-4.058666	by	-0.4808457
-4.234757	bye	-0.07622685
-4.535788	c's	-0.08362588
-4.535788	caballero	-0.07759346
-4.535788	caballo	-0.09351423
-4.535788	cabe	-0.09166373
-3.581545	cabeza	-0.147203
-4.535788	cabezadita	-0.07625317
-4.535788	cabezas	-0.07625317
-4.535788	cabezones	-0.08533047
-4.234757	cabreado	-0.3338123
-4.535788	cachitostve	-0.06531177
-4.535788	cachondeito	-0.09040445
-3.494395	cada	-0.3799353
-4.535788	cadenas	-0.09350158
-4.535788	cadera	-0.09351423
-4.535788	cae	-0.09351423
-4.535788	caen	-0.0911808
-4.535788	caga	-0.09351423
-4.535788	cagarla	-0.09318526
-4.058666	caida	-0.0745125
-4.234757	caido	-0.09146047
-4.535788	caiga	-0.08392338
-4.535788	calcetin	-0.08547222
-4.535788	calcosares	-0.07625317
-4.535788	calcular	-0.08392338
-4.535788	calentamos	-0.09231104
-4.058666	calidad	-0.06279419
-4.535788	calienta	-0.09351423
-4.535788	callados	-0.09242517
-4.535788	callando	-0.09351423
-3.836818	calle	-0.2564757
-3.933728	calles	-0.06575692
-4.535788	calma	-0.09351423
-4.535788	calmad	-0.06531177
-4.234757	cama	-0.0468536
-4.535788	cambiado	-0.08855342
-4.058666	cambiar	-0.2252767
-4.535788	cambiara	-0.09186692
-4.535788	cambiarlo	-0.09351423
-4.535788	cambiarlos	-0.0911808
-3.331668	cambio	-0.062871
-4.535788	caminar	-0.09350158
-4.535788	caminito	-0.09307133
-3.757636	camino	-0.2420165
-4.058666	camisa	-0.08504683
-4.058666	camiseta	-0.09343833
-4.535788	camisetas	-0.09351423
-3.234758	campana	-0.1253598
-4.234757	campanya	-0.07692384
-4.535788	campeones	-0.09351423
-4.535788	camuflaje	-0.08454357
-4.535788	canal	-0.07625317
-4.535788	canalsurradio1	-0.09323589
-4.535788	canalsurweb	-0.06531177
-4.535788	cancha	-0.09231104
-4.234757	cancion	-0.08113448
-4.535788	candidata	-0.09271669
-3.757636	candidato	-0.0699699
-3.933728	candidatos	-0.03400553
-4.234757	candidatura	-0.06731807
-4.535788	canon	-0.08454357
-4.535788	cansinos	-0.09270402
-4.535788	canta	-0.08454357
-4.234757	cantan	-0.08450484
-4.535788	cantando	-0.09315995
-4.535788	cantar	-0.08551086
-4.234757	cantidad	-0.3184737
-4.535788	cap	-0.07759346
-4.535788	capaz	-0.07759346
-4.535788	capitalismo	-0.09081189
-4.234757	capitulo	-0.08153771
-4.535788	capitulos	-0.07759346
-4.535788	caprichito	-0.07759346
-3.581545	cara	-0.5774108
-3.933728	caracter	-0.3473617
-4.234757	caras	-0.08361295
-4.535788	carceles	-0.06531177
-4.535788	cargarse	-0.08440153
-4.234757	carino	-0.08384579
-4.535788	carinoso	-0.09351423
-4.535788	carlosalsina	-0.06531177
-3.933728	carlosherreracr	-0.1770591
-4.234757	carmechacon	-0.09059549
-4.234757	carpeta	-0.3254238
-4.535788	carpetas	-0.09058275
-4.234757	carrera	-0.3342047
-4.234757	carteles	-0.06827084
-3.305339	casa	-0.1058216
-4.535788	casa'	-0.06531177
-4.535788	casacurro	-0.08551086
-4.535788	casas	-0.09109178
-4.535788	caseras	-0.08454357
-4.535788	caseta	-0.07759346
-3.280515	casi	-0.221005
-4.535788	casita	-0.08533047
-4.234757	caso	-0.08545934
-4.234757	castellano	-0.09336244
-4.535788	castigo	-0.09272937
-4.234757	casualidad	-0.09245053
-3.257034	catalan	-0.118367
-4.535788	catalanLectura	-0.09351423
-3.17406	catalana	-0.1586004
-3.08863	catalanas	-0.2107707
-2.795425	catalanes	-0.06811939
-4.535788	catalanesJuntsPelSi	-0.07625317
-4.535788	catalanesmiqueliceta	-0.07625317
-4.535788	catalans	-0.08870691
-4.535788	cataln	-0.09331182
-4.234757	catalufos	-0.0762137
-4.234757	cataluna	-0.06528478
-4.535788	cataluna#NOIndependencia	-0.08533047
-4.535788	catalunanopolice	-0.09329917
-4.234757	catalunanopolizador	-0.08330229
-4.535788	catalunya	-0.09171454
-4.535788	catarres	-0.09351423
-4.535788	catetos	-0.08551086
-4.535788	catsiespot	-0.09317261
-3.17406	catsiqueespot	-0.2137846
-4.535788	causante	-0.07759346
-4.058666	cava	-0.04527351
-4.535788	cavaEl	-0.09350158
-4.535788	cazarla	-0.08533047
-4.234757	cc	-0.09165104
-4.535788	cdo	-0.09176534
-3.69069	celebra	-0.0582227
-4.535788	celebracion	-0.07759346
-4.234757	celebrando	-0.08449193
-3.933728	celebrar	-0.07430103
-4.535788	celebrara	-0.08454357
-4.535788	celebrarlo	-0.09351423
-4.535788	censados	-0.08454357
-4.234757	censo	-0.07453894
-4.535788	centenares	-0.07759346
-4.535788	central	-0.09058275
-4.535788	centre	-0.07759346
-3.933728	centro	-0.07663465
-3.933728	cerca	-0.06739866
-4.535788	cercanas	-0.08440153
-4.535788	cerrados	-0.08855342
-4.535788	cerrar	-0.09347628
-4.535788	certero	-0.09343833
-4.535788	cerveza	-0.08551086
-4.535788	cestas	-0.07759346
-4.535788	chafada	-0.09040445
-4.535788	chaparron	-0.09351423
-4.535788	charco	-0.07625317
-4.535788	charla	-0.09040445
-4.234757	chicos	-0.07758035
-4.535788	chino	-0.08454357
-4.535788	chita	-0.09351423
-4.535788	chivan	-0.08362588
-4.535788	chollito	-0.08454357
-4.535788	chramirezferro	-0.09351423
-4.535788	chulo	-0.09350158
-4.535788	chupate	-0.09343833
-4.535788	churreria	-0.09334978
-4.535788	cicatrizar#27S	-0.06531177
-4.535788	ciega	-0.09351423
-4.234757	ciego	-0.3245061
-4.234757	cien	-0.09034076
-4.535788	ciencia	-0.09231104
-4.535788	cientifico	-0.09252659
-4.535788	cierra	-0.09040445
-4.234757	cierran	-0.3294336
-3.69069	cierre	-0.5787864
-3.933728	cierren	-0.3388928
-4.234757	cierto	-0.09021334
-4.535788	cifra	-0.08362588
-4.058666	cifras	-0.07755409
-4.234757	cinco	-0.09289405
-4.535788	cintsb	-0.09351423
-4.535788	cinturon	-0.09348893
-4.535788	cita	-0.08533047
-3.933728	ciu	-0.3473237
-4.535788	ciudad	-0.08547222
-4.058666	ciudadana	-0.09286871
-3.933728	ciudadania	-0.196159
-3.933728	ciudadano	-0.1938823
-3.69069	ciudadanos	-0.04807701
-4.535788	ciutada	-0.09044266
-3.836818	ciutadans	-0.07126313
-4.535788	civico	-0.09142233
-4.535788	civil	-0.09315995
-4.535788	claman	-0.08440153
-4.234757	clara	-0.09105363
-4.535788	claramente	-0.09348893
-4.535788	claridad	-0.08551086
-4.535788	clarisimo	-0.09260264
-3.044426	claro	-0.2893672
-4.535788	claros	-0.09350158
-4.234757	clase	-0.0773835
-4.535788	clases	-0.07759346
-3.933728	clave	-0.06169325
-4.535788	claves	-0.09058275
-4.535788	cliente	-0.08551086
-4.535788	clima	-0.09318526
-3.933728	cn	-0.08909039
-4.234757	cnd	-0.3248036
-4.535788	coalicion	-0.09294471
-4.535788	cobardes	-0.08855342
-3.933728	cobertura	-0.1538901
-4.234757	cobra	-0.3342047
-4.535788	cogiendo	-0.09348893
-4.234757	coherencia	-0.07473708
-4.535788	cohesion	-0.09040445
-4.535788	coincidan	-0.08454357
-4.535788	coja	-0.08551086
-3.581545	cola	-0.2277291
-4.234757	colaboradores	-0.07587136
-4.535788	colaborando	-0.09040445
-4.535788	colado	-0.09351423
-3.69069	colas	-0.1892722
-4.535788	colat	-0.09351423
-4.234757	cole	-0.06927502
-4.535788	colectivasIgualdad	-0.09345099
-3.213568	colegio	-0.5430025
-3.120814	colegios	-0.5962836
-4.535788	colegioslo	-0.09343833
-4.535788	coleta	-0.09351423
-4.535788	collegi	-0.09231104
-4.535788	color	-0.08551086
-4.535788	colores	-0.09331182
-4.234757	comarcas	-0.09266601
-4.535788	comarques	-0.07625317
-4.535788	comenta	-0.09337508
-4.535788	comentados	-0.09293205
-4.535788	comentar	-0.09328651
-4.535788	comentario	-0.07759346
-4.535788	comentarios	-0.07625317
-4.535788	comenzamos	-0.09336243
-4.234757	comer	-0.09310932
-4.058666	comicios	-0.09105362
-4.535788	comida	-0.09269135
-4.535788	comidas	-0.09351423
-4.535788	comido	-0.09350158
-4.535788	comiendo	-0.09351423
-4.058666	comienza	-0.07509349
-2.540153	como	-0.1157247
-4.535788	como'	-0.0911808
-4.535788	compaeros	-0.07759346
-4.535788	companera	-0.09351423
-3.933728	companero	-0.09198115
-3.305339	companeros	-0.3427485
-4.535788	companerosas	-0.07759346
-4.234757	companers	-0.3184737
-4.535788	companerxs	-0.09261531
-4.234757	compania	-0.09321058
-4.535788	comparada	-0.09040445
-4.535788	comparando	-0.07759346
-4.535788	comparece	-0.09340038
-4.058666	comparecencia	-0.4651147
-4.535788	comparecencias	-0.09302069
-4.535788	comparecer	-0.08392338
-4.535788	compartir	-0.09291938
-4.234757	comparto	-0.08391045
-4.535788	competentes	-0.08362588
-4.535788	competitivas	-0.06531177
-4.058666	compis	-0.09100274
-3.933728	complicado	-0.08462103
-4.535788	comprar	-0.09044266
-4.535788	comprender	-0.06531177
-4.535788	comprobar	-0.08362588
-4.535788	comprometeria	-0.08440153
-4.535788	compromis	-0.0932612
-4.234757	compromiso	-0.07435393
-4.058666	comun	-0.07456535
-4.535788	comun'	-0.09321058
-3.933728	comunicacion	-0.09321057
-3.836818	comunidad	-0.1552954
-2.144853	con	-0.2916648
-4.535788	concejales	-0.08362588
-4.535788	concentracion	-0.09347628
-4.535788	concentrados	-0.09044266
-4.535788	concentrarian	-0.08547222
-4.535788	concepto	-0.07759346
-4.535788	conceptos	-0.09058275
-4.535788	concibo	-0.09162563
-4.535788	conciso	-0.09351423
-4.535788	conclusion	-0.08533047
-4.535788	conclusiones	-0.09351423
-4.535788	concurre'	-0.09331182
-4.535788	concurrir	-0.09040445
-4.535788	condena	-0.09162563
-4.535788	condicion	-0.09351423
-4.535788	condiciones	-0.0911808
-4.535788	confesado	-0.09343833
-4.234757	confianza	-0.06690142
-4.535788	confiar	-0.08454357
-4.535788	configuracion	-0.07759346
-4.234757	confirma	-0.0903535
-4.535788	confirmado	-0.09171454
-4.234757	confirman	-0.08893704
-4.535788	confirman10	-0.09193039
-4.535788	confirmando	-0.08855342
-4.535788	confluencia	-0.09302069
-4.535788	conformas	-0.09351423
-4.535788	conformismo	-0.09271669
-4.535788	coniguen	-0.08547222
-3.836818	conocer	-0.270041
-4.535788	conoceremos	-0.08855342
-4.535788	conquistado	-0.09351423
-4.535788	conquistando	-0.09186692
-4.234757	conscientes	-0.06731807
-4.058666	consecuencias	-0.04501904
-4.535788	consecuentes	-0.0924632
-3.933728	conseguido	-0.08299141
-4.234757	conseguir	-0.08939694
-4.535788	conseguiria	-0.08392338
-4.535788	conseguirian	-0.09341303
-4.234757	conseguirlo	-0.08496945
-4.535788	conservador	-0.09351423
-4.535788	conservadora	-0.09337508
-4.535788	considera	-0.08362588
-4.535788	consideraba	-0.09315995
-4.234757	consigue	-0.09100275
-4.234757	consiguen	-0.07304335
-4.535788	consiguieron	-0.09040445
-4.535788	consolida	-0.09248856
-4.535788	consolidacion	-0.09348893
-4.535788	consolidada	-0.09227299
-4.535788	constitucion	-0.08440153
-4.535788	constitucional	-0.09219687
-4.535788	constitucionalista	-0.09343833
-4.535788	constitucionalistas	-0.07625317
-4.535788	constituirse	-0.09345099
-4.535788	construiremos	-0.09317261
-4.535788	consuela	-0.09036623
-4.535788	consulta	-0.09348893
-4.234757	consultar	-0.07946557
-4.535788	contado	-0.0911808
-4.535788	contadosJuntsPelSi	-0.09328651
-3.836818	contamos	-0.2617251
-4.058666	contando	-0.08353529
-3.757636	contar	-0.1423772
-4.535788	contaran	-0.09252659
-4.535788	contaros	-0.09227299
-4.535788	conteis	-0.08855342
-4.234757	contenta	-0.09223494
-3.933728	contento	-0.08006606
-4.234757	contentos	-0.05655961
-4.535788	conteo	-0.07625317
-4.535788	contexto	-0.08454357
-3.933728	contigo	-0.3380794
-4.535788	continuan	-0.09351423
-4.535788	continuara	-0.06531177
-4.535788	continuidad	-0.09036623
-3.581545	contra	-0.1410049
-4.535788	contrarias	-0.09340038
-3.933728	contrario	-0.04758525
-4.535788	contrarios	-0.08440153
-4.535788	contribuir	-0.08440153
-4.535788	contribuiria	-0.08440153
-4.535788	control	-0.09351423
-4.535788	controlar	-0.08547222
-4.535788	convence	-0.08533047
-4.535788	convencer	-0.08440153
-4.234757	convencido	-0.08248577
-4.535788	convendria	-0.08440153
-4.234757	convenga	-0.06790876
-4.535788	convenio	-0.07759346
-4.535788	conversacion	-0.08362588
-4.535788	convertirse	-0.08454357
-4.535788	conviene	-0.09347628
-3.933728	convierte	-0.3367722
-3.757636	convivencia	-0.05096021
-4.535788	conviviendo	-0.09343833
-4.535788	convocadas	-0.09227299
-4.535788	convocados	-0.08440153
-4.535788	coordinado	-0.0911808
-4.535788	cop	-0.07759346
-3.535788	copees	-0.4145945
-4.535788	coraje	-0.09351423
-3.757636	corazon	-0.05871629
-4.535788	corbata	-0.08551086
-4.234757	cordiales	-0.331972
-4.535788	cordura	-0.09142233
-4.535788	corneta	-0.09351423
-4.234757	corre	-0.07568691
-4.535788	correctamente	-0.09351423
-4.535788	correo	-0.07759346
-4.535788	correr	-0.08392338
-3.933728	corrupcion	-0.07591086
-4.535788	corrupciones	-0.09305868
-4.535788	corrupta	-0.09227299
-4.234757	corrupto	-0.09087552
-4.535788	cortijo	-0.08547222
-4.535788	cortina	-0.07759346
-4.535788	corto	-0.08551086
-3.836818	cosa	-0.049521
-3.331668	cosas	-0.1521809
-4.535788	costa	-0.09346364
-4.535788	costas	-0.07759346
-4.535788	costes	-0.09261531
-4.535788	costo	-0.08551086
-4.535788	coyunturales	-0.09348893
-4.535788	creacion	-0.07759346
-4.535788	crear	-0.09044266
-4.234757	crece	-0.07609522
-4.535788	creces	-0.08392338
-4.234757	crecido	-0.08197953
-4.234757	crecimiento	-0.3184737
-3.933728	cree	-0.186902
-4.535788	creen	-0.08362588
-4.234757	creer	-0.0677209
-4.535788	creiamos	-0.09218419
-4.535788	creido	-0.07625317
-3.632698	creo	-0.3306946
-4.535788	crisis	-0.07759346
-4.535788	crispacion	-0.09251391
-4.234757	cronica	-0.07453894
-4.535788	crucial	-0.07759346
-4.535788	crudo	-0.09336243
-4.535788	csciudadanos	-0.09331182
-4.535788	csmoixent	-0.06531177
-4.234757	ctxtes	-0.06493372
-4.535788	cua	-0.09343833
-4.058666	cuadra	-0.07973981
-4.535788	cuadran	-0.08998387
-3.69069	cual	-0.2469246
-3.69069	cualquier	-0.09308399
-4.234757	cualquiera	-0.09212076
-4.535788	cualquiera#eleccionescatalanas	-0.07625317
-3.280515	cuando	-0.1069191
-4.234757	cuanto	-0.0839751
-4.234757	cuantos	-0.3328487
-4.535788	cuarenta	-0.09324855
-4.535788	cuarta	-0.09319792
-4.234757	cuartos	-0.3343818
-4.535788	cuasi	-0.09351423
-4.234757	cuatro	-0.07758035
-4.535788	cuelga	-0.09347628
-3.38966	cuenta	-0.0908093
-3.933728	cuentan	-0.08668162
-4.058666	cuentas	-0.06770747
-4.535788	cuenten	-0.09346364
-4.234757	cuento	-0.05966075
-4.535788	cuerpo	-0.09081189
-4.535788	cues	-0.09351423
-4.234757	cuesta	-0.09345099
-4.058666	cuestion	-0.0932865
-4.535788	cuestiona	-0.08362588
-4.535788	cueva	-0.08440153
-4.535788	cuida	-0.09327386
-4.535788	culitos	-0.08533047
-3.69069	culo	-0.1049497
-4.535788	cultura	-0.08551086
-4.535788	cultural	-0.07759346
-4.535788	cumplan	-0.08533047
-4.234757	cumple	-0.0771209
-4.535788	cumpleanos	-0.09318526
-4.058666	cup	-0.09224761
-3.030638	cupnacional	-0.07740888
-4.535788	cupula	-0.09058275
-4.535788	curiosas	-0.09227299
-4.535788	curioso	-0.09351423
-4.535788	currar	-0.09346364
-4.535788	curvaaaas#eleccionescatalanas	-0.07625317
-4.535788	curvas	-0.08533047
-2.956004	d	-0.08499692
-4.535788	d'Hont	-0.08551086
-3.17406	da	-0.1377046
-4.234757	daban	-0.09116809
-3.933728	dado	-0.1870575
