
\data\
ngram 1=5456
ngram 2=17513
ngram 3=1531
ngram 4=742
ngram 5=430
ngram 6=296

\1-grams:
-3.8338	#	-0.1575853
-4.13483	#1DPremiosTelehit2015FB	-0.04910631
-4.43586	#27	-0.08712988
-1.405666	#27S	-0.5460061
-2.904381	#27S2015	-0.4345739
-4.43586	#27S2015el	-0.09612153
-4.43586	#27SCatRadio	-0.06771906
-4.43586	#27SDeberia	-0.09605785
-4.43586	#27SDia	-0.0960897
-4.43586	#27SEspanaIndivisible	-0.09612153
-4.43586	#27SQuiero	-0.09599416
-4.43586	#27SSi	-0.09292583
-3.03792	#27STV3	-0.7431523
-4.43586	#27Seleccions	-0.09612153
-4.13483	#27SenCuatro	-0.06698762
-3.657709	#27Srac1	-0.09733499
-2.302321	#27s	-0.46809
-4.13483	#27s2015	-0.07869447
-4.43586	#27s2015votaindependencia	-0.06771906
-4.13483	#27sTV3	-0.2715182
-4.43586	#27srac1	-0.07872762
-4.43586	#27stv3	-0.09559586
-4.43586	#27stve	-0.09610561
-4.43586	#40anos	-0.09612153
-4.43586	#540votosde678	-0.06771906
-4.43586	#ABuenasHoras	-0.09597823
-4.43586	#ARVObjetivoCataluna	-0.07872762
-4.43586	#Adelante	-0.08831472
-4.43586	#Albiol	-0.09565961
-4.43586	#AlvarodelPortillo	-0.09371095
-4.43586	#Amistad	-0.09612153
-4.43586	#Amor	-0.07872762
-2.891792	#ApoderadosCs	-0.2141759
-4.43586	#ArribaEspana	-0.09612153
-4.43586	#ArtuMas	-0.09593046
-3.958739	#ArturMas	-0.09452663
-4.43586	#AsambleaDeAndalucia	-0.06771906
-4.43586	#Asturias	-0.06771906
-4.43586	#BCN	-0.09610561
-4.13483	#BCNNaranja	-0.0767346
-4.43586	#Banos	-0.09459053
-4.43586	#Barca	-0.08831472
-3.657709	#Barcelona	-0.05314991
-4.43586	#BocaDeUrna	-0.09607378
-4.43586	#Bruselas	-0.08712988
-4.43586	#BuenosDias	-0.09612153
-3.73689	#CATNaranja	-0.2273394
-4.43586	#CATnaranja	-0.06771906
-4.43586	#CIUERC	-0.09612153
-3.657709	#CUP	-0.0458477
-4.43586	#Cambiemos	-0.07872762
-4.43586	#CaminemJunts	-0.09542049
-4.43586	#CaminemosJuntos	-0.09612153
-4.43586	#Carmel	-0.06771906
-4.43586	#CasaXCasa	-0.09375898
-4.43586	#Cat4everCtxt	-0.06771906
-4.43586	#CatNaranja	-0.06771906
-3.657709	#CatParlaCtxt	-1.596403
-4.43586	#CatSiQueEsPot	-0.09604193
-3.004497	#CatSiQueEsPot27S	-0.2860334
-4.43586	#Catal	-0.06771906
-4.43586	#CatalanElections	-0.06771906
-4.13483	#Catalanas	-0.06765107
-4.43586	#CatalanyEspanol	-0.06771906
-4.43586	#Catalogne	-0.096026
-4.13483	#Catalonia	-0.06770206
-4.43586	#CataloniaSaysYES	-0.07872762
-4.43586	#CataloniaVotes	-0.06771906
-2.844796	#Cataluna	-0.4377066
-4.43586	#CatalunaCiudadana	-0.09422293
-4.43586	#CatalunaDecide	-0.07872762
-4.43586	#CatalunaDiceNo	-0.09396701
-4.43586	#CatalunaEsCiudadana	-0.09593046
-3.321917	#CatalunaEsEspana	-0.6418637
-4.43586	#CatalunaXaTodos	-0.06771906
-4.43586	#CatalunaesEspana	-0.09396701
-4.43586	#Catalunasevaalaquiebra	-0.06771906
-2.973462	#Catalunya	-0.1186736
-4.43586	#CatalunyaDecideix	-0.06771906
-3.958739	#CatalunyaEsEspana	-0.09339067
-4.43586	#CatalunyaLaHasCagao	-0.09610561
-4.43586	#CatalunyaSiQueEsPot	-0.07872762
-4.43586	#Catalunyaque	-0.09610561
-4.43586	#Catastrofe	-0.07872762
-3.394468	#CatparlaCtxt	-1.090499
-4.43586	#Catsiespot	-0.09605785
-4.43586	#ClaroClaro	-0.09612153
-4.43586	#ColmenarViejo	-0.09313427
-4.13483	#ComunicacionPolitica	-0.06770206
-4.43586	#ConEllosSi	-0.09562774
-4.43586	#Cs	-0.08802287
-4.43586	#DaPaloVotar	-0.07872762
-4.43586	#DaQuePensar	-0.06771906
-4.43586	#Democracia	-0.09581895
-4.43586	#Detallazo	-0.07872762
-4.43586	#Diciembre2015	-0.09612153
-4.13483	#Directo	-0.04910631
-4.43586	#DoYouHearThePeopleSing	-0.07872762
-4.43586	#DomingoDeGanarSeguidores	-0.06771906
-4.43586	#DudaRazonable	-0.06771906
-4.43586	#Duran	-0.06771906
-4.43586	#DuranILleida	-0.09596231
-4.13483	#ESPANA	-0.06770206
-4.43586	#EclipseLunar	-0.09612153
-4.43586	#ElCambioQueUne	-0.09612153
-4.43586	#ElCambioSensato	-0.09292583
-4.43586	#ElSignoDeLosTiempos	-0.07872762
-4.13483	#Elecciones	-0.09607376
-3.394468	#Elecciones27S	-0.2136235
-4.13483	#EleccionesA3	-0.04910631
-4.43586	#EleccionesAUTONOMICAS	-0.06771906
-4.43586	#EleccionesAutonomicas	-0.09567555
-2.93071	#EleccionesCatalanas	-0.3489998
-3.958739	#EleccionesCataluna	-0.1738668
-4.43586	#EleccionesGenerales	-0.07872762
-4.13483	#Eleccionescatalanas	-0.07871104
-3.73689	#Eleccions2015	-0.4503053
-3.590762	#Eleccions27S	-0.382087
-4.13483	#EleccionsCatalanes	-0.2715182
-4.43586	#ElecionesCatalanas	-0.09612153
-4.43586	#EnDirecto	-0.09540455
-4.43586	#EquipoNaranja	-0.09470235
-4.43586	#EsClarQueNoEsClar	-0.09612153
-3.093438	#Espana	-0.1534763
-4.13483	#EspanaUnida	-0.07027787
-4.43586	#Espanol	-0.09514934
-4.43586	#EstafaEstados	-0.09612153
-4.43586	#FairPlay	-0.07872762
-4.43586	#FelizDomigo	-0.06771906
-3.8338	#FelizDomingo	-0.05931024
-4.43586	#Fiestadelademocracia	-0.07872762
-4.43586	#Fotoperiodismo	-0.09371095
-4.43586	#Fuengirola	-0.09612153
-4.43586	#GHDirecto	-0.09610561
-3.958739	#GerardPique	-0.09433484
-4.43586	#Google	-0.08712988
-3.8338	#Governemnos	-0.1570749
-3.657709	#GuanyemJunts	-0.05595295
-4.43586	#HayaPaz	-0.07872762
-4.43586	#HoyNoTeQuedesEnCasa	-0.07872762
-4.43586	#IIIRepublica27s	-0.06771906
-2.65053	#Iceta27S	-0.4787182
-4.13483	#Icetalopeta	-0.09548426
-3.958739	#Independencia	-0.1818122
-4.43586	#Independiente	-0.09593046
-3.73689	#InesPresidenta	-0.4334257
-4.43586	#Italia	-0.09594638
-3.958739	#JaqueAlRey	-0.2034715
-4.13483	#JornadaDeReflexio	-0.2999047
-4.43586	#JuntoaGanamos	-0.06771906
-4.43586	#JuntosHacemosMas	-0.06771906
-4.43586	#JuntosPorlSisegun	-0.09612153
-4.13483	#JuntsGuanyem	-0.04910631
-4.43586	#JuntsPel3Percent	-0.09604193
-3.289732	#JuntsPelSi	-0.1350457
-4.43586	#JuntsiMillor	-0.06771906
-4.43586	#JuntspelNO	-0.09545238
-4.43586	#Juntspelsi	-0.09575523
-4.43586	#Katalunia	-0.07872762
-4.43586	#L'hospitalet	-0.07872762
-4.13483	#L6Ncatalunavota	-0.0950057
-2.802392	#L6cat	-0.5979504
-4.43586	#LQSA	-0.08712988
-3.958739	#La6Cat	-0.3833955
-3.8338	#La6cat	-0.6396286
-4.43586	#LaCatalunyaDeLaGent	-0.07872762
-4.43586	#Lectores	-0.08831472
-4.43586	#LeyDHont	-0.07872762
-4.43586	#LiberenACeballos	-0.06771906
-4.13483	#LlamadasQueUnen	-0.09583487
-4.43586	#LunaRoja	-0.09612153
-3.73689	#Madrid	-0.09324645
-3.657709	#Mas	-0.09057802
-4.43586	#Mas#	-0.08704861
-3.73689	#MejorUnidos	-0.2286507
-4.43586	#Misterio	-0.09612153
-4.43586	#NO	-0.08831472
-3.958739	#NOIndependencia	-0.1738668
-4.43586	#Nerviosdepolitologo	-0.06771906
-4.43586	#News	-0.09578709
-4.43586	#Nivelon	-0.09559586
-4.43586	#Nomasfrentismos	-0.08802287
-4.43586	#Noticias27S	-0.06771906
-4.43586	#NoticiasFinDeSemanaA3	-0.09612153
-4.13483	#NuevaCatTodos	-0.06712379
-4.43586	#ObservatorioDialoga	-0.07872762
-4.43586	#Oleyole	-0.06771906
-4.43586	#PODEMOS	-0.06771906
-3.590762	#PP	-0.09674963
-4.43586	#PPCataluna	-0.08712988
-4.43586	#PapaEnEEUU	-0.07872762
-4.43586	#Parlament	-0.07995211
-4.43586	#PedroSanchez	-0.09612153
-3.73689	#Periscope	-0.1654126
-4.43586	#Peroquemeestascontando	-0.06771906
-3.8338	#PlantemCara	-0.1542227
-3.289732	#PlantemosCara	-0.2481981
-4.13483	#PorLaUnidadDeEspana	-0.06760007
-4.43586	#Porqueunpaisdivididonoprospera	-0.07872762
-4.43586	#PreguntaRabos	-0.09551616
-4.43586	#PublicoCAT27S	-0.07872762
-4.43586	#PublicoCAT27s	-0.07872762
-4.43586	#Quito	-0.0960897
-4.43586	#RCDE	-0.06771906
-4.43586	#RESPECTE	-0.06771906
-4.43586	#RazonarAntesdeVotar	-0.06771906
-4.43586	#ReadHappyNews	-0.06771906
-4.43586	#ReflexionesCunadianas	-0.07872762
-4.43586	#ReinoUnido	-0.06771906
-4.43586	#Resumen	-0.08802287
-4.43586	#Ripollet	-0.06771906
-4.43586	#Roma	-0.07872762
-4.13483	#SI	-0.0593622
-4.43586	#Salt	-0.06771906
-4.43586	#SantFeliu	-0.09612153
-4.13483	#SantJustDesvern	-0.0936309
-4.43586	#SantaColoma	-0.09612153
-4.43586	#SensePor	-0.06771906
-4.43586	#SeparacionPoderes	-0.06771906
-4.43586	#Si	-0.09612153
-4.43586	#Sisepuede	-0.07872762
-4.43586	#Sitges	-0.06771906
-4.43586	#SoloGanasDe	-0.07872762
-4.13483	#SomLaHistoria	-0.06761707
-3.958739	#SomriureCUP	-0.09597824
-4.43586	#SotodelReal	-0.09612153
-4.43586	#Spain	-0.09612153
-4.43586	#StopGolpismo	-0.07872762
-4.43586	#SuperEclipse	-0.08831472
-4.43586	#Tarragona	-0.07872762
-4.43586	#Telecinco	-0.09508551
-4.43586	#Torremolinos	-0.09612153
-4.43586	#TrueStory	-0.09588267
-4.43586	#UNGA70	-0.06771906
-4.43586	#URGENTE	-0.09610561
-3.958739	#UnidosGanamos	-0.1922415
-4.43586	#UnidosGanemos	-0.09591453
-4.13483	#Union	-0.09591452
-4.43586	#UnitsGuanyem	-0.06771906
-4.43586	#UtilizaBienTuVoto	-0.09581895
-4.43586	#VOX	-0.09612153
-4.43586	#VaHomeVa	-0.06771906
-4.43586	#VaParaLargo	-0.06771906
-4.43586	#VamosJuntos	-0.09610561
-4.43586	#ViscaCatalunyaLliure	-0.09612153
-3.590762	#VivaEspana	-0.275711
-4.43586	#VivaEspana#responsabilitat	-0.07872762
-4.43586	#Viviendoatope	-0.07872762
-4.13483	#VotaIceta	-0.06766807
-4.43586	#VotaPerMi	-0.09580302
-4.13483	#VotaSocialista	-0.06763407
-4.43586	#VotarePerTu	-0.07872762
-4.43586	#Vox	-0.09612153
-3.958739	#YoVotoNaranja	-0.04697229
-4.43586	#YoVotoaInes27S	-0.09542049
-4.43586	#YovotoaInes27S	-0.0960897
-4.43586	#a3cataluna	-0.06771906
-3.958739	#a3noticias	-0.06493988
-4.43586	#adeupresident	-0.09396701
-4.43586	#altaparticipacion	-0.07872762
-4.43586	#alucino	-0.09422293
-3.321917	#analistasbez	-0.2427738
-4.43586	#anticapitalista	-0.09591453
-4.43586	#apoderadosCs	-0.06771906
-4.13483	#arturmas	-0.2980221
-4.43586	#autonomicas	-0.0913835
-4.43586	#avuinemavotar	-0.07872762
-4.43586	#backstage	-0.06771906
-4.43586	#baileiceta	-0.07872762
-4.43586	#bcn	-0.0960897
-4.43586	#besos	-0.09612153
-4.43586	#boadilla	-0.09396701
-4.43586	#boncopdefalc	-0.09612153
-4.43586	#bso	-0.09396701
-4.43586	#buenosdiaas	-0.06771906
-4.43586	#byebyepopulismo	-0.09573929
-4.13483	#caminemjunts	-0.06567475
-4.43586	#catalanaenmadrid	-0.06771906
-4.13483	#cataloniavotes	-0.2715182
-3.590762	#cataluna	-0.1421547
-4.43586	#cataluna13Tv	-0.09601008
-4.43586	#cataluna13tv	-0.09559586
-4.43586	#catalunaEsEspana	-0.06771906
-3.958739	#catalunya	-0.1924625
-4.43586	#catalunyalliure	-0.08802287
-4.43586	#catnaranja	-0.08802287
-4.43586	#catparlaCtxt	-0.06771906
-3.958739	#catparlactxt	-0.1738668
-4.43586	#chedocumentacion	-0.07872762
-4.13483	#ciudadanos	-0.06763407
-4.13483	#ciutadans	-0.08799042
-4.13483	#clasicoselectorales	-0.07851214
-4.43586	#concepto	-0.09396701
-4.43586	#conojosdenino	-0.09612153
-4.43586	#contenta	-0.06771906
-4.43586	#conunpar	-0.06771906
-4.43586	#convivencia	-0.09612153
-4.43586	#cuentaatras	-0.08802287
-4.43586	#cup	-0.06771906
-4.43586	#ddj	-0.06771906
-3.657709	#democracia	-0.04894663
-4.43586	#descansar	-0.09396701
-4.43586	#devantalerespoweralesurnes	-0.06771906
-4.43586	#diagonalmar	-0.09612153
-4.43586	#diahistorico	-0.06771906
-4.43586	#dignidad	-0.09612153
-4.43586	#dimisionMas	-0.07872762
-4.43586	#directa	-0.07872762
-4.13483	#directo	-0.06765107
-4.43586	#documentos	-0.09604193
-4.43586	#doge	-0.06771906
-4.43586	#dw	-0.07872762
-3.481618	#elecccionescatalanas	-0.3393821
-3.73689	#elecciones	-0.04812951
-4.13483	#elecciones2015	-0.07871104
-4.13483	#elecciones27S	-0.05905021
-3.180588	#eleccionesA3	-0.2111154
-1.732569	#eleccionescatalanas	-0.6351508
-4.43586	#eleccionescatalanas2015	-0.06771906
-4.43586	#eleccionescatalanasel	-0.09433484
-4.43586	#eleccionescatalanes	-0.09396701
-4.43586	#eleccionescataluna	-0.06771906
-3.73689	#eleccions	-0.1438288
-3.8338	#eleccions2015	-0.04665128
-4.43586	#eleccions27S	-0.06771906
-3.23174	#eleccionscatalanes	-0.4401464
-4.43586	#eleccionsparlament2015	-0.09596231
-4.43586	#electores	-0.09585081
-4.43586	#elnostrefutur	-0.06771906
-4.13483	#elvotdelatevavida	-0.06770206
-4.43586	#emocion	-0.09612153
-4.43586	#enajenado	-0.06771906
-4.43586	#eshumana	-0.09396701
-4.13483	#espana	-0.2715182
-4.43586	#esperanza	-0.09610561
-4.43586	#estoSIimporta	-0.09396701
-4.43586	#estonovaconmigo	-0.07872762
-4.43586	#fb	-0.06771906
-4.43586	#firamedievalspm	-0.09607378
-4.43586	#formasdeoptimismo	-0.09588267
-4.43586	#freecat	-0.09612153
-4.13483	#governemnos	-0.05905021
-4.43586	#guanyem	-0.09612153
-4.43586	#guardia	-0.09612153
-4.43586	#haGanadoelNO	-0.06771906
-4.43586	#haymasopciones	-0.06771906
-4.43586	#hedicho	-0.09612153
-4.43586	#hipocritas	-0.09612153
-4.43586	#iceta	-0.06771906
-3.73689	#icetalopeta	-0.1089255
-4.43586	#ilusion	-0.09612153
-4.13483	#imparables	-0.2715182
-4.43586	#indepencia	-0.09396701
-4.43586	#independanceday	-0.06771906
-4.43586	#independecewon	-0.06771906
-3.958739	#independencia	-0.09310221
-4.43586	#independentismo	-0.09591453
-4.43586	#indyref	-0.07872762
-4.13483	#inespresidenta	-0.2715182
-4.43586	#invencibles	-0.07872762
-4.43586	#jaquealrey27s	-0.09605785
-4.43586	#joaquimruyra	-0.09612153
-4.43586	#jojahevotat	-0.096026
-4.43586	#jornadaelectoral	-0.09599416
-4.43586	#jornadahistorica	-0.08802287
-4.43586	#jotambesoccatalana	-0.06771906
-4.43586	#jotestimo	-0.09396701
-4.43586	#junporsi	-0.09612153
-4.43586	#juntspelsi	-0.09586674
-4.43586	#la6cat	-0.06771906
-4.43586	#ladada	-0.07872762
-4.43586	#lavidaendirecto	-0.09573929
-4.13483	#madrid	-0.08784441
-4.43586	#manipular	-0.08802287
-4.43586	#masclaroagua	-0.06771906
-4.43586	#mascosta	-0.06771906
-4.43586	#meaburro	-0.06771906
-4.43586	#mejorunidos	-0.07872762
-4.43586	#mesaelectoral	-0.07872762
-4.43586	#morodenervis	-0.06771906
-4.43586	#muchpeople	-0.09612153
-4.43586	#mygod	-0.09610561
-4.43586	#nervios	-0.09459053
-4.43586	#noMeEnganan	-0.09578709
-4.43586	#nohaymalqueporbiennovenga	-0.09396701
-4.43586	#noolvidamos	-0.06771906
-4.13483	#noticias	-0.2995862
-4.43586	#oCUPemLesUrnes	-0.09607378
-4.13483	#opinionesciudadanas	-0.2825268
-4.43586	#ouyeah	-0.07872762
-3.958739	#pedrosanchez	-0.2206272
-4.43586	#pereza	-0.08802287
-3.958739	#periodismo	-0.04878689
-4.43586	#plebiscito	-0.09371095
-4.43586	#poblenou	-0.06771906
-4.43586	#pocaverguenzapicha	-0.06771906
-4.43586	#politicalcompass	-0.06771906
-4.43586	#politicosirresponsables	-0.08802287
-4.43586	#porqueunvasoesunvaso	-0.07872762
-4.43586	#porraselectorales	-0.09593046
-4.43586	#ppelalamo	-0.09508551
-4.43586	#presidemesa	-0.07872762
-4.43586	#presidentamesaelectoral	-0.09612153
-4.43586	#proyecto	-0.06771906
-3.8338	#publicocat27S	-0.2619548
-4.13483	#publicocat27s	-0.06540145
-4.43586	#quegran	-0.08802287
-4.43586	#quenosetepase	-0.09591453
-4.43586	#quenovotinpertu	-0.0960897
-4.43586	#quesuerte	-0.06771906
-4.13483	#quinsFUCKINGnervis	-0.2715182
-4.43586	#quote	-0.09612153
-4.43586	#rajoyquotes	-0.07872762
-4.13483	#resultadoselectorales	-0.04910631
-4.43586	#revolucion	-0.07872762
-4.43586	#ruptura	-0.08831472
-3.289732	#somriureCUP	-0.2168353
-4.43586	#superluna	-0.08831472
-4.43586	#ticktack	-0.06771906
-4.43586	#todos	-0.08704861
-4.43586	#todosganan	-0.06771906
-4.43586	#trabajo	-0.08712988
-4.43586	#trabajobienhecho	-0.09586674
-4.43586	#tuNoPero	-0.09550022
-4.43586	#uffff	-0.09612153
-4.43586	#ultimahora	-0.09604193
-4.43586	#unpocodehumor	-0.06771906
-4.43586	#vaia	-0.07872762
-4.43586	#vayadia	-0.09612153
-4.43586	#verydemocracy	-0.09612153
-4.43586	#viscacatalunya	-0.07872762
-4.43586	#vivalalegion	-0.09612153
-4.43586	#votado	-0.08712988
-4.43586	#votar	-0.08831472
-4.43586	#wow	-0.09612153
-4.43586	#yoflipo	-0.09396701
-4.43586	#yomeindigno	-0.08802287
-4.43586	#yovoto	-0.06771906
-3.958739	#yovotoalbiol	-0.067345
-3.73689	%	-0.1475042
-4.43586	&amp	-0.09557992
-4.43586	&gt	-0.09470235
-4.43586	&gtVideo	-0.09470235
-4.43586	&lt	-0.09594638
-3.958739	'	-0.05807819
-4.13483	'Al	-0.2999047
-4.43586	'Don't	-0.09612153
-4.43586	'Es	-0.08639788
-4.43586	'Genova'	-0.09610561
-3.8338	'Junts	-0.667617
-4.43586	'Mira	-0.09578709
-4.43586	'Ohio'	-0.07995211
-4.43586	'Quien	-0.0861536
-4.43586	'Si'	-0.09559586
-4.43586	'Todo	-0.0881526
-4.43586	'Yo	-0.09607378
-4.43586	'colocan'	-0.09417495
-4.43586	'fiestatriunfo	-0.07995211
-4.43586	'ganar'	-0.09612153
-4.43586	'ha	-0.09516529
-4.43586	'mandato	-0.09612153
-4.43586	'mayoria	-0.09612153
-4.43586	'no	-0.09612153
-4.43586	'nueva	-0.0960897
-4.43586	'ohios'	-0.09534076
-4.43586	'puente'	-0.06771906
-4.43586	'sentido	-0.09612153
-4.43586	'seny'	-0.09351881
-4.43586	'si'	-0.0913835
-4.43586	'subliminal'	-0.09371095
-4.43586	'unionista'	-0.09581895
-3.590762	1	-0.07725035
-4.43586	1%	-0.09534076
-2.958739	10	-0.1455427
-4.43586	10%	-0.09534076
-4.43586	100%	-0.09581895
-4.43586	1030	-0.09607378
-3.259769	11	-0.156864
-4.43586	11%	-0.09534076
-4.13483	1113	-0.07814725
-4.43586	1191%	-0.09534076
-3.958739	12	-0.06761709
-4.43586	12%	-0.09577116
-4.43586	120000	-0.09612153
-4.43586	1214	-0.09457456
-3.657709	13	-0.3750168
-4.43586	13%	-0.09455858
-3.8338	1300	-0.3057101
-4.43586	1300h	-0.0944627
-4.43586	1335%	-0.09543644
-3.958739	135	-0.06749807
-4.43586	13H	-0.09503763
-4.43586	13tves	-0.0861536
-4.43586	14	-0.07995211
-4.43586	14%	-0.09324646
-4.43586	1400	-0.09612153
-4.43586	144	-0.0958986
-4.43586	15	-0.09612153
-4.43586	15%	-0.09534076
-4.43586	15000	-0.09612153
-4.43586	1512	-0.09612153
-4.43586	1575000	-0.09612153
-3.53277	16	-0.3589483
-4.43586	1605643	-0.09508551
-3.394468	17	-0.3939785
-4.13483	17%	-0.095261
-4.43586	1714	-0.096026
-4.43586	1716%	-0.09534076
-4.43586	1788%	-0.09535671
-4.43586	1794%	-0.08802287
-3.657709	18	-0.2246602
-4.43586	180	-0.09607378
-3.657709	1800	-0.2251867
-4.13483	1800h	-0.09608968
-4.43586	180177	-0.09313427
-4.43586	1845Hs	-0.07872762
-3.590762	18h	-0.132808
-3.8338	19	-0.07630158
-4.43586	191008	-0.09605785
-4.43586	1932	-0.09570742
-4.13483	1940h	-0.2715182
-4.43586	1980	-0.09123863
-4.43586	19h	-0.07872762
-4.43586	1a	-0.09604193
-4.43586	1servicios	-0.09612153
-3.43586	2	-0.06295116
-4.13483	20	-0.09455857
-3.958739	20%	-0.4110171
-3.8338	2000	-0.09554805
-4.13483	2000h	-0.09594637
-3.657709	2010	-0.1361458
-2.719857	2012	-0.2239924
-4.43586	2012A	-0.09252471
-4.43586	2014	-0.09518125
-3.394468	2015	-0.1114392
-4.43586	20150927	-0.09594638
-4.43586	2050	-0.09534076
-4.43586	2050%	-0.08802287
-4.43586	20H	-0.07872762
-3.958739	20h	-0.2206113
-4.43586	20m	-0.07872762
-3.958739	21	-0.08669083
-4.43586	21h	-0.09588267
-3.73689	22	-0.07371104
-4.43586	222%	-0.09572335
-4.43586	226%	-0.09601008
-3.73689	23	-0.1547956
-3.590762	24	-0.2583274
-4.43586	2451%	-0.09534076
-4.43586	248%	-0.09543644
-4.13483	24h	-0.09610561
-3.958739	24htve	-0.06722591
-3.13483	25	-0.3609747
-4.13483	25%	-0.07912512
-4.43586	27	-0.096026
-3.8338	27S	-0.06404951
-4.43586	28	-0.09551616
-4.43586	2827%	-0.09534076
-4.13483	2943%	-0.0952929
-4.43586	2Avance	-0.07872762
-4.43586	2a	-0.09580302
-4.43586	2hs	-0.07995211
-4.43586	2mujerescerca	-0.07995211
-3.590762	3	-0.2682159
-3.958739	3%	-0.09323044
-4.13483	30	-0.09580301
-4.43586	30%	-0.08831472
-4.43586	3000Dulce	-0.09612153
-4.13483	3261%	-0.07912512
-4.43586	33%	-0.09534076
-4.43586	3478%	-0.09612153
-4.43586	35	-0.09581895
-3.657709	35%	-0.3703836
-4.43586	35%casi	-0.09607378
-4.43586	3503%	-0.06771906
-4.13483	36%	-0.08803908
-4.13483	3809%	-0.2997933
-4.13483	3913	-0.07975376
-4.13483	3942%	-0.07958842
-4.13483	3969%	-0.06186723
-4.43586	3969%escrutado	-0.09577116
-3.590762	4	-0.09006175
-4.43586	40	-0.09605785
-3.8338	40%	-0.1690128
-4.43586	40min	-0.07995211
-4.13483	44%	-0.079886
-4.43586	45	-0.096026
-4.43586	4500	-0.09455858
-4.13483	452%	-0.2991399
-4.13483	47	-0.09538859
-3.73689	47%	-0.067379
-4.43586	4718%	-0.07995211
-4.43586	4725%	-0.07995211
-4.43586	4728	-0.08831472
-4.43586	4729%	-0.07995211
-4.43586	473%	-0.07995211
-4.43586	4732%de	-0.09455858
-4.43586	4737%	-0.08712988
-4.13483	474%	-0.2837512
-4.43586	475%	-0.0881526
-4.43586	4758%	-0.09455858
-4.43586	4758%Artur	-0.09612153
-4.43586	4763%	-0.08712988
-4.43586	4796%	-0.07995211
-4.43586	4799%	-0.09543644
-4.13483	48%	-0.07831315
-4.43586	4801%	-0.09518125
-4.43586	4807%	-0.09534076
-4.13483	49%	-0.09407898
-4.43586	498%	-0.09554804
-3.481618	5	-0.314043
-4.43586	5%	-0.09428688
-4.43586	50	-0.09612153
-3.356679	50%	-0.4024378
-4.43586	500	-0.09581895
-4.43586	502%	-0.0913835
-4.43586	5033%	-0.06771906
-4.13483	51%	-0.2837512
-4.43586	517%	-0.0861536
-4.43586	5199%	-0.08802287
-4.13483	52	-0.09052964
-3.481618	52%	-0.1926717
-4.43586	5242%	-0.09612153
-4.43586	5242%Si	-0.09510147
-4.13483	5268%	-0.09323043
-4.43586	5272	-0.07872762
-3.958739	53%	-0.07991906
-4.13483	535	-0.2995543
-4.13483	55	-0.09577115
-4.43586	55%	-0.09557992
-4.43586	5510798	-0.09534076
-4.43586	5557	-0.09457456
-4.43586	56%	-0.09534076
-4.43586	56'30%	-0.09353483
-4.43586	5637	-0.09534076
-4.43586	5637%	-0.09534076
-4.43586	5637&amp	-0.07995211
-4.43586	569	-0.09575523
-3.8338	6	-0.09398302
-4.13483	6'9%	-0.298086
-4.43586	60	-0.09581895
-3.590762	60%	-0.1651801
-4.43586	60%escrutado	-0.07872762
-4.43586	6008%	-0.09534076
-3.259769	62	-0.1583778
-4.43586	62La	-0.09607378
-3.356679	63	-0.3744329
-4.13483	63%	-0.07912512
-4.43586	63'14%	-0.09596231
-4.13483	63'20%	-0.2999047
-3.73689	6314%	-0.07044679
-4.13483	6320%	-0.09586673
-4.43586	6324	-0.09605785
-4.43586	6324%	-0.09292583
-4.43586	634%	-0.09605785
-4.43586	6366	-0.09457456
-4.43586	637%	-0.09534076
-3.958739	6373%	-0.07902579
-4.13483	64	-0.09422292
-3.73689	66	-0.2542048
-4.43586	6731%	-0.09534076
-4.43586	6776%	-0.09612153
-4.43586	6796%	-0.07995211
-4.13483	68	-0.09419093
-3.394468	7	-0.6584144
-3.958739	7%	-0.2111909
-3.590762	70%	-0.3034118
-3.481618	71	-0.1546587
-3.657709	72	-0.3730205
-4.43586	72%	-0.08704861
-4.13483	73	-0.2983737
-4.43586	73%	-0.09534076
-4.43586	73%escrutado	-0.09422293
-4.43586	738%	-0.09534076
-4.43586	74%	-0.09534076
-3.958739	743%	-0.08724364
-4.43586	7479	-0.07995211
-3.73689	75%	-0.07000744
-4.43586	76	-0.09457456
-4.43586	76%	-0.07995211
-4.43586	7649	-0.09605785
-4.43586	765%	-0.09534076
-4.43586	77%	-0.07995211
-4.43586	771%	-0.07995211
-4.43586	773%	-0.09612153
-4.43586	775%	-0.07872762
-4.43586	8	-0.09457456
-4.43586	80	-0.09605785
-3.657709	80%	-0.06071153
-4.43586	8010%	-0.08802287
-4.43586	808%	-0.09612153
-4.13483	82%	-0.093919
-4.43586	823%	-0.09534076
-4.43586	84%	-0.07995211
-4.43586	842%	-0.06771906
-4.43586	8826%	-0.09534076
-4.43586	889%	-0.07995211
-4.43586	8aldia	-0.08831472
-3.481618	9	-0.268481
-4.43586	9%	-0.09428688
-4.13483	90	-0.09438278
-4.43586	9063%	-0.09534076
-4.43586	911	-0.09607378
-4.43586	9181%	-0.096026
-4.43586	92	-0.06771906
-4.43586	92%	-0.07995211
-4.43586	9255%	-0.0960897
-4.43586	96%	-0.07995211
-4.43586	9N	-0.0960897
-1.198317	</s>
-4.43586	<<Manana	-0.0913835
-4.43586	<<ojo	-0.08639788
-99	<s>	-0.3636738
-4.436151	<unk>
-2.72829	A	-0.2056244
-4.43586	A3Catalunya	-0.06771906
-3.590762	A3Noticias	-0.2858075
-4.43586	ABC	-0.09605785
-4.43586	ACTUALIZACION	-0.09562774
-4.43586	AGRADA	-0.09612153
-4.43586	AJENews	-0.08802287
-4.43586	ALGUIEN	-0.09612153
-4.43586	AMPLIA	-0.09612153
-4.43586	ANC	-0.09612153
-4.43586	ANDRESCANO42	-0.09612153
-4.43586	ANIMO	-0.06771906
-4.43586	AR	-0.09612153
-4.43586	ARRIMADAS	-0.08802287
-3.958739	ARTUR	-0.4117183
-4.43586	ATRAS	-0.09612153
-4.43586	AVE	-0.07995211
-4.43586	AbaldeMaria	-0.09572335
-4.13483	Abren	-0.2950377
-4.43586	Abrir	-0.09123863
-4.43586	Abucheos	-0.08831472
-4.43586	Aca	-0.09313427
-3.590762	Acabo	-0.3431449
-4.43586	Acerto	-0.09313427
-4.43586	Aclarando	-0.09612153
-4.43586	Acordandonos	-0.07995211
-4.43586	Actimel	-0.09371095
-4.43586	Actualidad	-0.09594638
-3.657709	ActualidadRT	-0.1524262
-4.43586	Acuerdo	-0.09612153
-4.13483	Ada	-0.09608968
-4.13483	AdaColau	-0.06770206
-4.43586	Adaptemosla	-0.08704861
-4.43586	AdderEG	-0.09581895
-4.13483	Ademas	-0.079886
-4.43586	Adonde	-0.09604193
-4.43586	Agarraros	-0.0861536
-4.43586	AgataBarbany	-0.09612153
-4.43586	Aglezterol	-0.06771906
-4.43586	Agradecida	-0.08831472
-4.13483	Ah	-0.09534075
-4.43586	Ahi	-0.09503763
-3.13483	Ahora	-0.2310953
-4.43586	Aixi	-0.09612153
-4.43586	Ajram	-0.09470235
-3.481618	Al	-0.09510145
-4.43586	AlRojoVivo	-0.09612153
-4.43586	Albert	-0.09610561
-3.020887	AlbertRivera	-0.1490812
-3.394468	Albiol	-0.04520377
-3.13483	AlbiolXG	-0.1083137
-4.43586	Ale	-0.09514934
-4.43586	Algo	-0.0913835
-3.8338	Alguien	-0.08288343
-4.43586	Algun	-0.09612153
-4.43586	Alguna	-0.09586674
-4.13483	Algunos	-0.09593044
-4.43586	Alianza	-0.09612153
-4.43586	AliceSchwarm	-0.09605785
-4.43586	Alicia	-0.09607378
-4.43586	AliciaSCamacho	-0.09612153
-4.43586	Aliciaruizmoyan	-0.09612153
-4.13483	Alucino	-0.06618673
-4.43586	Americana	-0.09313427
-4.43586	Amor	-0.08831472
-4.13483	Ana	-0.09610561
-4.43586	Analisis	-0.09324646
-4.43586	Andalucia	-0.09585081
-4.43586	AndaluciaTeresa	-0.09612153
-4.43586	Andaluza	-0.09610561
-4.43586	Andorra	-0.06771906
-4.43586	Angel	-0.09612153
-4.43586	Angelina	-0.09612153
-4.43586	Animalista	-0.08712988
-3.657709	Animo	-0.1333331
-4.43586	Anoche	-0.09612153
-4.43586	Antoni	-0.09610561
-3.73689	Antonio	-0.4785815
-4.43586	Apoderado	-0.07995211
-4.43586	Apoderados	-0.07995211
-4.43586	Apoyando	-0.09562774
-4.43586	Apuesta	-0.09375898
-4.43586	Apunta	-0.09610561
-3.23174	Aqui	-0.1391054
-4.13483	Aragon	-0.09310219
-4.13483	Arbitro	-0.290197
-4.43586	Armas	-0.07995211
-4.43586	Arriba	-0.09612153
-3.958739	Arrimadas	-0.08652811
-4.43586	Arrimades	-0.09605785
-4.43586	Art	-0.09597823
-2.516782	Artur	-1.302384
-4.43586	ArturMas	-0.09612153
-3.8338	ArturMasCat	-0.05837351
-3.8338	Arturo	-0.1812918
-4.43586	ArturoDKC	-0.06771906
-4.43586	Artus	-0.09353483
-3.53277	Asi	-0.08179883
-4.43586	Asombrosa	-0.09471832
-4.43586	Asturias#Iceta27S	-0.06771906
-3.8338	Atentos	-0.08376881
-4.43586	Atraer	-0.08831472
-4.43586	Atras	-0.08712988
-4.13483	Aumenta	-0.08638158
-4.43586	Aumento	-0.09567555
-4.13483	Aun	-0.09136739
-4.13483	Aunque	-0.08330993
-4.43586	Aupa	-0.09610561
-4.43586	Aute	-0.07872762
-4.13483	Avance	-0.0796711
-4.43586	Avis	-0.09513338
-4.43586	Avui	-0.07872762
-4.13483	Ay	-0.0932785
-4.13483	Azana	-0.09250864
-4.13483	BAJO	-0.2998888
-4.13483	BANDERA	-0.07871104
-4.43586	BANOS	-0.09570742
-4.13483	BASTA	-0.2908477
-4.43586	BBC	-0.07872762
-3.958739	BCN	-0.06761709
-4.43586	BOCA	-0.09607378
-4.43586	BOND	-0.0861536
-4.43586	BRAVO	-0.06771906
-4.13483	Badalona	-0.09334259
-4.43586	Bailanpeor	-0.0861536
-4.43586	Bailona	-0.09601008
-4.43586	Bajan	-0.09123863
-4.13483	Banderas	-0.07993557
-4.43586	Banez	-0.09612153
-3.481618	Banos	-0.1945337
-4.43586	BanosCUPdescribe	-0.08639788
-3.958739	Barca	-0.09588268
-3.13483	Barcelona	-0.08399577
-4.43586	Barrachina	-0.09610561
-4.43586	Barrio	-0.09612153
-4.13483	Basta	-0.09455857
-4.43586	Batacazo	-0.09543644
-4.43586	Beals	-0.09557992
-4.13483	BeatrizTalegon	-0.06770206
-4.43586	Bertin	-0.09612153
-4.43586	Besitos	-0.08831472
-4.13483	Bien	-0.09372696
-4.13483	Bienvenidos	-0.2908477
-4.43586	Bildu	-0.06771906
-4.43586	Bipolar	-0.09605785
-4.43586	BobEstropajo	-0.09612153
-4.43586	Boi	-0.07995211
-3.8338	Bon	-0.6672025
-4.43586	Bona	-0.09612153
-4.43586	Bondia	-0.09605785
-3.958739	Born	-0.09308618
-4.43586	Borrego	-0.07872762
-4.13483	Borrel	-0.299841
-4.43586	Borrell	-0.09570742
-4.43586	Bosh	-0.09351881
-4.43586	Botebote	-0.09612153
-4.13483	Botran	-0.07811407
-4.13483	Bravo	-0.09604192
-4.43586	Brillante	-0.09607378
-4.43586	Bruselas	-0.09612153
-4.43586	Brutal	-0.0881526
-4.43586	Buen	-0.09612153
-4.43586	Buenisima	-0.08639788
-4.43586	Bueno	-0.09414297
-3.657709	Buenos	-0.3748893
-4.43586	Buscado	-0.09612153
-4.43586	Buti	-0.09542049
-4.43586	C	-0.09612153
-3.093438	C's	-0.1831906
-4.43586	CALLEEEEE	-0.09610561
-4.43586	CARAJO	-0.09610561
-4.13483	CAT	-0.0935188
-4.43586	CATALUNYA	-0.08831472
-4.43586	CC	-0.09532481
-4.13483	CDC	-0.096026
-4.43586	CDCERC62	-0.09612153
-4.43586	CDialoga	-0.09612153
-4.43586	CE	-0.09610561
-4.43586	CERA	-0.09351881
-4.13483	CIU	-0.0882985
-4.43586	CIUDADANOS	-0.09612153
-4.43586	CIUERC	-0.09530886
-4.43586	COM	-0.09612153
-4.43586	COMPROMIS	-0.09612153
-4.43586	CONA	-0.0881526
-4.43586	CONVERGENCIA	-0.09593046
-3.958739	CSP	-0.09543645
-3.657709	CSQEP	-0.08638159
-4.43586	CSQEP10	-0.08831472
-3.958739	CSQP	-0.0869348
-2.390537	CUP	-0.1073344
-4.43586	CUPSSG	-0.06771906
-4.43586	C`s	-0.09599416
-4.43586	Cabe	-0.0960897
-4.43586	Cada	-0.09586674
-4.43586	Cadena	-0.09612153
-4.43586	Cadiz	-0.07995211
-4.43586	Cae	-0.07995211
-4.43586	Caer	-0.08712988
-4.43586	Camacho	-0.09612153
-3.958739	CamaraCivica	-0.394404
-4.13483	Camino	-0.07051435
-4.43586	Can	-0.09535671
-4.43586	Canada	-0.06771906
-4.43586	Canal	-0.09612153
-4.43586	Canarias	-0.096026
-4.43586	Canizares	-0.08712988
-4.13483	Canticos	-0.07059878
-4.43586	CapitanFrontera	-0.09612153
-4.43586	Cardenal	-0.09612153
-4.43586	Cargaditos	-0.07995211
-4.43586	Carmel	-0.07872762
-4.13483	CarmelaRios	-0.04910631
-4.43586	Carmen	-0.09612153
-4.43586	Carpe	-0.09612153
-4.43586	Casi	-0.09470235
-4.13483	Cat	-0.09323043
-4.43586	CatSiQueEsPot	-0.09565961
-3.657709	CatSiqueesPot	-0.3860066
-3.657709	Catalan	-0.2193595
-3.73689	Catalanas	-0.2567782
-3.590762	Catalanes	-0.06770207
-4.43586	Catalans	-0.08802287
-4.43586	Catalina	-0.09612153
-2.458137	Cataluna	-0.1391827
-3.958739	Cataluna'	-0.06929681
-2.802392	Catalunya	-0.1554881
-4.43586	Catastrofe	-0.09396701
-4.43586	Catsiqespot	-0.0944627
-4.43586	Celebrando	-0.08639788
-4.43586	Central	-0.09607378
-4.43586	Centre	-0.09612153
-4.43586	CepJSACadiz	-0.09612153
-4.43586	Champions	-0.07872762
-4.43586	Charlie	-0.09612153
-3.43586	CiU	-0.1556851
-4.43586	CiUERC68	-0.09540455
-4.43586	CiUERC71	-0.09457456
-4.43586	Cierto	-0.09550022
-4.43586	Cinco	-0.096026
-4.43586	Ciu	-0.08831472
-4.43586	Ciudadania	-0.09481414
-4.43586	CiudadanoVille	-0.09605785
-3.180588	Ciudadanos	-0.1195627
-4.43586	Ciudadanos24	-0.09612153
-2.356679	CiudadanosCs	-0.1616751
-4.43586	CiudadanosPodemos	-0.09518125
-4.43586	Ciudadanoshablamos	-0.09313427
-3.259769	Ciutadans	-0.1633666
-4.43586	Ciutadans#eleccionescatalanas	-0.06771906
-3.481618	CiutadansCs	-0.07236211
-4.43586	Ciutandans	-0.09292583
-4.43586	Civismo	-0.06771906
-4.43586	Clar	-0.0861536
-4.43586	Clara	-0.09530886
-4.43586	Claramente	-0.08639788
-4.43586	Claro	-0.0861536
-4.43586	Club	-0.07995211
-4.43586	Cn	-0.09599416
-4.43586	Cobertura	-0.09588267
-3.73689	Colas	-0.3520688
-4.43586	Colau	-0.09612153
-4.43586	Colegio	-0.09610561
-4.43586	Colocan	-0.08704861
-4.43586	Colon	-0.096026
-4.13483	Com	-0.2999047
-4.43586	Comida	-0.09612153
-3.8338	Comienza	-0.1651032
-4.43586	Comienzan	-0.09123863
-3.259769	Como	-0.09125706
-4.43586	Companeros	-0.07995211
-4.43586	Comparece	-0.096026
-4.43586	Compartid	-0.09308618
-4.43586	Complejo	-0.09610561
-2.773103	Con	-0.6333392
-4.43586	Conclusiones	-0.09612153
-4.43586	Confio	-0.08831472
-4.43586	Conociendo	-0.09123863
-4.43586	Consejera	-0.07995211
-4.43586	Consitutucional	-0.0913835
-4.43586	Constitucion	-0.07872762
-4.43586	Constitucional	-0.09612153
-4.43586	Contad	-0.09313427
-4.43586	ContentaYa	-0.09605785
-4.13483	Contra	-0.07823021
-4.43586	Contraprogramando	-0.09470235
-4.43586	Contrate	-0.09308618
-4.43586	Convergencia	-0.09371095
-4.13483	ConvergenciaCAT	-0.0593622
-4.43586	ConvergenciaERC	-0.09610561
-4.13483	Convivencia	-0.06770206
-4.43586	Cope	-0.06771906
-4.43586	CopeCatalunya	-0.07872762
-4.43586	Cordura	-0.09610561
-4.43586	Cornet	-0.09610561
-4.43586	Corriereit	-0.09593046
-4.43586	Corta	-0.0881526
-4.43586	Cortocircuito	-0.09604193
-4.43586	Cortocircuitos	-0.09604193
-4.43586	Cosas	-0.09610561
-4.43586	Cospedal	-0.08831472
-4.43586	Creaba	-0.09610561
-4.43586	Cree	-0.0881526
-4.43586	Creen	-0.09612153
-3.8338	Creo	-0.6580632
-4.43586	Crisis	-0.08831472
-4.43586	Cruz	-0.07995211
-3.73689	Cs	-0.08792552
-4.13483	CsAsturias	-0.06567475
-4.13483	CsBCNA	-0.2993791
-4.43586	CsBormujos	-0.06771906
-4.43586	CsCadizCiudad	-0.09396701
-4.43586	CsCambrils	-0.09422293
-4.43586	CsElVendrell	-0.09313427
-3.8338	CsGranada	-0.06439218
-4.43586	CsHospitalet	-0.06771906
-4.13483	CsMadrid	-0.09605784
-4.43586	CsMadridCiudad	-0.08831472
-4.43586	CsMalaga	-0.09581895
-4.43586	CsSevilla	-0.09610561
-4.43586	CsTorredembarra	-0.09594638
-4.43586	CsTresCantos	-0.09612153
-4.43586	Csdeverdad	-0.09612153
-4.43586	CsiPot	-0.08831472
-4.43586	Csilva2Carlos	-0.09612153
-4.43586	CsqeP	-0.09604193
-4.13483	Cuales	-0.2994109
-4.43586	Cuando	-0.09353483
-4.43586	Cuanta	-0.09562774
-4.43586	Cuanto	-0.09610561
-4.43586	Cuantos	-0.09428688
-4.43586	Cuenta	-0.0960897
-4.43586	Cues	-0.09612153
-4.43586	Cuesta	-0.09612153
-4.43586	Cultural	-0.09604193
-4.43586	Cumplido	-0.09527696
-4.43586	Cumpliendo	-0.096026
-4.13483	Cup	-0.08956099
-4.43586	CupAunque	-0.08712988
-3.958739	Curioso	-0.06858499
-3.958739	D	-0.09569149
-4.43586	D'Hondt	-0.096026
-4.43586	D'Hont	-0.09596231
-3.53277	DE	-0.1859837
-4.43586	DERECHOS	-0.09601008
-4.43586	DICTADURA	-0.09612153
-4.43586	DIEZ	-0.09457456
-4.43586	DIFUNDELO	-0.09396701
-4.43586	DISMALAND	-0.09324646
-4.43586	DMoizteleSUR	-0.09601008
-4.13483	DNI	-0.09516528
-4.43586	DONDE	-0.09612153
-4.43586	Dades	-0.07995211
-4.43586	DanielCeballos	-0.09610561
-3.8338	Dato	-0.1695589
-3.657709	Datos	-0.2042993
-4.43586	David	-0.0881526
-4.43586	DavidJimenezTWHabla	-0.09308618
-4.43586	DaviniaMari	-0.09612153
-3.958739	Dcorr17	-0.4104905
-3.13483	De	-0.2354382
-4.43586	DebatAlRojoVivo	-0.09585081
-4.43586	Deberia	-0.09557992
-4.13483	Decenas	-0.2837512
-4.43586	Decepcion	-0.08712988
-4.43586	Decidme	-0.0861536
-4.43586	Decir	-0.0861536
-3.958739	Dedicado	-0.2103436
-4.13483	Defender	-0.2908477
-4.43586	Definitivamente	-0.09543644
-4.43586	Dejad	-0.09514934
-4.43586	Dejemos	-0.07995211
-4.43586	Dejen	-0.07995211
-4.43586	Delsurgr	-0.09612153
-3.958739	Democracia	-0.09562775
-4.43586	DemosUC3M	-0.09596231
-4.43586	Demostrado	-0.09588267
-4.13483	Derecho	-0.07377809
-4.43586	Derechos	-0.08704861
-4.43586	Desaparecen	-0.09610561
-4.43586	Desayuno	-0.08831472
-3.590762	Desde	-0.08714613
-4.43586	Deseando	-0.09605785
-4.43586	Desfibrillador	-0.07872762
-4.43586	Desfile	-0.07995211
-4.43586	Despacito	-0.08831472
-4.43586	Despegue	-0.09605785
-4.43586	Despertando	-0.08704861
-4.43586	Desplome	-0.09324646
-3.73689	Despues	-0.4624892
-4.43586	Detalles	-0.09484608
-3.53277	Dia	-0.1700978
-4.13483	Dialogo	-0.2921138
-4.43586	DiariARA	-0.09612153
-4.43586	Dias	-0.09586674
-4.13483	Diaz	-0.07869447
-3.8338	Dice	-0.1731171
-3.958739	Dicen	-0.2089058
-4.43586	Dificil	-0.0913835
-4.43586	Digamos	-0.09610561
-4.43586	Digan	-0.09414297
-4.13483	Dios	-0.09128691
-4.13483	Directo	-0.2997774
-4.43586	Disfrutad	-0.09324646
-4.13483	Disfrutando	-0.07683446
-4.43586	Divertido	-0.07872762
-4.43586	Doble	-0.09570742
-4.43586	Dolors	-0.09612153
-4.43586	Domingo	-0.07995211
-4.43586	Don	-0.09612153
-3.958739	Donde	-0.08496284
-4.43586	Donem	-0.09612153
-4.43586	Doraemon	-0.09612153
-4.13483	Duran	-0.08828229
-4.43586	DuranLleida	-0.07995211
-4.43586	Durante	-0.09604193
-4.43586	Durcal	-0.09610561
-4.43586	Duro	-0.07872762
-4.43586	ECONOMICO	-0.09551616
-4.43586	EEUU	-0.09607378
-4.43586	EFE	-0.09481414
-4.43586	EFEnoticias	-0.09610561
-4.43586	EH	-0.09575523
-3.73689	EL	-0.4786451
-4.43586	EN	-0.09612153
-4.13483	EPCatalunya	-0.2986452
-3.321917	ERC	-0.134628
-4.43586	ERCCIU	-0.08831472
-4.13483	ES	-0.09610561
-4.43586	ESP	-0.09459053
-3.657709	ESPANA	-0.1734053
-4.43586	ESPANOL	-0.06771906
-4.43586	ESTA	-0.08802287
-4.43586	EUiA	-0.08802287
-4.43586	Echo	-0.08712988
-4.13483	EconoDigital	-0.06630611
-4.43586	Economia	-0.09612153
-4.43586	Ecuatorial	-0.09612153
-4.43586	Eduardo	-0.0960897
-4.43586	Educacion	-0.0960897
-4.43586	Eixample	-0.09578709
-3.8338	Ejerciendo	-0.1608039
-2.481618	El	-0.1474027
-3.73689	ElMundoEnVivo	-0.2096924
-3.13483	Elecciones	-0.2879238
-4.13483	Electoral	-0.07027787
-4.13483	Ellos	-0.08219353
-4.13483	Els	-0.09610561
-4.43586	Elsquatregats	-0.06771906
-4.43586	Embajada	-0.07995211
-4.43586	Emocionante	-0.07872762
-3.8338	Empieza	-0.1588078
-2.616316	En	-0.2361453
-4.43586	Encima	-0.09292583
-4.43586	Encomendare	-0.08704861
-4.43586	Encuesta	-0.07995211
-4.43586	Endavant	-0.09583488
-3.157107	Enhorabuena	-0.3075199
-4.43586	Ensena	-0.08639788
-4.43586	Entiendo	-0.0861536
-3.958739	Entonces	-0.08716238
-4.43586	Entoncesh	-0.09433484
-4.43586	Entrando	-0.09556399
-4.13483	Entre	-0.08633275
-4.43586	Entrevistada	-0.09375898
-4.43586	Enviadnos	-0.09610561
-4.43586	Enviado	-0.09375898
-4.43586	Envio	-0.09308618
-4.43586	Equo	-0.09351881
-4.13483	Era	-0.2994747
-4.43586	Eres	-0.09308618
-4.43586	ErnestoSuidry	-0.096026
-3.356679	Es	-0.1435475
-4.13483	Escanos	-0.08794175
-4.43586	Escoces	-0.09607378
-4.13483	Escola	-0.09457454
-3.53277	Escrutado	-0.1291596
-4.43586	Escrutinio	-0.09470235
-3.958739	Escuchando	-0.2117928
-4.43586	Escuela	-0.09612153
-3.958739	Ese	-0.2176382
-3.8338	Eso	-0.3039582
-4.43586	Esos	-0.09605785
-2.72829	Espana	-0.1185981
-4.43586	EspanaX	-0.096026
-4.43586	Espanistan	-0.08802287
-4.13483	Espanola	-0.08610472
-4.13483	Espanoles	-0.09136739
-4.13483	Especial	-0.2985813
-4.43586	Espectacular	-0.0881526
-4.43586	Esperamos	-0.09414297
-4.43586	Esperan	-0.09612153
-3.53277	Esperando	-0.3407326
-4.13483	Esperemos	-0.08792553
-3.73689	Espero	-0.2462284
-3.958739	EsquerraERC	-0.0702441
-3.657709	Esta	-0.1410451
-3.8338	Estado	-0.1692777
-4.43586	Estais	-0.09612153
-3.53277	Estamos	-0.1774128
-4.43586	Estan	-0.09123863
-4.43586	Estaras	-0.09610561
-4.43586	Estariamos	-0.09588267
-4.13483	Estatut	-0.07884359
-3.481618	Este	-0.2030577
-4.43586	EstherBazan	-0.08831472
-3.958739	Estilismo	-0.09489398
-3.590762	Esto	-0.3258316
-3.481618	Estoy	-0.1580504
-4.43586	Estrenando	-0.09527696
-4.43586	Estupenda	-0.09591453
-4.43586	Etimologia	-0.07995211
-4.43586	Etxeberreala	-0.09580302
-4.43586	Euforia	-0.09585081
-3.8338	Europa	-0.06943227
-4.43586	Europeos	-0.09612153
-4.43586	Euskadi	-0.09503763
-4.43586	Exactamente	-0.0861536
-4.43586	Excelentes	-0.09503763
-4.43586	Excepto	-0.09542049
-4.43586	Exito	-0.09371095
-4.43586	Experiencia	-0.09557992
-4.43586	Explicado	-0.09565961
-4.43586	Expulsan	-0.08704861
-4.43586	Extranas	-0.09593046
-4.43586	FDF	-0.06771906
-4.43586	FF	-0.09594638
-4.13483	FIN	-0.2998092
-4.43586	Familia	-0.09594638
-4.43586	Fan	-0.07995211
-4.43586	Fantastica	-0.09610561
-4.43586	Farga	-0.09612153
-4.43586	Fascistas	-0.096026
-4.43586	Fdez	-0.09612153
-4.43586	Feliciano	-0.09610561
-3.8338	Felicidades	-0.07523382
-4.43586	Felicidades#eleccionescatalanas	-0.06771906
-4.43586	Felicitamos	-0.09470235
-4.43586	Felicitats	-0.06771906
-3.958739	Feliz	-0.07869449
-4.43586	Fent	-0.09596231
-4.13483	Fernandez	-0.09554803
-4.43586	Ferraz	-0.0881526
-4.43586	Ferreras	-0.08712988
-4.43586	Filipinas	-0.08831472
-4.13483	Fin	-0.2837512
-4.43586	Final	-0.07995211
-4.43586	Flandes	-0.09612153
-4.43586	Flipantesegun	-0.09588267
-4.43586	Flowerminx	-0.09610561
-4.13483	Fogars	-0.2837512
-4.43586	Fontana	-0.09612153
-4.43586	ForcadellCarme	-0.09597823
-4.43586	Forges	-0.09612153
-4.13483	Foto	-0.07991905
-4.43586	Fracasados	-0.09596231
-4.43586	Fraga	-0.0960897
-4.43586	Fran	-0.09612153
-4.43586	FranHervias	-0.09612153
-4.13483	Francesc	-0.09610561
-4.43586	Francisco	-0.09612153
-4.43586	Franco	-0.09599416
-4.43586	Frente	-0.08704861
-4.43586	Frontanya	-0.09351881
-4.43586	Frontera	-0.07995211
-4.13483	Fuente	-0.2997614
-4.43586	Fuerte	-0.08831472
-4.43586	Fuerza	-0.08704861
-4.43586	Futuro	-0.09508551
-4.43586	GAD3com	-0.08704861
-4.43586	GARA	-0.06771906
-4.43586	GLlamazares	-0.0913835
-4.43586	GOOOOOOOL	-0.09601008
-4.43586	GPPopular	-0.09612153
-4.43586	GPisarello	-0.08831472
-4.43586	GRACIAS	-0.09594638
-4.43586	GRAN	-0.09605785
-4.43586	GSantaCruzA3	-0.09599416
-4.43586	Gad3	-0.09371095
-4.43586	Galerias	-0.09612153
-4.43586	Galicia	-0.06771906
-4.43586	Gallego	-0.09570742
-3.8338	Gana	-0.08406353
-4.43586	Ganadores	-0.09422293
-4.43586	Ganaremos	-0.08802287
-4.13483	Ganas	-0.2837512
-3.590762	Garcia	-0.3205734
-3.958739	Generalitat	-0.2103109
-4.43586	Genova	-0.06771906
-4.13483	Gente	-0.07990252
-4.43586	GmppcO	-0.09581895
-4.43586	Gobernacion	-0.06771906
-3.481618	Gobierno	-0.07952926
-4.43586	Godot	-0.07872762
-4.43586	Google	-0.07872762
-4.43586	Govern	-0.07872762
-3.590762	Gracias	-0.07651815
-3.590762	Gran	-0.1447178
-4.43586	Granada	-0.09470235
-3.73689	Grande	-0.09430285
-4.43586	Grandes	-0.09607378
-4.43586	Gritan	-0.09462249
-3.958739	Gritos	-0.204696
-4.43586	Guardian	-0.09596231
-4.43586	Guatire	-0.09612153
-4.43586	Guillesaenz	-0.09612153
-4.43586	Guinea	-0.09612153
-4.43586	Gusten	-0.09535671
-4.43586	H	-0.07995211
-4.43586	HA	-0.09612153
-4.13483	HORA	-0.09591452
-3.53277	Ha	-0.2417157
-4.43586	Hablando	-0.08712988
-3.8338	Habra	-0.09479818
-4.43586	Hace	-0.09557992
-4.43586	Hacer	-0.096026
-4.13483	Haciendo	-0.093999
-4.43586	Hagamos	-0.09513338
-4.13483	Han	-0.2995065
-3.958739	Hasta	-0.209233
-3.289732	Hay	-0.1883306
-3.73689	He	-0.1664171
-4.43586	HelenaVillarRT	-0.09610561
-3.8338	Hemos	-0.1851387
-4.43586	Hipocritana	-0.09610561
-3.8338	Hola	-0.1685654
-4.43586	Hollywood	-0.08831472
-4.43586	Homenajes	-0.08704861
-4.43586	Homes	-0.09470235
-4.43586	Homs	-0.0960897
-4.43586	Hora	-0.09556399
-4.43586	Hora14	-0.09610561
-4.43586	Horta	-0.09557992
-3.958739	Hospitalet	-0.2179909
-4.43586	Hostion	-0.09324646
-2.8338	Hoy	-0.1504867
-4.43586	Huida	-0.09612153
-4.43586	Humanidad	-0.07872762
-4.43586	I	-0.09612153
-3.657709	ICV	-0.1162369
-4.43586	ICVEU	-0.08831472
-3.958739	ICVPodemos	-0.2199098
-4.43586	INCREPAR	-0.09532481
-3.657709	INDEPENDENCIA	-0.1035666
-4.43586	INES	-0.09612153
-4.43586	INFORMACIO	-0.07872762
-4.43586	IRPF	-0.07872762
-4.43586	IS	-0.09612153
-4.43586	IU	-0.09567555
-4.43586	Iaio	-0.09612153
-3.113641	Iceta	-0.1139979
-4.43586	Ideas	-0.0960897
-4.43586	Identidades	-0.09612153
-3.958739	Iglesias	-0.08696732
-4.43586	Ignatieff	-0.08712988
-4.13483	Igual	-0.08128846
-4.43586	Igualitos	-0.07872762
-4.43586	Iker	-0.09612153
-4.43586	Ikurrinas	-0.08712988
-4.43586	Il	-0.09612153
-4.43586	Ilusion	-0.08802287
-4.43586	Ilusionada	-0.09597823
-4.43586	Ilustracion	-0.09612153
-4.43586	Imagen	-0.07995211
-4.13483	Imagina	-0.08597437
-4.43586	Imaginad	-0.09417495
-4.43586	Impecable	-0.08639788
-4.43586	Implicacion	-0.08831472
-4.13483	Importante	-0.09527695
-3.8338	Imposible	-0.2966929
-4.43586	Impunidad	-0.07995211
-4.43586	InLibertatem	-0.07872762
-4.13483	Increible	-0.06858498
-3.958739	Inda	-0.09484608
-3.590762	Independencia	-0.07186321
-4.43586	Independent	-0.09612153
-3.958739	Independentistas	-0.09599417
-4.43586	Independiente	-0.08802287
-4.43586	Independientemente	-0.09324646
-4.43586	Independientes	-0.07872762
-4.43586	Indignante	-0.09604193
-4.13483	Ines	-0.2998888
-2.782648	InesArrimadas	-0.3135542
-4.43586	Informacion	-0.09570742
-4.13483	Informativamente	-0.2998729
-4.43586	Infraestructuras	-0.09612153
-4.43586	Innegable	-0.0881526
-4.43586	Insisten	-0.08712988
-4.43586	Insisto	-0.09436681
-4.43586	Instagram	-0.0861536
-4.43586	Instaladas	-0.08712988
-4.43586	Inteligente	-0.08831472
-4.13483	Interesante	-0.09573928
-4.43586	Interior	-0.09605785
-4.43586	Internacional	-0.09324646
-3.958739	Interventores	-0.3956285
-4.43586	Intriga	-0.09375898
-4.43586	Invencibles	-0.07872762
-4.43586	Ir	-0.08704861
-4.43586	Ironias	-0.07995211
-4.43586	Isabel	-0.09612153
-3.73689	Isaranjuez	-0.4616849
-4.43586	Ixuxleg	-0.09612153
-4.43586	Izqda	-0.09481414
-4.43586	IzquierdaCentro	-0.09612153
-4.43586	J	-0.09123863
-4.43586	JPBellido	-0.06771906
-4.43586	JPS	-0.09436681
-4.43586	JUNTOS	-0.096026
-4.43586	Jaen	-0.09308618
-4.43586	Jajajaja	-0.06771906
-4.43586	Jajajajaja	-0.09601008
-4.43586	Jaume	-0.07995211
-4.43586	Javiergaciaisac	-0.06771906
-4.43586	Jennifer	-0.09612153
-4.43586	JennyPerezTV	-0.08712988
-4.43586	Jhon	-0.09612153
-4.43586	Jimenez	-0.09612153
-4.43586	Jo	-0.09570742
-4.43586	Joan	-0.09612153
-4.43586	John	-0.09612153
-4.43586	Jolie	-0.09612153
-4.13483	Jordi	-0.09610561
-4.43586	Jornada	-0.09545238
-4.13483	Jose	-0.09608968
-4.43586	JoseMnlTejedor	-0.09612153
-3.958739	JoseantonioJun	-0.2185194
-4.43586	Josef	-0.09612153
-3.958739	Josep	-0.2208502
-4.13483	Juan	-0.09608968
-4.43586	JuanLuisOrtegaG	-0.09612153
-4.43586	JuandeRuano	-0.09612153
-3.020887	Junqueras	-0.116287
-4.43586	Junquerasdan	-0.09601008
-4.43586	Junto	-0.08704861
-2.904381	Junts	-1.149555
-3.055649	JuntsPelSi	-0.05884309
-3.958739	JuntsxSi	-0.09530887
-4.43586	Jurado	-0.09610561
-4.43586	Justicia	-0.09567555
-4.43586	Justo	-0.09516529
-4.43586	JxP	-0.09594638
-3.590762	JxS	-0.06960152
-4.43586	JxSI	-0.08831472
-3.074132	JxSi	-0.3627002
-4.43586	JxSi63	-0.09612153
-4.43586	JxSiCiUERC63	-0.09457456
-4.43586	Jxsi	-0.08831472
-4.43586	Karma36Koma	-0.09599416
-4.43586	L'Hospi	-0.09607378
-4.43586	L6NoticiasAhora	-0.08712988
-3.73689	LA	-0.2571127
-4.43586	LAS	-0.09612153
-4.43586	LE	-0.09612153
-4.43586	LOL	-0.08802287
-4.43586	LOS	-0.09612153
-4.43586	LUISENRIQUE21	-0.0861536
-2.449089	La	-0.3260612
-3.958739	La1tve	-0.1827691
-4.43586	LaPorres	-0.09612153
-3.8338	LaSER	-0.09297395
-4.13483	LaVanguardia	-0.04910631
-4.43586	Laboral	-0.09481414
-4.43586	LaiaColomer	-0.09612153
-4.13483	Lanoche24h	-0.04910631
-3.157107	Las	-0.2063758
-4.43586	Lastima	-0.09612153
-4.43586	LatinaMadrid	-0.06771906
-4.43586	LauraHervas	-0.09604193
-4.13483	Le	-0.096026
-4.43586	Lean	-0.09575523
-4.43586	Lecciones	-0.09324646
-4.13483	Lectura	-0.09586673
-4.43586	Leeds	-0.09396701
-4.43586	Legal	-0.08831472
-4.43586	LeguinaJ	-0.0958986
-4.43586	Lengua	-0.09612153
-4.43586	Les	-0.09597823
-4.13483	Ley	-0.09608968
-4.43586	Li	-0.09612153
-4.43586	LigaAnalisis	-0.09324646
-4.43586	Llarga	-0.09596231
-4.43586	Llegada	-0.07995211
-4.43586	Llegando	-0.08704861
-3.8338	Llego	-0.6600622
-4.13483	Lleida	-0.09498974
-4.43586	Llevo	-0.09565961
-3.958739	Llobregat	-0.07809749
-4.43586	Lluis321	-0.09612153
-3.958739	LluisRabell	-0.07776548
-2.891792	Lo	-0.342783
-4.43586	Logica	-0.09585081
-3.958739	Londres	-0.2159669
-4.13483	Lopez	-0.09569147
-2.792408	Los	-0.2432618
-4.43586	Lucha	-0.09601008
-4.43586	Luchando	-0.0960897
-4.13483	Luego	-0.08795798
-4.43586	LuisCazorlaGS	-0.09597823
-3.8338	LuisSalvador	-0.07054814
-4.43586	M	-0.09612153
-4.43586	MANIPULAR	-0.09605785
-3.657709	MAS	-0.07899266
-4.43586	MAYORIA	-0.09612153
-4.43586	MENTIRA	-0.06771906
-4.43586	MIENTE	-0.09604193
-4.43586	MINTIENDO	-0.0913835
-4.43586	MOTOR	-0.09612153
-4.43586	MUJERES	-0.06771906
-4.43586	MUNDO	-0.09570742
-4.43586	MUY	-0.09612153
-4.43586	Madalenas	-0.09612153
-4.43586	Madou	-0.0881526
-4.13483	Madre	-0.2999047
-3.590762	Madrid	-0.08900844
-4.43586	Madriz	-0.0913835
-4.43586	Mai	-0.09575523
-4.43586	Mal	-0.0956118
-4.43586	Manana	-0.09514934
-4.13483	Manuel	-0.07993557
-4.43586	Maravilla	-0.07995211
-4.43586	Marco	-0.09612153
-4.43586	Marhuenda	-0.09612153
-4.13483	Maria	-0.09608968
-3.958739	Mariano	-0.09572336
-4.43586	MarioJohnson	-0.09612153
-2.223673	Mas	-0.1097104
-4.43586	Mas#eleccionescatalanas	-0.09585081
-4.43586	MasEmpieza	-0.0881526
-4.43586	MasVolvera	-0.08704861
-4.43586	Masque	-0.0913835
-4.43586	Masretonto	-0.07872762
-4.43586	Mates	-0.06771906
-4.43586	Matias	-0.09612153
-4.43586	Mato	-0.08802287
-4.43586	MayoralRafa	-0.06771906
-3.657709	Mayoria	-0.289052
-4.43586	Mdoloresdv	-0.09612153
-3.020887	Me	-0.1620967
-4.43586	Media	-0.09612153
-4.43586	Menores	-0.08831472
-3.958739	Menos	-0.06174665
-4.13483	Mensaje	-0.09610561
-4.43586	Menuda	-0.09569149
-4.43586	Messi	-0.06771906
-3.394468	Mi	-0.1536302
-4.43586	Miembros	-0.07995211
-3.958739	Mientras	-0.09080371
-4.43586	Miguel	-0.09610561
-4.13483	Milan	-0.07058189
-3.53277	Miquel	-0.9539081
-4.43586	MiquelIcetaA	-0.07995211
-3.590762	Mira	-0.3978116
-4.43586	Miro	-0.07995211
-4.13483	Mis	-0.09607376
-4.43586	Mmmm	-0.09575523
-4.43586	Molt	-0.09612153
-4.13483	Momento	-0.09562773
-4.43586	Momentos	-0.08712988
-4.43586	Moncloa	-0.09545238
-4.43586	Montserrat	-0.09543644
-4.43586	Moto2	-0.08831472
-3.590762	Mucha	-0.3303715
-4.43586	Muchas	-0.09604193
-4.43586	Muchisima	-0.09428688
-4.13483	Mucho	-0.09604192
-3.73689	Muchos	-0.09313425
-4.43586	Mujeres	-0.09481414
-4.43586	Municipales	-0.09596231
-3.394468	Muy	-0.09497379
-4.43586	NAIZ	-0.08831472
-4.43586	NEUDCRNE	-0.09612153
-4.13483	NI	-0.09599414
-4.43586	NNGGEs	-0.09324646
-2.879558	NO	-0.1890435
-4.13483	NUESTRA	-0.09610561
-4.43586	Nachoanon	-0.09596231
-4.43586	Nacion	-0.09594638
-4.43586	Nacional	-0.08712988
-3.8338	Nada	-0.0579913
-3.958739	Nadie	-0.2194309
-4.43586	NathanKurtz01	-0.09612153
-4.43586	Nati	-0.09612153
-4.43586	Navarra	-0.09612153
-4.13483	Navidad	-0.09369493
-4.13483	Necesito	-0.29965
-4.43586	Nena	-0.08704861
-3.657709	Ni	-0.1447528
-4.43586	Ningun	-0.09607378
-4.43586	Nino	-0.09612153
-2.657709	No	-0.1571607
-4.43586	Noche	-0.09545238
-4.43586	Nooooo	-0.09503763
-3.958739	Nos	-0.09588268
-4.43586	Nosotros	-0.0913835
-3.958739	Nuestra	-0.09607378
-4.13483	Nuestro	-0.09556397
-4.43586	Nuevo	-0.09612153
-3.73689	Nunca	-0.2537878
-4.43586	NuriaSalobral	-0.06771906
-3.73689	O	-0.08909202
-4.43586	OIDO	-0.09612153
-4.13483	OJO	-0.2983896
-4.43586	OS	-0.09593046
-4.43586	Obervukin	-0.08712988
-4.43586	Objetivo	-0.0960897
-4.43586	Ofrece	-0.09470235
-4.13483	Ohio	-0.09271728
-4.13483	Ojala	-0.08371965
-4.43586	Ojito	-0.09548427
-3.958739	Ojo	-0.06743004
-4.43586	Ojuuuu	-0.09607378
-4.43586	OndaCeroes	-0.09612153
-4.43586	Ontobeltz	-0.09612153
-4.43586	Oo	-0.06771906
-4.13483	Opinion	-0.07975376
-4.43586	Optimismo	-0.09610561
-4.43586	Optimistic	-0.09612153
-4.13483	Orgullosa	-0.2837512
-4.43586	Orgullosos	-0.09605785
-3.321917	Oriol	-1.209651
-4.13483	Ortega	-0.2921138
-3.481618	Os	-0.2220102
-4.43586	Osborne	-0.08831472
-4.13483	Otra	-0.096026
-4.13483	Otro	-0.08512614
-4.43586	P	-0.0960897
-3.73689	PAIS	-0.2028734
-4.43586	PALABRA	-0.09601008
-4.43586	PASO	-0.09612153
-4.43586	PATETICOS	-0.09481414
-4.43586	PEEEERO	-0.0913835
-4.43586	PENSADO	-0.08639788
-4.43586	PERSONAJES	-0.09612153
-4.43586	PLEBISCITO	-0.08802287
-4.43586	PMI	-0.08704861
-4.13483	PODEMOS	-0.08800664
-2.792408	PP	-0.2405165
-4.13483	PP11	-0.09435081
-4.43586	PPBarcelona	-0.09580302
-4.43586	PPC	-0.09313427
-3.113641	PPCatalunya	-0.05841694
-4.43586	PPPSOE	-0.08712988
-4.43586	PPSotodlReal	-0.09371095
-4.43586	PPStSadurni	-0.09605785
-3.394468	PPopular	-0.05098271
-4.43586	PPopularquenuncaPP	-0.06771906
-4.43586	PQuignard	-0.09612153
-4.43586	PRIORIDAD	-0.06771906
-4.43586	PROGRAMA	-0.09610561
-2.745664	PSC	-0.088405
-4.43586	PSC18	-0.09610561
-4.43586	PSC19	-0.09610561
-4.43586	PSCBaix	-0.09572335
-3.53277	PSOE	-0.05856447
-4.43586	Pablo	-0.09612153
-4.43586	Paciencia	-0.07872762
-4.43586	Paco	-0.09612153
-4.43586	Pais	-0.09612153
-4.43586	Paisos	-0.09612153
-4.43586	Palabras	-0.09593046
-4.43586	Palace	-0.07995211
-4.43586	Palacio	-0.09610561
-4.43586	PalacioVz	-0.09612153
-4.13483	Palau	-0.2837512
-4.43586	Pancartas	-0.06771906
-4.43586	Papa	-0.09580302
-3.180588	Para	-0.1333864
-4.43586	Parad	-0.09514934
-3.8338	Parece	-0.2979746
-3.289732	Parlament	-0.1730013
-4.43586	ParlamentSi	-0.09593046
-4.43586	Parlamento	-0.09604193
-4.43586	Paro	-0.08831472
-3.356679	Participacion	-0.2427732
-4.43586	Partido	-0.09612153
-4.43586	PartidoPACMA	-0.07872762
-4.43586	Pasan	-0.0881526
-4.13483	Pase	-0.2979421
-4.43586	Paso	-0.09612153
-4.43586	PatiCambrils	-0.06771906
-4.43586	Patrimonio	-0.07995211
-4.43586	Paz	-0.09371095
-4.43586	Pedazo	-0.09612153
-3.590762	Pedro	-0.2043566
-4.43586	PedrosanchezSg	-0.0960897
-4.43586	Pegada	-0.09470235
-3.43586	Pel	-0.7938799
-4.43586	Pensiones	-0.09612153
-4.43586	PepaBueno	-0.07872762
-4.43586	Perdedores	-0.08831472
-4.43586	Perdemos	-0.09534076
-4.43586	Perdieron	-0.0960897
-4.43586	Perdon	-0.09610561
-4.43586	Perea	-0.08802287
-4.43586	Periodistas	-0.07995211
-4.43586	Periscope	-0.09612153
-3.394468	Pero	-0.1345378
-4.43586	Pese	-0.08704861
-4.43586	Petons	-0.09610561
-4.43586	PiaCastro8	-0.08712988
-4.43586	Piel	-0.07995211
-4.43586	Pierde	-0.09612153
-4.43586	Pilar	-0.09610561
-4.43586	PilarDL	-0.09610561
-4.43586	Pillan	-0.08704861
-4.43586	Pinta	-0.09572335
-4.43586	Pitadas	-0.08704861
-4.43586	Plebiscitarias	-0.09597823
-4.43586	Plebiscito	-0.09508551
-4.43586	Plegamans	-0.06771906
-4.43586	Pobre	-0.08704861
-4.43586	Poco	-0.09428688
-4.43586	Pocos	-0.09605785
-3.657709	Podemos	-0.07591815
-4.43586	Podemtgn	-0.09612153
-4.13483	Podria	-0.0952291
-4.43586	Politicas	-0.09612153
-4.43586	Polo	-0.07995211
-4.43586	Polvorinos	-0.08831472
-4.43586	Ponme	-0.09417495
-4.43586	Pontificador	-0.07995211
-4.43586	Popular	-0.09594638
-4.43586	Poquisimos	-0.09605785
-2.917346	Por	-0.2394629
-4.13483	Porcentuales	-0.06697059
-3.43586	Porque	-0.07411318
-4.43586	Port	-0.09612153
-4.43586	Portugal	-0.09612153
-4.43586	Posada	-0.09612153
-4.13483	Postureo	-0.07924099
-3.657709	Pot	-0.1221707
-4.43586	PouDeberian	-0.09612153
-4.43586	Pp	-0.09123863
-4.43586	Pq	-0.0881526
-4.43586	Prada	-0.08831472
-4.43586	Prats	-0.0944627
-4.43586	Precariedad	-0.09612153
-4.43586	Preciados	-0.09612153
-4.43586	Pregunta	-0.07995211
-4.13483	Preparada	-0.08584398
-4.43586	Preparados	-0.09371095
-3.958739	President	-0.2123452
-4.43586	PresidentMas	-0.09503763
-4.43586	Presidenta	-0.09375898
-4.43586	Presidente	-0.09604193
-4.43586	Presidira	-0.09605785
-4.43586	Presiento	-0.0861536
-4.43586	Prestancia	-0.08831472
-4.13483	Primer	-0.299857
-3.8338	Primera	-0.1856012
-4.43586	Primeras	-0.09605785
-4.43586	Primeros	-0.09585081
-4.43586	Prioridad	-0.09481414
-4.43586	Privilegio	-0.09612153
-4.43586	Profetico	-0.09607378
-4.43586	Promo	-0.0960897
-4.43586	Proximo	-0.0960897
-4.43586	Publico	-0.09612153
-4.43586	Puerta	-0.09612153
-3.157107	Pues	-0.1690737
-4.43586	Pujol	-0.09594638
-3.8338	Q	-0.0950536
-4.43586	QUE	-0.09610561
-4.43586	QUEJE	-0.07872762
-4.43586	QUEREMOS	-0.09605785
-4.43586	QUIERE	-0.09604193
-4.43586	Quan	-0.09588267
-2.616316	Que	-0.09277222
-4.43586	Quebec	-0.09612153
-4.13483	Queda	-0.09375897
-4.43586	Queremos	-0.09417495
-3.394468	Quien	-0.1496405
-4.13483	Quienes	-0.0953248
-3.8338	Quiero	-0.07418017
-4.43586	Quina	-0.09612153
-4.13483	Quiza	-0.08638158
-4.43586	REPUGNANTE	-0.08802287
-3.958739	ROBANDO	-0.04946098
-4.13483	RPardo1	-0.09607376
-3.43586	RT	-0.09585081
-4.43586	Rabat	-0.09575523
-4.13483	Rabell	-0.09513337
-4.43586	RabellEn	-0.09612153
-4.43586	Radio	-0.09612153
-3.180588	Rajoy	-0.1029363
-4.43586	RamonEspadaler	-0.0944627
-4.43586	Ramos	-0.09610561
-4.13483	Real	-0.09586673
-4.43586	Realidad	-0.08712988
-4.43586	Realizando	-0.09417495
-4.43586	Realmente	-0.0913835
-4.43586	Reciben	-0.08704861
-4.43586	Recien	-0.09610561
-4.43586	Recomendable	-0.09375898
-4.13483	Record	-0.0796711
-4.43586	Recordad	-0.0861536
-4.13483	Recordar	-0.0768511
-4.43586	Recordemos	-0.0881526
-4.13483	Recta	-0.2997614
-4.43586	Recuerden	-0.0861536
-4.43586	Recuerdo	-0.09610561
-4.43586	Referendum	-0.08712988
-4.43586	Refugiados	-0.06771906
-4.43586	Remite	-0.0881526
-4.43586	Reponiendo	-0.0960897
-4.43586	Respeto	-0.09414297
-4.43586	Resto	-0.09612153
-4.43586	Resultados	-0.09581895
-4.13483	Resumen	-0.07962149
-4.43586	Resumiendo	-0.09353483
-3.73689	Retweeted	-0.09428686
-4.43586	Reus	-0.07872762
-4.43586	Ricardo	-0.09612153
-4.43586	Rius	-0.09607378
-4.43586	Rival	-0.07995211
-4.43586	Rodeo	-0.09612153
-4.43586	Rodriguez	-0.09610561
-4.43586	Roi	-0.07872762
-4.13483	Rojo	-0.09610561
-4.43586	RomeraMedina	-0.07872762
-4.43586	Romero	-0.09543644
-3.53277	Romeva	-0.06124665
-4.43586	Ronaldos	-0.09353483
-4.43586	Rondara	-0.09605785
-4.13483	Rosa	-0.07871104
-4.43586	Rose	-0.09612153
-4.43586	Roto	-0.07872762
-4.43586	Rubenak	-0.09612153
-4.43586	Rubiales127	-0.09607378
-4.43586	Ruby	-0.09612153
-4.43586	Rumbo	-0.08704861
-4.43586	Ruptly	-0.06771906
-4.43586	S5	-0.08712988
-4.43586	SABE	-0.09612153
-4.43586	SALIR	-0.0960897
-4.13483	SE	-0.09610561
-4.43586	SEPA	-0.08712988
-4.43586	SER	-0.07872762
-3.53277	SI	-0.1828347
-4.43586	SINVERGUENZAS	-0.06771906
-3.958739	SOLA	-0.2208502
-4.43586	SSamtamaria	-0.08712988
-4.43586	SUERTE	-0.0956118
-4.43586	SaavedraVicvic	-0.09593046
-4.13483	Saben	-0.08605585
-3.958739	Sal	-0.2038194
-4.43586	Salamanca	-0.09313427
-4.43586	Saldra	-0.09594638
-4.43586	Saldria	-0.09556399
-4.43586	Salen	-0.09123863
-4.43586	Salga	-0.09433484
-4.43586	Salud	-0.09292583
-3.958739	Saludos	-0.05799129
-4.43586	Salut	-0.09532481
-4.43586	Salvador	-0.09612153
-4.43586	San	-0.09612153
-4.43586	SanAgustindelGuadalix	-0.09612153
-3.8338	Sanchez	-0.09449467
-4.43586	SanchezPSOE	-0.08831472
-4.43586	Sanidad	-0.09567555
-4.43586	Sanjurjo	-0.07995211
-3.958739	Sant	-0.0960897
-4.43586	Santa	-0.09612153
-4.43586	Sants	-0.09610561
-4.43586	Saquemos	-0.09612153
-3.321917	Se	-0.1176727
-4.43586	Sea	-0.09605785
-4.43586	Sebastian	-0.09612153
-4.43586	Sede	-0.09612153
-4.43586	Seguimos	-0.09581895
-4.43586	Seguira	-0.09610561
-3.53277	Segun	-0.1765769
-4.43586	Segunda	-0.09580302
-4.43586	Segundo	-0.09605785
-4.13483	Selva	-0.07871104
-4.13483	Senadoesp	-0.09575521
-4.43586	Senal	-0.07995211
-4.43586	Senor	-0.09599416
-4.43586	Senoras	-0.07995211
-4.13483	Senores	-0.09078758
-4.43586	Separatistas	-0.09610561
-4.43586	Sera	-0.09543644
-4.43586	Sergio	-0.09612153
-4.43586	Serrano	-0.09535671
-4.43586	Servimedia	-0.06771906
-4.43586	Sesamo	-0.0861536
-3.8338	Sexta	-0.09467041
-2.597011	Si	-0.08396515
-3.8338	Si'	-0.08118963
-4.43586	Siempre	-0.09605785
-4.43586	Siento	-0.0861536
-4.43586	SierraBoliviaMi	-0.09527696
-4.13483	Siete	-0.2995543
-3.8338	Sigamos	-0.6676807
-4.43586	Significa	-0.09612153
-3.8338	Sigue	-0.07791492
-3.53277	Siguiendo	-0.1119596
-4.43586	Simon	-0.08802287
-4.43586	Simpatizantes	-0.07995211
-3.590762	Sin	-0.2046275
-4.43586	Sintomatico	-0.07872762
-4.43586	SirBlonde	-0.09514934
-4.43586	Sistema	-0.09545238
-4.43586	Sobran	-0.09123863
-4.43586	SocCatLlib	-0.09612153
-4.43586	Sociales	-0.07872762
-4.43586	Socrates	-0.0861536
-4.43586	Sois	-0.09601008
-3.8338	Sol	-0.09117423
-3.53277	Solo	-0.1341767
-4.43586	SolucionJusticia	-0.09607378
-4.43586	Sometido	-0.09470235
-3.958739	Somos	-0.09110981
-3.73689	Son	-0.0913191
-4.43586	Sonara	-0.08831472
-4.13483	Sondeo	-0.08768211
-4.43586	Sontenibilidad	-0.09481414
-4.13483	Sorayapp	-0.09610561
-4.43586	Sostres	-0.09351881
-4.13483	Soy	-0.09607376
-4.43586	Spain	-0.09610561
-4.43586	SputnikMundo	-0.07872762
-4.43586	Sr	-0.09604193
-4.43586	Su	-0.09604193
-4.43586	Sube	-0.08831472
-4.43586	Subidon	-0.07995211
-3.8338	Suerte	-0.09178568
-4.43586	Sumar	-0.09612153
-4.43586	SumerioA	-0.09610561
-4.43586	Superado	-0.0881526
-4.43586	Superando	-0.09605785
-4.13483	Supongo	-0.08512614
-4.43586	Supremo	-0.09551616
-4.43586	Sur	-0.09612153
-4.43586	Suscribo	-0.09604193
-4.43586	T5	-0.09610561
-4.43586	TERRITORIAL	-0.06771906
-4.43586	TL	-0.09593046
-4.43586	TONTA	-0.08802287
-4.13483	TRAYECTO	-0.06770206
-4.43586	TRIPLICA	-0.09503763
-3.113641	TV3	-0.2449793
-4.43586	TVE	-0.08831472
-4.43586	TVVIDEO	-0.06771906
-4.43586	Talones	-0.08704861
-4.43586	Tambien	-0.09596231
-4.43586	Tan	-0.09604193
-4.43586	Tanto	-0.09313427
-4.13483	Tarde	-0.07993557
-3.8338	Tarragona	-0.06760009
-4.43586	Taulet	-0.09612153
-4.43586	Tb	-0.09371095
-4.13483	Te	-0.09610561
-4.43586	Tejanos	-0.0960897
-4.43586	Tenemos	-0.0861536
-4.43586	Tenerife	-0.096026
-3.657709	Tengo	-0.1304348
-4.43586	Tenia	-0.09570742
-4.43586	Teoria	-0.09324646
-4.43586	Teoricamente	-0.09252471
-4.43586	Tergiversacion	-0.09604193
-4.43586	Termina	-0.0881526
-4.43586	Terrasa	-0.09313427
-4.43586	Thaliontil	-0.09313427
-4.43586	The	-0.09612153
-4.43586	TheIcedEyedGirl	-0.09508551
-4.43586	Tierra	-0.09612153
-4.43586	Tito	-0.09612153
-3.958739	Toca	-0.09518125
-4.13483	Toda	-0.08551784
-3.394468	Todo	-0.1861071
-3.657709	Todos	-0.09015858
-4.43586	Tolerancia	-0.08831472
-4.43586	Toma	-0.09610561
-4.43586	Tomas	-0.09612153
-4.43586	Toni	-0.09612153
-4.43586	Topic	-0.09593046
-4.43586	TormoEmigdio	-0.09605785
-4.43586	Tornen	-0.09612153
-4.43586	Total	-0.0861536
-4.43586	Trajes	-0.07995211
-4.43586	Tranquilo	-0.09594638
-4.43586	Transporte	-0.09607378
-3.958739	Tras	-0.2202288
-4.43586	Travessia	-0.07995211
-4.43586	Travolta	-0.07872762
-4.43586	Tremending	-0.09612153
-4.43586	Tremosa	-0.09514934
-4.43586	Triplicamos	-0.09313427
-4.43586	Truenos	-0.09612153
-4.43586	Tsunami	-0.09612153
-4.13483	Tu	-0.08430897
-4.43586	Tuits	-0.09612153
-4.43586	Turismo	-0.07872762
-3.8338	Twitter	-0.06705573
-4.43586	UDC	-0.08802287
-4.43586	UE	-0.09610561
-4.13483	ULTIMA	-0.2999047
-4.43586	UN	-0.09612153
-3.958739	UNA	-0.4117661
-4.13483	UNIDA	-0.2999047
-4.13483	UNIDAD	-0.2998092
-4.43586	UPYD	-0.09612153
-4.43586	UPyD	-0.0960897
-4.43586	US	-0.09612153
-4.43586	Uf	-0.06771906
-4.43586	Ultraderechistas	-0.09593046
-3.180588	Un	-0.1118508
-3.657709	Una	-0.09551615
-4.43586	Unas	-0.0947822
-4.13483	Unida	-0.06766807
-3.958739	Unidad	-0.06072882
-3.481618	Unio	-0.070565
-4.43586	Union	-0.09605785
-4.43586	Universal	-0.09481414
-4.43586	Uno	-0.09588267
-4.43586	Unos	-0.09503763
-4.43586	Uyque	-0.09610561
-4.43586	VERGONZOSO	-0.08802287
-4.43586	VIDEO	-0.07995211
-4.43586	VIVA	-0.09604193
-4.13483	VIVO	-0.290929
-4.13483	VLG	-0.2999047
-3.958739	VOTA	-0.07769904
-4.43586	VOTOS	-0.09575523
-4.43586	Va	-0.09497379
-4.43586	Vaaaamos	-0.06771906
-4.43586	Vale	-0.09514934
-4.43586	Valentia	-0.09612153
-4.43586	Valoracion	-0.07995211
-4.43586	Vamoos	-0.0960897
-3.43586	Vamos	-0.1543032
-4.43586	VamosCiudadanosCs	-0.08802287
-4.43586	Vanguardia	-0.09612153
-4.43586	Vas	-0.08704861
-4.43586	Vasco	-0.09612153
-3.958739	Vaya	-0.0936149
-4.43586	Vayase	-0.09604193
-4.43586	Vea	-0.09588267
-4.43586	Veamos	-0.09578709
-4.43586	Venezuela	-0.09470235
-3.8338	Venga	-0.08603957
-4.13483	Veo	-0.2908477
-4.43586	Ver	-0.09252471
-4.43586	Verde	-0.08831472
-3.958739	Veremos	-0.08298189
-4.43586	Vergonzoso	-0.09123863
-4.13483	Verguenza	-0.04910631
-3.43586	Via	-0.446264
-4.43586	VicenteVallesTV	-0.08831472
-4.43586	Victoria	-0.09612153
-4.43586	Vida	-0.09612153
-4.43586	VidalFolch	-0.09551616
-3.657709	Video	-0.07932375
-4.13483	Viendo	-0.07889328
-3.958739	Vine	-0.4117661
-4.43586	Vineta	-0.09612153
-4.43586	Virreina	-0.08802287
-4.43586	Visca	-0.08639788
-4.43586	ViscaCat	-0.08802287
-4.43586	Visto	-0.0881526
-3.958739	Viva	-0.2103273
-4.43586	Viviendo	-0.09308618
-4.43586	Vivo	-0.09612153
-4.43586	VivoObjetivo	-0.0960897
-3.958739	Vota	-0.08493017
-4.43586	Votad	-0.09604193
-4.43586	Votada	-0.09612153
-3.958739	Votando	-0.08371966
-3.8338	Votar	-0.09070701
-4.43586	Voted	-0.0956118
-3.958739	Voto	-0.06992293
-4.43586	Votos	-0.09612153
-4.13483	Vox	-0.08703233
-4.43586	WSJ	-0.09570742
-3.53277	X	-0.6482723
-4.43586	XI	-0.09612153
-4.43586	Xavier	-0.09612153
-4.13483	Xq	-0.2999047
-2.844796	Y	-0.1072143
-4.13483	YA	-0.0953567
-3.289732	Ya	-0.2185062
-3.481618	Yo	-0.08954482
-3.958739	YouTube	-0.3833955
-4.43586	Zamora	-0.09570742
-1.683812	a	-0.3650194
-4.43586	abaco	-0.07872762
-4.13483	abces	-0.09313425
-4.43586	abertzaleespero	-0.0861536
-4.43586	abierto	-0.07872762
-4.43586	abiertos	-0.09607378
-4.43586	about	-0.09612153
-4.43586	abrazo	-0.08831472
-4.13483	abre	-0.09115811
-4.43586	abrir	-0.09308618
-4.43586	abrirse	-0.0881526
-4.43586	abrochado	-0.0960897
-4.43586	abs	-0.08802287
-3.055649	absoluta	-0.2039374
-4.43586	absolutaAhora	-0.09591453
-3.8338	abstencion	-0.052006
-4.43586	abstencionista	-0.06771906
-4.43586	abstenerse	-0.07995211
-4.43586	abstenga	-0.08639788
-4.43586	abstiene	-0.08639788
-4.43586	absulta	-0.08831472
-4.43586	absurdo	-0.0956118
-4.43586	abucheados	-0.08712988
-4.43586	abuelos	-0.09396701
-3.590762	acaba	-0.2958926
-4.43586	acabados	-0.08831472
-4.43586	acaban	-0.09597823
-4.43586	acabando	-0.0881526
-4.13483	acabar	-0.08509348
-4.43586	acabe	-0.0881526
-3.958739	acabo	-0.2046465
-4.43586	acentillo	-0.07995211
-4.43586	acepta	-0.08704861
-4.43586	aceptado	-0.08712988
-4.43586	aceptan	-0.08704861
-4.43586	acepte	-0.08639788
-4.13483	acepten	-0.08628389
-4.43586	acercara	-0.09470235
-4.43586	acertado	-0.09503763
-4.43586	acojonados	-0.0913835
-4.13483	acompanar	-0.2908477
-4.43586	acordais	-0.09588267
-4.43586	acordamos	-0.07995211
-4.43586	acoso	-0.09604193
-4.43586	acreditados	-0.08712988
-4.43586	activo	-0.09371095
-4.43586	acto	-0.07995211
-4.43586	actor	-0.09591453
-4.43586	actos	-0.09597823
-4.43586	actualidad	-0.09610561
-4.43586	actualmente	-0.08831472
-4.43586	actuara	-0.09599416
-4.13483	acudan	-0.2908477
-4.43586	acude	-0.09470235
-4.13483	acudido	-0.2908477
-4.13483	acuerdo	-0.09311823
-4.43586	acuerdolos	-0.09534076
-4.43586	adelanta	-0.08704861
-4.43586	adelantando	-0.0881526
-4.43586	adelantara	-0.09123863
-3.73689	adelante	-0.07414666
-4.13483	ademas	-0.09444671
-3.73689	adios	-0.05668575
-4.43586	adjetivos	-0.09612153
-4.43586	adoptiva	-0.07995211
-4.43586	adorado	-0.0960897
-4.43586	adoras	-0.08704861
-4.43586	adriagallardo	-0.08831472
-4.43586	adricres97	-0.0960897
-4.43586	aduenan	-0.09324646
-4.43586	afectar	-0.08704861
-3.8338	afirma	-0.1663048
-3.73689	afluencia	-0.1376105
-4.43586	afrontaremos	-0.09604193
-4.43586	agitan	-0.09123863
-4.43586	aglutina	-0.09123863
-4.43586	agolpando	-0.09612153
-4.43586	agotan	-0.09123863
-4.43586	agradecimiento	-0.08704861
-3.958739	aguanta	-0.212475
-4.43586	aguantar	-0.0881526
-4.43586	ah	-0.09508551
-3.958739	ahi	-0.2116627
-4.43586	ahogue	-0.09596231
-2.823076	ahora	-0.1094706
-3.394468	ahorapodemos	-0.07986017
-2.481618	al	-0.1784755
-4.13483	ala	-0.08701608
-4.13483	alarde	-0.2999047
-4.43586	albiol	-0.09612153
-4.43586	alcaldesa	-0.07872762
-3.8338	alcanza	-0.3009524
-4.43586	alcanzar	-0.0881526
-4.13483	alegra	-0.06983835
-4.43586	alegria	-0.06771906
-4.43586	alexborras	-0.09601008
-4.43586	alexcubero	-0.09481414
-4.43586	algarada	-0.09612153
-3.356679	algo	-0.1930839
-3.481618	alguien	-0.07610597
-3.8338	algun	-0.09599417
-4.43586	alguna	-0.09605785
-3.481618	algunos	-0.1517112
-4.43586	aliarse	-0.09313427
-4.43586	alienigenas	-0.08712988
-4.13483	alla	-0.09308616
-3.8338	alli	-0.09550022
-4.43586	alma	-0.09612153
-4.43586	alrededor	-0.07995211
-3.53277	alta	-0.333783
-4.43586	altamente	-0.09612153
-4.13483	alternativa	-0.08669081
-4.13483	alto	-0.0953567
-4.43586	altura	-0.07995211
-4.43586	amanecemos	-0.09577116
-4.43586	amante	-0.07995211
-4.43586	ambiente	-0.07995211
-4.43586	ambos	-0.09612153
-4.43586	amenazan	-0.09313427
-4.13483	amigo	-0.2989325
-3.958739	amigos	-0.4110171
-4.43586	amiguito	-0.09396701
-4.43586	amiguitos	-0.09324646
-4.43586	amortizado	-0.08831472
-4.43586	amplia	-0.09471832
-4.43586	amplisima	-0.09530886
-4.43586	anadir	-0.07872762
-3.657709	analisis	-0.1150543
-4.43586	analistas	-0.096026
-4.43586	analiza	-0.09123863
-4.43586	analizamos	-0.09313427
-3.958739	analizando	-0.08036501
-4.43586	analizar	-0.09503763
-4.43586	anapastor	-0.09612153
-3.657709	ancianos	-0.2791247
-4.43586	andaluces	-0.0861536
-4.43586	andalucia	-0.0958986
-4.43586	andreamarmol	-0.09612153
-4.43586	anecdotas	-0.08712988
-4.43586	angelesjimenez4	-0.09612153
-4.13483	anima	-0.2908477
-3.73689	animo	-0.1558414
-4.13483	ano	-0.07914168
-3.13483	anos	-0.1334894
-4.43586	antagonicos	-0.09612153
-3.590762	ante	-0.1718154
-4.43586	antena3com	-0.08712988
-3.8338	anteriores	-0.1815654
-3.657709	antes	-0.3520094
-4.43586	anti	-0.09612153
-4.13483	anticapitalista	-0.07841266
-3.53277	antoniobanos	-0.1029935
-4.43586	anuncia	-0.09570742
-4.43586	anunciando	-0.0881526
-4.43586	anunciar	-0.08639788
-4.13483	anuncio	-0.2899527
-4.43586	anys	-0.09542049
-4.43586	apaga	-0.09371095
-4.13483	aparece	-0.0869673
-4.43586	aparecio	-0.08639788
-4.43586	aparentemente	-0.09612153
-4.43586	apartense	-0.0861536
-4.43586	apela	-0.08704861
-4.43586	apelamos	-0.09470235
-4.43586	apellido	-0.08704861
-4.43586	aplaudiendo	-0.08704861
-4.43586	aplausos	-0.08831472
-4.43586	aplicacion	-0.09371095
-4.43586	apocalipsis	-0.09612153
-4.43586	apoder	-0.09612153
-3.958739	apoderada	-0.07571797
-4.43586	apoderadas	-0.08712988
-4.43586	apoderado	-0.09578709
-3.958739	apoderados	-0.06948305
-4.43586	aporta	-0.09604193
-4.43586	apoya	-0.08639788
-4.43586	apoyan	-0.06771906
-4.43586	apoyando	-0.09470235
-4.43586	apoyar	-0.08704861
-4.43586	apoyara	-0.09417495
-4.43586	apoyaria	-0.09436681
-3.481618	apoyo	-0.2448236
-4.43586	aprender	-0.09585081
-4.43586	aprendido	-0.0861536
-4.43586	aprendieron	-0.08704861
-4.43586	aprovechados	-0.09612153
-4.43586	aprox	-0.07995211
-3.958739	apuesta	-0.2166587
-4.43586	apuestan	-0.09375898
-4.43586	apunta	-0.08704861
-4.43586	aquel	-0.09513338
-4.13483	aquello	-0.06958459
-3.958739	aquellos	-0.40183
-3.23174	aqui	-0.07803226
-4.13483	ara	-0.08669081
-4.43586	arrasando	-0.07872762
-4.13483	arriba	-0.09319837
-4.43586	articulo	-0.08831472
-3.958739	artur	-0.09417496
-4.13483	asciende	-0.2985015
-4.43586	asco	-0.08831472
-4.43586	asegura	-0.0861536
-4.43586	aseguran	-0.0861536
-4.43586	asegurara	-0.09601008
-4.43586	aseguren	-0.09605785
-3.23174	asi	-0.09361358
-4.43586	asilo	-0.07995211
-4.43586	asin	-0.09565961
-4.43586	asqueroso	-0.09593046
-4.43586	asumid	-0.0861536
-4.43586	asunto	-0.07872762
-4.43586	atardecer	-0.09610561
-4.13483	atencion	-0.08949634
-4.13483	atenta	-0.08652809
-4.13483	atentamente	-0.08803908
-4.43586	atento	-0.08704861
-4.43586	atonia	-0.09612153
-4.43586	atraganta	-0.08704861
-3.958739	atras	-0.07469895
-4.13483	atreve	-0.2908477
-4.43586	atribuyen	-0.0881526
-4.43586	auguran	-0.09123863
-4.43586	augure	-0.09605785
-4.43586	augusta	-0.09564368
-4.43586	aumentada	-0.0861536
-4.43586	aumentado	-0.09308618
-4.43586	aumentar	-0.09457456
-4.43586	aumento	-0.07995211
-3.321917	aun	-0.2271935
-3.8338	aunque	-0.0845543
-4.43586	ausencia	-0.09573929
-4.43586	autogobierno	-0.06771906
-4.43586	autonomica	-0.08831472
-3.53277	autonomicas	-0.1081835
-4.43586	autoproclamarse	-0.09610561
-4.43586	autoritarios	-0.09573929
-3.73689	avance	-0.239581
-4.43586	avanza	-0.0881526
-4.43586	aventura	-0.09607378
-4.43586	aviso	-0.08831472
-4.43586	avui	-0.09578709
-3.958739	ayer	-0.07912514
-4.13483	ayudar	-0.2908477
-4.43586	ayuntamiento	-0.07872762
-3.590762	baila	-0.2026641
-4.43586	bailado	-0.09585081
-4.13483	bailando	-0.09567554
-4.43586	bailar	-0.0861536
-3.657709	baile	-0.1317774
-4.13483	bailecito	-0.07784849
-4.43586	bailecitos	-0.08712988
-3.73689	bailes	-0.4625388
-4.43586	bailon	-0.08802287
-3.73689	baja	-0.05851238
-4.43586	bajado	-0.08704861
-4.13483	bajan	-0.09246048
-4.13483	bajando	-0.0879093
-4.43586	bajon	-0.09612153
-4.43586	balcon	-0.09612153
-4.43586	bancos	-0.08831472
-3.356679	bandera	-0.4019856
-3.394468	banderas	-0.2123393
-4.43586	banderasTodos	-0.096026
-4.43586	banquete	-0.07995211
-4.43586	barbas	-0.08704861
-4.43586	barca	-0.09572335
-4.43586	bares	-0.08831472
-3.958739	barrio	-0.07991906
-4.43586	barrios	-0.09612153
-4.43586	base	-0.09313427
-4.43586	bassileo	-0.09459053
-4.43586	basta	-0.09532481
-4.43586	basura	-0.09591453
-4.13483	batacazo	-0.09323043
-4.43586	be	-0.09612153
-4.43586	bebe	-0.09612153
-4.43586	belang	-0.08802287
-4.13483	beneficia	-0.09412697
-4.43586	beneficiar	-0.09470235
-3.8338	bezdiario	-0.06439218
-3.289732	bien	-0.04065124
-4.43586	bienestar	-0.09594638
-4.43586	binaria	-0.09612153
-4.43586	binomio	-0.07995211
-4.43586	birla	-0.09308618
-4.43586	bisagra	-0.09308618
-4.43586	blanca	-0.09324646
-3.958739	blanco	-0.2199098
-4.13483	bloque	-0.2837512
-4.13483	boca	-0.08703233
-4.43586	boicot	-0.08704861
-4.43586	bolitas	-0.09593046
-4.43586	bombo	-0.06771906
-4.43586	bon	-0.09612153
-4.13483	bonito	-0.0934227
-4.43586	borracho	-0.08831472
-4.43586	bote	-0.09543644
-4.43586	boteespanol	-0.0881526
-4.43586	boton	-0.09612153
-4.43586	bots	-0.08704861
-4.43586	bravo	-0.07872762
-4.43586	brecha	-0.09585081
-4.43586	brilla	-0.09375898
-4.43586	brillantes	-0.06771906
-4.43586	brindando	-0.09313427
-4.43586	brindaran	-0.09313427
-4.43586	broma	-0.09612153
-4.43586	btendria	-0.09605785
-4.43586	btvnoticies	-0.06771906
-3.321917	buen	-0.2019409
-3.321917	buena	-0.1193734
-3.657709	bueno	-0.06933067
-3.73689	buenos	-0.2534828
-4.43586	bufa	-0.09580302
-4.13483	burlandose	-0.2837512
-4.43586	burlar	-0.08639788
-4.43586	burro	-0.09607378
-4.43586	buscan	-0.09610561
-4.43586	buscando	-0.0881526
-3.958739	buscar	-0.09303808
-4.43586	buscarse	-0.09567555
-4.43586	busque	-0.0881526
-3.958739	by	-0.4116068
-4.13483	bye	-0.07869447
-4.43586	c's	-0.0861536
-4.43586	caballero	-0.07995211
-4.43586	cabe	-0.09422293
-3.657709	cabeza	-0.1988259
-4.43586	cabezadita	-0.07872762
-4.43586	cabezas	-0.07872762
-4.13483	cabreado	-0.2992834
-4.43586	cachitostve	-0.06771906
-4.43586	cachondeito	-0.09313427
-3.43586	cada	-0.2869349
-4.43586	cadera	-0.09612153
-4.43586	cae	-0.09612153
-4.43586	caga	-0.09612153
-4.43586	cagarla	-0.09580302
-3.958739	caida	-0.07691769
-4.13483	caido	-0.09411097
-4.43586	caiga	-0.08639788
-4.43586	calcetin	-0.0881526
-4.43586	calentamos	-0.09497379
-3.958739	calidad	-0.06516218
-4.43586	calienta	-0.09612153
-4.43586	callando	-0.09612153
-3.73689	calle	-0.2301952
-3.8338	calles	-0.06836443
-4.43586	calma	-0.09612153
-4.43586	calmad	-0.06771906
-4.43586	cama	-0.06771906
-3.958739	cambiar	-0.2074633
-4.43586	cambiara	-0.09462249
-4.43586	cambiarlo	-0.09612153
-3.289732	cambio	-0.04022317
-4.43586	caminito	-0.09567555
-3.958739	camino	-0.402725
-3.958739	camisa	-0.0878282
-4.43586	camiseta	-0.09612153
-4.43586	camisetas	-0.09612153
-3.289732	campana	-0.1111601
-4.43586	campeones	-0.09612153
-4.43586	camuflaje	-0.08712988
-4.43586	canal	-0.07872762
-4.43586	canalsurradio1	-0.09581895
-4.43586	canalsurweb	-0.06771906
-4.43586	cancha	-0.09497379
-4.13483	cancion	-0.0836705
-4.43586	candidata	-0.09542049
-3.8338	candidato	-0.07613492
-3.958739	candidatos	-0.06673219
-4.43586	candidatura	-0.0861536
-4.43586	canon	-0.08712988
-4.43586	cansinos	-0.09534076
-4.43586	canta	-0.08712988
-4.13483	cantan	-0.0870811
-4.43586	cantando	-0.09581895
-4.43586	cantar	-0.08831472
-4.13483	cantidad	-0.2837512
-4.43586	capitalismo	-0.09351881
-4.13483	capitulo	-0.08417808
-4.43586	capitulos	-0.07995211
-3.657709	cara	-1.608637
-4.43586	caracter	-0.09610561
-4.43586	caras	-0.0861536
-4.43586	carceles	-0.06771906
-4.43586	cargarse	-0.08704861
-4.13483	carino	-0.08647926
-4.43586	carinoso	-0.09612153
-4.13483	carlosherreracr	-0.08406352
-4.13483	carmechacon	-0.09315029
-4.13483	carpeta	-0.290929
-4.43586	carpetas	-0.09324646
-4.13483	carrera	-0.2997136
-4.13483	carteles	-0.07059878
-3.321917	casa	-0.09214147
-4.43586	casa'	-0.06771906
-4.43586	casacurro	-0.08831472
-4.43586	casas	-0.09371095
-4.43586	caseras	-0.08712988
-4.43586	caseta	-0.07995211
-3.23174	casi	-0.2142735
-4.43586	casita	-0.08802287
-4.13483	caso	-0.08813638
-4.43586	castellano	-0.09612153
-4.43586	castigo	-0.09535671
-4.13483	casualidad	-0.09521315
-3.289732	catalan	-0.1205682
-4.43586	catalanLectura	-0.09612153
-3.205411	catalana	-0.1277429
-3.113641	catalanas	-0.1551529
-2.73689	catalanes	-0.05086422
-4.43586	catalanesJuntsPelSi	-0.07872762
-4.43586	catalanesmiqueliceta	-0.07872762
-4.43586	catalans	-0.0913835
-4.43586	cataln	-0.09591453
-4.13483	catalufos	-0.07905889
-4.13483	cataluna	-0.06770206
-4.43586	cataluna#NOIndependencia	-0.08802287
-4.43586	catalunanopolice	-0.09593046
-4.13483	catalunanopolizador	-0.08577877
-4.43586	catalunya	-0.09433484
-4.43586	catarres	-0.09612153
-4.43586	catetos	-0.08831472
-3.157107	catsiqueespot	-0.1910675
-3.958739	cava	-0.04750678
-4.43586	cavaEl	-0.09610561
-4.43586	cazarla	-0.08802287
-4.13483	cc	-0.09420692
-4.43586	cdo	-0.0944627
-3.657709	celebra	-0.0619878
-4.43586	celebracion	-0.07995211
-4.13483	celebrando	-0.08714612
-3.8338	celebrar	-0.07683448
-4.43586	celebrara	-0.08712988
-4.43586	celebrarlo	-0.09612153
-4.43586	censados	-0.08712988
-4.43586	censo	-0.07995211
-4.43586	centenares	-0.07995211
-4.13483	centro	-0.09516528
-3.8338	cerca	-0.07007509
-4.43586	cercanas	-0.08704861
-4.43586	cerrados	-0.09123863
-4.43586	certero	-0.096026
-4.43586	cestas	-0.07995211
-4.43586	chaparron	-0.09612153
-4.43586	charco	-0.07872762
-4.43586	charla	-0.09313427
-4.13483	chicos	-0.07993557
-4.43586	chino	-0.08712988
-4.43586	chita	-0.09612153
-4.43586	chivan	-0.0861536
-4.43586	chollito	-0.08712988
-4.43586	chramirezferro	-0.09612153
-4.43586	chulo	-0.09612153
-4.43586	churreria	-0.09593046
-4.13483	ciego	-0.2899527
-4.43586	cien	-0.09292583
-4.43586	cierra	-0.09313427
-4.13483	cierran	-0.2950377
-3.73689	cierre	-0.4595542
-4.13483	cierren	-0.2950377
-4.43586	cierto	-0.09597823
-4.43586	cifra	-0.0861536
-3.958739	cifras	-0.07990254
-4.43586	cinco	-0.09575523
-4.43586	cintsb	-0.09612153
-4.43586	cita	-0.08802287
-3.8338	ciu	-0.3088267
-4.43586	ciudad	-0.0881526
-4.13483	ciudadana	-0.09553209
-3.958739	ciudadania	-0.09476624
-3.958739	ciudadano	-0.2174296
-3.958739	ciudadanos	-0.09454261
-4.43586	ciutada	-0.09308618
-3.73689	ciutadans	-0.0737278
-4.43586	civil	-0.09581895
-4.43586	claman	-0.08704861
-4.13483	clara	-0.09367893
-4.43586	claramente	-0.09610561
-4.43586	claridad	-0.08831472
-4.43586	clarisimo	-0.09518125
-3.004497	claro	-0.2879408
-4.43586	claros	-0.09610561
-4.13483	clase	-0.0797207
-4.13483	clave	-0.06766807
-4.43586	claves	-0.09324646
-4.43586	cliente	-0.08831472
-4.43586	clima	-0.09583488
-3.8338	cn	-0.09170528
-4.13483	cnd	-0.290197
-4.43586	cobardes	-0.09123863
-3.958739	cobertura	-0.1866277
-4.13483	cobra	-0.2996818
-4.43586	cogiendo	-0.0960897
-4.43586	coherencia	-0.08639788
-4.43586	cohesion	-0.09313427
-4.43586	coincidan	-0.08712988
-3.481618	cola	-0.2862489
-4.13483	colaboradores	-0.07839607
-4.43586	colado	-0.09612153
-3.8338	colas	-0.06511089
-4.43586	colat	-0.09612153
-4.43586	cole	-0.08831472
-4.43586	colectivasIgualdad	-0.09604193
-3.180588	colegio	-0.5450745
-3.23174	colegios	-0.6542056
-4.43586	colegioslo	-0.096026
-4.43586	coleta	-0.09612153
-4.43586	collegi	-0.09497379
-4.43586	colores	-0.09591453
-4.13483	comarcas	-0.09527695
-4.43586	comarques	-0.07872762
-4.43586	comenta	-0.09596231
-4.43586	comentados	-0.09548427
-4.43586	comentar	-0.0958986
-4.43586	comentario	-0.07995211
-4.43586	comentarios	-0.07872762
-4.43586	comenzamos	-0.09597823
-4.43586	comer	-0.09601008
-3.958739	comicios	-0.09364692
-4.43586	comiendo	-0.09612153
-4.13483	comienza	-0.08703233
-2.527375	como	-0.1314313
-4.43586	como'	-0.09375898
-4.43586	compaeros	-0.07995211
-4.43586	companera	-0.09612153
-3.958739	companero	-0.09475027
-3.394468	companeros	-0.2935298
-4.43586	companerosas	-0.07995211
-4.43586	companers	-0.07995211
-4.43586	companerxs	-0.09516529
-4.13483	compania	-0.09583487
-4.43586	comparada	-0.09313427
-4.43586	comparando	-0.07995211
-4.43586	comparece	-0.096026
-4.43586	comparecencia	-0.07995211
-4.43586	comparecer	-0.08639788
-4.43586	compartir	-0.09543644
-4.13483	comparto	-0.08638158
-4.43586	competentes	-0.0861536
-4.43586	competitivas	-0.06771906
-3.958739	compis	-0.0936149
-3.8338	complicado	-0.08729238
-4.43586	comprender	-0.06771906
-4.43586	comprobar	-0.0861536
-4.43586	comprometeria	-0.08704861
-4.43586	compromis	-0.09583488
-4.13483	compromiso	-0.07683446
-3.958739	comun	-0.07710068
-4.43586	comun'	-0.09583488
-3.8338	comunicacion	-0.09577116
-3.73689	comunidad	-0.1470881
-2.161702	con	-0.256441
-4.43586	concejales	-0.0861536
-4.43586	concentracion	-0.09607378
-4.43586	concentrados	-0.09308618
-4.43586	concentrarian	-0.0881526
-4.43586	concepto	-0.07995211
-4.43586	conceptos	-0.09324646
-4.43586	conclusion	-0.08802287
-4.43586	conclusiones	-0.09612153
-4.43586	concurre'	-0.09588267
-4.43586	concurrir	-0.09313427
-4.43586	condena	-0.09428688
-4.43586	condicion	-0.09612153
-4.43586	condiciones	-0.09375898
-4.43586	confesado	-0.09605785
-4.43586	confianza	-0.08712988
-4.43586	confiar	-0.08712988
-4.43586	configuracion	-0.07995211
-4.43586	confirmado	-0.09433484
-4.13483	confirman	-0.09141567
-4.43586	confluencia	-0.09562774
-4.43586	coniguen	-0.0881526
-3.73689	conocer	-0.2440184
-4.43586	conoceremos	-0.09123863
-4.43586	conquistado	-0.09612153
-4.43586	conquistando	-0.09462249
-4.13483	conscientes	-0.06958459
-4.43586	consecuencias	-0.06771906
-4.43586	consecuentes	-0.09503763
-3.8338	conseguido	-0.08548523
-4.13483	conseguir	-0.09197857
-4.43586	conseguiria	-0.08639788
-4.43586	conseguirian	-0.09604193
-4.43586	conseguirlo	-0.09585081
-4.43586	conservadora	-0.09596231
-4.43586	considera	-0.0861536
-4.43586	consideraba	-0.09575523
-4.43586	consigue	-0.09375898
-4.43586	consolida	-0.09503763
-4.43586	consolidacion	-0.09610561
-4.43586	consolidada	-0.09484608
-4.43586	constitucion	-0.08704861
-4.43586	constitucional	-0.09481414
-4.43586	constitucionalista	-0.09605785
-4.43586	constitucionalistas	-0.07872762
-4.43586	constituirse	-0.09605785
-4.43586	construiremos	-0.09585081
-4.43586	consuela	-0.09292583
-4.43586	consulta	-0.09610561
-4.43586	consultar	-0.09123863
-4.43586	contado	-0.09375898
-3.8338	contamos	-0.1736254
-3.958739	contando	-0.08618619
-3.8338	contar	-0.08016687
-4.43586	contaran	-0.09516529
-4.43586	contaros	-0.09484608
-4.43586	contenta	-0.09607378
-4.13483	contento	-0.09508549
-4.13483	contentos	-0.05905021
-4.43586	conteo	-0.07872762
-4.43586	contexto	-0.08712988
-3.958739	contigo	-0.4104905
-4.43586	continuan	-0.09612153
-4.43586	continuara	-0.06771906
-3.53277	contra	-0.09505494
-4.43586	contrarias	-0.09601008
-4.43586	contrario	-0.0881526
-4.43586	contribuir	-0.08704861
-4.43586	contribuiria	-0.08704861
-4.43586	controlar	-0.0881526
-4.43586	convence	-0.08802287
-4.43586	convencer	-0.08704861
-4.13483	convencido	-0.08502816
-4.13483	convenga	-0.07058189
-4.43586	convenio	-0.07995211
-4.43586	conversacion	-0.0861536
-4.43586	convertirse	-0.08712988
-4.43586	conviene	-0.0960897
-3.8338	convierte	-0.2984315
-3.657709	convivencia	-0.0535364
-4.43586	convocadas	-0.09484608
-4.43586	convocados	-0.08704861
-4.43586	coordinado	-0.09375898
-4.43586	cop	-0.07995211
-3.481618	copees	-0.5068533
-4.43586	coraje	-0.09612153
-3.73689	corazon	-0.06394663
-4.43586	corbata	-0.08831472
-4.43586	cordiales	-0.09371095
-4.43586	corneta	-0.09612153
-4.43586	corre	-0.0881526
-4.43586	correo	-0.07995211
-4.43586	correr	-0.08639788
-3.8338	corrupcion	-0.07829659
-4.43586	corrupciones	-0.09567555
-4.43586	corrupta	-0.09484608
-4.43586	cortina	-0.07995211
-4.43586	corto	-0.08831472
-3.958739	cosa	-0.07411319
-3.321917	cosas	-0.1038581
-4.43586	costa	-0.09607378
-4.43586	costas	-0.07995211
-4.43586	costes	-0.09516529
-4.43586	costo	-0.08831472
-4.43586	creacion	-0.07995211
-4.43586	crear	-0.09308618
-4.13483	crece	-0.07854529
-4.43586	creces	-0.08639788
-4.43586	crecido	-0.09428688
-4.43586	crecimiento	-0.07995211
-4.13483	cree	-0.08605585
-4.43586	creen	-0.0861536
-4.13483	creer	-0.07027787
-4.43586	creido	-0.07872762
-3.657709	creo	-0.2056343
-4.43586	crisis	-0.07995211
-4.43586	crispacion	-0.09513338
-4.13483	cronica	-0.07695094
-4.43586	crucial	-0.07995211
-4.43586	crudo	-0.09599416
-4.43586	csciudadanos	-0.0958986
-4.43586	ctxtes	-0.09581895
-4.43586	cua	-0.09605785
-3.958739	cuadra	-0.0825222
-4.43586	cuadran	-0.09252471
-3.73689	cual	-0.1661463
-3.73689	cualquier	-0.09577114
-4.43586	cualquiera	-0.09562774
-4.43586	cualquiera#eleccionescatalanas	-0.07872762
-3.23174	cuando	-0.09069601
-4.13483	cuanto	-0.08660946
-4.13483	cuantos	-0.2983577
-4.43586	cuarenta	-0.09581895
-4.43586	cuarta	-0.09580302
-4.13483	cuartos	-0.2999047
-4.43586	cuasi	-0.09612153
-4.43586	cuelga	-0.0960897
-3.321917	cuenta	-0.08995689
-3.958739	cuentan	-0.09428688
-3.958739	cuentas	-0.07026099
-4.43586	cuenten	-0.09605785
-4.43586	cuento	-0.07872762
-4.43586	cuerpo	-0.09351881
-4.43586	cues	-0.09612153
-4.13483	cuesta	-0.09607376
-3.958739	cuestion	-0.09588268
-4.43586	cueva	-0.08704861
-3.657709	culo	-0.1089512
-4.43586	cultura	-0.08831472
-4.43586	cumplan	-0.08802287
-4.13483	cumple	-0.07988599
-4.43586	cumpleanos	-0.09581895
-3.958739	cup	-0.0949738
-3.004497	cupnacional	-0.05725243
-4.43586	cupula	-0.09324646
-4.43586	curioso	-0.09612153
-4.43586	currar	-0.09607378
-4.43586	curvaaaas#eleccionescatalanas	-0.07872762
-4.43586	curvas	-0.08802287
-2.879558	d	-0.08623383
-3.356679	da	-0.175634
-4.43586	daban	-0.09375898
-3.958739	dado	-0.2126211
-4.13483	dais	-0.08656064
-3.43586	dan	-0.1801107
-4.13483	dando	-0.09119031
-4.43586	dano	-0.09462249
-3.394468	dar	-0.1454383
-4.43586	dara	-0.09123863
-4.43586	daran	-0.09610561
-4.43586	darnos	-0.09612153
-3.8338	dato	-0.067345
-3.180588	datos	-0.1624186
-1.43673	de	-0.2493264
-4.43586	debacle	-0.07995211
-4.43586	debajo	-0.07995211
-3.958739	debate	-0.09310221
-4.43586	debates	-0.09481414
-4.43586	debatiendo	-0.09433484
-3.8338	debe	-0.1854418
-4.43586	deben	-0.09557992
-4.43586	deber	-0.08831472
-4.43586	debera	-0.09612153
-4.43586	deberes	-0.09612153
-4.13483	deberia	-0.09597822
-3.958739	deberian	-0.09589861
-4.43586	debido	-0.096026
-4.43586	decadencia	-0.09604193
-4.43586	decena	-0.07995211
-4.43586	decente	-0.09570742
-4.43586	decepcion	-0.0913835
-4.43586	decepcionante	-0.09554804
-4.43586	decepcionen	-0.08831472
-4.13483	decida	-0.08897876
-4.13483	decidan	-0.2975581
-3.8338	decide	-0.08447254
-4.43586	decidida	-0.07872762
-4.43586	decidir	-0.09557992
-4.43586	decidirse	-0.0881526
-3.394468	decir	-0.1458351
-4.43586	decirlo	-0.09588267
-4.13483	decision	-0.0877795
-4.43586	decisions	-0.09612153
-4.13483	decisiva	-0.0908037
-4.43586	decisivo	-0.09593046
-4.13483	decisivos	-0.2975101
-4.13483	declaracion	-0.07983641
-4.13483	declaraciones	-0.07973723
-4.43586	declarado	-0.07995211
-4.43586	declarando	-0.0861536
-4.13483	declarar	-0.290197
-4.43586	declive	-0.09556399
-4.43586	dedica	-0.0881526
-4.43586	dedicacion	-0.09375898
-4.43586	dedico	-0.09594638
-4.43586	defender	-0.08639788
-4.43586	defenderan	-0.0960897
-4.13483	defendiendo	-0.09562773
-4.43586	defensa	-0.09324646
-4.43586	defienda	-0.09503763
-4.43586	defiende	-0.09605785
-4.43586	defiendo	-0.08704861
-4.13483	define	-0.08813638
-4.43586	definen	-0.08704861
-4.43586	definitiva	-0.09575523
-4.43586	definitivo	-0.07872762
-4.43586	definitivos	-0.09593046
-4.43586	definitoria	-0.08639788
-3.657709	deja	-0.123129
-4.43586	dejan	-0.07995211
-4.13483	dejando	-0.08813638
-3.8338	dejar	-0.07736672
-4.43586	dejarse	-0.07995211
-4.43586	dejasteis	-0.09612153
-4.43586	dejemos	-0.09513338
-4.43586	dejen	-0.08712988
-4.43586	dejes	-0.09513338
-2.178182	del	-0.3005157
-4.43586	dela	-0.0960897
-3.958739	delante	-0.06877153
-4.43586	delegacion	-0.07995211
-4.43586	demas	-0.07872762
-3.13483	democracia	-0.2074035
-4.43586	democracia'	-0.09605785
-4.43586	democracia''noche	-0.09545238
-4.43586	democraciaAunq	-0.09605785
-4.43586	democraciaSin	-0.09612153
-4.13483	democrata	-0.07847898
-4.13483	democratica	-0.0768511
-4.43586	democraticamente'	-0.09414297
-4.13483	democratico	-0.2825268
-4.43586	democratico'	-0.0861536
-4.43586	democraticos	-0.0960897
-4.43586	demostrada	-0.09605785
-4.13483	demostrado	-0.08128846
-4.43586	demostrara	-0.09593046
-3.958739	dentro	-0.204696
-4.43586	denuncian	-0.08831472
-4.43586	denunciar	-0.08704861
-4.43586	departamento	-0.09612153
-4.43586	depende	-0.07995211
-4.43586	dependientes	-0.08831472
-4.43586	deplorable	-0.07872762
-4.43586	depositado	-0.09577116
-3.73689	derecha	-0.1455534
-4.13483	derechas	-0.2825268
-3.356679	derecho	-0.2678648
-3.53277	derechos	-0.1237293
-4.43586	deriva	-0.08802287
-4.13483	derrota	-0.09367893
-4.43586	derrotas	-0.07872762
-4.13483	des	-0.2837512
-4.13483	desafio	-0.09581894
-4.43586	desaparecido	-0.07995211
-4.43586	desastre	-0.09508551
-4.43586	desayuno	-0.09612153
-4.43586	descansan	-0.09612153
-4.43586	descanso	-0.07872762
-4.43586	descaradamenteni	-0.0944627
-4.43586	desconectar	-0.09308618
-4.43586	descorchado	-0.09612153
-4.43586	descriminacion	-0.08704861
-2.93071	desde	-0.1505346
-4.43586	desea	-0.09612153
-4.43586	deseamos	-0.08704861
-4.43586	deseando	-0.09581895
-3.8338	deseo	-0.1753916
-4.43586	deseos	-0.07872762
-4.43586	desgobierno	-0.08712988
-4.43586	desmembrar	-0.09532481
-4.43586	desobedecera	-0.08704861
-4.43586	desobediencia	-0.09612153
-4.43586	despejado	-0.06771906
-4.43586	despertado	-0.08704861
-4.43586	despertandose	-0.0960897
-4.43586	despide	-0.07995211
-4.43586	despierta	-0.09585081
-4.43586	despliega	-0.09596231
-4.13483	despliegue	-0.2837512
-4.43586	desplomar	-0.09324646
-4.43586	desplome	-0.09324646
-4.43586	despres	-0.09610561
-3.321917	despues	-0.3584186
-4.43586	destaca	-0.08639788
-3.958739	destino	-0.07952228
-4.43586	determinados	-0.09605785
-4.43586	determinantes	-0.09610561
-4.43586	detienen	-0.08704861
-4.43586	detras	-0.07995211
-4.43586	devuelto	-0.0881526
-2.711584	dia	-0.1069718
-4.43586	diablo	-0.08831472
-4.43586	dialogada	-0.09596231
-3.958739	dialogar	-0.04848498
-4.13483	dialogo	-0.08018336
-4.43586	diariRegio7	-0.09612153
-3.259769	dias	-0.105943
-4.43586	diazepan	-0.09351881
-4.43586	dibujar	-0.0960897
-2.958739	dice	-0.1338416
-3.53277	dicen	-0.1479228
-4.43586	dices	-0.0861536
-3.657709	dicho	-0.2062344
-4.43586	dichoso	-0.07872762
-4.13483	diciembre	-0.04910631
-3.8338	diciendo	-0.2980072
-4.43586	dicotomizacion#27S	-0.06771906
-4.43586	diem	-0.09612153
-4.43586	dieron	-0.09313427
-4.43586	diez	-0.09428688
-4.13483	diferencia	-0.09505358
-4.43586	diferencias	-0.09585081
-4.43586	diferente	-0.06771906
-4.43586	diferentes#27S	-0.06771906
-3.73689	dificil	-0.08779572
-4.43586	digamos	-0.09610561
-4.13483	digan	-0.09151223
-4.43586	diganse	-0.09612153
-4.43586	digerir	-0.09123863
-4.43586	digna	-0.09371095
-3.8338	digo	-0.06511089
-4.43586	diguis	-0.09612153
-4.43586	dije	-0.0960897
-3.958739	dijeron	-0.2079556
-3.958739	dijo	-0.08519147
-4.13483	dimita	-0.07625157
-4.43586	dimitael	-0.09612153
-4.43586	dimitiria	-0.09481414
-4.13483	dinero	-0.09569147
-4.13483	dio	-0.09374296
-4.13483	dios	-0.09586673
-3.356679	diputados	-0.1473138
-4.43586	diputadoshoy	-0.0958986
-4.43586	diputads	-0.08831472
-4.43586	dique	-0.09351881
-4.43586	dir	-0.09353483
-4.13483	diran	-0.09467039
-4.43586	diras	-0.09484608
-3.259769	directo	-0.1093384
-4.43586	director	-0.07995211
-4.43586	directores	-0.07995211
-4.43586	diria	-0.0861536
-4.43586	discreta	-0.07995211
-4.43586	discreto	-0.09527696
-4.43586	disculpa	-0.09604193
-3.657709	discurso	-0.2086595
-4.43586	discursos	-0.09612153
-4.43586	disenar	-0.06771906
-4.43586	disgusto	-0.08704861
-4.13483	dispara	-0.08641415
-4.43586	dispone	-0.08704861
-4.43586	dispositivo	-0.09375898
-4.43586	distingue	-0.09585081
-4.43586	distintas	-0.07995211
-4.43586	distintos	-0.08802287
-4.43586	disuelven	-0.06771906
-4.43586	diversion	-0.09371095
-4.43586	divertida	-0.09612153
-4.43586	divida	-0.06771906
-4.13483	dividida	-0.08768211
-4.43586	dixit	-0.07872762
-3.958739	doble	-0.220436
-4.43586	doblegada	-0.09375898
-4.43586	dociles	-0.08831472
-4.43586	documentos	-0.09604193
-4.13483	domingo	-0.07680117
-4.43586	don	-0.07995211
-4.43586	dona	-0.09470235
-4.43586	donantes	-0.09612153
-4.43586	donar	-0.08639788
-3.43586	donde	-0.1429555
-3.321917	dos	-0.1373052
-4.43586	dosis	-0.07995211
-4.43586	drogas	-0.07872762
-3.958739	dsd	-0.09508552
-3.8338	duda	-0.06686845
-4.43586	dudarlo	-0.09610561
-4.13483	dudas	-0.087536
-4.43586	dudo	-0.0861536
-4.43586	duelo	-0.07995211
-4.43586	duenos	-0.07995211
-4.43586	duerma	-0.09610561
-4.43586	duerme	-0.06771906
-3.8338	durante	-0.2820294
-4.43586	durmiendo#eleccionescatalanas	-0.06771906
-4.43586	dvotos	-0.09513338
-3.958739	dwespanol	-0.1913563
-3.53277	e	-0.1379417
-4.43586	ecanos	-0.09351881
-4.43586	echado	-0.09612153
-4.43586	echando	-0.09610561
-4.43586	echarse	-0.09252471
-4.43586	echate	-0.09308618
-4.43586	echen	-0.09252471
-4.43586	echenlos	-0.09605785
-4.13483	economia	-0.07993557
-4.43586	economicamente	-0.08831472
-4.43586	edicion	-0.09612153
-4.43586	eduardosuarez	-0.07872762
-3.958739	educacion	-0.09122253
-4.43586	efectivo	-0.09545238
-3.958739	efecto	-0.09447869
-4.43586	ego	-0.07995211
-3.958739	eh	-0.394404
-4.43586	ejemplares	-0.08831472
-4.43586	ejemplo	-0.07872762
-4.43586	ejerce	-0.09585081
-3.958739	ejercer	-0.09401502
-4.13483	ejercido	-0.09511741
-1.739504	el	-0.2119316
-4.43586	elEconomistaes	-0.09524506
-4.43586	elNinoRodriguez	-0.07872762
-4.13483	elconfidencial	-0.07058189
-3.53277	eldiarioes	-0.2502484
-4.43586	eleccciones	-0.09612153
-2.506441	elecciones	-0.2709558
-4.43586	elecciones'	-0.07872762
-4.43586	eleccionesHitler	-0.09594638
-4.43586	eleccions	-0.09470235
-2.802392	electoral	-0.2202359
-3.205411	electorales	-0.08082307
-3.958739	electores	-0.09213929
-4.43586	elegia	-0.09470235
-4.43586	elegido	-0.08712988
-3.73689	elegir	-0.1539933
-3.590762	elespanolcom	-0.08882719
-4.43586	elige	-0.09503763
-4.43586	elija	-0.0960897
-4.13483	ella	-0.09318234
-4.13483	ello	-0.09589859
-3.53277	ellos	-0.07671314
-4.43586	elmundobcn	-0.09596231
-3.321917	elmundoes	-0.1962674
-3.394468	elpais	-0.1956453
-4.43586	elperiodico	-0.06771906
-4.43586	eludio	-0.0881526
-4.43586	embarque	-0.09612153
-4.43586	emigrante	-0.09313427
-4.43586	emigrantes	-0.07872762
-4.43586	emigrar	-0.09586674
-4.43586	emiguelr	-0.07872762
-4.43586	emilioargueso	-0.09612153
-4.43586	emitiendo	-0.09543644
-4.13483	emocion	-0.08574617
-3.958739	emocionada	-0.0728889
-4.43586	emocionante	-0.08802287
-4.43586	emocionantes	-0.07995211
-4.43586	empatan	-0.08712988
-4.43586	empenan	-0.08712988
-4.43586	empezado	-0.07872762
-4.43586	empezamos	-0.08704861
-4.43586	empezando	-0.08639788
-3.958739	empezar	-0.1940234
-4.43586	empezo	-0.09313427
-4.43586	empiece	-0.08704861
-4.13483	empiecen	-0.2908477
-3.8338	empieza	-0.08563203
-4.43586	empujones	-0.09607378
-1.687672	en	-0.3452135
-4.43586	encabece	-0.09612153
-4.43586	encaja	-0.09543644
-3.590762	encanta	-0.1843156
-4.43586	encantan	-0.09252471
-4.43586	encargados	-0.07995211
-4.43586	encargando	-0.09252471
-4.43586	enchufados	-0.08831472
-4.43586	encierran	-0.09123863
-3.657709	encima	-0.1159416
-3.958739	encontrado	-0.08915676
-4.43586	encontrarse	-0.09572335
-4.43586	encuentro	-0.09607378
-3.958739	encuesta	-0.2043654
-3.394468	encuestas	-0.03385115
-4.43586	enemigo	-0.09324646
-4.43586	energetica	-0.09516529
-4.43586	enesima	-0.09586674
-4.43586	enfrentada	-0.09417495
-4.43586	engana	-0.08704861
-4.43586	enganada	-0.0913835
-4.43586	enganchada	-0.08704861
-4.43586	engranaje	-0.09313427
-3.657709	enhorabuena	-0.2065174
-4.43586	enorme	-0.09371095
-4.43586	enrocarse	-0.08712988
-4.43586	ensayando	-0.0881526
-4.43586	ensayo	-0.09604193
-4.43586	enseguida	-0.07995211
-4.43586	ensenen	-0.09610561
-4.43586	enserio	-0.07872762
-4.13483	entenc	-0.2999047
-4.43586	entender	-0.09612153
-4.43586	entendimiento	-0.09585081
-4.43586	entera	-0.09542049
-4.43586	enterado	-0.0861536
-4.43586	enteran	-0.07995211
-4.43586	enterar	-0.07872762
-4.43586	entienden	-0.0881526
-4.43586	entiendes	-0.07995211
-3.53277	entiendo	-0.09938241
-4.13483	entonces	-0.09502166
-4.43586	entoncesah	-0.0913835
-4.43586	entorno	-0.06771906
-3.958739	entra	-0.08092592
-4.43586	entramos	-0.08712988
-3.180588	entre	-0.1280582
-3.73689	entrevista	-0.2305075
-4.43586	entrevistando	-0.08704861
-4.43586	entrevistat	-0.09470235
-4.13483	enviar	-0.08698356
-4.43586	envista	-0.08704861
-4.43586	envuelven	-0.08712988
-4.43586	epica	-0.07995211
-4.43586	episodio	-0.07995211
-3.657709	equipo	-0.3593814
-4.43586	equivocado	-0.08712988
-4.43586	equivocas	-0.0861536
-4.43586	equivocat	-0.06771906
-3.321917	era	-0.1747155
-3.958739	eran	-0.2207865
-3.958739	erc	-0.09588268
-3.8338	eres	-0.18261
-4.13483	erradicar	-0.08493016
-3.958739	erreuvedos	-0.0949259
-4.13483	error	-0.0796711
-2.132664	es	-0.2874608
-4.43586	esRadio	-0.09313427
-3.657709	esa	-0.09201072
-4.43586	esas	-0.0947822
-4.13483	esc	-0.07058189
-3.53277	escano	-0.08854434
-2.444634	escanos	-0.1119704
-4.43586	escanos#eleccionescatalanas	-0.09604193
-4.43586	escena	-0.07995211
-4.13483	escenario	-0.09573928
-4.43586	escoja	-0.07872762
-4.43586	escola	-0.09612153
-4.43586	escolta	-0.09612153
-4.43586	esconde	-0.09597823
-4.43586	escribiendo	-0.09308618
-4.43586	escrito	-0.09612153
-4.43586	escrut	-0.09612153
-2.73689	escrutado	-0.1772045
-4.43586	escrutado#eleccionescatalanas	-0.09612153
-3.8338	escrutados	-0.1757831
-4.43586	escrutar	-0.0881526
-3.259769	escrutinio	-0.0968397
-4.43586	escucha	-0.08712988
-4.43586	escuchar	-0.09578709
-4.43586	escucharde	-0.09612153
-4.43586	escucharla	-0.09123863
-4.43586	escucharlos	-0.08802287
-4.43586	escuche	-0.08704861
-4.43586	escuela	-0.0960897
-3.43586	ese	-0.1623367
-4.43586	esencial	-0.09371095
-3.8338	esfuerzo	-0.05873803
-4.43586	esloganes	-0.09612153
-3.23174	eso	-0.1674379
-3.8338	esos	-0.1855215
-4.43586	espai	-0.09612153
-4.43586	espaldas	-0.08704861
-3.289732	espanol	-0.2774551
-4.43586	espanol'	-0.08712988
-3.356679	espanola	-0.1159898
-3.958739	espanolas	-0.07877734
-3.321917	espanoles	-0.110854
-4.43586	espanolidad	-0.09308618
-4.43586	espanolistas	-0.09591453
-3.23174	especial	-0.1219022
-4.13483	especiales	-0.09228384
-4.43586	especializados	-0.08712988
-4.13483	espectacular	-0.06186723
-4.43586	espectaculo#ApoderadosCs	-0.08802287
-3.394468	espera	-0.1495349
-4.13483	esperaba	-0.09567554
-4.43586	esperabamos	-0.09585081
-4.43586	esperances	-0.0913835
-3.958739	esperando	-0.08555048
-4.13483	esperanza	-0.06186723
-4.43586	esperapor	-0.09417495
-3.958739	esperar	-0.2038194
-4.43586	esperas	-0.09612153
-3.73689	espero	-0.241368
-3.958739	espiando	-0.4098194
-4.13483	espiritu	-0.2837512
-4.43586	esquerresxlaind	-0.06771906
-4.43586	esquinas	-0.07872762
-2.597011	esta	-0.1577794
-4.43586	estaba	-0.08712988
-4.43586	estaban	-0.09612153
-4.13483	estado	-0.2837512
-3.73689	estais	-0.08695104
-3.259769	estamos	-0.1624542
-3.093438	estan	-0.1161591
-3.481618	estar	-0.1588392
-3.958739	estara	-0.09605785
-4.13483	estaran	-0.096026
-4.43586	estaremos	-0.09562774
-3.055649	estas	-0.4991359
-2.792408	este	-0.28073
-4.43586	estelada	-0.08639788
-4.43586	esteladas	-0.06771906
-4.43586	estem	-0.09396701
-4.13483	esten	-0.09106148
-4.43586	estetica	-0.09436681
-3.13483	esto	-0.1406825
-3.657709	estos	-0.153607
-3.321917	estoy	-0.04738212
-4.43586	estrategia	-0.08802287
-4.43586	estuve	-0.08712988
-4.43586	et	-0.09612153
-4.43586	etarras	-0.07995211
-4.13483	europea	-0.06688546
-4.43586	europeas	-0.09599416
-3.8338	europeo	-0.09454261
-4.43586	europeos	-0.06771906
-4.43586	everywhere	-0.09612153
-4.43586	evidencia	-0.08802287
-4.43586	evidencian	-0.09503763
-4.13483	evidente	-0.2899527
-4.43586	evidentemente	-0.09612153
-4.13483	evolucion	-0.07695094
-4.43586	evolucionado	-0.0881526
-4.43586	exactamente	-0.09594638
-4.43586	excepcional	-0.09612153
-4.43586	excesivamente	-0.09612153
-4.43586	excitado	-0.09481414
-4.43586	exclusion	-0.09607378
-4.43586	exemple	-0.07995211
-4.43586	exigencia	-0.08712988
-4.43586	exigirse	-0.09428688
-4.43586	exiliarme	-0.09612153
-4.13483	existe	-0.04910631
-4.43586	existen	-0.08802287
-4.43586	existia	-0.08802287
-4.43586	existiera	-0.09607378
-3.73689	exito	-0.1315608
-4.43586	expectacion	-0.09585081
-4.43586	expectante	-0.08639788
-4.43586	expectantes	-0.08704861
-4.43586	expertos	-0.07872762
-3.958739	explica	-0.09446271
-4.43586	explicaba	-0.0861536
-4.43586	explicaciones	-0.07995211
-4.43586	explican	-0.09123863
-4.43586	explicara	-0.07872762
-4.43586	explicarme	-0.09588267
-4.43586	expliquenme	-0.0861536
-4.43586	expresa	-0.08639788
-4.43586	expresado	-0.09417495
-4.13483	expresion	-0.0882985
-4.43586	exprimiendonos	-0.06771906
-4.13483	expulsado	-0.09180174
-4.43586	extradicion	-0.09313427
-4.43586	extranjera	-0.06771906
-4.43586	extranjero	-0.09612153
-4.43586	extranos	-0.09596231
-4.43586	extraordinarios	-0.07872762
-3.8338	extrema	-0.3088904
-4.43586	extremenos	-0.0861536
-4.43586	exvotantes	-0.07995211
-4.43586	fa	-0.0960897
-4.13483	fachas	-0.09106148
-4.43586	facilitar	-0.09308618
-4.43586	factura	-0.08802287
-4.13483	fallado	-0.08406352
-4.43586	fallos	-0.09313427
-4.43586	falsos	-0.0958986
-3.958739	falta	-0.08439077
-4.43586	faltado	-0.09610561
-4.43586	faltan	-0.09123863
-4.43586	faltando	-0.09604193
-4.43586	falto	-0.09470235
-3.8338	familia	-0.1684825
-4.43586	familias	-0.09610561
-4.43586	famosa	-0.09530886
-3.958739	fan	-0.05873803
-4.43586	fans	-0.08831472
-4.43586	fascina	-0.09508551
-4.43586	fascista	-0.08712988
-4.43586	fascistas	-0.09508551
-4.43586	fase	-0.09581895
-4.43586	fatal	-0.08831472
-3.481618	favor	-0.1453463
-4.43586	favorece	-0.08704861
-4.43586	favorita	-0.09324646
-4.43586	fcoclemente	-0.09542049
-4.43586	fecha	-0.09604193
-4.43586	federal	-0.09527696
-4.43586	fejalex	-0.09550022
-4.13483	felicidad	-0.09446269
-3.958739	felicita	-0.402725
-4.43586	felicitarte	-0.09542049
-4.13483	feliz	-0.09311823
-4.43586	felpudo	-0.0960897
-4.13483	feminista	-0.09564366
-4.43586	fenomenal	-0.09585081
-4.43586	feo	-0.09612153
-4.43586	feria	-0.09516529
-4.43586	festejando	-0.09599416
-4.43586	festivo	-0.0881526
-4.43586	feudalismo	-0.09612153
-4.43586	feudo	-0.09324646
-4.43586	feudos	-0.08802287
-4.13483	fiesta	-0.07980336
-4.43586	fiestorro	-0.07872762
-4.43586	fijemos	-0.08712988
