
\data\
ngram 1=5676
ngram 2=18267
ngram 3=1540
ngram 4=732
ngram 5=423
ngram 6=292

\1-grams:
-4.464042	#25STV3	-0.05995277
-4.464042	#25STv3	-0.08563374
-3.861982	#272S2015	-0.05895241
-1.465783	#27S	-0.4313727
-2.861982	#27S2015	-0.4504073
-4.464042	#27SCamp	-0.08651488
-3.986921	#27SCatRadio	-0.05984173
-4.464042	#27SEspanaIndivisible	-0.07141024
-4.464042	#27SMi	-0.08651488
-2.756472	#27STV3	-0.5370802
-4.464042	#27STVE	-0.05995277
-4.163012	#27Sen	-0.2577784
-4.163012	#27SenCuatro	-0.08647014
-3.685891	#27Srac1	-0.09290303
-2.459721	#27s	-0.3265909
-4.163012	#27s2015	-0.0583479
-4.163012	#27s8aldia	-0.0850054
-4.464042	#27sARV	-0.05995277
-3.560952	#27sTVE	-0.2710252
-3.861982	#27srac1	-0.06245155
-3.986921	#27stv3	-0.08493052
-3.986921	#28S	-0.1649988
-4.163012	#3%	-0.05993692
-4.464042	#40GlobalShow	-0.05995277
-4.464042	#9N	-0.08651488
-4.464042	#A3F1Japon	-0.08651488
-4.464042	#ARAESLHORA	-0.08621639
-4.464042	#ARRIMADAS	-0.08593263
-4.464042	#Aclaracion	-0.08644028
-4.163012	#AdeuEspanya	-0.08624627
-4.464042	#Albiol	-0.08649997
-4.163012	#AlbiolPresident	-0.05993692
-4.464042	#Almeria	-0.05995277
-3.765072	#Amiquemeloexpliquen	-0.6136314
-4.464042	#AnacondaElectoral	-0.08502036
-3.066102	#ApoderadosCs	-0.1779205
-3.685891	#ArturMas	-0.05335244
-4.464042	#Avotar	-0.05995277
-4.464042	#BCN	-0.08168401
-4.464042	#BILDU	-0.08166892
-4.464042	#BORRELL	-0.08651488
-4.464042	#Badalona	-0.07141024
-3.685891	#Barcelona	-0.06611039
-4.464042	#BonDia	-0.05995277
-4.464042	#BuenoDias	-0.08651488
-3.861982	#CATALUNA	-0.08569354
-4.464042	#CATALUNAESESPANA	-0.08651488
-4.464042	#CATALUNYA	-0.08636566
-3.317914	#CATNaranja	-0.4912695
-3.5098	#CUP	-0.0491615
-4.464042	#CachitosItalia	-0.08651488
-4.163012	#CambioSensato	-0.05036305
-4.163012	#CasaBatllo	-0.05050896
-4.163012	#Cat	-0.2312461
-3.618944	#CatParlaCtxt	-0.3731383
-3.5098	#CatSiQueEsPot27S	-0.5106329
-3.861982	#CatalanYEspanol	-0.1397861
-4.464042	#CatalanYEspaol	-0.08649997
-4.464042	#Catalogne	-0.05995277
-3.861982	#Catalonia	-0.05834789
-3.986921	#CataloniaVotes	-0.1662856
-4.464042	#CataluNa	-0.08636566
-2.534623	#Cataluna	-0.170686
-4.163012	#CatalunaDecide	-0.08642538
-3.20877	#CatalunaEsEspana	-0.3381902
-4.464042	#CatalunaEsNaranja	-0.05995277
-4.464042	#Catalunaantes	-0.07804807
-4.464042	#CatalunaesEspana	-0.08419617
-2.958892	#Catalunya	-0.5582001
-4.464042	#Catalunya2015	-0.05995277
-4.464042	#CatalunyaFree	-0.05995277
-4.163012	#CatalunyaSiQueEsPot	-0.07775894
-4.464042	#CatalunyaesEspana	-0.07141024
-4.464042	#Catalunyaisdifferent	-0.05995277
-3.685891	#Ciudadanos	-0.02994649
-4.464042	#Ciutadans	-0.05995277
-4.163012	#Ciutadans25	-0.05979415
-4.464042	#Cornella	-0.0780785
-4.464042	#Cs	-0.08636566
-4.464042	#Cs25	-0.05995277
-4.464042	#Cunadismo	-0.08651488
-4.464042	#Dali	-0.08557393
-4.464042	#DemocraciaDirecta	-0.08641043
-4.464042	#DerogacionLeyElectoral	-0.077972
-4.464042	#DiaInteresante	-0.08651488
-4.464042	#Drama	-0.08649997
-4.464042	#ESPANA	-0.08609693
-4.464042	#ESPANAunida	-0.08651488
-4.464042	#ESPNaranja	-0.05995277
-4.464042	#ElMundoAlReves	-0.07141024
-4.464042	#ElPrat	-0.08641043
-3.618944	#Elecciones	-0.1179543
-3.618944	#Elecciones27S	-0.2490502
-2.700614	#EleccionesCatalanas	-0.6397948
-3.765072	#EleccionesCataluna	-0.1768883
-3.861982	#Eleccionescatalanas	-0.4897261
-3.618944	#Eleccions2015	-0.09089667
-3.464042	#Eleccions27S	-0.4319751
-4.464042	#EleccionsCatalanes	-0.08605213
-4.464042	#EleccionsCatalunya	-0.08651488
-4.464042	#EleccionsParlament	-0.05995277
-4.163012	#ElecionesCatalanas	-0.07134847
-4.464042	#ElectionDay	-0.08647013
-4.464042	#Elpais	-0.08539447
-3.685891	#EnDirecto	-0.08455601
-4.163012	#EncrucijadaCatalana	-0.05988934
-4.464042	#EndavantCiutadans	-0.05995277
-4.464042	#Esoesasi	-0.05995277
-3.141823	#Espana	-0.1582027
-4.464042	#EspanaConCataluna	-0.05995277
-4.464042	#Espanaindivisible	-0.05995277
-4.163012	#Espanya	-0.2312461
-4.464042	#Esperemos	-0.07141024
-4.464042	#Esplugues	-0.08368589
-4.464042	#Estafa	-0.08346058
-4.464042	#EstoEsAsin	-0.07141024
-4.464042	#FB	-0.05995277
-3.986921	#FelizDomingo	-0.4896412
-4.464042	#FormacionNaranja	-0.05995277
-4.464042	#GameOver	-0.07141024
-4.464042	#Gatillazoindependendentista	-0.08635074
-4.163012	#Gava	-0.04386118
-4.464042	#Generalitat	-0.08590275
-4.464042	#Girona	-0.08651488
-4.163012	#Governemnos	-0.2312461
-3.861982	#GuanyemJunts	-0.1367801
-4.464042	#HEMEROTECA	-0.05995277
-4.163012	#ICV	-0.08639553
-4.464042	#Iceta27	-0.08639551
-3.5098	#Iceta27S	-0.1602156
-4.464042	#IcetaLoPeta	-0.05995277
-3.861982	#Independencia	-0.06865183
-4.464042	#IndependientementeDemente	-0.05995277
-3.765072	#InesPresidenta	-0.10999
-4.464042	#Ironia	-0.05995277
-4.464042	#IroniaPura	-0.05995277
-4.464042	#JaHeVotat	-0.08651488
-4.464042	#Junqueras	-0.08554403
-4.464042	#JuntosPodemos	-0.08651488
-4.464042	#JuntosSomosMas	-0.05995277
-4.464042	#JuntsGuanyem	-0.08641043
-3.986921	#JuntsPel3Percent	-0.07281371
-4.163012	#JuntsPelNo	-0.0599052
-3.141823	#JuntsPelSi	-0.1066261
-4.464042	#JuntsiMillor	-0.08651488
-4.163012	#Juntspelsi	-0.08386607
-4.163012	#JxSi	-0.07493343
-4.464042	#Katalonienwahl	-0.05995277
-3.618944	#L6Cat	-0.8444731
-2.782801	#L6cat	-0.726147
-4.464042	#La6Cat	-0.08644028
-3.986921	#La6cat	-0.1663332
-4.464042	#Literatura	-0.08512514
-4.464042	#Llefia	-0.08651488
-4.464042	#Loop	-0.05995277
-4.464042	#LosTeques	-0.08651488
-4.163012	#Madrid	-0.0691335
-4.464042	#Manresa	-0.08605213
-4.464042	#ManresaEspanol	-0.08651488
-4.464042	#MarcaEspana	-0.05995277
-4.464042	#Marketing	-0.05995277
-4.163012	#MarxemQueJaFemTard	-0.08649998
-3.861982	#Mas	-0.03388843
-3.986921	#MejorUnidos	-0.4896412
-4.163012	#Memoria	-0.04386118
-4.464042	#Mexico	-0.05995277
-4.464042	#Miedo	-0.077972
-4.464042	#Naranjitos	-0.06963012
-4.464042	#NoALaIndependencia	-0.08651488
-4.464042	#NoAlFascismo	-0.05995277
-4.464042	#NoEstaMal	-0.08648504
-4.464042	#NoPasaran	-0.08647013
-4.464042	#NohayMiedo	-0.07141024
-4.464042	#NouBarris	-0.07141024
-4.464042	#NouPais	-0.08651488
-4.163012	#NuevaCatTodos	-0.0590001
-4.464042	#PODEMOS	-0.08353569
-3.618944	#PP	-0.09907639
-4.464042	#PPSOE	-0.08651488
-4.464042	#PPSOE&ampCo	-0.07141024
-4.163012	#PSC	-0.08593265
-4.464042	#PSOE	-0.07751528
-4.464042	#Parlamentarias2015	-0.05995277
-4.464042	#Participacion	-0.0864552
-4.464042	#PeriodismoTerrorismo	-0.05995277
-4.163012	#PlantemCara	-0.06265651
-3.560952	#PlantemosCara	-0.3196657
-4.464042	#Podemos	-0.08168401
-4.464042	#PorLaUnidadDeEspana	-0.08641043
-4.464042	#Porlaunion	-0.08651488
-4.464042	#PostParty	-0.07141024
-4.464042	#President	-0.05995277
-4.464042	#Prou	-0.05995277
-3.861982	#PublicoCAT27S	-0.3205275
-4.464042	#Pujol	-0.08649997
-4.464042	#QueCrisis	-0.05995277
-4.464042	#Quedaos	-0.08651488
-4.464042	#RIVERA	-0.05995277
-4.464042	#RNE	-0.08651488
-4.464042	#RTVE	-0.0787777
-4.464042	#Rajoyquemevoy	-0.05995277
-4.464042	#Recuento	-0.05995277
-4.464042	#Regimen78	-0.0787777
-4.464042	#RepublicaCatalana	-0.05995277
-4.464042	#Respect	-0.08635074
-4.464042	#RubiCity	-0.08632089
-4.464042	#SOLANA	-0.08651488
-4.464042	#Sants	-0.08651488
-4.163012	#Seny	-0.07139481
-4.464042	#Separatismo	-0.08647013
-4.464042	#SiSI	-0.08651488
-3.986921	#SinMiedo	-0.05992105
-4.464042	#SomLaHistoria	-0.07141024
-4.163012	#TV3	-0.08463095
-4.163012	#TVE	-0.2577784
-4.464042	#TuConoEsMiDroga	-0.05995277
-4.464042	#Turen	-0.08651488
-4.464042	#UDC	-0.08647013
-4.464042	#UE	-0.07141024
-4.464042	#UnSinVivir	-0.08648504
-4.464042	#VIVAESPANA	-0.05995277
-4.464042	#Viladecans	-0.08638059
-4.464042	#Vilafranca	-0.07141024
-3.986921	#VivaEspana	-0.1502575
-4.464042	#Vota	-0.08651488
-4.464042	#VotaIceta	-0.08649997
-4.163012	#VotaSocialista	-0.0599052
-4.464042	#Votonaranja	-0.05995277
-4.464042	#YLaEuropea	-0.05995277
-4.464042	#YoQuieroACatalunaEnEspana	-0.077972
-4.464042	#YoVotoaInes27S	-0.077972
-4.464042	#aCambioDeQue	-0.07141024
-4.464042	#acagaralavia	-0.08593263
-4.464042	#actualidad	-0.05995277
-4.464042	#ajoyagua	-0.08626118
-4.163012	#albiol	-0.08328026
-4.464042	#analistasBez	-0.05995277
-3.861982	#apoderadosCs	-0.1367324
-4.464042	#apoderadosPP	-0.08649997
-4.163012	#apoderadoscs	-0.05992106
-4.464042	#arrimadesAlLogopeda	-0.08647013
-4.464042	#arvcataluna	-0.05995277
-4.464042	#asisi	-0.05995277
-4.464042	#avotar	-0.08502036
-4.464042	#banquillo	-0.05995277
-4.464042	#bigben	-0.08649997
-4.464042	#bloodmoon	-0.07141024
-4.464042	#broma	-0.08642536
-4.464042	#cadiz	-0.08649997
-4.163012	#cambiosensato	-0.08418119
-4.464042	#catalanes	-0.08651488
-4.464042	#catalanyespanol	-0.08502036
-4.163012	#catalonia	-0.08649998
-3.861982	#cataluna	-0.06944396
-4.464042	#catalunaciudadana	-0.08606707
-3.986921	#catalunaesespana	-0.1653328
-3.861982	#catalunya	-0.121084
-4.464042	#catnaranja	-0.08353569
-3.986921	#catparlaCtxt	-0.1663332
-4.163012	#catparlactxt	-0.2312461
-3.861982	#ciutadans	-0.121084
-4.464042	#contigomismo	-0.08647013
-4.464042	#corralito	-0.05995277
-4.464042	#corrupcion	-0.07141024
-4.464042	#dato	-0.07141024
-4.464042	#decadencia	-0.07141024
-3.765072	#democracia	-0.1114828
-4.464042	#descanso	-0.077972
-4.464042	#deunido	-0.05995277
-3.986921	#directoGarcia	-0.5159346
-4.464042	#dretadecidir	-0.07141024
-4.464042	#eclipse	-0.08651488
-3.384861	#elecccionescatalanas	-0.5544871
-4.163012	#eleccio2016	-0.07791115
-3.765072	#elecciones	-0.04203033
-4.464042	#elecciones2015	-0.05995277
-3.765072	#elecciones27S	-0.247651
-3.560952	#eleccionesA3	-0.630621
-4.464042	#eleccionescatalana	-0.08597745
-1.709694	#eleccionescatalanas	-0.7592027
-4.464042	#eleccionescatalanes	-0.05995277
-3.861982	#eleccionscatalanes	-0.33627
-4.464042	#elvotdelatevavida	-0.08621639
-4.464042	#espana	-0.05995277
-4.464042	#espanoles	-0.07765235
-4.464042	#estudio	-0.08651488
-4.464042	#exito	-0.06963012
-4.464042	#fanatico	-0.05995277
-4.464042	#fascista	-0.08651488
-4.163012	#fb	-0.2312461
-4.464042	#felizdomingo	-0.05995277
-4.163012	#flipo	-0.05919081
-4.464042	#fotemelcamp	-0.08502036
-4.464042	#guanyemjunts	-0.05995277
-4.464042	#gudarieguna	-0.08649997
-4.464042	#habraqueesperar	-0.08651488
-4.464042	#historia	-0.05995277
-4.464042	#homeporfavor#Espana	-0.05995277
-4.464042	#icontinuaranroban	-0.05995277
-4.464042	#independence	-0.07141024
-3.685891	#independencia	-0.1474504
-4.464042	#independenciacatalana	-0.08419617
-4.464042	#independenciacataluna	-0.08651488
-4.464042	#independenciacatalunya	-0.08649997
-4.464042	#indepes	-0.05995277
-4.464042	#inespresidenta	-0.05995277
-4.464042	#israelitas	-0.08651488
-4.464042	#juntFeimMenysVots	-0.08597745
-4.464042	#juntshuhemaconseguit	-0.08651488
-4.163012	#juntspelsi	-0.06984724
-3.861982	#l6cat	-0.3365874
-4.464042	#la6cat	-0.05995277
-4.464042	#limpiandomicasacatalana	-0.05995277
-4.464042	#llobregatpower	-0.05995277
-4.464042	#loexplicatodo	-0.077972
-4.464042	#maalouf	-0.07141024
-4.464042	#mayoriaporelNO	-0.05995277
-4.464042	#medios	-0.05995277
-4.464042	#minoentender	-0.077972
-4.163012	#mitjacatalunya	-0.2312461
-4.464042	#molinsderei	-0.08502036
-4.464042	#nuevasmatematicas	-0.07141024
-4.464042	#oCUPemLesUrnes	-0.05995277
-4.464042	#ojito	-0.07141024
-4.464042	#oletu	-0.07141024
-4.464042	#ondacero27S	-0.05995277
-4.464042	#palomitasyaesperar	-0.08649997
-4.464042	#parlament	-0.08644028
-4.163012	#participacion	-0.08603721
-4.464042	#periodigno	-0.07141024
-4.464042	#pinchazo	-0.05995277
-4.163012	#politica	-0.2312461
-4.163012	#pp	-0.06959911
-4.464042	#pregunto	-0.07141024
-3.560952	#prensadigital	-0.9531072
-4.464042	#psc	-0.05995277
-4.464042	#quelentosiyo	-0.07141024
-4.464042	#quenaaprenguin	-0.05995277
-4.464042	#radiotiana	-0.077972
-4.464042	#raro	-0.05995277
-4.464042	#regeneracion	-0.05995277
-4.464042	#resultadoselecciones	-0.05995277
-4.464042	#sensatez	-0.08651488
-4.464042	#sindentidopolitico	-0.08651488
-4.464042	#sinsorpresas	-0.08651488
-3.20877	#somriureCUP	-0.696184
-4.464042	#supermotivado	-0.07141024
-4.464042	#tantopana	-0.07141024
-4.163012	#tatarlak	-0.05961958
-4.464042	#timestamp	-0.05995277
-4.464042	#titular	-0.05995277
-4.464042	#todosoniguales	-0.077972
-4.464042	#tristepais	-0.05995277
-4.464042	#tv3	-0.08641043
-4.464042	#unidosganamos	-0.05995277
-4.464042	#vascos	-0.08648504
-4.464042	#viladecans	-0.08168401
-4.464042	#vota	-0.08651488
-4.464042	#votaNo	-0.08651488
-4.464042	#votaaar	-0.08648504
-4.464042	#votaiceta	-0.08651488
-4.464042	#votapsc	-0.05995277
-4.464042	#votarnaranjaesvotarazul	-0.07141024
-4.464042	#vote	-0.08651488
-4.464042	#ymanana28S	-0.05995277
-4.464042	#yonodigonada	-0.05995277
-3.765072	%	-0.09809353
-4.163012	%votos	-0.07131756
-4.464042	&gt	-0.05995277
-4.464042	'#eleccionescatalanas	-0.05995277
-4.464042	'Catalunya	-0.08557393
-4.464042	'Los	-0.08579815
-4.464042	'No'	-0.0780785
-3.986921	'Si'	-0.5158003
-4.464042	'Si'''	-0.08651488
-4.464042	'empaitada	-0.08651488
-4.464042	'frikindepes'	-0.08502036
-4.464042	'la	-0.08649997
-4.464042	'lastre'	-0.08641043
-4.464042	'no	-0.08651488
-4.464042	'president'	-0.08323514
-4.464042	'que	-0.08651488
-4.464042	'separatistas	-0.08651488
-4.464042	'sobran'	-0.08648504
-4.464042	'unionista'	-0.08651488
-4.464042	--Catalan	-0.08632089
-3.986921	0	-0.1886683
-4.464042	0'11%	-0.08472084
-4.464042	001%	-0.08472084
-4.464042	002%	-0.07141024
-4.464042	005%	-0.08472084
-4.464042	011%	-0.08611187
-3.861982	016%	-0.3462034
-4.464042	029%	-0.08472084
-4.163012	047%	-0.06953706
-4.464042	069%	-0.08472084
-4.464042	0910	-0.08353569
-4.464042	0950	-0.08647013
-3.141823	1	-0.1091086
-4.464042	1%	-0.08346058
-2.534623	10	-0.5767238
-3.685891	10%	-0.2896757
-3.986921	100	-0.1904275
-4.163012	100%	-0.2409235
-3.986921	100000	-0.0829043
-4.464042	1000000	-0.08649997
-4.464042	1006122	-0.08579815
-4.464042	100pm	-0.08651488
-4.464042	101	-0.08407616
-4.464042	1012	-0.08639551
-4.464042	102	-0.0780785
-4.464042	108	-0.08651488
-4.464042	10CUP	-0.08525983
-2.739766	11	-0.4441635
-3.986921	11%	-0.1896014
-4.464042	1113	-0.08626118
-4.464042	1114902	-0.07765235
-4.464042	1142%	-0.08651488
-4.464042	119%	-0.08472084
-4.464042	11CSP	-0.08651488
-3.560952	12	-0.05478329
-4.464042	12%	-0.08168401
-4.464042	1214	-0.08407616
-4.464042	126435	-0.08648504
-4.464042	1281%	-0.08644028
-3.560952	13	-0.100482
-4.464042	1300	-0.07551529
-4.464042	13000	-0.08473582
-4.163012	1300h	-0.08649998
-4.464042	131%	-0.08373094
-4.464042	1317h	-0.07804807
-4.464042	1330h	-0.08647013
-4.464042	1335%	-0.08506527
-3.765072	135	-0.1290379
-4.464042	13H	-0.08557393
-4.163012	13TV	-0.07650882
-4.163012	13h	-0.08322012
-3.765072	14	-0.07418196
-4.163012	14%	-0.07801767
-4.464042	140707	-0.08473582
-4.464042	1426%	-0.08472084
-4.464042	1434905	-0.08473582
-4.464042	14h	-0.08641043
-3.861982	15	-0.2552045
-4.163012	15%	-0.2560142
-4.464042	150000	-0.08473582
-4.163012	155	-0.06025403
-3.185289	16	-0.2065963
-4.163012	1617	-0.08485566
-4.464042	164247	-0.08636566
-3.001644	17	-0.5725343
-4.464042	17'3%	-0.08472084
-4.163012	1716%	-0.05389963
-4.464042	178%	-0.06963012
-4.464042	1788%	-0.08521494
-4.464042	1792%	-0.08644028
-4.464042	17PP	-0.08651488
-3.42265	18	-0.3539269
-3.986921	1800	-0.0861716
-4.464042	1812	-0.0787777
-4.464042	1850	-0.0861716
-4.464042	1861103	-0.08473582
-4.464042	1861753	-0.08651488
-4.163012	18h	-0.08413619
-3.560952	19	-0.1891241
-4.464042	1917	-0.08647013
-4.464042	1921	-0.08642536
-4.464042	1932	-0.07141024
-4.464042	1945	-0.08647013
-4.464042	195533	-0.08579815
-4.464042	1975	-0.08632089
-4.464042	19752015	-0.07141024
-4.163012	1977	-0.08649998
-4.163012	1980	-0.07055981
-4.464042	1982	-0.08651488
-4.163012	1984	-0.07763714
-4.464042	1996	-0.08651488
-4.464042	1998	-0.07551529
-4.464042	1Batacazo	-0.08346058
-4.464042	1Cup	-0.08651488
-4.163012	1Se	-0.08508025
-4.163012	1a	-0.08346059
-4.464042	1as	-0.08649997
-4.464042	1de	-0.07551529
-4.464042	1er	-0.08644028
-4.464042	1lider	-0.07765235
-4.163012	1r	-0.08632091
-4.464042	1x1	-0.08644028
-3.066102	2	-0.0973108
-3.861982	20	-0.152618
-3.685891	20%	-0.2296144
-4.464042	2000	-0.0787777
-4.464042	2000000	-0.08636566
-4.464042	2002	-0.08585793
-4.464042	2005h	-0.07751528
-4.464042	2006	-0.08618653
-3.765072	2010	-0.08543935
-4.163012	2011	-0.08644029
-2.685891	2012	-0.1835227
-4.464042	201274	-0.08407616
-4.464042	2012CiU	-0.08641043
-4.464042	2012Nunca	-0.08641043
-3.185289	2015	-0.08741663
-4.464042	2015Junts	-0.08620146
-4.163012	2030	-0.08528977
-4.464042	2046	-0.07804807
-3.986921	2050%	-0.1893909
-4.464042	20H	-0.07141024
-4.163012	20h	-0.08645522
-4.464042	20m	-0.08502036
-4.464042	20m#27Sen	-0.08648504
-4.163012	21	-0.0754694
-4.464042	2111	-0.0787777
-3.986921	22	-0.1764451
-4.464042	22%	-0.08472084
-4.163012	2230	-0.0755
-4.464042	2230h	-0.07141024
-4.464042	2233h	-0.08587287
-3.42265	23	-0.7533614
-3.618944	24	-0.4892382
-4.464042	240	-0.08651488
-4.464042	2417%	-0.08563374
-4.464042	24948748	-0.08648504
-3.765072	24htve	-0.1306372
-2.739766	25	-0.6995108
-4.163012	25%	-0.2409235
-4.464042	25C's	-0.08644028
-4.464042	25PSC	-0.08651488
-4.163012	26	-0.08315999
-4.464042	26%	-0.06963012
-4.464042	2633	-0.08651488
-4.464042	2697	-0.08633582
-4.163012	27	-0.2577635
-4.464042	27%	-0.08632089
-4.163012	271%	-0.08191026
-3.618944	27S	-0.05764688
-4.464042	27s	-0.08641043
-4.464042	28	-0.08647013
-4.464042	282	-0.08472084
-4.163012	2827%	-0.08243769
-4.464042	283%	-0.08651488
-4.464042	2832	-0.0864552
-4.464042	29	-0.08647013
-4.464042	2943	-0.07751528
-3.861982	2943%	-0.1390286
-4.464042	2El	-0.08642536
-4.464042	2Jxsi	-0.08651488
-3.618944	2a	-0.3998961
-4.464042	2del	-0.08651488
-4.464042	2horas	-0.08323514
-3.102314	3	-0.1887794
-3.233593	3%	-0.1364246
-4.464042	3%#27S	-0.05995277
-4.464042	3%q	-0.08455601
-3.986921	30	-0.08615667
-4.464042	30%	-0.08346058
-4.163012	300000	-0.08452605
-4.464042	31	-0.08644028
-4.464042	31%	-0.06963012
-4.464042	3100	-0.08651488
-3.986921	32%	-0.08112545
-4.464042	324cat	-0.07141024
-4.163012	326%	-0.2560142
-4.163012	3261%	-0.08237745
-4.464042	33anos	-0.06963012
-4.163012	34	-0.2577486
-4.464042	3400	-0.08651488
-4.163012	344000	-0.2577933
-4.464042	3454%	-0.08633582
-4.464042	3474%	-0.08651488
-4.163012	3478%	-0.07788071
-4.464042	3486%	-0.06963012
-3.986921	35	-0.1925829
-3.986921	35%	-0.06735958
-4.163012	3500%	-0.05955609
-4.464042	35000	-0.08473582
-4.464042	3507%	-0.08651488
-4.464042	351%	-0.0780785
-4.464042	3512%	-0.07751528
-4.464042	357mill	-0.08649997
-4.163012	36	-0.07870177
-4.464042	36%	-0.08472084
-4.163012	36'53%	-0.0769361
-4.464042	365	-0.08611187
-4.163012	365%	-0.2560142
-4.464042	3653%	-0.06963012
-3.986921	39%	-0.06809181
-4.464042	39'38%	-0.08615667
-4.464042	391%	-0.06963012
-4.464042	3915%	-0.08590275
-4.464042	3942%	-0.08582804
-4.464042	3955%	-0.08651488
-4.464042	3959%	-0.08644028
-4.464042	396%	-0.06963012
-3.986921	3969%	-0.1759334
-4.464042	397%	-0.08472084
-4.464042	3Csqsp	-0.08651488
-4.464042	3Del	-0.08651488
-4.464042	3X100se	-0.08647013
-4.464042	3a	-0.08605213
-4.464042	3gerardpique	-0.08651488
-3.233593	4	-0.3463946
-4.464042	40	-0.08648504
-3.861982	40%	-0.05952433
-4.464042	40%escrutado	-0.05995277
-4.464042	40GlobalShow	-0.08400113
-4.464042	4203%	-0.08579815
-3.986921	43%	-0.1760109
-4.464042	438%	-0.08472084
-3.861982	4385%	-0.1588643
-3.986921	44%	-0.06757782
-4.464042	44'41%	-0.077972
-4.464042	4441%	-0.08648504
-4.464042	4442%	-0.08624625
-4.163012	45%	-0.07566831
-4.464042	452%	-0.08472084
-4.464042	46	-0.08651488
-4.464042	46%	-0.0864552
-3.861982	47	-0.1513609
-3.42265	47%	-0.1622717
-4.464042	47'36%	-0.08346058
-4.464042	47'49%	-0.06963012
-4.163012	4718%	-0.2492654
-4.464042	4728%	-0.07141024
-3.986921	473%	-0.1919553
-4.464042	4736%	-0.08639551
-4.464042	4737%	-0.08636566
-4.464042	4739%	-0.08346058
-4.464042	475%	-0.08639551
-4.464042	4752	-0.0864552
-4.464042	4766%	-0.08641043
-4.464042	4775	-0.08649997
-4.464042	4778%	-0.08557393
-4.464042	478%	-0.08400113
-4.464042	4788	-0.08649997
-4.163012	479%	-0.2577038
-4.464042	4796%	-0.06963012
-4.163012	48	-0.08424118
-3.42265	48%	-0.3897576
-4.464042	48'27%	-0.07141024
-4.464042	4807%	-0.08560383
-4.464042	4827%	-0.06963012
-4.464042	49'05%	-0.08346058
-4.163012	49'8%	-0.06776481
-4.464042	491%	-0.08651488
-4.464042	4956	-0.08605213
-4.464042	498%	-0.06963012
-4.464042	4986	-0.08651488
-4.464042	4Psc	-0.08651488
-4.464042	4a	-0.08651488
-3.185289	5	-0.2221055
-3.861982	5%	-0.1357469
-3.986921	50	-0.08575332
-3.016884	50%	-0.3436792
-4.464042	50'95%	-0.08346058
-4.464042	500	-0.08636566
-4.464042	502%	-0.06963012
-4.464042	514	-0.08618653
-4.464042	5173%	-0.07141024
-4.464042	5187%	-0.06963012
-3.986921	52	-0.0712712
-3.384861	52%	-0.2186329
-4.464042	52%Recuerda	-0.08587287
-4.464042	5208%	-0.06963012
-4.464042	521%	-0.08472084
-3.765072	5214%	-0.273189
-4.464042	5234%	-0.077972
-4.464042	5245%	-0.08346058
-4.464042	5261%	-0.06963012
-4.464042	5263%	-0.08609693
-4.464042	5263%de	-0.08560383
-4.464042	5264%	-0.08346058
-4.464042	5275%	-0.08168401
-3.618944	53%	-0.2444398
-4.464042	53%Conclusion	-0.07551529
-4.464042	535	-0.08627611
-4.464042	548%	-0.08651488
-4.163012	55	-0.08611189
-3.861982	55%	-0.3597211
-3.986921	5510713	-0.1776366
-4.464042	56%	-0.08472084
-4.464042	563%	-0.08472084
-4.464042	5630	-0.07751528
-4.163012	5630%	-0.07111666
-4.464042	565%	-0.08651488
-4.464042	566	-0.0787777
-4.464042	569	-0.08487062
-4.464042	58%	-0.05995277
-4.464042	5C's	-0.08651488
-4.464042	5a	-0.08651488
-4.464042	5min	-0.08400113
-3.986921	6	-0.08331031
-4.464042	6%	-0.08472084
-3.560952	60%	-0.1834626
-4.464042	6008%	-0.08472084
-4.464042	604%	-0.06963012
-2.861982	62	-0.3860919
-4.464042	6210	-0.08633582
-4.464042	62Cs	-0.08651488
-2.972681	63	-0.3736224
-3.765072	63%	-0.07835224
-4.464042	6313	-0.0864552
-4.163012	6314%	-0.0850054
-4.464042	6319%	-0.07751528
-4.163012	6320%	-0.05960371
-4.464042	6362	-0.07141024
-3.986921	6366	-0.08386606
-4.464042	637%	-0.08472084
-3.618944	64	-0.2117027
-4.464042	65%	-0.08648504
-4.464042	659	-0.0787777
-3.861982	66	-0.1611368
-3.861982	67%	-0.3585766
-4.464042	673%	-0.08472084
-4.464042	6731%	-0.08472084
-3.861982	68	-0.04113686
-4.464042	684	-0.08627611
-4.464042	689	-0.08487062
-4.464042	69	-0.08407616
-4.464042	6PP	-0.08651488
-3.560952	7	-0.102835
-3.986921	7%	-0.1911172
-4.464042	70	-0.08373094
-3.861982	70%	-0.1418937
-4.464042	70'80%	-0.08594757
-4.464042	7000	-0.08473582
-3.986921	700000	-0.5154866
-4.464042	707%	-0.08472084
-3.464042	71	-0.3064421
-4.464042	71%	-0.08649997
-3.350099	72	-0.3207048
-4.464042	72%	-0.06963012
-3.464042	73	-0.2060759
-3.560952	74	-0.2290764
-3.861982	743%	-0.3612224
-4.163012	7479	-0.08400115
-4.464042	75%	-0.08502036
-4.163012	76	-0.2553695
-4.464042	76%	-0.06963012
-4.163012	7649%	-0.08163876
-4.464042	765%	-0.08472084
-4.464042	7652%	-0.07141024
-4.464042	7688%	-0.08651488
-4.464042	7695%	-0.08168401
-4.163012	77%	-0.08463095
-4.464042	78	-0.08455601
-4.464042	786%	-0.08472084
-4.464042	7954%	-0.0787777
-4.464042	7M	-0.08353569
-4.464042	7Unio	-0.08649997
-3.42265	8	-0.1109965
-4.464042	8'2%	-0.08346058
-3.685891	80%	-0.1491863
-4.163012	808%	-0.06953706
-4.464042	8083%	-0.08649997
-4.464042	8181	-0.08642536
-4.464042	82%	-0.08564869
-4.163012	8293%	-0.2560142
-4.464042	83	-0.08648504
-4.163012	84%	-0.2409235
-4.464042	844%	-0.05995277
-4.464042	847%	-0.08472084
-4.464042	85%	-0.08472084
-4.464042	86%	-0.08609693
-4.464042	865%	-0.08472084
-4.464042	8653%	-0.08472084
-4.464042	88	-0.08407616
-4.464042	88%	-0.08472084
-4.464042	8826%	-0.06963012
-4.464042	893%	-0.08644028
-2.945528	9	-0.3140745
-4.464042	9#estonoesserio	-0.077972
-4.464042	9'63%	-0.08472084
-4.464042	90	-0.08649997
-4.464042	90%	-0.08500539
-4.464042	90000	-0.08473582
-4.464042	91'74%	-0.08472084
-4.464042	912	-0.08651488
-4.464042	917%	-0.08472084
-4.464042	92%	-0.08472084
-4.464042	9255%	-0.06963012
-4.464042	9343%	-0.08627611
-4.163012	95%	-0.2560142
-4.464042	956%	-0.08472084
-4.464042	9588%	-0.08472084
-4.464042	96%	-0.08472084
-4.464042	962	-0.08605213
-3.861982	963%	-0.1608365
-4.163012	99	-0.08406117
-4.464042	999%	-0.08648504
-4.464042	9Independentistas	-0.08425616
-4.464042	9N	-0.05995277
-1.226498	</s>
-4.464042	<<El	-0.08647013
-4.464042	<<No	-0.08649997
-4.464042	<<esperanzado	-0.08641043
-99	<s>	-0.5388924
-4.4645	<unk>
-2.455442	A	-0.3869113
-4.464042	A3Noticias	-0.08651488
-4.163012	ABC	-0.08623134
-4.464042	ABanos	-0.06963012
-4.464042	ABlancas	-0.08651488
-4.464042	ACABAR	-0.0864552
-4.464042	ACTUALES	-0.08368589
-4.464042	ACTUALIZACION	-0.08566364
-4.464042	AE	-0.05995277
-4.464042	ALBERT	-0.08651488
-4.464042	ALEGRAN	-0.08651488
-4.464042	ANCIANOS	-0.0787777
-4.464042	ANCXile	-0.08651488
-4.464042	AP	-0.08651488
-4.464042	ARRQ7	-0.08353569
-4.464042	ARTUR	-0.08647013
-4.464042	ARTURMASCAT	-0.08539447
-4.464042	ASISTE	-0.08651488
-4.464042	ATENCION	-0.08651488
-4.464042	AUMENTO	-0.08651488
-4.464042	AUTONOMICAS	-0.08648504
-4.163012	AVANCE	-0.07740866
-4.464042	AbeInfanzon	-0.05995277
-4.464042	Abren	-0.08166892
-4.464042	Abrete	-0.08467589
-4.464042	Absoluta	-0.08563374
-4.464042	Abstenerse	-0.08168401
-4.464042	Abucheos	-0.0787777
-4.163012	Acaban	-0.2409235
-3.185289	Acabo	-1.347856
-4.464042	Acaso	-0.08651488
-4.464042	Acertada	-0.08648504
-4.464042	Acertado	-0.08648504
-4.464042	Acompanamos	-0.08651488
-4.464042	Acordaos	-0.06963012
-4.163012	ActualidadRT	-0.2312461
-4.464042	Adelante	-0.08419617
-4.163012	Ademas	-0.05817275
-4.464042	Adeu	-0.08651488
-3.861982	Adios	-0.07795679
-4.464042	Adivina	-0.08623132
-4.464042	Adivine	-0.07751528
-4.464042	Admiro	-0.0780785
-4.464042	Agradece	-0.08473582
-4.464042	Agradecido	-0.0787777
-3.861982	Ah	-0.06468507
-2.919974	Ahora	-0.1473785
-4.464042	Ahora13tveszapeando	-0.08368589
-4.464042	Aire	-0.08651488
-4.464042	Aixi	-0.08168401
-2.756472	Al	-0.1587861
-4.464042	AlRinconA3	-0.08584298
-4.464042	Ala	-0.08560383
-4.464042	Alarmante	-0.07765235
-4.464042	Alba	-0.05995277
-4.464042	AlbaceteBPSAD	-0.08651488
-4.464042	AlbanoDante76	-0.08651488
-3.685891	Albert	-0.4843007
-3.049069	AlbertRivera	-0.1217708
-4.464042	Alberto	-0.08651488
-4.464042	AlbertoBGomez	-0.08649997
-4.464042	AlbertoHLopo	-0.08649997
-3.185289	Albiol	-0.08383846
-2.90774	AlbiolXG	-0.06529793
-4.163012	Ale	-0.07765236
-4.163012	Alea	-0.2577933
-4.464042	Alegrome	-0.08651488
-4.464042	Aleluya	-0.08500539
-4.464042	Alerta	-0.07141024
-4.464042	Alexander	-0.05995277
-4.464042	Alfonso	-0.08651488
-4.163012	Algo	-0.06620423
-4.163012	Algu	-0.08508025
-3.464042	Alguien	-0.2059253
-4.464042	Algun	-0.08627611
-4.464042	Alguna	-0.08647013
-4.163012	Algunas	-0.06961463
-3.765072	Algunos	-0.142184
-4.163012	Alicia	-0.08644029
-3.765072	AliciaSCamacho	-0.08475081
-4.464042	Almasyrunner	-0.08323514
-4.464042	Als	-0.07765235
-4.464042	Alsina	-0.0787777
-4.464042	Alta	-0.08537951
-4.464042	Alto	-0.08651488
-4.163012	Alucinante	-0.08165385
-4.464042	Amanece	-0.07751528
-4.464042	Amanecio	-0.0787777
-4.163012	Ambientazo	-0.2488087
-4.163012	Ambiente	-0.06959911
-4.464042	Amenazas	-0.08651488
-4.464042	America	-0.0787777
-4.464042	Amigo	-0.08626118
-4.464042	Ana	-0.08651488
-4.464042	Anadiria	-0.07765235
-4.163012	Analisis	-0.08343054
-4.464042	Analista	-0.06963012
-4.464042	Analistas	-0.08651488
-4.163012	Anda	-0.2489457
-4.163012	Andalucia	-0.07876253
-4.464042	Andorra	-0.08651488
-4.464042	Andresmourenza	-0.08651488
-4.464042	Android	-0.07751528
-4.464042	Anglada	-0.08635074
-3.861982	Animo	-0.154085
-4.464042	Anna	-0.08651488
-4.464042	Anoeta	-0.08651488
-4.464042	Anos	-0.08647013
-4.464042	Ansioso	-0.08425616
-4.163012	Ante	-0.06681352
-4.163012	Antes	-0.06039665
-4.464042	Antidisturbiosok	-0.08651488
-4.464042	Antiguo	-0.08651488
-4.163012	Antoni	-0.06961463
-3.618944	Antonio	-0.870886
-4.464042	AntonioRNaranjo	-0.08624625
-4.464042	AntonioSaldanaM	-0.08651488
-4.464042	Aparte	-0.06963012
-4.464042	Apertura	-0.06963012
-4.464042	Aplausos	-0.07751528
-4.464042	Aplazarlo	-0.08487062
-3.986921	Apocalipsis	-0.06451246
-4.464042	Apoderada	-0.08651488
-4.464042	Apoderados	-0.08602226
-4.464042	Apoderando	-0.07551529
-4.464042	Apoderats	-0.07765235
-4.464042	Apostando	-0.08425616
-3.986921	Apoyando	-0.5077669
-4.464042	Apoyara	-0.08639551
-4.464042	Aprended	-0.08373094
-4.464042	Aprender	-0.08651488
-4.464042	Apuntes	-0.08635074
-4.464042	Aquesta	-0.08651488
-3.287951	Aqui	-0.07113158
-4.163012	Ara	-0.08350566
-4.464042	Aragon	-0.08323514
-4.464042	Aran	-0.08560383
-4.464042	Arbitro	-0.07551529
-4.464042	Arbrito	-0.07551529
-4.464042	Arcadia	-0.08651488
-4.464042	Area	-0.08651488
-4.464042	Arnaldo	-0.08651488
-4.464042	ArnaldoOtegi	-0.08647013
-4.464042	Arranca	-0.07551529
-4.464042	Arrancarla	-0.08639551
-4.464042	Arriba	-0.08554403
-3.861982	Arrimadas	-0.06928875
-4.464042	Arthur	-0.08373094
-4.464042	Articulo	-0.08615667
-2.403344	Artur	-1.50441
-3.765072	ArturMasCat	-0.05023331
-4.464042	Arturin	-0.07141024
-4.464042	Arturito	-0.07141024
-4.464042	Arturmas	-0.08596251
-3.5098	Arturo	-0.2942629
-4.464042	Arturono	-0.08649997
-4.464042	Asamblea	-0.06963012
-4.464042	Asesor	-0.08506527
-3.259922	Asi	-0.1362118
-4.464042	Asume	-0.08651488
-3.986921	Atencion	-0.1827372
-4.163012	Atento	-0.07517853
-4.464042	Atiende	-0.08642536
-4.464042	Aumenta	-0.08651488
-4.464042	Aumento	-0.06963012
-3.986921	Aun	-0.08111035
-3.384861	Aunque	-0.1698157
-4.163012	Autonoma	-0.06961463
-4.464042	Autonomicas	-0.06963012
-3.861982	Avance	-0.1467462
-4.163012	Aviso	-0.2573903
-3.861982	Ay	-0.1630838
-4.464042	Ayer	-0.08323514
-4.464042	Ayotzinapa	-0.08651488
-4.464042	Ayudando	-0.0780785
-4.464042	Azana	-0.08614174
-4.464042	Aznar	-0.08636566
-4.464042	BADAJOZ	-0.05995277
-4.464042	BAILARINven	-0.08651488
-3.618944	BCN	-0.06088754
-4.464042	BOADELLA	-0.08651488
-4.464042	BRAVO	-0.08425616
-4.464042	BTW	-0.08511017
-4.464042	BUENOS	-0.08651488
-4.464042	BUSCAN	-0.0864552
-3.986921	Badalona	-0.06264073
-4.464042	Badia	-0.08346058
-4.464042	Baja	-0.08621639
-4.464042	Bajada	-0.06963012
-4.464042	Bajo	-0.08597745
-4.464042	Bajona	-0.07751528
-4.464042	Baleares	-0.0787777
-4.464042	Baltica	-0.08651488
-3.986921	Bancos	-0.1679639
-4.464042	Bandas	-0.08651488
-4.464042	Bandera	-0.0787777
-4.464042	Banderas	-0.06963012
-4.464042	Bando	-0.0860372
-3.42265	Banos	-0.06394102
-4.464042	Barbera	-0.08644028
-4.464042	Barbijaputa	-0.08651488
-3.861982	Barca	-0.06618858
-4.464042	Barcelo	-0.0864552
-3.083831	Barcelona	-0.05176263
-4.464042	Barcelones	-0.08623132
-4.464042	Barcenas	-0.05995277
-4.464042	BardisaIsmael	-0.08651488
-4.163012	Basta	-0.0825431
-4.163012	Batacazo	-0.2409235
-4.464042	Batasuna	-0.08651488
-4.464042	BatuecasOficial	-0.08323514
-4.464042	Bdias	-0.08632089
-4.464042	Belen	-0.08651488
-4.464042	Bendita	-0.08651488
-4.464042	Berlustinho	-0.08651488
-4.464042	BertaBarbet	-0.07751528
-4.163012	Bien	-0.07856504
-4.464042	Bienvenido	-0.08649997
-4.163012	Bienvenidos	-0.08587289
-4.464042	Bildu	-0.08651488
-4.464042	BlaiRVS	-0.08630596
-4.464042	Blanco	-0.0787777
-4.464042	Boadilla	-0.08346058
-4.163012	BobEstropajo	-0.2577337
-4.464042	Boi	-0.08651488
-4.464042	Bolano	-0.08651488
-4.464042	Bolivar	-0.06963012
-4.464042	Bolivariano	-0.06963012
-4.464042	Bomba	-0.06963012
-3.986921	Bon	-0.5155762
-4.464042	Bonito	-0.08651488
-4.464042	Boreal	-0.0780785
-3.986921	Born	-0.07745435
-3.986921	Borrell	-0.06205712
-3.685891	Bravo	-0.2462516
-4.464042	Brisas	-0.06963012
-4.464042	BrujaLola	-0.08569353
-3.986921	Bruselas	-0.07707334
-3.986921	Brutal	-0.07600469
-4.464042	Bueeeeno	-0.08644028
-3.765072	Buen	-0.1313341
-3.986921	Buena	-0.0862164
-4.163012	Buenas	-0.08609695
-3.233593	Bueno	-0.1158091
-3.20877	Buenos	-1.278336
-4.464042	Buff	-0.08647013
-4.464042	Burguesia	-0.08641043
-4.464042	Buscando	-0.0787777
-4.464042	Bye	-0.08651488
-4.464042	C	-0.08651488
-3.986921	C'S	-0.1838811
-2.791944	C's	-0.3933493
-4.464042	C's21	-0.08651488
-4.163012	CAMPEONES	-0.08645522
-4.464042	CAP	-0.08611187
-3.685891	CAT	-0.07227444
-3.861982	CATALUNA	-0.1636065
-4.163012	CATSiqueesPot	-0.2565532
-4.163012	CC	-0.08398614
-4.464042	CCAA	-0.08648504
-3.5098	CDC	-0.191467
-4.163012	CDCERC	-0.08641046
-4.464042	CDCUDC	-0.08600733
-4.464042	CDialoga	-0.07751528
-4.464042	CERC	-0.08651488
-4.464042	CHAVALES	-0.08651488
-4.464042	CIA	-0.08651488
-3.765072	CIU	-0.1388358
-4.464042	CIUCDC	-0.08632089
-4.464042	CIUDADANOS	-0.0787777
-3.861982	CIUERC	-0.1631585
-4.163012	CIUTADANS	-0.08647014
-4.464042	CLARA	-0.08647013
-4.464042	COCAINA	-0.08576827
-4.464042	COMO	-0.0864552
-4.464042	CONO	-0.08644028
-4.464042	CONTRA	-0.0864552
-4.464042	CORIA	-0.08323514
-4.464042	CORRIJO	-0.08537951
-4.464042	CSEP	-0.07751528
-4.163012	CSP	-0.08466092
-3.42265	CSQEP	-0.08907633
-3.259922	CSQP	-0.8005356
-2.192201	CUP	-0.247211
-4.464042	CUPArgentona	-0.08590275
-4.464042	CUPBarcelona	-0.08651488
-4.464042	CUPJPS	-0.08649997
-4.464042	CUPstap	-0.08638059
-4.464042	Caaaataaalunaaa	-0.08353569
-4.464042	Cabellero	-0.08651488
-4.464042	Cabeza	-0.06963012
-4.464042	Cabrera	-0.0787777
-3.765072	Cada	-0.1452969
-4.464042	Cae	-0.08353569
-4.464042	Caen	-0.08166892
-4.464042	Cafe	-0.08651488
-4.464042	Caida	-0.06963012
-4.464042	Calculadoras	-0.0787777
-4.464042	Calma	-0.08651488
-4.163012	Camacho	-0.07804809
-4.464042	Cambian	-0.08649997
-4.464042	Cambio	-0.08649997
-4.464042	Cambio16	-0.05995277
-4.464042	Cambo	-0.07751528
-4.163012	Camino	-0.07494876
-4.163012	Campana	-0.08287422
-4.163012	Canada	-0.2312461
-4.464042	Canarias	-0.08648504
-4.464042	Canciones	-0.07765235
-4.464042	CangrejoSur	-0.08605213
-4.163012	Canizares	-0.05993692
-4.464042	Cantar	-0.08353569
-4.464042	Capturando	-0.08630596
-4.464042	CarSiQueesPot	-0.077972
-4.464042	Caradura	-0.0787777
-4.464042	Cardenal	-0.08649997
-4.464042	CarmenSanCarlos	-0.08552907
-4.464042	CarmendMairena	-0.0787777
-4.464042	Carrer	-0.08651488
-4.464042	Cartas	-0.08651488
-3.618944	Casi	-0.113305
-4.464042	Caso	-0.08651488
-4.464042	Castelldefells	-0.08585793
-4.464042	Castilla	-0.07551529
-4.464042	Casualidad	-0.07141024
-3.765072	Cat	-0.1459557
-4.464042	CatSiEsPot	-0.08620146
-4.464042	CatSiQueEsPot	-0.08525983
-4.464042	CatSiQueesPot	-0.08525983
-3.350099	CatSiqueesPot	-0.5955542
-4.464042	Catala	-0.08624625
-3.765072	Catalan	-0.131628
-4.464042	CatalanEspanol	-0.0787777
-4.163012	Catalana	-0.05726404
-3.560952	Catalanes	-0.08524372
-4.464042	Catalans	-0.08651488
-4.464042	Catalinos	-0.08597745
-2.333709	Cataluna	-0.2140819
-4.464042	CatalunaNo	-0.08609693
-2.851258	Catalunya	-0.1022695
-4.464042	CatalunyaEnhorabuena	-0.0780785
-4.163012	CatalunyaIndep	-0.0599052
-4.464042	Cath82	-0.08614174
-4.464042	CatsiqueesPot	-0.08605213
-4.464042	Cautela	-0.07751528
-4.464042	Cazatalentos	-0.08615667
-4.464042	CdC	-0.08600733
-4.464042	Cdialoga	-0.08400113
-4.464042	Cedera	-0.08641043
-4.464042	Celebrando	-0.07804807
-4.464042	Censo	-0.07751528
-4.464042	Centre	-0.08651488
-4.464042	Cerdo	-0.08620146
-4.163012	Cesar	-0.08385106
-4.464042	CesarCalderon	-0.08648504
-4.464042	Channel	-0.08614174
-4.464042	Chantaje	-0.0787777
-4.464042	Chao	-0.08373094
-4.464042	Checoslovaquia	-0.0787777
-4.464042	Chile	-0.08651488
-3.560952	CiU	-0.2321914
-3.5098	CiUERC	-0.1006821
-3.765072	CiUERCCUP	-0.1467779
-3.861982	Cierran	-0.2490066
-3.986921	Cinco	-0.08633582
-4.464042	CincoDiascom	-0.05995277
-4.464042	Cinismo	-0.08649997
-4.464042	CitaconBenejam	-0.07141024
-4.163012	Ciu	-0.2573007
-4.464042	CiuERC	-0.08605213
-4.464042	CiudaDANOS	-0.077972
-4.464042	Ciudad	-0.08651488
-4.464042	Ciudadano	-0.08648504
-4.163012	CiudadanoVille	-0.08624627
-2.945528	Ciudadanos	-0.09727144
-2.270918	CiudadanosCs	-0.1368678
-4.464042	CiudadanosCsCiutadansCs	-0.07765235
-4.464042	Ciudadanoscs	-0.07765235
-4.464042	Ciudadans	-0.08641043
-3.20877	Ciutadans	-0.03838836
-3.42265	CiutadansCs	-0.07582229
-4.464042	Civismo	-0.07141024
-4.464042	Claramente	-0.08627611
-3.861982	Claro	-0.1558663
-4.464042	Clave	-0.08261836
-3.986921	Claves	-0.06646991
-4.464042	Clos	-0.08647013
-4.464042	Cmo	-0.08579815
-4.464042	Cogiendo	-0.0864552
-4.464042	Coinciden	-0.08261836
-4.464042	Coincido	-0.08368589
-4.464042	Coja	-0.08353569
-4.464042	Cola	-0.08400113
-4.464042	Colaborando	-0.08368589
-3.618944	Colas	-0.2055688
-4.464042	Colega	-0.08651488
-4.464042	Colegio	-0.08346058
-4.464042	Colegios	-0.08651488
-3.861982	Coleta	-0.2577486
-4.464042	ColetaMoradaNecesitaReflexionUrgente	-0.077972
-4.464042	Colmenero	-0.08609693
-4.464042	Colombians	-0.08425616
-4.464042	Colon	-0.08649997
-4.464042	Comenzo	-0.07804807
-3.618944	Comienza	-0.2501848
-4.163012	Comienzan	-0.07408986
-4.464042	Comin	-0.08651488
-2.958892	Como	-0.1097663
-4.464042	Comparacion	-0.08168401
-4.464042	Comparando	-0.08407616
-4.464042	Comparar	-0.08166892
-4.464042	Compilado	-0.06963012
-4.464042	Completamente	-0.06963012
-4.464042	Comprendo	-0.07765235
-4.163012	Comunidad	-0.2577933
-2.42265	Con	-0.6054876
-4.464042	Concentracion	-0.07751528
-4.464042	Conclusion	-0.08585793
-4.464042	Conectamos	-0.08368589
-4.464042	Confidencial	-0.05995277
-4.163012	Confio	-0.06844969
-4.163012	Confirmado	-0.07760668
-4.464042	Confluencias	-0.08651488
-4.464042	Consciente	-0.06963012
-4.464042	Consecuencias	-0.06963012
-4.464042	Conseguira	-0.08373094
-4.464042	Consejo	-0.08400113
-3.618944	Constitucion	-0.1759313
-4.464042	Constitucional	-0.08642536
-4.464042	Constituyendo	-0.08639551
-4.464042	Constructivo	-0.08647013
-4.464042	Consulta	-0.08591769
-4.464042	Contencion	-0.07751528
-4.464042	Contento	-0.08425616
-3.986921	Continua	-0.06004792
-4.464042	Continuidad	-0.08594757
-4.464042	Contra	-0.07551529
-3.464042	Convergencia	-0.09649379
-3.618944	ConvergenciaCAT	-0.135829
-4.464042	ConvergenciaERC	-0.08644028
-4.464042	Convergentes	-0.0787777
-4.464042	Copa	-0.06963012
-4.464042	CopeCatalunya	-0.08368589
-4.464042	Cordon	-0.06963012
-4.464042	Corona	-0.06963012
-4.464042	Corpoelec	-0.08552907
-4.464042	Correos	-0.08600733
-4.464042	Corrupcion	-0.08651488
-4.464042	Cortaran	-0.07551529
-4.464042	Cosas	-0.08648504
-4.464042	Costara	-0.08651488
-4.464042	Creeis	-0.07765235
-3.317914	Creo	-1.167214
-4.464042	CristinaGnlz	-0.05995277
-3.259922	Cs	-0.2087488
-4.464042	CsAlaquas	-0.08512514
-4.464042	CsAsturias	-0.08651488
-4.464042	CsCValenciana	-0.08651488
-3.861982	CsExtremadura	-0.136224
-4.464042	CsHospitalet	-0.08563374
-4.464042	CsLeganes	-0.08642536
-4.464042	CsMadrid	-0.08647013
-4.464042	CsMadridCiudad	-0.08647013
-3.986921	CsMelilla	-0.1927321
-4.464042	CsMotril	-0.08620146
-4.464042	CsOviedo	-0.08419617
-3.765072	CsPP	-0.6136314
-4.464042	CsPlasencia	-0.08651488
-4.464042	CsRubi	-0.05995277
-4.464042	CsSantcugat	-0.08647013
-4.163012	CsqP	-0.2565532
-4.464042	Cual	-0.08353569
-4.464042	Cualquier	-0.08651488
-3.42265	Cuando	-0.103634
-4.464042	Cuanta	-0.08651488
-4.163012	Cuantas	-0.08645522
-3.861982	Cuantos	-0.1624856
-4.464042	Cuarto	-0.08651488
-4.464042	Cuatro	-0.08627611
-4.464042	Cucha	-0.08168401
-4.464042	Cuenta	-0.08651488
-4.464042	Cuentas	-0.08651488
-4.464042	Cuentos	-0.08649997
-4.464042	Cuidadin	-0.08400113
-3.986921	Cuidado	-0.08334036
-3.861982	Cup	-0.08448108
-4.464042	Curiosidad	-0.08346058
-4.464042	Curiosidades	-0.06963012
-3.861982	Curioso	-0.1460785
-4.464042	CxS	-0.0787777
-3.986921	D	-0.0437624
-4.464042	D'Ont	-0.08651488
-4.464042	DATOS	-0.08651488
-3.861982	DE	-0.1637259
-4.464042	DEJAME	-0.08651488
-4.464042	DEN	-0.08651488
-4.464042	DIAS	-0.08554403
-4.464042	DIMISION	-0.08651488
-4.464042	DISPARA	-0.08648504
-4.163012	DNI	-0.07119393
-4.464042	DOGMA	-0.07141024
-4.464042	DOS	-0.08407616
-3.765072	Da	-0.1359211
-4.464042	Dad	-0.08638059
-4.464042	Dais	-0.08425616
-4.464042	DaniPintoB	-0.08651488
-4.464042	Danimetalcrew	-0.077972
-4.464042	Dato	-0.08648504
-3.861982	Datos	-0.1456276
-3.861982	David	-0.163696
-4.464042	DavidJimenezTW	-0.07751528
-3.016884	De	-0.2913162
-4.464042	Debajo	-0.08346058
-4.163012	DebatAlRojoVivo	-0.08638061
-4.464042	Debatiendo	-0.08651488
-4.464042	Debe	-0.08647013
-4.464042	Deberia	-0.08591769
-4.464042	Deberiamos	-0.08647013
-4.464042	Debieron	-0.08651488
-4.163012	Decia	-0.08645522
-4.163012	Decian	-0.2489457
-4.464042	Decidiendo	-0.07804807
-4.464042	Decidle	-0.0780785
-4.163012	Decir	-0.2489457
-4.464042	Declaraciones	-0.08614174
-3.861982	Dedicado	-0.3530072
-4.464042	Definitivamente	-0.08261836
-4.464042	Deja	-0.0780785
-4.464042	Dejad	-0.06963012
-4.163012	Dejame	-0.2577635
-4.464042	Dejando	-0.0780785
-4.464042	Dejaos	-0.06963012
-4.464042	Dejar	-0.06963012
-4.163012	Del	-0.08576828
-4.464042	Delirio	-0.08651488
-4.464042	Delsurgr	-0.08614174
-4.464042	Demagogiaok	-0.08651488
-3.986921	Democracia	-0.08647013
-4.464042	Democratica	-0.06963012
-4.464042	Demos	-0.08651488
-4.464042	Demuestra	-0.08168401
-3.986921	Dentro	-0.4993185
-4.464042	Depende	-0.06963012
-4.464042	Derrota	-0.08649997
-4.464042	Desastre	-0.06963012
-3.317914	Desde	-0.09884646
-4.163012	Deseo	-0.07542349
-4.464042	Desobedecemos	-0.0864552
-4.464042	Desplome	-0.08633582
-3.560952	Despues	-0.6371545
-3.560952	Dia	-0.2752118
-4.464042	Diada	-0.08651488
-4.464042	Dialogante	-0.08651488
-4.163012	Diaz	-0.07750007
-4.163012	Dice	-0.0758977
-4.464042	Diciembre	-0.08651488
-4.464042	Dificil	-0.08649997
-4.464042	Digo	-0.08626118
-4.464042	Dios	-0.08611187
-4.163012	Diputados	-0.06338096
-4.464042	Disfrutar	-0.06963012
-4.464042	Disney	-0.08651488
-4.464042	Domingo	-0.06963012
-4.464042	Donde	-0.08539447
-3.986921	Duran	-0.1926575
-4.464042	E	-0.08648504
-4.464042	EHFinSemana	-0.08649997
-4.464042	EL	-0.07141024
-4.464042	ELLOS	-0.077972
-3.986921	EN	-0.08638059
-4.464042	ENHORABUENA	-0.08649997
-4.464042	ENTIENDO	-0.05995277
-2.919974	ERC	-0.1202102
-4.464042	ERCCIU	-0.08638059
-3.765072	ES	-0.1204919
-4.464042	ESCRUTADO	-0.08651488
-4.464042	ESCUCHANDO	-0.08500539
-4.464042	ESP	-0.08614174
-3.685891	ESPANA	-0.08420685
-4.464042	ESPIAN	-0.08455601
-4.464042	ESTA	-0.08648504
-4.464042	ESTAT	-0.06963012
-4.464042	ESTATde	-0.08166892
-4.163012	Ebro	-0.08264849
-4.464042	EfectoCocuyo	-0.05995277
-4.464042	Eing	-0.08651488
-4.464042	EjemSon	-0.08539447
-4.464042	Ekaizer	-0.07751528
-2.81083	El	-0.1162515
-3.185289	ElCambioQueUne	-1.300448
-4.464042	ElPratEsports	-0.0787777
-4.163012	ElRegimen	-0.08322012
-3.685891	Elecciones	-0.06693838
-4.464042	Eleccions	-0.07141024
-3.861982	Electoral	-0.06646991
-4.464042	Emm	-0.08373094
-4.163012	Empieza	-0.2468087
-3.066102	En	-0.2304074
-4.464042	Encomiable	-0.07765235
-4.464042	Encrucijada	-0.08605213
-3.986921	Encuesta	-0.0689005
-4.163012	Endavant	-0.2575546
-4.464042	EnekoHumor	-0.08651488
-3.317914	Enhorabuena	-0.1700693
-4.464042	Enorme	-0.08647013
-4.464042	Enric	-0.08651488
-4.464042	Entre	-0.08455601
-4.464042	Era	-0.08642536
-4.163012	Erasmus	-0.2575546
-4.464042	Ercconvergencia	-0.08636566
-4.464042	Ernesto	-0.08651488
-4.464042	Errejon	-0.08539447
-4.464042	Error	-0.08651488
-3.287951	Es	-0.08212978
-4.464042	Esa	-0.08651488
-4.464042	Escanos	-0.08587287
-4.464042	Escoge	-0.08636566
-4.464042	Esconded	-0.0780785
-4.464042	EscribanoR	-0.08651488
-3.5098	Escrutado	-0.9915183
-4.163012	Escrutinio	-0.07750007
-4.464042	Escucho	-0.0780785
-4.464042	Escull	-0.07804807
-3.765072	Eso	-0.1419425
-4.464042	Espadaler	-0.08353569
-2.644498	Espana	-0.1297926
-3.986921	Espanol	-0.1924634
-4.163012	Espanola	-0.05992106
-3.986921	Espanoles	-0.08374596
-4.464042	EspanolesCatalanes	-0.08323514
-4.464042	Especial	-0.08539447
-4.464042	Esperando	-0.08166892
-4.464042	Esperemos	-0.08353569
-3.685891	Espero	-0.2988837
-4.464042	Espidifen	-0.08651488
-4.464042	Esplugues	-0.07804807
-3.986921	Esquerra	-0.07801765
-3.618944	EsquerraERC	-0.06869847
-4.464042	Essspaaanaahasta	-0.08626118
-3.560952	Esta	-0.199268
-3.685891	Estado	-0.3204344
-3.861982	Estamos	-0.07358292
-4.464042	Estariamos	-0.07751528
-4.464042	Estas	-0.08539447
-4.464042	Estatuto	-0.06963012
-3.861982	Este	-0.08564869
-4.464042	Esteban	-0.08620146
-3.560952	Esto	-0.1898017
-4.464042	Estos	-0.08590275
-3.986921	Estoy	-0.1838202
-4.464042	Etiopia	-0.08641043
-4.464042	Euro	-0.07551529
-3.986921	Europa	-0.0438447
-4.464042	Europeo	-0.08425616
-4.464042	Europeos	-0.08651488
-4.464042	Excelente	-0.08649997
-4.464042	Expulsan	-0.0780785
-4.464042	Ezpana	-0.08624625
-4.464042	FAMIGLIA	-0.08651488
-4.464042	FCBarcelona	-0.08614174
-4.464042	FERNANDEZ	-0.08648504
-4.163012	FRACASADO	-0.07137936
-4.464042	Falsas	-0.08651488
-4.163012	Falta	-0.06952155
-4.464042	Fdez	-0.08570848
-3.765072	Felicidades	-0.0347297
-4.464042	Felicita	-0.0780785
-4.464042	Felicitaciones	-0.08620146
-4.163012	Feliz	-0.07812415
-4.464042	Fem	-0.07551529
-3.861982	Fernandez	-0.1633079
-4.163012	Fernando	-0.2577933
-4.163012	Ferreras	-0.08388109
-4.464042	Fijaros	-0.07751528
-4.464042	Fijemonos	-0.08620146
-4.464042	Filas	-0.06963012
-4.163012	Flandes	-0.0774696
-4.464042	ForcadellCarme	-0.08633582
-4.464042	Forges	-0.05995277
-4.464042	Fot	-0.07804807
-4.464042	Fracaso	-0.08606707
-4.464042	FranHervias	-0.08632089
-4.464042	Francesc	-0.08651488
-4.464042	FrancescRobert	-0.08651488
-4.163012	Francia	-0.05389963
-4.163012	Franco	-0.08166894
-4.464042	Fuente	-0.05995277
-4.464042	Fuerte	-0.08648504
-4.163012	Fusilaron	-0.08427118
-4.464042	Futbol	-0.08569353
-4.464042	GAD3com	-0.05995277
-4.464042	GANADO	-0.08647013
-4.464042	GH	-0.08651488
-4.464042	GIF	-0.08630596
-4.464042	GINER	-0.08651488
-4.464042	GLOBAL	-0.08651488
-4.464042	GRANADA	-0.08323514
-4.464042	Ga	-0.08649997
-4.464042	Gabriel	-0.08373094
-4.163012	Galicia	-0.0835958
-4.464042	Gana	-0.08621639
-4.464042	Ganan	-0.08166892
-4.464042	Gane	-0.08623132
-4.464042	Gante	-0.08649997
-3.618944	Garcia	-0.6865938
-4.464042	Garzon	-0.08400113
-4.464042	Gasol	-0.07751528
-4.464042	GemmaMndza	-0.08651488
-4.464042	GeneralDavila	-0.08651488
-3.986921	Generales	-0.0706836
-3.685891	Generalitat	-0.06219915
-4.464042	Genial	-0.08563374
-4.464042	Genova	-0.0864552
-4.464042	Gent	-0.08649997
-3.861982	Girona	-0.08263342
-4.464042	Gobenacion	-0.07141024
-3.861982	Gobierno	-0.05483145
-4.464042	Google	-0.08651488
-4.464042	Govern	-0.07141024
-4.464042	Gozadera	-0.08569353
-3.861982	Gracias	-0.07626446
-3.618944	Gran	-0.08576827
-4.464042	Granados	-0.05995277
-4.163012	Grandes	-0.08648507
-4.464042	Gritos	-0.06963012
-4.464042	Guerra	-0.08512514
-4.464042	Gurtel	-0.08642536
-4.464042	HAN	-0.08651488
-4.464042	HAY	-0.0864552
-4.464042	HB	-0.0787777
-4.464042	HOOLIGANS	-0.08649997
-4.464042	HORAS	-0.08651488
-4.464042	HOY	-0.0864552
-3.618944	Ha	-0.2751327
-4.464042	Haber	-0.08651488
-4.464042	Habria	-0.07765235
-3.986921	Han	-0.08570848
-4.163012	Hasta	-0.07785027
-3.765072	Hay	-0.0815784
-4.464042	HectordeAyala	-0.08651488
-4.464042	Hem	-0.08651488
-3.861982	Hemos	-0.1632481
-4.464042	Hermano	-0.08651488
-4.464042	HerreraenCOPE	-0.08651488
-4.464042	HiginiaRoig	-0.08591769
-4.464042	Hipocresiaok	-0.08649997
-4.163012	Historia	-0.08603721
-4.464042	Hitler	-0.07141024
-4.464042	Hola	-0.08651488
-4.464042	Hora	-0.06963012
-4.163012	Hospitalet	-0.06961463
-4.464042	Hostion	-0.06963012
-3.016884	Hoy	-0.1061838
-4.464042	HuescaCs	-0.05995277
-3.560952	ICV	-0.05233673
-4.464042	II	-0.08651488
-4.464042	INDEPENDEN	-0.08651488
-3.986921	INDEPENDENCIA	-0.04377886
-3.986921	INDEPENDENTISTAS	-0.07043596
-4.464042	INES	-0.08649997
-3.287951	Iceta	-0.1334475
-4.163012	Iglesias	-0.08582806
-4.464042	Imbecil	-0.07141024
-4.163012	Importante	-0.08509523
-4.464042	Impresionante	-0.05995277
-4.464042	Impulso	-0.08649997
-4.464042	Incidentes	-0.08642536
-4.464042	Increible	-0.08455601
-4.464042	Indep	-0.08649997
-4.464042	Indepas	-0.08632089
-3.560952	Independencia	-0.1979865
-4.464042	Independentista	-0.08651488
-4.163012	Independentistas	-0.08603721
-4.464042	IndependentistasCatalanes	-0.08323514
-4.464042	Indignante	-0.08651488
-3.765072	Ines	-0.3563114
-2.685891	InesArrimadas	-0.1809683
-4.464042	Inigo	-0.08651488
-3.765072	Inmovilismo	-0.1470764
-4.464042	Inoxcrom	-0.0780785
-4.464042	Integrador	-0.08651488
-4.464042	Intercambio	-0.06963012
-4.464042	Interior	-0.06963012
-4.464042	Interventores	-0.06963012
-4.464042	Ir	-0.08425616
-4.464042	JAEN	-0.0787777
-4.464042	JOAN	-0.08651488
-3.083831	JPS	-0.6455783
-4.464042	JPSCUP	-0.08573838
-4.464042	JPSi	-0.08633582
-4.464042	JUMILLA	-0.08649997
-4.464042	JXS	-0.07751528
-3.986921	JXSI	-0.08585794
-4.464042	JXSi	-0.0787777
-4.464042	Jaen	-0.08651488
-4.464042	Jaja	-0.077972
-4.464042	Jason	-0.08644028
-4.464042	Javea	-0.05995277
-4.464042	Jefe	-0.08651488
-4.464042	Jerez	-0.0780785
-4.464042	Joder	-0.07765235
-4.464042	Jodido	-0.08618653
-4.464042	Jonqueras	-0.07765235
-4.464042	Jordi	-0.08639551
-4.464042	Jornada	-0.08647013
-3.986921	Josep	-0.5161735
-3.685891	JpS	-0.07236693
-3.765072	JpSCUP	-0.08121608
-4.464042	Juan	-0.08651488
-4.464042	Juez	-0.05995277
-4.464042	Julian	-0.08651488
-3.287951	Junqueras	-0.08816493
-4.464042	Junt	-0.08639551
-4.464042	Junta	-0.08647013
-4.163012	Juntos	-0.2555496
-2.872977	Junts	-0.8369648
-4.464042	JuntsCUP	-0.08651488
-4.464042	JuntsPel3%	-0.08651488
-3.016884	JuntsPelSi	-0.1692609
-4.464042	JuntsPelSiCUP	-0.08649997
-4.464042	JuntsXsi	-0.08373094
-4.464042	JuntspelSi	-0.07751528
-4.464042	JuntsxSi	-0.0787777
-3.317914	JxS	-0.151494
-3.765072	JxSCUP	-0.6401338
-3.986921	JxSI	-0.08160857
-2.82059	JxSi	-0.2652913
-4.163012	JxSiCUP	-0.08632091
-4.464042	Jxsi	-0.08606707
-4.464042	KO	-0.08606707
-4.464042	L'Estatut	-0.08651488
-4.464042	L'H	-0.08644028
-3.765072	LA	-0.1470466
-4.464042	LAS	-0.08651488
-4.163012	LO	-0.08649998
-2.89584	La	-0.1422424
-4.163012	La1tve	-0.2577486
-4.464042	LaSexta	-0.08648504
-4.464042	LaSotana	-0.08651488
-3.986921	LaVanguardia	-0.07097749
-3.317914	Las	-0.08197055
-4.464042	Leccion	-0.06963012
-4.464042	Legionario	-0.08651488
-4.464042	Lenazo	-0.08400113
-4.464042	Les	-0.08651488
-3.986921	Ley	-0.1928515
-4.464042	LibertadFMradio	-0.08368589
-4.464042	Liga	-0.06963012
-4.464042	Listo	-0.08649997
-4.464042	Llama	-0.0780785
-3.861982	Lleida	-0.0739363
-4.464042	Llobregat	-0.08651488
-4.464042	Llueve	-0.08651488
-3.464042	Lo	-0.1852113
-4.464042	Lopez	-0.0787777
-3.317914	Los	-0.07515322
-4.464042	Ls	-0.08621639
-4.464042	LuisSalvador	-0.08638059
-4.163012	Luna	-0.08534961
-4.464042	M	-0.08630596
-4.464042	MA	-0.07804807
-4.464042	MAD	-0.08647013
-3.861982	MAS	-0.08614174
-4.163012	MENOS	-0.07760669
-4.464042	MIERDA	-0.06963012
-4.464042	MIgnatieff	-0.07751528
-4.464042	MOVILIZACION	-0.08648504
-4.464042	MURCIA	-0.05995277
-4.464042	MUY	-0.08642536
-4.464042	Macia	-0.05995277
-4.464042	Madre	-0.06963012
-3.384861	Madrid	-0.05052516
-4.464042	Madridsolo	-0.08632089
-4.464042	Mahou	-0.0787777
-4.464042	Mal	-0.08651488
-4.464042	Maldito	-0.08651488
-4.464042	Mallorca	-0.08642536
-4.163012	Manana	-0.07313696
-4.464042	Mancha	-0.07804807
-4.464042	Manresa	-0.08639551
-4.464042	Marc	-0.08651488
-4.464042	Marca	-0.08368589
-4.464042	MarcosLamelas	-0.07141024
-4.464042	Maresme	-0.05995277
-4.163012	Margallo	-0.08582806
-4.464042	MariaCasadoTVE	-0.07141024
-3.618944	Mariano	-0.1095768
-4.464042	Marquez	-0.08323514
-4.464042	Marquezhoy	-0.08651488
-4.464042	Martinez	-0.08651488
-2.192201	Mas	-0.122063
-4.464042	Mas'	-0.077972
-4.464042	MasGran	-0.08599239
-4.464042	MasPero	-0.08649997
-4.464042	Masfurroll	-0.077972
-4.464042	Masse	-0.08649997
-4.464042	Masvaya	-0.08641043
-4.464042	Mataro	-0.08585793
-4.464042	Mayabs	-0.08647013
-3.861982	Mayoria	-0.1538561
-3.861982	Me	-0.08356574
-4.464042	Medio	-0.08649997
-4.464042	Medios	-0.08642536
-4.464042	Mejide	-0.08651488
-3.986921	Mejor	-0.192329
-4.464042	Mendo	-0.08651488
-4.464042	Menor	-0.08537951
-4.464042	Menuda	-0.08649997
-4.464042	Messi	-0.08400113
-4.464042	Metropolitana	-0.08323514
-4.163012	Mi	-0.08546928
-4.464042	Mientras	-0.08642536
-4.464042	MikiyDuarte	-0.077972
-4.464042	MinppalOficial	-0.0850952
-3.685891	Miquel	-0.9889597
-4.464042	Miqueliceta	-0.08648504
-3.233593	Mira	-1.315559
-4.464042	MirenCsalou	-0.08563374
-4.464042	Mis	-0.08487062
-4.464042	Misma	-0.08630596
-4.464042	Moderado	-0.08644028
-4.464042	Molt	-0.08651488
-4.464042	Monte	-0.08635074
-4.464042	Montones	-0.08400113
-4.163012	Morada	-0.08647014
-4.464042	Movimiento	-0.08651488
-4.464042	MuchasFelicidades	-0.08563374
-4.464042	Mucho	-0.07765235
-4.163012	Mundo	-0.08346059
-4.464042	Munoz	-0.08651488
-4.464042	Murcia	-0.08649997
-4.464042	Muro	-0.08323514
-4.464042	Musica	-0.08651488
-4.464042	Muy	-0.08651488
-4.464042	N1	-0.08651488
-4.464042	NADAEstamos	-0.08649997
-4.464042	NADIE	-0.08651488
-4.464042	NNGGAlcala	-0.08651488
-3.001644	NO	-0.1334792
-4.163012	NOU	-0.08649998
-4.464042	NOW	-0.05995277
-4.464042	NSNC	-0.05995277
-4.464042	NUESTRA	-0.08651488
-4.163012	Nada	-0.2489457
-4.464042	Nadie	-0.08649997
-4.464042	Naranja	-0.08611187
-4.163012	Naranjito	-0.08166894
-4.464042	Narcisista	-0.08648504
-3.986921	NatxoSaenz	-0.08647013
-4.464042	Navidad	-0.07751528
-4.464042	Necesitais	-0.0780785
-4.464042	Necesitamos	-0.07551529
-4.464042	Necesitan	-0.07804807
-4.464042	Necesito	-0.08570848
-4.464042	Neolengua	-0.077972
-3.986921	Ni	-0.07580595
-4.464042	Nivelon	-0.06963012
-2.840793	No	-0.1434207
-4.464042	Normalidad	-0.0787777
-4.163012	Nos	-0.08635075
-4.464042	Nosotros	-0.08168401
-4.464042	Nuestro	-0.08648504
-3.765072	O	-0.06981622
-3.986921	OE	-0.1928665
-4.464042	OJO	-0.08649997
-4.464042	ON	-0.05995277
-4.464042	OPCIONES	-0.08648504
-4.464042	OTAN	-0.0787777
-4.464042	Objetivo	-0.08651488
-4.464042	ObjetivoLaSexta	-0.05995277
-4.464042	Ojito	-0.077972
-4.464042	Ojo	-0.08368589
-4.163012	OndaCeroes	-0.08367089
-4.163012	Onega	-0.07649355
-4.464042	OnofrioC	-0.05995277
-4.464042	Oposicion	-0.05995277
-4.464042	Orgullosa	-0.06963012
-3.861982	Oriol	-0.5046218
-4.464042	Ortega	-0.0787777
-4.163012	Os	-0.0857085
-4.464042	Otegi	-0.08651488
-4.163012	Otra	-0.08624627
-4.464042	PARTICIPACION	-0.08644028
-4.163012	PEN	-0.08645522
-4.464042	PIglesias	-0.08455601
-4.464042	PLAZAS	-0.08649997
-4.464042	POBREZA	-0.08593263
-4.464042	PODEMOS	-0.077972
-4.464042	POT	-0.08593263
-2.472816	PP	-0.3133157
-4.464042	PPCLM	-0.08620146
-3.350099	PPCatalunya	-0.08542251
-4.464042	PPCiutadans	-0.08651488
-4.464042	PPGetxo	-0.05995277
-4.464042	PPPSOECs	-0.08639551
-4.464042	PPRajoy	-0.08651488
-4.464042	PPen	-0.0864552
-4.464042	PPero	-0.08651488
-3.083831	PPopular	-0.2173867
-4.163012	PRESIDENTA	-0.05993692
-4.163012	PRIMER	-0.2577933
-4.464042	PRONTO	-0.08425616
-2.51956	PSC	-0.5051217
-4.464042	PSC18	-0.08373094
-3.861982	PSCCSP	-0.504771
-4.464042	PSCCSPU	-0.0864552
-4.464042	PSCPORQUE	-0.08651488
-4.464042	PSCTarragona	-0.05995277
-2.872977	PSOE	-0.4103788
-4.464042	PSOEBOADILLA	-0.08419617
-4.464042	PUBLICIDAD	-0.08651488
-3.986921	PUEDE	-0.191731
-4.464042	PUJOLFERRUSOLA	-0.08502036
-4.464042	Pa	-0.08649997
-4.464042	Pablito	-0.08651488
-4.163012	Pablo	-0.2577933
-4.163012	PabloIglesias	-0.07107028
-4.464042	PabloPardo1	-0.0780785
-4.464042	PabloSanchez	-0.05995277
-4.464042	Paciencia	-0.08629104
-4.464042	Paisos	-0.08651488
-4.464042	Pajaro	-0.08651488
-4.464042	Palau	-0.07141024
-4.464042	Palo	-0.08651488
-4.464042	Panama	-0.0864552
-4.464042	Pantoja	-0.08554403
-3.685891	Para	-0.07176539
-4.464042	Parece	-0.07765235
-4.464042	Paris	-0.08649997
-3.066102	Parlament	-0.5292628
-4.464042	Parlamento	-0.0864552
-3.765072	Participacion	-0.1372664
-4.163012	Partido	-0.08367089
-4.464042	Partidos	-0.08651488
-4.464042	Pasan	-0.06963012
-3.986921	Pase	-0.5142444
-4.464042	Pastor	-0.0780785
-4.464042	Patetico	-0.077972
-4.464042	Pau	-0.08346058
-4.464042	Payaso	-0.08648504
-4.464042	Paz	-0.08651488
-4.464042	Pedazo	-0.06963012
-4.163012	Pedro	-0.2577486
-3.42265	Pel	-1.078225
-4.464042	Pelayo	-0.0787777
-4.464042	Pena	-0.07765235
-4.464042	Pendiente	-0.06963012
-4.464042	Pensar	-0.07765235
-4.464042	Pequeno	-0.08639551
-4.464042	Perdo	-0.08564869
-4.464042	Perezgo	-0.08636566
-3.350099	Pero	-0.09121104
-4.464042	Pidiendo	-0.07551529
-4.464042	Pierden	-0.08353569
-4.464042	Pillo	-0.08651488
-4.464042	Pique	-0.07141024
-4.464042	Pla	-0.07765235
-4.464042	Plasma	-0.08642536
-4.464042	Plaza	-0.08651488
-4.464042	Poble	-0.08626118
-4.464042	Pod	-0.08525983
-4.464042	Podem	-0.08651488
-3.350099	Podemos	-0.1304371
-4.464042	Podemos11	-0.08407616
-3.986921	PodemosICV	-0.07425869
-4.464042	Podido	-0.08648504
-4.464042	Podre	-0.08651488
-4.464042	Polacos	-0.08651488
-4.464042	Politicas	-0.08651488
-4.464042	Politicos	-0.08579815
-4.464042	Popular	-0.08611187
-4.464042	PopularesSMRA	-0.08651488
-4.464042	PopularsMataro	-0.05995277
-3.384861	Por	-0.1772069
-4.163012	Porque	-0.08533465
-4.464042	Porta	-0.07751528
-3.986921	Pot	-0.05996863
-4.464042	Pot'	-0.07751528
-4.464042	Pp	-0.08400113
-4.464042	Prat	-0.08649997
-4.464042	Predominio	-0.08644028
-4.464042	Preferiria	-0.08651488
-4.464042	Pregunta	-0.0780785
-4.464042	Premio	-0.08482569
-4.163012	Preparado	-0.2552945
-4.464042	Preparados	-0.08400113
-4.464042	Preparativos	-0.06963012
-4.464042	Presidencia	-0.06963012
-3.986921	President	-0.1841553
-4.464042	Presidente	-0.06963012
-4.464042	Pretender	-0.07765235
-4.464042	Prim	-0.05995277
-3.42265	Primer	-0.2346547
-3.765072	Primera	-0.08554403
-3.685891	Primeras	-0.1363436
-4.464042	Primero	-0.08648504
-3.560952	Primeros	-0.5493168
-4.464042	Principales	-0.0864552
-4.464042	Probablemente	-0.08481071
-4.464042	Probando	-0.07551529
-4.464042	Proces	-0.08651488
-4.464042	Prodigioso	-0.08368589
-4.163012	Programa	-0.06953706
-4.464042	Pronto	-0.08261836
-4.464042	Proponen	-0.0780785
-4.464042	Propongo	-0.07765235
-4.464042	Prosperitat	-0.0787777
-4.464042	Prudencia	-0.08596251
-4.464042	Psc	-0.0850952
-4.464042	Psoe	-0.0787777
-3.861982	Puede	-0.0756224
-4.464042	Puedes	-0.08651488
-4.464042	Puedo	-0.08651488
-4.163012	Puerta	-0.2547539
-2.748039	Pues	-0.2477642
-4.464042	Puesta	-0.07751528
-3.5098	Pujol	-0.06650116
-4.464042	Putos	-0.08651488
-3.861982	Q	-0.08302464
-3.765072	QUE	-0.08594758
-4.464042	QUEDE	-0.08651488
-4.464042	QUINTA	-0.08605213
-4.464042	Qe	-0.0864552
-2.773846	Que	-0.1090329
-3.765072	Queda	-0.146225
-3.986921	Quien	-0.07815456
-4.163012	Quiero	-0.08460099
-4.464042	Quizas	-0.08641043
-4.464042	R	-0.07141024
-4.464042	REFERENDUM	-0.08606707
-4.464042	REVOLTA	-0.08651488
-4.464042	RIEN	-0.08647013
-4.464042	RT	-0.08651488
-3.685891	RTVECatalunya	-0.989094
-4.464042	RafaJapon	-0.08585793
-4.464042	Rafita	-0.08594757
-3.259922	Rajoy	-0.04760768
-4.464042	RajoyMorenes	-0.0787777
-4.464042	Rato	-0.05995277
-4.464042	Rauda	-0.0787777
-4.464042	Raul	-0.08649997
-4.464042	Ravel	-0.07765235
-4.464042	Real	-0.08635074
-4.464042	RealAthletic	-0.07751528
-4.464042	Realcon	-0.07551529
-4.464042	Realidades	-0.08323514
-4.464042	Realmente	-0.08539447
-4.464042	Recompensa	-0.0780785
-4.464042	Recuento	-0.07751528
-4.464042	Referendum	-0.08638059
-4.464042	Reflejo	-0.08602226
-3.765072	Reforma	-0.6401039
-4.464042	Refuerza	-0.08649997
-4.464042	RegXLasBases	-0.08651488
-4.464042	Reinos	-0.05995277
-4.464042	Relax	-0.08648504
-4.464042	Renan	-0.08651488
-4.464042	Renegociacion	-0.06963012
-4.464042	Reportan	-0.08487062
-4.464042	ReporteYa	-0.07141024
-4.464042	Representan	-0.08620146
-4.464042	Republica	-0.08649997
-4.163012	Resultados	-0.08367089
-4.464042	Resumen	-0.07804807
-4.464042	ReyesAmaMori	-0.08651488
-4.464042	Risto	-0.08651488
-4.464042	Rita	-0.08651488
-3.618944	Rivera	-0.06166235
-4.464042	Roma	-0.08651488
-4.464042	Romero	-0.07751528
-4.163012	Romeva	-0.06254616
-4.464042	Roses	-0.06963012
-4.464042	Rota	-0.0850952
-4.464042	Rozara	-0.08166892
-4.464042	RubenAmon	-0.08649997
-4.163012	RuizNoticias	-0.2312461
-4.464042	S	-0.06963012
-4.464042	SABEIS	-0.08651488
-4.464042	SABES	-0.07141024
-4.464042	SALUD	-0.08651488
-3.685891	SE	-0.2501789
-4.464042	SER	-0.08648504
-3.42265	SI	-0.07296766
-4.464042	SIN	-0.08648504
-4.464042	SINO	-0.05995277
-4.464042	SPOILER	-0.08373094
-4.464042	SQEP	-0.05995277
-4.464042	SUBLIMINAL	-0.08605213
-4.464042	SUFICIENTE	-0.08651488
-4.464042	SUMAR	-0.05995277
-4.163012	Sabe	-0.08638061
-4.464042	Sacan	-0.08624625
-4.464042	Saludos	-0.07141024
-4.464042	Samsa	-0.08636566
-3.765072	Sanchez	-0.08545431
-4.464042	SanchezCamacho	-0.08323514
-4.464042	Sanchezcastejon	-0.08651488
-4.163012	Sant	-0.08648507
-4.464042	Santiago	-0.06963012
-3.384861	Se	-0.107777
-4.163012	Seamos	-0.08165385
-4.464042	Sector	-0.08632089
-4.464042	Sed	-0.08651488
-4.464042	Seguis	-0.0864552
-4.163012	Segun	-0.08596253
-4.464042	Segunda	-0.08605213
-4.464042	Segundo	-0.08644028
-4.464042	Seguramente	-0.08166892
-4.163012	Seguro	-0.07753053
-4.464042	Sera	-0.07804807
-4.464042	Serian	-0.08624625
-4.464042	Serrano	-0.08566364
-4.464042	Sexta	-0.07765235
-2.657862	Si	-0.1158781
-4.464042	SiQueEsPot	-0.08525983
-4.464042	SiSi	-0.08168401
-4.464042	Sibuenono	-0.08636566
-4.464042	Siempre	-0.08569353
-4.464042	Siento	-0.08647013
-4.464042	Sigan	-0.08641043
-4.464042	Sigue	-0.0864552
-4.464042	Siguelo	-0.07751528
-4.163012	Siguiente	-0.07708859
-4.464042	Simbolico	-0.08649997
-3.986921	Sin	-0.5161735
-4.163012	SintNiklaaskerk	-0.08649998
-4.464042	Sobraba	-0.08539447
-4.464042	Sobremesa	-0.08651488
-3.765072	Sol	-0.07536226
-3.986921	Son	-0.1880502
-3.861982	Sondeo	-0.1467773
-4.464042	Spagna	-0.08651488
-4.464042	Spain	-0.08651488
-4.464042	SputnikMundo	-0.0787777
-3.986921	Sr	-0.08332533
-4.163012	Sube	-0.08515509
-4.464042	Sudemos	-0.06963012
-4.464042	Suecia	-0.05995277
-4.163012	Suerte	-0.07733247
-4.464042	Sumarian	-0.08487062
-4.464042	Superarian	-0.07751528
-4.464042	Supondria	-0.08639551
-4.464042	TODAS	-0.08261836
-4.464042	TODOS	-0.08651488
-4.464042	TODS	-0.08651488
-3.986921	TOLON	-0.08645521
-4.464042	TOLONCiudadanosCs	-0.0864552
-4.464042	TOMA	-0.08651488
-4.464042	TRAED	-0.08647013
-4.464042	TT	-0.08651488
-3.765072	TV	-0.2810472
-3.350099	TV3	-0.08096097
-4.464042	TVE	-0.08651488
-4.464042	TVE1	-0.08651488
-4.464042	Taitantos	-0.08368589
-4.464042	Tambien	-0.07751528
-4.464042	Tanquesok	-0.08651488
-3.861982	Tarragona	-0.07737818
-4.464042	Tartessos	-0.08648504
-4.464042	Tb	-0.07751528
-4.464042	Te	-0.0864552
-4.464042	Telecinco	-0.05995277
-4.464042	Telediario	-0.08648504
-4.464042	Teletexto	-0.07141024
-4.464042	Tema	-0.08651488
-4.464042	Tenemos	-0.07765235
-4.464042	Tercera	-0.08605213
-4.464042	Terrassa	-0.08596251
-4.464042	Tines	-0.07804807
-4.464042	Tipo	-0.077972
-4.464042	Toca	-0.07804807
-3.986921	Todas	-0.5123068
-3.685891	Todo	-0.1817126
-3.861982	Todos	-0.07716481
-4.464042	Tomaca	-0.07141024
-4.163012	Toni	-0.08649998
-4.464042	TonyAguilar	-0.08651488
-4.163012	Total	-0.2565532
-4.464042	Tragamos	-0.077972
-4.464042	Tranquilidad	-0.0861268
-4.464042	Tranquilos	-0.08570848
-4.464042	Tsipras	-0.08633582
-4.464042	Tu	-0.08651488
-4.464042	Tu#ApoderadosCs	-0.05995277
-4.464042	Tuberia	-0.06963012
-3.861982	Twitter	-0.08293439
-4.464042	U	-0.08651488
-4.464042	UBendirecte	-0.07141024
-3.765072	UDC	-0.08103482
-3.986921	UE	-0.0344943
-4.464042	UNIO	-0.08648504
-4.163012	UPyD	-0.07382879
-3.350099	Un	-0.15594
-3.765072	Una	-0.08430117
-4.464042	Unas	-0.08539447
-4.464042	Unida	-0.08502036
-3.317914	Unio	-0.05196533
-4.464042	Union	-0.08651488
-4.464042	Unionismo	-0.07751528
-4.464042	Utilizando	-0.07551529
-4.464042	VALE	-0.07765235
-4.464042	VICTORIA	-0.08651488
-4.464042	VISCA	-0.08649997
-3.986921	VIVA	-0.5161287
-4.464042	VOTA	-0.05995277
-3.986921	VOTAR	-0.1769097
-4.464042	VOX	-0.05995277
-4.163012	Va	-0.2493719
-4.464042	Vaaaaamosssssss	-0.05995277
-4.464042	Valen	-0.08400113
-4.464042	Valencia	-0.08642536
-4.464042	Valles	-0.08597745
-3.560952	Vamos	-0.2278616
-4.464042	Van	-0.08512514
-3.986921	Vaya	-0.08642536
-4.163012	Vega2Santos	-0.05993692
-4.464042	Vendrell	-0.08611187
-4.464042	Veras	-0.08626118
-4.464042	Vergonzoso	-0.08166892
-4.464042	Vete	-0.08641043
-3.986921	Via	-0.08645521
-4.464042	Vic	-0.0787777
-4.464042	Vicepdte	-0.08651488
-4.464042	Victoria	-0.06963012
-4.163012	VictoriaCsPla	-0.0856188
-4.464042	Vilamajor	-0.05995277
-4.464042	Vineta	-0.08651488
-4.464042	Vip4	-0.08649997
-4.464042	Visca	-0.08554403
-4.464042	Viva	-0.08554403
-4.163012	VoX	-0.08644029
-4.464042	Vol	-0.08615667
-4.163012	Vota	-0.08412118
-4.464042	Votad	-0.08579815
-4.163012	Votar	-0.08300961
-4.163012	Votos	-0.0855889
-4.464042	Voy	-0.0780785
-4.163012	Vs	-0.08649998
-4.464042	Vuelta	-0.0780785
-4.464042	Wert	-0.08455601
-4.464042	X	-0.08644028
-4.464042	XD	-0.08502036
-4.464042	XXI	-0.08168401
-4.464042	Xabia	-0.08651488
-4.464042	Xavier	-0.08642536
-2.861982	Y	-0.1011663
-3.560952	Ya	-0.05548894
-3.5098	Yo	-0.1106854
-4.464042	YouTube	-0.05995277
-4.464042	Yugoslavia	-0.07141024
-4.163012	ZP	-0.07713433
-4.464042	Zaplana	-0.0787777
-1.715079	a	-0.3626879
-4.464042	aantoniobanos	-0.08591769
-4.464042	aaunes	-0.0787777
-4.464042	abandonado	-0.08525983
-4.464042	abarca	-0.08627611
-4.464042	abierto	-0.08642536
-4.163012	abrazo	-0.05993692
-4.464042	abril	-0.08649997
-3.986921	abrir	-0.1850373
-3.032678	absoluta	-0.07994853
-4.464042	absolutaPero	-0.08166892
-4.464042	absolutaay	-0.08633582
-4.464042	absolutamente	-0.08651488
-3.560952	abstencion	-0.5303425
-4.163012	abstenerse	-0.07687508
-4.163012	absurdo	-0.08560386
-4.464042	abuelas	-0.07765235
-4.464042	abuelos	-0.0787777
-3.861982	acaba	-0.1263684
-3.986921	acabado	-0.07114755
-4.464042	acabamos	-0.08632089
-4.464042	acaban	-0.06963012
-3.861982	acabar	-0.0836108
-3.861982	acabara	-0.05855479
-4.464042	acabo	-0.07551529
-4.464042	acallar	-0.07551529
-4.464042	acceder	-0.0780785
-4.464042	acentua	-0.07765235
-4.464042	acepta	-0.07551529
-4.464042	aceptable	-0.08506527
-4.464042	aceptan	-0.07551529
-4.464042	acepte	-0.08261836
-4.464042	acerca	-0.06963012
-4.464042	acercandose	-0.08400113
-4.464042	acercarme	-0.08597745
-4.464042	acertado	-0.08368589
-4.464042	acertando	-0.07141024
-4.464042	aclarando	-0.06963012
-4.163012	aclarar	-0.08454104
-4.464042	aclare	-0.07551529
-4.464042	acojonados	-0.08641043
-4.464042	acompanado	-0.07141024
-4.464042	acompanar	-0.0780785
-4.464042	acordado	-0.06963012
-4.464042	acordamos	-0.06963012
-4.163012	acoso	-0.06651679
-4.464042	acreditado	-0.08400113
-4.464042	actitud	-0.0787777
-4.464042	activo	-0.07751528
-4.464042	actual	-0.08632089
-4.464042	actualidad	-0.08487062
-4.464042	actualizada	-0.06963012
-4.464042	actualizado	-0.07141024
-4.464042	actuan	-0.08166892
-4.464042	actuando	-0.0780785
-4.464042	actuante	-0.08641043
-4.163012	acuerdo	-0.0856487
-4.464042	adelantado	-0.08648504
-3.685891	adelante	-0.07868656
-4.464042	adelanten	-0.08482569
-4.163012	ademas	-0.08506528
-3.765072	adios	-0.1096161
-4.464042	admitiendo	-0.07765235
-3.986921	adoctrinamiento	-0.5157256
-4.464042	adoctrinar	-0.07751528
-4.464042	aduena	-0.06963012
-4.464042	advirtio	-0.06963012
-4.464042	aedas	-0.06963012
-4.464042	aeprat1945	-0.08368589
-3.986921	afecta	-0.07629501
-4.464042	aferrado	-0.08482569
-4.163012	afirma	-0.2489457
-4.464042	afirmando	-0.07765235
-4.163012	afluencia	-0.06955258
-4.464042	agarrandose	-0.0780785
-4.464042	agarzon	-0.06963012
-4.464042	agoreros	-0.0787777
-4.464042	agradeciendo	-0.0780785
-4.464042	agradezco	-0.0780785
-4.464042	agregan	-0.08648504
-4.464042	agua	-0.08346058
-3.861982	aguanta	-0.1466686
-4.163012	aguantado	-0.085843
-4.464042	aguantamos	-0.07804807
-4.464042	aguantan	-0.07804807
-4.464042	aguantar	-0.07551529
-4.163012	aguante	-0.077302
-4.464042	aguas	-0.08323514
-4.464042	aguila	-0.08632089
-4.163012	ahi	-0.07763714
-2.972681	ahora	-0.07879823
-4.464042	ahora#eleccionescatalanas	-0.08502036
-3.317914	ahorapodemos	-0.1295483
-4.464042	aireque	-0.07751528
-4.464042	aires	-0.077972
-4.464042	aislado	-0.08626118
-4.464042	ajdelamo	-0.0787777
-2.407137	al	-0.1994377
-4.464042	alabaitua	-0.08651488
-4.464042	albertofdezxbcn	-0.08651488
-4.464042	alborozo	-0.08639551
-4.464042	alcanzado	-0.07551529
-3.685891	alegria	-0.2923386
-4.464042	alegro	-0.077972
-4.464042	alexbg	-0.05995277
-4.464042	alexcubero	-0.08651488
-4.464042	alfonsomerlos#27S	-0.08651488
-4.464042	alfonsoussia	-0.08651488
-4.464042	alforjas	-0.077972
-3.185289	algo	-0.1443444
-4.464042	algu	-0.08649997
-3.618944	alguien	-0.3904417
-3.986921	algun	-0.08644029
-3.861982	alguna	-0.07794157
-4.163012	algunas	-0.08627612
-4.163012	alguno	-0.08545431
-3.861982	algunos	-0.08344556
-4.464042	alianza	-0.08368589
-4.464042	aliara	-0.08368589
-4.464042	aliarse	-0.08368589
-4.464042	aligerar	-0.07804807
-4.464042	aliviado	-0.08635074
-4.464042	alla	-0.06963012
-4.464042	alli	-0.0858131
-4.464042	alsnchez	-0.08614174
-3.618944	alta	-0.2553205
-4.464042	altaOjala	-0.08630596
-3.765072	alternativa	-0.1343565
-4.464042	altisima	-0.08651488
-4.464042	altura	-0.05995277
-4.464042	alucinante	-0.08373094
-4.163012	amb	-0.08649998
-4.163012	ambiente	-0.08648507
-4.464042	ambiguo	-0.08649997
-3.986921	ambos	-0.05992105
-4.464042	amenazaron	-0.07141024
-4.464042	amigo	-0.08651488
-3.765072	amigos	-0.08434615
-4.464042	amo	-0.0787777
-4.464042	amor	-0.08569353
-4.464042	ampliacion	-0.06963012
-3.861982	analisis	-0.1347272
-3.986921	analistas	-0.1927769
-4.464042	analizando	-0.08166892
-4.464042	analizar	-0.07551529
-3.685891	anapastor	-0.2888468
-4.464042	anarcanil	-0.08651488
-4.464042	anarse'n	-0.08649997
-4.464042	anchos	-0.08593263
-4.163012	ancianos	-0.07876253
-4.464042	anda	-0.07765235
-4.464042	andar	-0.08636566
-4.464042	ande	-0.08615667
-4.163012	andreubarnils	-0.2569271
-4.464042	anecdotico	-0.08648504
-4.464042	anexion	-0.06963012
-4.464042	anferga87	-0.07751528
-4.464042	animado	-0.07804807
-3.986921	animo	-0.07571419
-4.464042	animos	-0.08368589
-4.163012	ano	-0.08548423
-4.464042	ano#27S	-0.05995277
-4.464042	anoEl	-0.08639551
-3.20877	anos	-0.2004118
-4.464042	ansiada	-0.08563374
-4.464042	ansias	-0.08590275
-3.560952	ante	-0.09089229
-4.163012	anteriores	-0.2566878
-3.685891	antes	-0.2289568
-4.464042	antesala	-0.06963012
-4.464042	anticapitalista	-0.0787777
-4.464042	anticipadas	-0.05995277
-4.464042	anticuado	-0.0787777
-4.464042	antieuropea	-0.08649997
-4.464042	antioligarquico	-0.07765235
-4.464042	antipodas	-0.06963012
-4.464042	antisistema	-0.06963012
-4.464042	antonio	-0.08626118
-3.464042	antoniobanos	-0.1097348
-4.464042	antoniocano	-0.08648504
-4.464042	antoniofraguas	-0.08651488
-4.464042	anulan	-0.08620146
-4.464042	anunciara	-0.08555898
-4.464042	apadrinada	-0.08425616
-4.464042	aparece	-0.07751528
-4.464042	aparecen	-0.08512514
-4.163012	aparte	-0.07484149
-4.163012	apasionante	-0.07139481
-4.464042	apelando	-0.08482569
-4.464042	apellida	-0.08651488
-4.464042	apellidos	-0.08487062
-4.464042	aplaudo	-0.08555898
-4.464042	aplauso	-0.08651488
-3.986921	aplausos	-0.07490277
-4.464042	aplicacion	-0.06963012
-4.163012	aplicar	-0.07798723
-4.464042	aplicara	-0.07804807
-3.986921	apoderado	-0.0834756
-4.163012	apoderados	-0.06039665
-4.464042	aportacion	-0.06963012
-4.464042	apostar	-0.08425616
-4.163012	apoya	-0.2493719
-4.464042	apoyada	-0.08425616
-4.464042	apoyan	-0.07551529
-3.986921	apoyando	-0.1827372
-4.464042	apoyandose	-0.08606707
-4.163012	apoyar	-0.07774372
-4.163012	apoyara	-0.07743913
-4.163012	apoye	-0.2493719
-3.861982	apoyo	-0.05555304
-4.464042	apoyos	-0.07141024
-4.464042	app	-0.08554403
-4.464042	aprender	-0.06963012
-4.464042	aprendido	-0.08579815
-4.464042	aprieta	-0.077972
-4.464042	aprovecha	-0.08555898
-4.464042	aprovecharan	-0.07141024
-4.464042	aproximan	-0.0780785
-4.464042	apuente	-0.08651488
-3.986921	apuesta	-0.1815902
-4.464042	apuestan	-0.08425616
-4.464042	apuntalar	-0.08649997
-4.464042	apunto	-0.06963012
-4.163012	aquellos	-0.0862612
-3.861982	aqui	-0.06297163
-4.464042	arbitro	-0.07551529
-4.464042	archivo	-0.08651488
-4.464042	ardiendo	-0.07141024
-3.986921	area	-0.5161735
-4.464042	argumentacion	-0.08552907
-4.464042	argumentaron	-0.08651488
-4.464042	argumento	-0.08400113
-4.163012	argumentos	-0.08317503
-4.464042	armas	-0.08602226
-4.163012	arrasa	-0.06885388
-4.464042	arrastra	-0.07751528
-4.464042	arregla	-0.08368589
-4.464042	arreglar	-0.08455601
-4.464042	arrepientas	-0.08425616
-4.464042	arrepiente	-0.06963012
-4.163012	arrimaba	-0.07042048
-4.464042	arrodillada	-0.08641043
-4.464042	arrogante	-0.077972
-4.163012	arrollador	-0.2409235
-3.986921	articulo	-0.0681385
-4.464042	artur	-0.08487062
-4.464042	asamblearismo	-0.06963012
-4.163012	asco	-0.05817275
-4.464042	aseguradas	-0.08648504
-4.464042	ashifak	-0.08641043
-3.350099	asi	-0.05769281
-4.464042	asno	-0.08626118
-4.464042	asociaciones	-0.08373094
-4.464042	aspavientos	-0.07804807
-4.464042	aspira	-0.0780785
-4.464042	aspiraria	-0.08512514
-4.464042	asturiano	-0.08455601
-4.464042	asuma	-0.08651488
-4.464042	asumen	-0.08570848
-4.464042	asumir	-0.07765235
-4.464042	asuntos	-0.08649997
-4.464042	asusten	-0.08636566
-4.464042	ataca	-0.0780785
-4.464042	atacar	-0.0780785
-4.464042	atasca	-0.07804807
-4.464042	atencion	-0.07765235
-4.464042	atentar	-0.08629104
-4.464042	atento	-0.0780785
-4.464042	atiende	-0.0780785
-4.464042	atracciones	-0.08400113
-4.464042	atrapado	-0.07751528
-4.464042	atras	-0.06963012
-4.464042	atril	-0.08400113
-4.464042	aturacion	-0.05995277
-4.464042	augura	-0.08467589
-4.464042	auguran	-0.08467589
-3.986921	aumenta	-0.1802097
-3.560952	aumento	-0.2305667
-3.618944	aun	-0.1108231
-3.765072	aunque	-0.1310865
-4.464042	aupa	-0.08373094
-4.464042	auronplay	-0.08168401
-4.464042	austericidas	-0.08649997
-4.464042	autentica	-0.08618653
-4.464042	autentics	-0.08651488
-4.464042	autocreerse	-0.08570848
-4.464042	autoctonos	-0.08400113
-4.464042	autoestima	-0.08606707
-4.464042	autonomia	-0.06963012
-3.560952	autonomicas	-0.1403288
-4.464042	autonomicos	-0.05995277
-4.464042	autoritario	-0.08630596
-4.464042	autorizado	-0.07804807
-3.685891	avance	-0.2796009
-4.464042	avanza	-0.07551529
-4.464042	avecina	-0.07751528
-4.464042	avion	-0.08400113
-4.464042	avisais	-0.08647013
-4.464042	aviva	-0.08353569
-3.765072	ay	-0.2174502
-4.464042	ayer	-0.08564869
-4.163012	ayuda	-0.06877619
-4.163012	ayudar	-0.07736295
-4.464042	ayuden	-0.0780785
-4.163012	azulejos	-0.06961463
-4.464042	azules	-0.08554403
-3.986921	baila	-0.06815407
-4.163012	bailan	-0.08514012
-3.986921	bailando	-0.06876063
-3.861982	bailar	-0.1439756
-3.986921	baile	-0.08320508
-4.163012	bailes	-0.06959911
-3.350099	baja	-0.3091245
-4.163012	bajado	-0.08627612
-4.163012	bajan	-0.05973068
-3.685891	bajando	-0.07407448
-3.861982	bajar	-0.06601657
-3.986921	bajo	-0.07775893
-4.464042	balcon	-0.08651488
-4.464042	balones	-0.0780785
-4.464042	bancos	-0.08629104
-3.464042	bandera	-0.2314532
-3.765072	banderas	-0.07269052
-4.163012	banderasno	-0.08639553
-4.163012	bando	-0.08343054
-4.464042	banqueros	-0.08648504
-4.464042	bar	-0.08639551
-4.464042	barcelonesa	-0.08168401
-4.163012	barrera	-0.08606708
-4.464042	barrica	-0.06963012
-3.986921	barrio	-0.03258968
-4.464042	barsa	-0.08651488
-4.464042	basado	-0.07751528
-4.464042	base	-0.06963012
-4.464042	bases	-0.08602226
-4.464042	basket	-0.08651488
-4.163012	basta	-0.08367089
-4.464042	bastan	-0.08651488
-4.163012	bastante	-0.06939741
-4.464042	bastantes	-0.08407616
-4.464042	bastaria	-0.07551529
-4.464042	basura	-0.05995277
-4.464042	bata	-0.08166892
-3.986921	batacazo	-0.06756224
-4.464042	batasuna	-0.08611187
-4.464042	batasunos	-0.07551529
-4.464042	batiburrillo	-0.06963012
-4.464042	be	-0.05995277
-4.464042	beber	-0.08487062
-4.464042	becas	-0.08346058
-3.986921	beneficia	-0.04174925
-4.464042	beneficiado	-0.08649997
-4.464042	besote	-0.05995277
-4.464042	bestias	-0.077972
-4.464042	bet365	-0.07141024
-4.464042	betico	-0.08564869
-3.287951	bien	-0.09624135
-4.464042	bienmanteniendo	-0.08620146
-4.464042	bilis	-0.05995277
-4.464042	billetes	-0.08641043
-4.464042	bipartidismo	-0.08168401
-4.464042	birras	-0.05995277
-4.464042	bisagra	-0.08649997
-4.464042	blancas	-0.0787777
-4.163012	blanco	-0.08312992
-4.464042	blog	-0.08611187
-3.861982	bloque	-0.1480786
-4.464042	bloqueado	-0.08564869
-4.464042	bloques	-0.08633582
-4.464042	blytheclub	-0.08651488
-4.464042	bobo	-0.08633582
-4.163012	boca	-0.06643867
-4.464042	bolsillo	-0.06963012
-4.464042	bona	-0.08346058
-4.464042	bondades	-0.06963012
-4.464042	bonita	-0.08554403
-4.163012	bonito	-0.2548291
-4.464042	bonitos	-0.08651488
-4.464042	borbonica	-0.0787777
-4.464042	botar	-0.07551529
-3.986921	bote	-0.1840335
-4.464042	botella	-0.08168401
-4.464042	botox	-0.07141024
-4.464042	bplleida	-0.0787777
-4.464042	bravo	-0.08425616
-4.464042	brecha	-0.07141024
-4.464042	breve	-0.08641043
-4.464042	brindando	-0.08368589
-3.861982	broma	-0.1595277
-4.464042	brutal	-0.08573838
-4.464042	bucle	-0.07751528
-3.317914	buen	-0.1695046
-3.765072	buena	-0.1201744
-3.986921	bueno	-0.06322356
-3.861982	buenos	-0.5044277
-4.464042	bulto	-0.08632089
-4.464042	burguesias	-0.06963012
-4.464042	burlan	-0.08605213
-4.163012	busca	-0.08485566
-4.464042	buscado	-0.0787777
-4.464042	buscafallas	-0.05995277
-4.464042	busqueda	-0.06963012
-4.464042	bye	-0.08651488
-4.464042	c	-0.08651488
-4.464042	cabe	-0.08648504
-4.464042	caben	-0.08651488
-3.685891	cabeza	-0.05912723
-4.464042	cabinas	-0.08602226
-4.464042	cabra	-0.077972
-4.464042	cachondo	-0.08502036
-3.560952	cada	-0.2073082
-4.464042	cadena	-0.07141024
-4.163012	cadenas	-0.08645522
-4.464042	cadera	-0.08585793
-3.765072	cae	-0.04576626
-4.464042	caer	-0.07751528
-4.464042	caeria	-0.08425616
-4.464042	cafe	-0.08651488
-4.464042	cagada	-0.0864552
-4.464042	cagare	-0.05995277
-4.464042	cagarle	-0.07551529
-3.986921	caida	-0.07438145
-4.464042	caido	-0.08346058
-4.464042	caigas	-0.07751528
-4.464042	cajas	-0.07141024
-4.464042	calana	-0.08620146
-4.464042	calandina	-0.08594757
-4.464042	calle	-0.08649997
-4.464042	calledpablo	-0.08651488
-4.163012	calles	-0.08621641
-4.464042	calma	-0.08632089
-4.464042	calmo	-0.08425616
-4.163012	cambia	-0.07801766
-4.464042	cambiaJunts	-0.08620146
-3.986921	cambian	-0.07049788
-3.986921	cambiar	-0.08177453
-4.464042	cambiara	-0.08554403
-4.464042	cambiaremos	-0.08261836
-3.5098	cambio	-0.1622176
-4.464042	cambios	-0.08587287
-4.464042	camello	-0.07141024
-3.765072	camino	-0.1759859
-4.464042	camisetas	-0.06963012
-4.464042	camp	-0.08481071
-3.20877	campana	-0.2214494
-4.464042	campeones	-0.077972
-4.464042	canales	-0.08482569
-4.464042	canallada	-0.08373094
-4.464042	cancion	-0.08596251
-4.464042	candidata	-0.08651488
-3.765072	candidato	-0.1198409
-3.765072	candidatos	-0.06877618
-3.986921	candidatura	-0.05058999
-3.986921	candidaturas	-0.05643336
-4.163012	cansinos	-0.0780633
-4.464042	canta	-0.07751528
-4.464042	cantan	-0.08166892
-4.464042	cantando	-0.08166892
-4.464042	cantant	-0.08649997
-4.464042	capaces	-0.07141024
-4.464042	capital	-0.08651488
-4.464042	capitulo	-0.08648504
-3.384861	cara	-0.1454675
-3.986921	caracter	-0.1928515
-4.464042	caras	-0.08635074
-4.464042	carcel	-0.08425616
-4.464042	carente	-0.08602226
-4.464042	cargas	-0.08166892
-4.464042	cariacontecido	-0.08649997
-4.464042	carinosa	-0.08368589
-4.464042	carismatico	-0.08400113
-3.986921	carlosabadiaj	-0.1920002
-4.464042	carlosherreracr	-0.07141024
-3.986921	carmechacon	-0.0796577
-4.464042	carnet	-0.08602226
-4.464042	caro	-0.08651488
-4.163012	carrera	-0.08603721
-4.464042	cartas	-0.08651488
-4.464042	carteles	-0.08642536
-3.986921	cartera	-0.0691956
-3.42265	casa	-0.1114102
-4.464042	casados	-0.077972
-3.121619	casi	-0.128503
-4.464042	casino	-0.08346058
-3.861982	caso	-0.05934965
-4.464042	castana	-0.06963012
-4.464042	casualidad	-0.08642536
-4.464042	casualmentesimilar	-0.0780785
-4.464042	catala	-0.08639551
-3.20877	catalan	-0.03748813
-3.560952	catalana	-0.04382824
-3.20877	catalanas	-0.08423143
-2.773846	catalanes	-0.0811367
-4.464042	catalanes#Ciutadans	-0.08651488
-4.464042	catalanistas	-0.08621639
-4.163012	cataluna	-0.2545285
-4.464042	catalunya	-0.08511017
-4.464042	cateto	-0.06963012
-4.464042	catetos	-0.0787777
-4.464042	catsiespot	-0.05995277
-3.049069	catsiqueespot	-0.05284376
-4.464042	cautivo	-0.0787777
-4.163012	cava	-0.0807023
-4.464042	cayendo	-0.08621639
-4.464042	ccarnicero	-0.08636566
-4.464042	cclasbrisaspa	-0.08651488
-4.464042	cececebe	-0.0787777
-4.464042	ceda	-0.0780785
-4.464042	cede	-0.08353569
-4.163012	celebra	-0.08364085
-3.986921	celebracion	-0.1750171
-4.464042	celebrado	-0.08557393
-3.765072	celebrando	-0.1265418
-3.861982	celebrar	-0.08135199
-4.464042	celebrara	-0.08512514
-4.464042	celebres	-0.06963012
-4.464042	cena	-0.08602226
-4.464042	cenizos	-0.08651488
-4.464042	ceno	-0.08651488
-3.765072	censo	-0.1295665
-4.464042	censurado	-0.08425616
-3.986921	cent	-0.07771326
-4.464042	central	-0.08400113
-4.464042	centro	-0.06963012
-4.464042	cepillar	-0.08651488
-3.986921	cerca	-0.1891351
-4.464042	cercanas	-0.0780785
-4.464042	cercanos	-0.08647013
-4.464042	cerrados	-0.07751528
-3.986921	cerrar	-0.1880502
-4.464042	chafas	-0.077972
-4.464042	champan	-0.08651488
-4.464042	chandal	-0.0787777
-4.464042	charnego	-0.08600733
-4.464042	cheque	-0.07751528
-4.464042	chica	-0.08649997
-4.464042	chico	-0.06963012
-4.464042	chinos	-0.07141024
-4.464042	chollo	-0.06963012
-4.464042	chungo	-0.05995277
-4.464042	chupito	-0.06963012
-4.464042	churros	-0.08590275
-4.464042	cia	-0.08632089
-4.464042	cideoficial	-0.06963012
-4.464042	ciego	-0.07765235
-4.464042	cielo	-0.08651488
-4.464042	ciencia	-0.08651488
-4.464042	ciencias	-0.07141024
-4.464042	cientifica	-0.0864552
-4.464042	ciento	-0.06963012
-4.464042	cierran	-0.08261836
-3.986921	cierre	-0.4993185
-4.464042	cierres	-0.08585793
-4.163012	cierta	-0.08649998
-3.765072	cierto	-0.141731
-4.464042	cifra	-0.07751528
-3.986921	cinco	-0.1903825
-4.464042	cinismo	-0.07751528
-3.986921	cinturon	-0.5161735
-4.464042	circunscripcion	-0.06963012
-4.464042	circunscripciones	-0.07141024
-4.464042	cisa	-0.08353569
-4.464042	cita	-0.08368589
-4.464042	ciu	-0.08649997
-3.685891	ciudad	-0.1160116
-3.986921	ciudadana	-0.06232537
-4.163012	ciudadania	-0.2577038
-4.163012	ciudadano	-0.08067206
-3.560952	ciudadanos	-0.09794221
-4.464042	ciudadanosCs	-0.08651488
-4.464042	ciudades	-0.07141024
-4.464042	ciutadana	-0.08563374
-4.464042	ciutadans	-0.08614174
-4.464042	civico	-0.08588781
-4.464042	civilizados	-0.08166892
-4.464042	claaaaaro	-0.077972
-4.464042	clan	-0.08639551
-4.163012	clara	-0.08257321
-4.464042	claramente	-0.07751528
-4.464042	claras	-0.08638059
-3.233593	claro	-0.1224497
-4.163012	clase	-0.2574948
-4.464042	clavado	-0.0861716
-3.618944	clave	-0.06317633
-3.861982	claves	-0.1278457
-4.464042	clavo	-0.08651488
-4.464042	cmo	-0.08649997
-4.163012	cn	-0.08548423
-3.685891	coalicion	-0.1114682
-4.464042	cobardes	-0.07765235
-4.163012	cobardia	-0.08644029
-3.464042	cobertura	-1.0775
-4.464042	cobraba	-0.08555898
-4.464042	cocinada	-0.08651488
-4.464042	coherente	-0.0787777
-4.464042	coinciden	-0.07765235
-4.464042	coincidido	-0.077972
-4.163012	cojones	-0.08563375
-4.163012	cola	-0.08379101
-4.464042	cola'	-0.08651488
-4.464042	colaboran	-0.08368589
-4.464042	colaborando	-0.07751528
-3.861982	colas	-0.07442748
-4.464042	colectivo	-0.08425616
-4.163012	colegas	-0.07139481
-3.350099	colegio	-0.6577443
-3.350099	colegios	-0.4751956
-4.464042	coles	-0.07141024
-4.464042	coleta	-0.08648504
-4.464042	collons	-0.077972
-4.464042	coloca	-0.07751528
-4.464042	colocada	-0.08554403
-3.986921	comarcas	-0.08452604
-4.464042	combatiente	-0.08576827
-4.464042	come	-0.077972
-4.464042	comentan	-0.07765235
-4.464042	comentar	-0.08166892
-4.464042	comentarios	-0.08512514
-4.464042	comenzado	-0.07804807
-4.163012	comenzar	-0.08389609
-4.464042	comenzaremos	-0.08630596
-4.464042	comenzaste	-0.08626118
-4.464042	comer	-0.08500539
-4.464042	comicios	-0.08651488
-4.163012	comido	-0.07634085
-4.464042	comiendo	-0.08651488
-4.163012	comienza	-0.2493415
-2.490914	como	-0.12304
-4.464042	comodin	-0.08482569
-4.464042	companeras	-0.06963012
-3.350099	companeros	-0.1420946
-4.464042	companeros#ApoderadosCs	-0.05995277
-4.464042	companers	-0.08591769
-4.464042	compania	-0.08633582
-4.464042	comparacion	-0.08482569
-4.464042	comparando	-0.08591769
-4.464042	comparativa	-0.08368589
-4.163012	comparece	-0.08528977
-4.163012	comparecencia	-0.08506528
-4.464042	comparecera	-0.077972
-4.464042	comparta	-0.08620146
-4.464042	competencias	-0.07765235
-4.464042	compi	-0.08651488
-4.464042	complejidad	-0.0864552
-4.464042	componentes	-0.0864552
-4.464042	compra	-0.07804807
-4.464042	comprar	-0.08651488
-4.464042	comprobar	-0.07765235
-4.464042	compromiso	-0.0787777
-3.986921	comun	-0.05165828
-4.464042	comunes	-0.07751528
-4.464042	comunica	-0.07765235
-4.464042	comunicacion	-0.08620146
-4.464042	comunismo	-0.08487062
-2.185289	con	-0.2763569
-4.464042	conazo	-0.05995277
-4.464042	concebida	-0.08425616
-4.163012	concejal	-0.08014247
-4.464042	concepto	-0.06963012
-4.464042	conchajua	-0.08633582
-4.464042	conclusion	-0.08651488
-4.464042	conclusionPSC	-0.08647013
-3.986921	conclusiones	-0.08585794
-4.464042	concordia	-0.07141024
-4.464042	concurren	-0.08557393
-4.163012	condal	-0.08629105
-4.464042	condenado	-0.0780785
-4.464042	condiciones	-0.06963012
-4.464042	confesaos	-0.05995277
-4.464042	confia	-0.07751528
-4.464042	confiando	-0.07751528
-4.163012	confianza	-0.08554404
-4.163012	confirma	-0.2489457
-3.861982	confirmarse	-0.1389813
-4.163012	confluencia	-0.08398614
-4.464042	conforma	-0.08353569
-4.464042	conmigo	-0.07141024
-3.986921	conocer	-0.1789482
-4.464042	conocido	-0.07751528
-4.163012	conscientes	-0.2409235
-4.163012	conseguido	-0.07595885
-4.464042	conseguir	-0.07551529
-4.464042	conseguira	-0.08651488
-4.163012	conseguiria	-0.08337043
-4.464042	consejera	-0.06963012
-4.464042	consensuado	-0.07141024
-4.464042	considera	-0.08651488
-4.464042	considerable	-0.07141024
-4.464042	considerablemente	-0.07804807
-4.464042	consideran	-0.07765235
-4.464042	consigan	-0.08525983
-3.986921	consigue	-0.07517852
-3.861982	consiguen	-0.07777415
-4.464042	consigues	-0.08651488
-4.163012	consolida	-0.2564185
-4.464042	constante	-0.0780785
-3.861982	constitucion	-0.05542485
-4.163012	constitucionalista	-0.07876253
-4.163012	constitucionalistas	-0.07137936
-4.464042	constituye	-0.07551529
-4.163012	constituyente	-0.0856188
-4.464042	construccion	-0.06963012
-4.464042	construido	-0.08400113
-3.986921	construir	-0.1850525
-4.464042	consuelo	-0.06963012
-4.464042	consultando	-0.08166892
-4.464042	consultar	-0.07751528
-4.464042	consuma	-0.08615667
-4.464042	cont	-0.05995277
-4.464042	contaban	-0.08368589
-4.464042	contados	-0.08611187
-4.464042	contamos	-0.08407616
-4.464042	contando	-0.08473582
-3.618944	contar	-0.1512157
-4.464042	contenidaComo	-0.08511017
-4.464042	contentan	-0.07751528
-4.163012	contento	-0.08338546
-4.464042	contentos	-0.08539447
-4.464042	contestar	-0.0780785
-4.464042	contigomismo	-0.08651488
-3.259922	contra	-0.1867245
-4.464042	contraria	-0.08651488
-4.163012	contrario	-0.2427036
-4.464042	contrarios	-0.0780785
-4.464042	convence	-0.07751528
-4.464042	convencer	-0.07751528
-4.464042	convencional	-0.08651488
-4.464042	convenga	-0.08593263
-4.464042	convergencia	-0.08168401
-4.464042	convergera	-0.08368589
-4.464042	conversacion	-0.08400113
-4.163012	convertido	-0.2488087
-4.464042	conviene	-0.08502036
-4.464042	convierte	-0.07751528
-3.685891	convivencia	-0.06202554
-3.986921	convocar	-0.08527479
-4.464042	convoco	-0.077972
-4.464042	convulsas	-0.07141024
-3.560952	copees	-0.3155205
-4.163012	corazon	-0.2489457
-4.163012	cordura	-0.08649998
-4.464042	corner	-0.08614174
-4.464042	correlacion	-0.07141024
-4.464042	correlaciones	-0.08602226
-3.986921	correo	-0.05804532
-4.464042	correspondian	-0.0780785
-4.464042	corresponsal	-0.07751528
-3.861982	corrupcion	-0.06854299
-4.464042	corrupcionpara	-0.08570848
-4.464042	corrupta	-0.08651488
-4.464042	corruptos	-0.0780785
-4.163012	cortes	-0.2529774
-4.464042	cos	-0.07765235
-3.765072	cosa	-0.0921563
-3.5098	cosas	-0.1073407
-4.464042	cosecha	-0.07804807
-4.464042	coste	-0.077972
-4.464042	covertura	-0.08651488
-4.464042	creado	-0.08651488
-4.464042	crece	-0.08651488
-3.986921	creciendo	-0.07004872
-4.163012	crecimiento	-0.04196422
-4.464042	credito	-0.08400113
-4.464042	cree	-0.07765235
-4.464042	creeis	-0.07765235
-4.464042	creen	-0.07765235
-4.464042	crees	-0.07765235
-3.560952	creo	-0.540437
-4.464042	creyendo	-0.08570848
-4.464042	crisis	-0.07551529
-4.464042	crispapin	-0.08649997
-3.986921	critica	-0.1928665
-4.464042	criticaadoctrinamiento	-0.0860372
-4.464042	criticando	-0.08482569
-4.464042	cromos	-0.07141024
-4.464042	cruzcampo	-0.08651488
-4.464042	ctxtes	-0.077972
-4.464042	cuadra	-0.08651488
-4.464042	cuadrado	-0.08627611
-3.464042	cual	-0.03649106
-4.464042	cualitativamente	-0.08648504
-3.765072	cualquier	-0.08588782
-4.163012	cualquiera	-0.05389963
-3.20877	cuando	-0.1768411
-4.163012	cuanto	-0.08648507
-4.163012	cuantos	-0.07800245
-4.163012	cuartel	-0.2577337
-4.464042	cuarto	-0.06963012
-4.163012	cuatro	-0.0755
-4.464042	cubano	-0.0787777
-4.464042	cubatilla	-0.08168401
-4.464042	cuela	-0.08641043
-3.560952	cuenta	-0.04854318
-3.861982	cuentan	-0.2511481
-4.163012	cuentas	-0.06891605
-4.464042	cuenten	-0.08261836
-4.464042	cuentes	-0.08512514
-4.163012	cuento	-0.07398238
-4.163012	cuestion	-0.06950603
-4.464042	cueta	-0.07765235
-4.464042	cuidado	-0.08651488
-4.464042	culebron	-0.077972
-3.765072	culo	-0.1211735
-4.163012	culpa	-0.06084007
-4.464042	culpabilidad	-0.08651488
-4.464042	culparemos	-0.0780785
-4.464042	cultura	-0.07765235
-4.464042	cultural	-0.07804807
-4.464042	cumplen	-0.08591769
-4.464042	cumpliran	-0.08166892
-4.464042	cup	-0.08647013
-2.851258	cupnacional	-0.02594495
-4.464042	curioso	-0.05995277
-4.464042	curro	-0.08539447
-4.464042	curso	-0.0780785
-2.932563	d	-0.09720941
-4.464042	d'anecs'	-0.06963012
-4.464042	d'hont	-0.08500539
-3.287951	da	-0.1437537
-3.986921	daban	-0.0728599
-3.5098	dado	-0.1215228
-3.986921	damos	-0.1815902
-3.765072	dan	-0.06598528
-3.861982	dando	-0.1504234
-4.464042	daniherassoler	-0.08606707
-4.464042	danirioboo	-0.077972
-3.464042	dar	-0.1935557
-4.464042	dara	-0.0780785
-4.163012	daran	-0.0780633
-3.861982	daria	-0.1496843
-3.986921	darle	-0.07499471
-4.464042	darte	-0.08649997
-4.163012	darthcerbero	-0.2577784
-4.163012	das	-0.08627612
-3.986921	dato	-0.08279898
-3.287951	datos	-0.2818579
-4.464042	davidespinos	-0.05995277
-4.464042	davidmartinezgrecords	-0.08537951
-1.418328	de	-0.319364
-3.618944	debajo	-0.3231142
-3.861982	debate	-0.05259493
-3.986921	debe	-0.08633582
-4.464042	deben	-0.08636566
-3.765072	deberia	-0.1294888
-4.464042	debia	-0.08591769
-4.464042	debieron	-0.08651488
-4.464042	debilitado	-0.077972
-4.464042	decencia	-0.07765235
-4.163012	decentes	-0.06955258
-4.163012	decepcion	-0.08639553
-4.163012	decepcionado	-0.07049789
-3.986921	decia	-0.05785411
-4.464042	decian	-0.07765235
-4.464042	decidais	-0.08630596
-3.618944	decide	-0.1144635
-4.464042	decides	-0.07141024
-4.163012	decidido	-0.08508025
-4.464042	decidimos	-0.08512514
-4.464042	decidir	-0.06963012
-4.464042	decidira	-0.08593263
-4.464042	decidire	-0.08597745
-4.464042	decimos	-0.08649997
-3.384861	decir	-0.06295588
-4.464042	decirles	-0.0780785
-4.464042	deciros	-0.07765235
-4.464042	decis	-0.07751528
-4.163012	decision	-0.06961463
-4.163012	decisivas	-0.08491556
-4.163012	decisivo	-0.06254616
-4.163012	declara	-0.0755
-3.986921	declaraciones	-0.1760109
-4.464042	declaran	-0.07551529
-3.861982	declarar	-0.4938311
-4.464042	declarara	-0.07551529
-4.464042	declararon	-0.08555898
-4.464042	declare	-0.07551529
-4.464042	declaro	-0.07551529
-4.464042	dedicado	-0.0780785
-4.464042	dedidir	-0.08579815
-4.464042	dedo	-0.08606707
-4.464042	dedos	-0.06963012
-4.163012	defender	-0.06899372
-4.464042	defenestrado	-0.08593263
-4.464042	defiende	-0.08482569
-4.464042	definidos'	-0.08651488
-4.464042	definitivo	-0.0848856
-4.464042	definitivos	-0.08651488
-4.464042	defrauda	-0.08554403
-3.986921	deja	-0.08569354
-4.464042	dejad	-0.06963012
-4.163012	dejais	-0.06084007
-4.464042	dejan	-0.08642536
-4.464042	dejando	-0.08651488
-4.163012	dejar	-0.05817275
-4.464042	dejaran	-0.08651488
-4.464042	deje	-0.08642536
-4.163012	dejo	-0.08455603
-2.152288	del	-0.3412285
-4.163012	delante	-0.04196422
-4.464042	delata	-0.08647013
-4.464042	demagoga	-0.07765235
-4.163012	demagogia	-0.08644029
-3.986921	demagogo	-0.08627611
-3.618944	demas	-0.08309983
-4.163012	demasiado	-0.08608202
-3.102314	democracia	-0.1195816
-4.464042	democrata	-0.08539447
-4.163012	democratas	-0.06156756
-4.464042	democraticamente	-0.08597745
-3.986921	democratico	-0.04191462
-4.163012	demostrado	-0.06891605
-4.464042	demostraremos	-0.08651488
-3.986921	demuestra	-0.1732098
-4.163012	den	-0.06556276
-4.464042	denegaron	-0.07804807
-3.560952	dentro	-0.2752752
-4.464042	depende	-0.08346058
-4.464042	dependera	-0.06963012
-4.464042	dependeria	-0.06963012
-4.464042	dependiente	-0.06963012
-4.464042	deportivo	-0.07141024
-4.464042	depositado	-0.08555898
-4.464042	derbi	-0.08647013
-3.861982	derecha	-0.06319208
-4.464042	derechas	-0.0787777
-3.42265	derecho	-0.3923597
-3.685891	derrota	-0.1286042
-4.163012	derrotar	-0.2561191
-4.464042	desafian	-0.08632089
-4.464042	desafiando	-0.08467589
-4.464042	desaparece	-0.08346058
-4.464042	desaparecer	-0.08346058
-4.464042	desaparecera	-0.08644028
-4.464042	desarmado	-0.07804807
-4.163012	desastre	-0.06872956
-4.464042	desayunara	-0.08639551
-4.464042	desayuno	-0.08482569
-4.464042	descargarla	-0.08400113
-4.464042	descomposicion	-0.08570848
-4.464042	desconecta	-0.08368589
-4.163012	descontado	-0.08165385
-4.464042	descontar	-0.06963012
-4.464042	descubre	-0.08641043
-4.163012	descubrio	-0.07763714
-3.121619	desde	-0.160596
-3.986921	deseo	-0.0412859
-4.464042	desesperado	-0.08644028
-4.464042	desfachatez	-0.08570848
-4.464042	desgracia	-0.08555898
-4.464042	desgraciada	-0.077972
-4.464042	desigualdadtanta	-0.08651488
-4.464042	deslocalizacion	-0.06963012
-4.464042	desmantelar	-0.08467589
-4.464042	desmovilizado	-0.08651488
-4.464042	desobedecer	-0.07551529
-4.464042	desobedeceremos	-0.08641043
-4.464042	desobediencia	-0.06963012
-4.464042	despertar	-0.08626118
-4.464042	despierta	-0.07141024
-4.464042	despistaos	-0.08564869
-4.464042	despliegue	-0.06963012
-3.42265	despues	-0.619151
-4.464042	destacado	-0.06963012
-4.464042	destino	-0.08353569
-4.464042	determinacion	-0.0780785
-4.163012	detras	-0.07826103
-3.861982	detrimento	-0.4879459
-4.464042	devorado	-0.08425616
-2.830574	dia	-0.1197097
-4.464042	diagnostico	-0.0787777
-4.464042	dialogado	-0.077972
-4.464042	dialogar	-0.0787777
-3.986921	dialogo	-0.08647013
-4.464042	diario	-0.08651488
-3.016884	dias	-0.04802122
-3.121619	dice	-0.4737565
-3.618944	dicen	-0.1894738
-3.685891	dicho	-0.1071482
-3.861982	diciembre	-0.1351098
-4.163012	diciendo	-0.2489457
-4.464042	dies	-0.07141024
-4.464042	diez	-0.08644028
-3.861982	diferencia	-0.06821632
-4.464042	diferentes	-0.08651488
-4.464042	dificil	-0.08585793
-4.464042	dificultades	-0.07751528
-4.464042	dificultar	-0.07551529
-4.163012	difieren	-0.2547539
-3.765072	diga	-0.2833818
-3.986921	digais	-0.5073408
-4.464042	digapero	-0.08649997
-4.464042	digo	-0.08626118
-4.464042	dije	-0.08649997
-4.464042	dijeron	-0.07751528
-3.986921	dijo	-0.1791022
-4.464042	diluyendo	-0.08649997
-3.986921	dimision	-0.06007964
-3.861982	dimitir	-0.1535507
-4.464042	dinero	-0.08644028
-4.163012	dios	-0.07313696
-4.464042	diostuitero	-0.08639551
-4.464042	dip	-0.08627611
-3.618944	diputado	-0.08310746
-3.141823	diputados	-0.142481
-4.163012	dir	-0.06221494
-4.163012	dira	-0.07762191
-4.464042	diran	-0.07751528
-3.384861	directo	-0.3155371
-4.464042	director	-0.06963012
-4.464042	dirigirse	-0.0780785
-3.986921	discurso	-0.08340047
-4.464042	discursos	-0.06963012
-4.464042	disfrutad	-0.06963012
-4.464042	disgregacion	-0.0787777
-4.464042	disminuyendo	-0.07551529
-4.464042	dispersos	-0.077972
-4.464042	distinta	-0.0780785
-4.163012	distinto	-0.08326522
-4.464042	distribuido	-0.08573838
-4.464042	dit	-0.08649997
-4.464042	diu	-0.08353569
-4.464042	diversidad	-0.07751528
-4.464042	diversion	-0.08651488
-4.163012	divertido	-0.08624627
-4.464042	divida	-0.05995277
-3.765072	dividida	-0.06840302
-4.163012	dividido	-0.07740866
-4.464042	dividir	-0.08451104
-4.464042	divina	-0.08651488
-4.464042	division	-0.08651488
-4.163012	dl	-0.08608202
-4.464042	do	-0.07141024
-4.464042	doblar	-0.08648504
-4.163012	doble	-0.257659
-4.464042	domine	-0.07804807
-4.464042	domingo	-0.08618653
-4.464042	dominguera	-0.07751528
-3.560952	donde	-0.07871694
-4.464042	donrubiet	-0.08566364
-4.464042	dormido	-0.0787777
-4.464042	dormir	-0.08576827
-3.350099	dos	-0.05866616
-4.464042	drama	-0.08591769
-4.464042	dubtes	-0.08648504
-3.685891	duda	-0.05280457
-4.464042	dudo	-0.07765235
-4.464042	duela	-0.0780785
-4.464042	duplicar	-0.08407616
-4.464042	duradero	-0.08353569
-3.685891	durante	-0.1728194
-4.163012	duro	-0.08618655
-4.464042	duros	-0.08552907
-3.287951	e	-0.1099243
-4.464042	echadas	-0.06963012
-4.464042	echado	-0.06963012
-4.163012	echando	-0.07361367
-4.163012	echar	-0.05817275
-4.464042	echemos	-0.08632089
-4.163012	eclipse	-0.06959911
-4.464042	economicos	-0.06963012
-4.464042	educacion	-0.077972
-3.986921	efecto	-0.1758248
-4.163012	efectos	-0.07139481
-4.464042	eficacia	-0.06963012
-3.861982	eh	-0.1485733
-4.464042	ehbildu	-0.08626118
-4.464042	ejecutando	-0.08651488
-4.464042	ejemplar	-0.08636566
-4.464042	ejemplo	-0.06963012
-4.163012	ejercer	-0.08627612
-4.464042	ejerci	-0.08597745
-3.986921	ejercido	-0.08493052
-4.464042	ejerciendo	-0.08555898
-4.464042	ejercito	-0.08649997
-4.464042	ejerzamos	-0.08647013
-4.464042	ekklesiadigital	-0.08502036
-1.713534	el	-0.2318265
-4.464042	elEconomistaes	-0.05995277
-4.464042	elcciones	-0.08641043
-4.464042	elconfidencial	-0.05995277
-4.464042	eldebateblog	-0.077972
-3.141823	eldiarioes	-1.079824
-4.163012	eleccion	-0.08624627
-2.583229	elecciones	-0.24895
-4.163012	eleccionescatalanas	-0.2312461
-4.464042	eleccionesel	-0.08642536
-4.163012	eleccions	-0.07130211
-4.464042	eleciones	-0.08425616
-4.464042	eleconomistaes	-0.05995277
-2.972681	electoral	-0.02363554
-4.464042	electoral#27S	-0.05995277
-3.384861	electorales	-0.1609856
-3.986921	electores	-0.08575332
-4.464042	elegido	-0.08651488
-4.464042	elegir	-0.08353569
-4.464042	elementales	-0.07141024
-4.464042	eles	-0.08648504
-3.685891	elespanolcom	-0.2729824
-4.163012	elevada	-0.07762191
-4.464042	elhermeneuta	-0.0787777
-4.464042	eligen	-0.08557393
-4.163012	ellos	-0.07835225
-3.685891	elmundoes	-0.2730399
-4.464042	elmurciano1	-0.08419617
-4.464042	elnacionalcat	-0.05995277
-3.986921	elpais	-0.0703895
-4.464042	elpaiscat	-0.05995277
-4.163012	elperiodico	-0.2312461
-4.464042	elpratradio	-0.08615667
-4.464042	elucubraciones	-0.08614174
-4.464042	embajada	-0.08636566
-4.464042	embusteros	-0.0787777
-4.464042	emocionado	-0.08649997
-4.464042	emocionante	-0.08636566
-4.464042	empatados	-0.0780785
-4.464042	empatan	-0.0780785
-4.163012	empate	-0.06961463
-4.464042	empeora	-0.07751528
-4.464042	emperrada	-0.07751528
-4.464042	empezamos	-0.08467589
-4.163012	empezar	-0.05893652
-4.464042	empiece	-0.07551529
-4.163012	empiecen	-0.2493719
-3.861982	empieza	-0.06625111
-4.464042	empresa	-0.077972
-4.464042	empresarios	-0.08552907
-4.464042	empuja	-0.05995277
-4.464042	empujar	-0.0780785
-4.464042	emulando	-0.0780785
-1.687341	en	-0.3914195
-4.464042	encabece	-0.08539447
-4.464042	encabeces	-0.07551529
-4.464042	encabezado	-0.08425616
-4.464042	encantado	-0.08368589
-4.163012	encara	-0.08629105
-3.986921	encima	-0.06615731
-4.464042	encubrimiento	-0.0787777
-4.464042	encubrir	-0.07804807
-4.464042	encuentre	-0.08649997
-3.42265	encuesta	-0.2284006
-3.560952	encuestas	-0.1364665
-4.464042	endavant	-0.08651488
-4.464042	energumeno	-0.08368589
-4.464042	enfoque	-0.08647013
-4.464042	enganados	-0.07141024
-4.464042	enganar	-0.08425616
-4.464042	enhorabuena	-0.0780785
-4.464042	enorgullece	-0.08648504
-3.861982	entender	-0.04805443
-4.464042	entenderse	-0.07141024
-4.464042	entendido	-0.08651488
-4.163012	enterado	-0.08530473
-4.464042	enteran	-0.07751528
-4.464042	entereza	-0.08648504
-4.464042	entero	-0.08511017
-4.464042	entiende	-0.08487062
-4.464042	entiendes	-0.06963012
-4.464042	entiendo	-0.08623132
-4.464042	entonces	-0.08554403
-3.861982	entra	-0.04950281
-4.163012	entrada	-0.08325019
-3.986921	entran	-0.5072037
-4.464042	entrando	-0.07751528
-4.464042	entrar	-0.07751528
-3.317914	entre	-0.1696419
-4.464042	entretenido	-0.07141024
-4.464042	entretiene	-0.07141024
-4.163012	entrevista	-0.2409235
-4.464042	entrevistado	-0.07751528
-4.464042	entrevistador	-0.05995277
-4.464042	enviar	-0.08353569
-4.464042	envidia	-0.08569353
