
\data\
ngram 1=5790
ngram 2=18312
ngram 3=1916

\1-grams:
-3.713547	#	-0.3828326
-4.491698	#11S	-0.09063183
-4.491698	#11s	-0.091052
-4.491698	#13hi30min	-0.0849193
-4.491698	#1971	-0.091052
-4.491698	#24M	-0.08872191
-4.491698	#2536metres	-0.0849193
-4.491698	#27	-0.05973978
-4.014576	#272S2015	-0.02966907
-4.491698	#27CatraRadio	-0.09092599
-1.317057	#27S	-0.4674942
-4.491698	#27S#Eleccions	-0.091024
-4.491698	#27S15	-0.091038
-2.17783	#27S2015	-0.4622528
-4.491698	#27S8aldia	-0.05973978
-4.491698	#27SCat	-0.05973978
-3.093758	#27SCatRadio	-0.5096052
-3.792728	#27SEbre	-0.1371359
-4.491698	#27SHemisferia	-0.0849193
-4.491698	#27SNews	-0.05973978
-4.491698	#27SOnTotComenca	-0.09016916
-4.491698	#27SRAC1	-0.09081395
-4.014576	#27SRac1	-0.2003739
-4.491698	#27SRubi	-0.06961695
-2.293041	#27STV3	-0.4367907
-4.014576	#27STv3	-0.09092598
-4.190668	#27SaSuria	-0.2786385
-4.491698	#27Scatradio	-0.09018319
-4.491698	#27Scua	-0.08530247
-4.491698	#27Sdesdedins	-0.091038
-4.190668	#27Sel	-0.3088294
-4.491698	#27Sr#27SRac1	-0.08884856
-2.692357	#27Srac1	-0.5513756
-4.491698	#27Stv3	-0.05973978
-1.852211	#27s	-0.4382828
-4.491698	#27s15	-0.091038
-2.911914	#27s2015	-0.3040639
-4.491698	#27s2015VotaIndependencia	-0.06961695
-4.190668	#27s2015oncomencatot	-0.06930799
-4.491698	#27s2015votaindependencia	-0.06961695
-4.014576	#27s8aldia	-0.1926161
-4.491698	#27sCatRadio	-0.091024
-3.713547	#27sEPA	-0.3823356
-4.190668	#27sEbre	-0.06315672
-4.491698	#27sLaVanguardia	-0.091052
-4.190668	#27sRAC1	-0.08551521
-4.014576	#27sTV3	-0.06635439
-4.190668	#27scatradio	-0.05952909
-4.491698	#27sebre	-0.0849193
-4.491698	#27sel9tv	-0.09092599
-4.491698	#27setembre	-0.06961695
-4.491698	#27sgovernemnos	-0.05973978
-4.491698	#27sningudormintalcarrer	-0.05973978
-3.34557	#27srac1	-0.1707539
-3.588608	#27stv3	-0.2841353
-4.491698	#27svotaindependencia	-0.091052
-4.491698	#27svotem	-0.09081395
-4.491698	#28S	-0.05973978
-4.491698	#848%	-0.05973978
-3.889638	#9N	-0.06094176
-4.491698	#9barris	-0.06961695
-4.491698	#APerTotes	-0.091052
-4.491698	#ARVObjetivoCataluna	-0.09098201
-4.491698	#AVotar	-0.06961695
-4.491698	#AlAlba	-0.05973978
-4.491698	#Alegria	-0.06961695
-4.491698	#Anem	-0.09089798
-4.491698	#Apeudurna	-0.091052
-4.491698	#ApoderadosCs	-0.07877075
-4.491698	#ApoderatsJuntsPelSi	-0.08886264
-4.491698	#AraEsLHora	-0.08875006
-4.491698	#AraRepublicaCatalana	-0.08886264
-4.491698	#Araeslhora	-0.08959365
-4.491698	#ArturMas	-0.07877075
-4.491698	#Avotar	-0.0849193
-4.491698	#AvuiEsElDia	-0.05973978
-4.491698	#AvuiEsVota	-0.09008499
-3.6466	#Badalona	-0.1114672
-4.491698	#Badia	-0.09084196
-4.491698	#Balldegitanes	-0.07877075
-4.190668	#Barcelona	-0.05354207
-3.713547	#Batea	-0.4492771
-4.491698	#Begues	-0.09001483
-4.491698	#Berga	-0.06961695
-4.014576	#Besalu	-0.5156221
-4.491698	#Blanes	-0.05973978
-4.491698	#BonDia	-0.091052
-4.491698	#Borrassa	-0.05973978
-4.491698	#Boston	-0.09040757
-4.190668	#CAT	-0.0586853
-4.491698	#CATALUNYA	-0.09082796
-4.491698	#CDC	-0.09101
-3.6466	#CUP	-0.2821221
-4.491698	#Cadaques	-0.09101
-4.491698	#Calafell	-0.06961695
-4.491698	#Cambrils	-0.09074391
-4.491698	#Camprodon	-0.05973978
-4.491698	#Canigo	-0.05973978
-4.491698	#CanviaremLaHistoria	-0.05973978
-4.491698	#Capcanes	-0.0849193
-4.491698	#Cassa	-0.06961695
-4.491698	#Castelldefels	-0.091052
-4.491698	#Castellers	-0.05973978
-4.491698	#CatParlaCtxt	-0.05973978
-4.491698	#CatRadio	-0.08352564
-4.491698	#CatSiQue	-0.05973978
-4.190668	#CatSiQueEsPot	-0.08724158
-4.491698	#CatSiQueEsPot27	-0.05973978
-2.935395	#CatSiQueEsPot27S	-0.3657384
-4.491698	#CatSiqueEsPot27S	-0.05973978
-3.34557	#Catalonia	-0.1530932
-4.491698	#CataloniaIndependence	-0.09001483
-4.491698	#CataloniaIndependencia	-0.05973978
-4.491698	#CataloniaIsNotSpain	-0.091052
-4.491698	#CataloniaSaysYES	-0.05973978
-3.450305	#CataloniaVotes	-0.296035
-4.190668	#CataloniaVotesIndy	-0.2786385
-4.491698	#CataloniaWins	-0.05973978
-4.491698	#Cataloniaisnotspain	-0.05973978
-3.889638	#Cataluna	-0.09067386
-4.491698	#CatalunaEsEspana	-0.05973978
-2.6466	#Catalunya	-0.3026532
-3.588608	#CatalunyaLliure	-0.07840247
-3.889638	#CatalunyaSiQueEsPot	-0.1588088
-4.190668	#CatalunyaVota	-0.06721301
-4.491698	#Catalunyaesjugaelseufutur	-0.06961695
-4.491698	#Catalunyaguanya	-0.08990256
-4.491698	#Catalunyaindependent	-0.08993063
-4.014576	#Catalunyalliure	-0.05812689
-4.491698	#Catalunyashomereix	-0.06961695
-4.190668	#Catalunyatindrapoder	-0.0898043
-4.190668	#CatparlaCtxt	-0.2786385
-4.491698	#Cerdanya	-0.09077193
-4.491698	#Cervera	-0.091052
-4.491698	#Comenca	-0.08774969
-4.491698	#Cornella	-0.08877821
-4.491698	#Cs	-0.08774969
-4.491698	#CuquiCUP	-0.05973978
-4.491698	#Decidim	-0.06961695
-4.014576	#Democracia	-0.1926913
-4.491698	#Diumenge	-0.08698729
-4.491698	#Divendres	-0.091052
-4.491698	#Dui	-0.06961695
-4.491698	#Durex	-0.06961695
-4.491698	#ECC2015	-0.06961695
-4.491698	#ELboli	-0.091052
-4.491698	#EclipseLunar	-0.06961695
-4.491698	#EconomiaSolidariaFeminisme	-0.06961695
-3.889638	#ElMonEnsMira	-0.3330463
-4.190668	#ElVotDeLaMevaVida	-0.08807401
-4.491698	#ElVotDeLaNostraVida	-0.05973978
-3.713547	#ElVotDeLaTevaVida	-0.18914
-4.190668	#ElVotDeLesNostresLluites	-0.08884857
-4.491698	#ElVotdelaTevaVida	-0.0849193
-4.491698	#Elecciones27S	-0.090954
-4.190668	#EleccionesCatalanas	-0.05930324
-4.491698	#EleccionesLV	-0.05973978
-3.889638	#Eleccions	-0.1544415
-3.060334	#Eleccions2015	-0.4278539
-3.190668	#Eleccions27S	-0.2180728
-3.491698	#EleccionsCatalanes	-0.2364867
-4.190668	#Emocio	-0.05737115
-4.491698	#Espana	-0.05973978
-4.491698	#Esplugues	-0.09074391
-4.491698	#Estelles	-0.09011305
-4.491698	#EsticDelsNervis	-0.05973978
-4.491698	#FeinaFeta	-0.09029539
-4.190668	#Fem	-0.3087732
-3.190668	#FemHistoria	-0.1708551
-4.491698	#FentHistoria	-0.05973978
-4.491698	#Figueres	-0.05973978
-4.491698	#Franco	-0.05973978
-4.491698	#FreeCatalonia	-0.09101
-4.491698	#Freedom	-0.06961695
-4.491698	#Freedomcatalonia	-0.06961695
-4.491698	#FreedomforCatalonia	-0.091052
-4.491698	#GalizaconCatalunya	-0.05973978
-4.014576	#Girona	-0.05311451
-4.491698	#Go	-0.09008499
-4.491698	#Gorvernemnos	-0.09098201
-2.878914	#Governemnos	-0.4450225
-4.190668	#Gracia	-0.06355958
-3.889638	#Guanyarem	-0.1317457
-3.889638	#GuanyaremJunts	-0.03567401
-2.274214	#GuanyemJunts	-0.5327253
-4.491698	#Guanyemjunts	-0.05973978
-4.491698	#HeVotatPerTu	-0.05973978
-4.190668	#HemGuanyat	-0.03664302
-4.491698	#HoVolemTot	-0.08959365
-4.491698	#HoVolemtot	-0.05973978
-4.491698	#Iamacatalan	-0.091052
-3.588608	#Iceta27S	-0.2328097
-4.491698	#IcetaLoPeta	-0.091052
-4.491698	#Icetahopeta	-0.05973978
-4.014576	#Igualada	-0.06879255
-4.190668	#Increible	-0.2885157
-2.848245	#Independencia	-0.2804469
-4.491698	#Indy	-0.05973978
-4.491698	#JUNTSPELSI	-0.09033746
-4.491698	#JaNoEnsAlimentenMolles	-0.091052
-4.491698	#Jahemvotat	-0.09053373
-4.491698	#Jahevotat	-0.08352564
-4.491698	#JoCUP	-0.06961695
-4.491698	#JoDicSI	-0.06961695
-4.491698	#JoDicSi	-0.05973978
-3.792728	#JoJaHeVotat	-0.05520244
-4.491698	#JoVoto	-0.08884856
-4.491698	#JoVullVotar	-0.091052
-4.190668	#Jojahevotat	-0.0848483
-4.491698	#Jungfrau	-0.090968
-4.014576	#JuntesPelSi	-0.2239009
-3.491698	#JuntsGuanyem	-0.2021225
-4.491698	#JuntsGuayem	-0.05973978
-4.491698	#JuntsHoFaremPossible	-0.05973978
-4.491698	#JuntsHoPodemTot	-0.05973978
-4.491698	#JuntsPelSI	-0.05973978
-2.295798	#JuntsPelSi	-0.4017257
-4.491698	#Juntshofarempossible	-0.05973978
-4.491698	#JuntspelSI	-0.06961695
-3.6466	#JuntspelSi	-0.1444807
-4.491698	#JuntsxSi	-0.06961695
-4.190668	#JxSi	-0.2786385
-4.491698	#Kenya	-0.06961695
-3.588608	#L6cat	-0.3312623
-4.491698	#LOSERS	-0.06961695
-4.491698	#LaCatalunyaDeLaGent	-0.05973978
-4.491698	#LaCatalunyadelaGent	-0.09051971
-4.491698	#LaPortella	-0.0811547
-4.491698	#LaRapita	-0.09053373
-4.491698	#Llagostera	-0.09033746
-4.014576	#Lleida	-0.07976325
-3.889638	#Llibertat	-0.1838895
-4.491698	#Llinars	-0.091052
-4.190668	#Lluca	-0.09102401
-4.190668	#Llucanes	-0.03664302
-4.491698	#Madrid	-0.09077193
-4.491698	#Manresa	-0.08805991
-4.491698	#Maresme	-0.06961695
-4.190668	#Martorell	-0.2885157
-4.491698	#Mas	-0.08988852
-4.491698	#Masnou	-0.08530247
-4.491698	#Mesa	-0.091038
-4.491698	#Minions	-0.05973978
-4.491698	#Moia	-0.06961695
-4.491698	#MomentHistoric	-0.09058978
-4.491698	#Montornes	-0.05973978
-4.491698	#Montras	-0.091052
-4.491698	#NO	-0.06961695
-4.190668	#Nervis	-0.08883449
-4.190668	#NoTeQuedesEnCasa	-0.05955919
-4.190668	#NoTenimPor	-0.05972473
-4.491698	#NobelPaz	-0.09008499
-4.491698	#Nord	-0.0886093
-4.491698	#NouPais	-0.05973978
-4.491698	#NowPlaying	-0.09061781
-4.491698	#Oliana	-0.091052
-4.491698	#OmplimLesUrnes	-0.08886264
-4.190668	#PP	-0.0835114
-4.491698	#PPCC	-0.0849193
-4.491698	#PSC	-0.08352564
-4.491698	#PaisValencia	-0.08469206
-4.491698	#Palafrugell	-0.06961695
-4.491698	#Parlament	-0.090996
-4.491698	#Pastissoscatalans	-0.08959365
-4.491698	#PellDeGallina	-0.09101
-4.491698	#PerTuCarinyo	-0.091052
-4.491698	#PerUnFuturMillor	-0.091038
-4.491698	#PerUnNouPais	-0.06961695
-4.491698	#PeriodismeDeMerda	-0.05973978
-4.491698	#Periscope	-0.06961695
-4.491698	#Pla	-0.091038
-4.190668	#Podemos	-0.3076488
-4.491698	#Puertadelsol	-0.08988852
-4.491698	#QueNinguEsQuediACasa	-0.06961695
-4.491698	#QueTinguemSort	-0.05973978
-4.491698	#Quebec	-0.0877779
-4.491698	#QuiTePorAra	-0.05973978
-4.491698	#Rajoy	-0.09101
-4.491698	#RepublicaCatalana	-0.05973978
-4.491698	#RepublicaCatalanaSistema	-0.09051971
-4.491698	#Reus	-0.08986045
-4.190668	#RiA	-0.03664302
-4.190668	#RicardiAnna	-0.3099367
-4.491698	#Ripoll	-0.05973978
-4.190668	#Riudebitlles	-0.08877821
-4.491698	#Riudellots	-0.05973978
-4.491698	#Riumors	-0.091052
-4.014576	#RodadeTer	-0.4850665
-4.491698	#RubiCIty	-0.05973978
-4.491698	#Rupit	-0.09075792
-4.491698	#SI	-0.091052
-4.491698	#SQV	-0.09033746
-4.491698	#Salt	-0.08959365
-4.491698	#SantAndreu	-0.06961695
-4.491698	#SantBoi	-0.05973978
-4.014576	#SantCugat	-0.08169857
-4.491698	#SantVicencDelsHorts	-0.06961695
-4.491698	#SantiPons	-0.08352564
-4.491698	#SantsMontjuic	-0.05973978
-4.491698	#SeguimSumant	-0.0849193
-4.491698	#SegumSeguirem	-0.06961695
-3.792728	#SensePor	-0.1106134
-4.190668	#Si	-0.08988852
-4.491698	#Sidney	-0.09056176
-4.491698	#Solsona	-0.09065985
-3.889638	#SomElVent	-0.02231899
-4.190668	#SomHistoria	-0.05934842
-4.491698	#SomImparables	-0.05973978
-2.751335	#SomLaHistoria	-0.5373711
-4.491698	#Somdecisius	-0.06961695
-4.491698	#Somhi	-0.05973978
-4.491698	#SomlaHistoria	-0.06961695
-4.014576	#Somlahistoria	-0.05728037
-4.190668	#Somlhostia	-0.3099227
-4.491698	#Sommoltgrans	-0.090996
-4.491698	#Somnicatala	-0.0906038
-4.491698	#SomnisComplerts	-0.05973978
-3.491698	#SomriureCUP	-0.2391381
-3.889638	#SomriureCup	-0.1546978
-4.491698	#Somriurecup	-0.09001483
-4.491698	#Sort	-0.05973978
-4.491698	#TIC	-0.091052
-4.491698	#TOT	-0.0849193
-3.889638	#TV3	-0.07637363
-4.014576	#Tarragona	-0.2015995
-3.713547	#TerraAlta	-0.2211469
-4.491698	#TheLastDance	-0.05973978
-4.014576	#Tiana	-0.08779199
-4.491698	#Tordera	-0.05973978
-4.491698	#Tortosa	-0.091038
-4.491698	#Totsjunts	-0.06961695
-4.014576	#UnDiaPerDecidir	-0.4850665
-4.491698	#UnVotMes	-0.091052
-4.491698	#ValdAran	-0.05973978
-4.491698	#VallesOriental	-0.09082796
-4.190668	#Valls	-0.06919023
-4.491698	#ViNordproductions	-0.05973978
-4.491698	#ViaVerda	-0.091052
-4.491698	#VilaDeGracia	-0.05973978
-4.491698	#Vilafranca	-0.06961695
-4.190668	#VilassardeMar	-0.3095586
-3.537455	#ViscaCatalunya	-0.2279228
-3.491698	#ViscaCatalunyaLliure	-0.2080213
-4.491698	#VotaAmbUnSomriure	-0.09063183
-4.491698	#VotaDUI	-0.05973978
-4.491698	#VotaPP	-0.06961695
-2.960219	#VotaPerMi	-0.2915643
-4.491698	#VotaPerTu	-0.08886264
-4.491698	#VotaSi	-0.08530247
-4.491698	#VotaSocialista	-0.08988852
-4.190668	#Votapermi	-0.05972473
-4.491698	#VotarePerMi	-0.09088399
-4.491698	#VotarePerNosaltres	-0.05973978
-3.377754	#VotarePerTu	-0.1551308
-4.491698	#VotdelaMevaVida	-0.09018319
-4.491698	#Votem	-0.05973978
-4.491698	#VotemIndependencia	-0.09078594
-4.491698	#VoteuPerMi	-0.06961695
-4.190668	#VotoPer	-0.3099367
-4.491698	#aBadalonaSiQueEsPot	-0.09056176
-4.491698	#adeuPP	-0.06961695
-3.713547	#adeuespanya	-0.195242
-4.190668	#aixoanirabe	-0.09070189
-4.491698	#alallista	-0.05973978
-4.491698	#albons	-0.0886093
-4.491698	#ambentillu	-0.08872191
-4.190668	#ambillusio	-0.08814448
-4.491698	#ambunsomriure	-0.08530247
-4.014576	#anaconda	-0.05277829
-4.491698	#anecdotesApoderades	-0.05973978
-4.491698	#anell	-0.09063183
-4.491698	#anematotes	-0.09016916
-4.491698	#anembe	-0.06961695
-4.491698	#anemlentsperqueanemlluny	-0.091038
-4.491698	#anemlluny	-0.091024
-4.491698	#anoia	-0.06961695
-4.491698	#apetar	-0.06961695
-4.491698	#apoderats	-0.05973978
-4.491698	#app	-0.091052
-3.169478	#araeslhora	-0.08654737
-4.190668	#araomai	-0.05972473
-4.491698	#aratocaesperar	-0.06961695
-4.491698	#askatasuna	-0.0849193
-3.889638	#avotar	-0.05996539
-4.491698	#avui	-0.09053373
-4.491698	#avuiCUP	-0.09077193
-4.190668	#avuidecidim	-0.2786385
-4.491698	#avuieseldia	-0.09032344
-4.491698	#avuieselfutur	-0.091052
-4.491698	#avuiguanyem	-0.091052
-4.491698	#avuinoesdorm	-0.05973978
-4.491698	#avuipotserploro	-0.06961695
-4.491698	#avuisi	-0.05973978
-4.491698	#avuisiquesi	-0.091052
-4.491698	#bages	-0.091052
-4.491698	#bandasonora	-0.091052
-4.491698	#banyoles	-0.09068787
-4.491698	#barcelona	-0.05973978
-4.491698	#berga	-0.090996
-4.491698	#bergueda	-0.091052
-4.491698	#bichon	-0.091052
-4.491698	#bichonmaltes	-0.091052
-4.491698	#bonaenergia	-0.05973978
-4.491698	#bonafeina	-0.08352564
-4.190668	#bondia	-0.2786385
-4.491698	#bondiacatalunya	-0.05973978
-4.491698	#bonventibarcanova	-0.09077193
-4.491698	#botiflers	-0.08884856
-4.491698	#brometesxriuretots	-0.05973978
-4.491698	#bso	-0.06961695
-4.491698	#byebyehastaotroratito	-0.05973978
-4.491698	#byebyespain	-0.05973978
-4.491698	#cabaret	-0.091052
-4.491698	#calvotar	-0.091052
-4.491698	#camicapalaindependencia	-0.090968
-4.491698	#canvi	-0.091024
-4.491698	#capavotar	-0.09063183
-4.491698	#cardedeu	-0.091052
-4.491698	#castellers	-0.091052
-4.014576	#cat	-0.06955811
-4.491698	#catalana	-0.091052
-3.412517	#catalonia	-0.1010882
-4.491698	#cataloniaindependencia	-0.09091199
-3.491698	#cataloniaisnotspain	-0.2061334
-4.491698	#cataloniavotes	-0.09081395
-2.767422	#catalunya	-0.2869237
-4.491698	#catalunyadecideix	-0.05973978
-4.491698	#catalunyaexperience	-0.091052
-3.889638	#catalunyaindependent	-0.1323968
-3.0293	#catalunyalliure	-0.2068317
-4.491698	#catalunyatestimo	-0.08886264
-4.491698	#catalunyatualateva	-0.09018319
-4.491698	#catnopot	-0.05973978
-4.491698	#chao	-0.091052
-4.491698	#cinturonrojo	-0.091052
-4.491698	#clau	-0.08530247
-4.491698	#clikcat	-0.091052
-4.491698	#collalnus	-0.06961695
-4.491698	#collegi	-0.09046365
-4.491698	#conselldeldia	-0.0849193
-4.491698	#cookies	-0.091052
-4.491698	#copdeCUP	-0.08817266
-3.713547	#cornella	-0.05814198
-4.491698	#cridembenfort	-0.05973978
-4.491698	#crispacio	-0.08825721
-4.491698	#cuinemnos	-0.0849193
-3.450305	#cup	-0.2242599
-4.491698	#dance	-0.091052
-4.491698	#data	-0.08817266
-4.014576	#decidim	-0.05969463
-3.236425	#democracia	-0.113178
-4.491698	#democraciareal	-0.091052
-4.190668	#democracy	-0.3099367
-4.491698	#democrates	-0.05973978
-4.491698	#dempeus	-0.08352564
-4.491698	#depen	-0.091052
-4.491698	#dependencia	-0.09044962
-4.491698	#descarregatlapp27s	-0.05973978
-4.491698	#descobreixcatalunya	-0.091052
-4.491698	#desdequito	-0.06961695
-4.491698	#detallets	-0.06961695
-4.491698	#deuresfets	-0.091052
-4.491698	#devantalerespoweralesurnes	-0.05973978
-4.491698	#dia	-0.091052
-4.491698	#diada2015	-0.091052
-3.889638	#diahistoric	-0.03661127
-4.491698	#diahistorico	-0.06961695
-4.491698	#dialeg	-0.05973978
-4.491698	#diaperlahistoria	-0.09094
-4.491698	#diaunic	-0.05973978
-4.190668	#dignitat	-0.2786385
-4.491698	#dinardegermanor	-0.0849193
-4.491698	#dissimuleunens	-0.05973978
-4.190668	#diumenge	-0.06883676
-4.491698	#dones	-0.06961695
-4.491698	#dontstopmenow	-0.06961695
-4.014576	#dretadecidir	-0.05940863
-4.491698	#dubteserios	-0.08884856
-3.792728	#e15	-0.2601086
-4.491698	#educacio	-0.08352564
-4.491698	#eixmaragall	-0.08352564
-4.491698	#elVotdelamevaVida	-0.06961695
-4.491698	#eldiadelamarmota	-0.08884856
-4.491698	#elecciones	-0.09032344
-4.491698	#elecciones2015	-0.0849193
-4.491698	#eleccionesa3	-0.05973978
-2.567419	#eleccionescatalanas	-0.4749784
-3.000336	#eleccions	-0.2725837
-3.491698	#eleccions2015	-0.06032092
-3.889638	#eleccions27S	-0.1643729
-3.713547	#eleccions27s	-0.1203165
-4.491698	#eleccions27s2015	-0.05973978
-4.491698	#eleccionsCat	-0.08875006
-4.491698	#eleccionsCatalunya27S	-0.05973978
-4.491698	#eleccionsalparlament	-0.09098201
-2.935395	#eleccionscatalanes	-0.411003
-4.190668	#eleccionscatalanes2015	-0.2786385
-4.190668	#eleccionsdeCatalunya	-0.05946887
-4.491698	#eleccionsparlamentcatalunya2015	-0.09094
-4.491698	#elections	-0.05973978
-4.491698	#elfuturesatocar	-0.06961695
-4.491698	#elgatdelatevavida	-0.09101
-4.491698	#elmaremcrida	-0.091038
-4.491698	#elmeuavitambehavotat	-0.06961695
-4.491698	#elmeupetitpais	-0.05973978
-4.491698	#elmonensmira	-0.09081395
-4.491698	#elmotorsomtotes	-0.09086998
-4.491698	#elprat	-0.05973978
-4.491698	#elquehauriadeser	-0.091052
-4.491698	#elshowdelcollegi	-0.06961695
-4.491698	#elsidelanostravida	-0.091052
-4.491698	#elsidelatevavida	-0.09032344
-4.491698	#elvotdelameuavida	-0.06961695
-2.767422	#elvotdelamevavida	-0.3484439
-3.792728	#elvotdelanostravida	-0.06254425
-2.685518	#elvotdelatevavida	-0.2184559
-4.491698	#embogint	-0.06961695
-3.537455	#emocio	-0.2462017
-4.491698	#emocionada	-0.09077193
-4.491698	#emporda	-0.091038
-4.190668	#endavant	-0.2786385
-4.190668	#escrutinio	-0.3087873
-4.491698	#eselmoment	-0.091024
-4.491698	#espai210	-0.09061781
-4.491698	#esparreguera	-0.05973978
-4.491698	#esperanca	-0.05973978
-4.491698	#esperaqesunsondeig	-0.05973978
-4.491698	#esperunamic	-0.0849193
-4.491698	#estabilitat	-0.091052
-4.190668	#estapassant	-0.06837977
-4.491698	#estemFentHistoria	-0.05973978
-4.491698	#estim	-0.05973978
-4.190668	#expectacio	-0.08842625
-4.491698	#expressar	-0.091052
-4.491698	#face	-0.091052
-4.491698	#fail	-0.06961695
-4.190668	#familia	-0.09057578
-4.190668	#faremhistoria	-0.2786385
-4.491698	#farsants	-0.0849193
-4.491698	#fartadexorrades	-0.08817266
-4.491698	#fastic	-0.06961695
-3.889638	#fb	-0.732018
-4.190668	#feelinghappy	-0.2885157
-3.889638	#feinafeta	-0.06923439
-4.491698	#felic	-0.05973978
-4.491698	#felic2015	-0.091052
-3.713547	#femhistoria	-0.02887824
-4.491698	#femhobe	-0.091038
-4.491698	#femhojunts	-0.091052
-4.491698	#femhopossible	-0.09032344
-4.491698	#femnossentir	-0.05973978
-3.792728	#fenthistoria	-0.1045288
-4.190668	#fentpais	-0.05894163
-4.491698	#festadelademocracia	-0.091052
-4.491698	#fethistoric	-0.05973978
-4.491698	#fff	-0.06961695
-4.491698	#figueres	-0.09036551
-4.491698	#finalcountdown	-0.06961695
-4.491698	#fmcervera	-0.091052
-4.491698	#fmelprat	-0.0886093
-4.491698	#foment	-0.091052
-4.491698	#formiguetes	-0.05973978
-4.491698	#fredoomforcatalonia	-0.091052
-4.190668	#freedom	-0.09101
-4.491698	#freedomcatalonia	-0.091052
-4.491698	#freedomforCatalonia	-0.05973978
-3.713547	#freedomforcatalonia	-0.1437929
-4.491698	#freedomiscomimg	-0.06961695
-4.190668	#futur	-0.09009902
-4.491698	#gat	-0.091038
-4.491698	#germanet	-0.09081395
-3.169478	#governemnos	-0.1818559
-4.491698	#governmenos	-0.09001483
-4.491698	#grallers	-0.091052
-4.491698	#granollers	-0.0811547
-4.491698	#guanyaelsi	-0.091052
-3.12997	#guanyarem	-0.4766461
-3.889638	#guanyaremjunts	-0.3340858
-4.491698	#guanyem	-0.06961695
-4.190668	#guanyemJunts	-0.06315672
-4.491698	#guanyemjuntes	-0.08875006
-3.111486	#guanyemjunts	-0.2554313
-4.491698	#guayomini	-0.0849193
-4.491698	#happy	-0.06961695
-4.491698	#hedit	-0.08884856
-4.491698	#hemeroteca	-0.08817266
-4.491698	#hevotat	-0.0849193
-4.491698	#hihanoticiesinnecessaries	-0.09078594
-4.491698	#historia	-0.05973978
-4.491698	#historic	-0.05973978
-4.491698	#hoaconseguirem	-0.05973978
-4.491698	#hofarem	-0.09088399
-4.491698	#hopodemtot	-0.05973978
-3.713547	#hovolemtot	-0.08197026
-4.491698	#hoypuedeserungrandia	-0.090954
-4.491698	#iaiavalenta	-0.06961695
-4.190668	#iaios	-0.3097967
-4.491698	#iamcatalan	-0.0849193
-4.491698	#iceta	-0.05973978
-4.190668	#igers	-0.05972473
-4.491698	#igersbcn	-0.091038
-4.491698	#igerscatalunya	-0.091052
-4.491698	#igersvoriental	-0.05973978
-4.491698	#igualada	-0.05973978
-3.588608	#illusio	-0.204022
-4.491698	#ilusio	-0.09081395
-4.491698	#impaciencia	-0.05973978
-4.491698	#incostabrava	-0.05973978
-4.190668	#independecia	-0.05972473
-4.491698	#independence	-0.091052
-4.491698	#independencecatalonia	-0.08886264
-2.57262	#independencia	-0.3625584
-4.491698	#independenciaja	-0.05973978
-4.491698	#independenciapercanviarhotot	-0.05973978
-4.491698	#independent	-0.09032344
-4.491698	#independentistes	-0.091038
-4.491698	#independncia	-0.05973978
-4.491698	#indignacio	-0.09057577
-4.491698	#indignada	-0.05973978
-4.491698	#indignant	-0.08817266
-4.491698	#indoors	-0.091052
-4.491698	#indyref	-0.05973978
-4.491698	#injusticia	-0.06961695
-4.491698	#insomni	-0.06961695
-4.491698	#instaosona	-0.06961695
-4.491698	#instawine	-0.05973978
-3.261249	#jahevotat	-0.2384004
-4.491698	#jahotenim	-0.05973978
-4.491698	#janhihaprou	-0.05973978
-4.491698	#janotincungles	-0.06961695
-4.491698	#javan15minuts	-0.06961695
-4.491698	#jodecideixo	-0.091024
-4.491698	#joflipo	-0.06961695
-3.236425	#jojahevotat	-0.2579164
-4.190668	#jonotincpor	-0.2786385
-4.491698	#jornadahistorica	-0.05973978
-4.491698	#jovotoSI	-0.06961695
-4.491698	#juas	-0.06961695
-4.491698	#juntesguanyarem	-0.06961695
-4.014576	#juntespelsi	-0.05970968
-4.014576	#junts	-0.03527625
-4.491698	#juntsanemmeslluny	-0.05973978
-4.491698	#juntsfaremhistoria	-0.09044962
-4.190668	#juntsguanyarem	-0.08416614
-4.190668	#juntsguanyem	-0.05972473
-4.491698	#juntspelSI	-0.05973978
-4.491698	#juntspelmiau	-0.091052
-2.767422	#juntspelsi	-0.2253905
-4.491698	#juntspodem	-0.05973978
-4.014576	#justiciasocial	-0.224111
-4.491698	#jxsi	-0.08990256
-4.491698	#laVanguardia	-0.05973978
-4.491698	#laXarxa	-0.05973978
-4.014576	#ladada	-0.06651736
-4.491698	#lafiestadelademocracia	-0.091052
-4.190668	#laforcadelseny	-0.08416614
-4.491698	#laiaiatambevota	-0.091052
-4.491698	#lapornovota	-0.06961695
-4.190668	#larevoltadelssomriures	-0.08463524
-3.6466	#larevoluciodelssomriures	-0.1932843
-4.491698	#lasegarra	-0.090954
-4.491698	#laveudelpoble	-0.091052
-4.491698	#lesmudanceslesfarementretots	-0.06961695
-4.491698	#lesseguiremdesdeeltren	-0.05973978
-4.190668	#lhospitalet	-0.08848258
-4.491698	#lidiaheredia	-0.091052
-3.169478	#llibertat	-0.1714081
-4.491698	#llibertatperdecidir	-0.091024
-4.491698	#lliurement	-0.08352564
-4.190668	#lliures	-0.06858622
-4.491698	#lottecat	-0.091052
-4.491698	#lovedogs	-0.05973978
-4.491698	#macanetdecabrenys	-0.05973978
-4.491698	#majoriaabsoluta	-0.0849193
-3.412517	#malgratdemar	-0.2432455
-4.491698	#mamapor	-0.06961695
-4.491698	#manlleu	-0.091024
-3.713547	#marxem	-0.06823223
-4.491698	#marxemdema	-0.05973978
-4.491698	#marxemja	-0.06961695
-4.491698	#mataro	-0.0849193
-4.491698	#maytheforcebewithyou	-0.05973978
-4.491698	#me	-0.05973978
-4.491698	#mesa1001A	-0.05973978
-4.491698	#meteolook	-0.0849193
-4.491698	#millornoticia	-0.0849193
-4.491698	#moltafeina	-0.0849193
-4.491698	#monica39	-0.05973978
-4.491698	#nacionsunides	-0.091052
-4.491698	#necessitounatilla	-0.05973978
-3.212944	#nervis	-0.1821093
-4.491698	#nervismaxims	-0.05973978
-4.491698	#nervits	-0.05973978
-4.491698	#netejantCatalunya	-0.06961695
-4.190668	#nitelteuvot	-0.03664302
-4.491698	#nitintensa	-0.0849193
-4.491698	#noemdeixenvotar	-0.08530247
-4.491698	#noentender	-0.08884856
-4.491698	#noetquedisacasa	-0.0849193
-4.190668	#nopucmes	-0.2786385
-4.491698	#nopucvotar	-0.08392428
-4.491698	#normalitat	-0.091052
-4.491698	#nosomespanya	-0.05973978
-4.014576	#notenimpor	-0.05961939
-4.491698	#noticias	-0.0849193
-4.491698	#noubarris	-0.05973978
-4.190668	#noupais	-0.08879228
-4.491698	#nusalcoll	-0.091052
-3.588608	#oCUPemLesUrnes	-0.2075038
-4.190668	#oCUPemlesurnes	-0.05967959
-4.491698	#ojoaldato	-0.05973978
-4.190668	#oletu	-0.05354207
-4.491698	#olot	-0.08990256
-4.190668	#omplimlesurnes	-0.05969464
-4.491698	#onseremdema	-0.06961695
-4.491698	#ontotcomenca	-0.0849193
-4.491698	#opinar	-0.091052
-4.491698	#orgullosa	-0.091052
-4.014576	#osona	-0.06314179
-4.491698	#outdoors	-0.08352564
-4.190668	#pacma	-0.09102401
-4.491698	#pacmalleida	-0.091052
-4.491698	#paisnou	-0.05973978
-4.491698	#paispetit	-0.091052
-4.190668	#parellesbenavingudes	-0.0848909
-4.190668	#parlament	-0.08277006
-4.491698	#parlament2015	-0.0849193
-3.792728	#participacio	-0.09940314
-4.491698	#partidoanimalista	-0.091052
-4.491698	#partitanimalista	-0.0849193
-4.491698	#pataPPam	-0.08884856
-4.190668	#paucasals	-0.09103801
-4.491698	#pedraforca	-0.05973978
-4.491698	#pelldegallina	-0.08988852
-4.491698	#pelnostrefutur	-0.06961695
-4.491698	#pelseufutur	-0.091052
-4.491698	#pelsnostresfills	-0.05973978
-4.491698	#pelsquejanohison	-0.091052
-4.491698	#pelsquevindran	-0.0849193
-4.491698	#perCatalunya	-0.09094
-4.491698	#perQueterunya	-0.05973978
-4.491698	#percanviarhotot	-0.05973978
-4.491698	#percatalunya	-0.05973978
-4.491698	#perlanostrafilla	-0.091052
-4.491698	#permi	-0.09101
-4.491698	#perquetambevotoperells	-0.06961695
-4.491698	#persempre	-0.05973978
-4.491698	#persones	-0.090996
-3.889638	#pertu	-0.1553455
-4.491698	#pertuSantiPons	-0.05973978
-4.491698	#pertufill	-0.05973978
-4.491698	#perunfuturlliure	-0.05973978
-4.014576	#perunfuturmillor	-0.4850665
-4.190668	#perunpaislliure	-0.09075793
-4.491698	#perunpaismillor	-0.09044962
-4.491698	#pervariar	-0.05973978
-4.491698	#petitsperovalents	-0.05973978
-4.491698	#pipes	-0.09039354
-4.491698	#pluja	-0.05973978
-4.190668	#poblenou	-0.3042012
-4.491698	#porCataluna	-0.05973978
-4.491698	#pornuestrahija	-0.091052
-4.491698	#porra	-0.0849193
-4.491698	#porsufuturo	-0.091052
-4.491698	#postureigdemocratic	-0.091038
-4.190668	#postureo	-0.09018319
-4.491698	#primeravegada	-0.05973978
-4.491698	#primeravis	-0.06961695
-4.491698	#primervot	-0.08352564
-4.491698	#priorat	-0.05973978
-4.491698	#procesconstituent	-0.05973978
-4.491698	#prost	-0.0849193
-4.491698	#putarenfe	-0.09098201
-4.491698	#quemequitenlobailao	-0.06961695
-4.014576	#quinsnervis	-0.1906094
-4.491698	#record	-0.06961695
-3.792728	#republicacatalana	-0.4901207
-4.491698	#resensatura	-0.06961695
-4.491698	#respect	-0.09029539
-4.190668	#reus	-0.08988852
-4.491698	#revolucio	-0.06961695
-4.190668	#revoluciodelssomriures	-0.09015514
-4.491698	#roy	-0.09077193
-4.491698	#rubicity	-0.06961695
-4.491698	#rugbi	-0.091052
-4.491698	#sanitat	-0.091052
-4.190668	#santcugat	-0.2786385
-4.491698	#santfeliu27S	-0.091052
-4.190668	#santfeliu27s	-0.05725011
-4.491698	#santjoandespi	-0.0811547
-4.491698	#santllorencsavall	-0.091038
-4.491698	#sara	-0.05973978
-4.491698	#sarriasantgervasi	-0.09077193
-4.491698	#screenshot	-0.091052
-4.491698	#segarra	-0.091052
-4.491698	#selfies	-0.08825721
-4.491698	#senseSon	-0.06961695
-4.190668	#sensefiltres	-0.09101
-4.014576	#sensepor	-0.05198254
-4.491698	#sensetemor	-0.09101
-4.491698	#sentimentsaflordepell	-0.06961695
-4.491698	#sentmenat	-0.06961695
-4.491698	#senyera	-0.05973978
-4.190668	#si	-0.0880881
-4.491698	#sobrelarellevanciadevotar	-0.06961695
-4.491698	#solselpoblesalvaelpoble	-0.05973978
-4.190668	#somCatalunya	-0.3076488
-4.190668	#somdemocrates	-0.3098807
-3.713547	#somelvent	-0.03640492
-4.014576	#somhi	-0.05940863
-3.792728	#somlahistoria	-0.2185212
-4.491698	#sommoltgrans	-0.091038
-4.190668	#somriure	-0.05776431
-2.470509	#somriureCUP	-0.3425694
-4.190668	#somriureCup	-0.08800352
-3.889638	#somriurecup	-0.05774918
-4.014576	#somriures	-0.08791891
-4.190668	#somunitatpopular	-0.09094
-4.491698	#somunpais	-0.05973978
-4.190668	#sondeig	-0.05668986
-4.491698	#sondeigdetv3	-0.09056176
-4.491698	#sondeigs27S	-0.09053373
-4.491698	#sondeigtv3	-0.091038
-4.491698	#sun	-0.05973978
-4.491698	#sunday	-0.091052
-4.491698	#sunglasses	-0.091052
-4.491698	#sunrise	-0.091052
-4.491698	#superlluna27S	-0.05973978
-4.491698	#taradell	-0.05973978
-4.491698	#taradell27s	-0.08990256
-4.491698	#tardor2015	-0.091052
-3.792728	#tenimpressa	-0.1032045
-4.491698	#tenimpressamoltapressa	-0.06961695
-4.491698	#tincunsomni	-0.0849193
-4.491698	#tocantelsnuvols	-0.091052
-4.491698	#tocatreballarfinstard	-0.091038
-4.491698	#tolerancia	-0.08817266
-4.491698	#topicscansinos	-0.05973978
-4.014576	#tornaremavencer	-0.16973
-4.491698	#tossadalp	-0.091052
-4.491698	#totalarao	-0.09098201
-4.491698	#totcomenca27s	-0.091052
-4.491698	#totcomencaavui	-0.09098201
-4.491698	#tothomalcarrer	-0.0849193
-4.491698	#totsalesurnes	-0.05973978
-3.713547	#totsavotar	-0.291703
-4.491698	#trist	-0.091052
-4.491698	#tuhipintesmolt	-0.09068787
-4.491698	#tuitserio	-0.06961695
-4.491698	#tupinada	-0.0811547
-4.491698	#turnout	-0.05973978
-4.190668	#tv3	-0.06883676
-4.491698	#twitteron	-0.05973978
-4.491698	#unnoucami	-0.05973978
-4.491698	#unpaisnou	-0.09092599
-4.491698	#unvotpelmeuavi	-0.091052
-4.491698	#unvotpelmeupare	-0.091052
-4.491698	#unvotpelsmeusfills	-0.0849193
-4.190668	#vahomeva	-0.05972473
-4.491698	#vallesoriental	-0.05973978
-4.491698	#valls	-0.05973978
-4.491698	#vespre	-0.091052
-4.190668	#vialliure	-0.09015514
-4.491698	#vic	-0.0849193
-4.491698	#vilafant	-0.091052
-4.491698	#vilanovailageltru	-0.05973978
-4.491698	#viscaCatalunya	-0.05973978
-3.450305	#viscacatalunya	-0.2370632
-3.6466	#viscacatalunyalliure	-0.08339627
-4.491698	#viscalaterra	-0.08805991
-4.491698	#viscasabadell	-0.05973978
-4.491698	#vivaelvino	-0.06961695
-4.491698	#vivintallimit	-0.06961695
-4.491698	#vng	-0.091052
-4.014576	#vocaldemesa	-0.1917723
-4.491698	#volemdecidir	-0.09078594
-3.792728	#vot	-0.1277153
-4.014576	#vota	-0.09071589
-4.491698	#votaCUP	-0.091052
-4.491698	#votaINDEPENDENCIA	-0.05973978
-4.491698	#votaIndependencia	-0.09077193
-4.491698	#votaJxS	-0.091052
-4.491698	#votacio	-0.08817266
-4.190668	#votacions	-0.08392429
-4.491698	#votacions2015	-0.08990256
-4.491698	#votaindepe	-0.08880635
-4.491698	#votaindependencia	-0.08990256
-4.190668	#votantxtupetit	-0.05970969
-4.491698	#votaperells	-0.06961695
-3.12997	#votapermi	-0.1486764
-4.491698	#votapertu	-0.08352564
-3.792728	#votar	-0.08990255
-4.491698	#votareambunsomriure	-0.091052
-4.491698	#votarem	-0.05973978
-3.537455	#votarepertu	-0.2685267
-4.491698	#votaresensepor	-0.05973978
-4.491698	#votarpercorreu	-0.091038
-3.889638	#votat	-0.05161478
-4.190668	#vote	-0.05894163
-4.014576	#votem	-0.2026598
-4.491698	#votemcatalans	-0.09079995
-4.491698	#votemperserlliures	-0.091052
-4.014576	#votexterior	-0.0854443
-4.491698	#votopelsmeusfills	-0.09098201
-4.190668	#votopermi	-0.05925805
-4.190668	#votopertu	-0.0835114
-4.491698	#votpercorreu	-0.09081395
-4.491698	#vullrepublicacatalana	-0.091052
-4.491698	#webdoc	-0.091052
-4.491698	#wevote	-0.091024
-4.491698	#xcatalunya	-0.091052
-4.491698	#xist	-0.06961695
-4.491698	#xlanostragent	-0.091052
-4.491698	#xlanostrahistoria	-0.091052
-4.491698	#xlsnostresfills	-0.0849193
-3.889638	%	-0.3429325
-4.491698	'	-0.090968
-4.491698	'Llibertat	-0.08530247
-4.491698	'Son	-0.08986045
-4.491698	'escrutini'	-0.09056176
-4.491698	'junts'	-0.06961695
-4.491698	'light'	-0.08469206
-4.491698	'no	-0.08783431
-4.491698	'no'	-0.06961695
-4.491698	'pegaba	-0.09071589
-4.491698	'qui	-0.08769326
-4.491698	'si'	-0.08925641
-4.491698	'sorollet'	-0.08469206
-4.190668	0	-0.2885157
-4.491698	00	-0.09039354
-4.491698	001%	-0.09088399
-4.491698	011%	-0.09088399
-3.889638	03	-0.132127
-4.190668	04	-0.3098947
-4.491698	05	-0.09078594
-3.093758	1	-0.1431055
-3.315607	10	-0.1363424
-4.190668	100	-0.09096801
-4.014576	100%	-0.5162107
-4.491698	102anys	-0.090968
-4.491698	1039h	-0.05973978
-4.491698	1041	-0.09037953
-4.190668	107	-0.08898925
-4.190668	1074	-0.3099227
-4.491698	10h30	-0.06961695
-3.412517	11	-0.1063817
-4.491698	1100	-0.090968
-3.6466	1113	-0.1955568
-4.491698	1141054	-0.091052
-4.491698	119%	-0.09072991
-4.491698	1191%	-0.091038
-4.190668	11h	-0.07875635
-4.190668	12	-0.08873599
-4.491698	120	-0.091038
-3.889638	1214	-0.3641934
-4.491698	125%	-0.0886093
-4.491698	127	-0.091038
-4.491698	1290CUp	-0.05973978
-4.491698	12h	-0.091052
-4.014576	13	-0.09044962
-4.190668	13%	-0.2976695
-4.491698	138	-0.09101
-3.412517	13h	-0.1200903
-3.889638	1416	-0.3648667
-4.491698	142	-0.090996
-4.491698	1430h	-0.0886093
-4.491698	1445	-0.09005693
-4.491698	145	-0.09037953
-4.491698	147	-0.091052
-4.014576	14h	-0.02267963
-4.190668	15	-0.08114038
-4.491698	15h	-0.0905057
-4.014576	16	-0.08040932
-4.491698	160	-0.091038
-4.491698	161%	-0.09051971
-4.491698	1617804	-0.09046365
-4.491698	1658	-0.091052
-3.889638	17	-0.08963578
-4.491698	1714h	-0.05973978
-4.491698	1716%	-0.06961695
-4.491698	176%	-0.07877075
-4.491698	179	-0.09098201
-4.491698	17A	-0.091052
-4.190668	17h	-0.0851606
-3.792728	18	-0.06564253
-4.491698	18%	-0.05973978
-3.889638	1800	-0.18396
-4.491698	1800000	-0.08469206
-4.491698	1800h	-0.08698729
-4.491698	182%	-0.091024
-4.491698	184%	-0.09091199
-4.491698	186	-0.09075792
-4.491698	18anys	-0.091024
-4.491698	18e	-0.091038
-3.588608	18h	-0.1439519
-3.792728	19	-0.088074
-4.491698	190	-0.09078594
-4.491698	1915	-0.09081395
-4.491698	1917h	-0.09054774
-3.889638	1921	-0.3334986
-4.491698	193	-0.09051971
-4.491698	1940	-0.0811547
-4.491698	199%	-0.07877075
-4.190668	19h	-0.08295551
-3.588608	1a	-0.2662497
-4.491698	1era	-0.091052
-4.190668	1h	-0.07101192
-4.491698	1persona	-0.08783431
-4.190668	1r	-0.090926
-4.491698	1rs	-0.09053373
-4.491698	1vot	-0.091052
-3.000336	2	-0.05139252
-4.491698	2%	-0.07877075
-3.792728	20	-0.09008498
-4.014576	2000	-0.2238449
-4.491698	2005	-0.08805991
-3.34557	2012	-0.1828692
-4.491698	2015	-0.09023929
-4.491698	2023h	-0.091052
-4.190668	20h	-0.08238464
-4.491698	21	-0.0905057
-4.491698	213	-0.09037953
-4.491698	21h	-0.05973978
-4.190668	22	-0.07820876
-4.190668	23	-0.3094044
-4.190668	2344828	-0.3098527
-4.491698	2352	-0.0811547
-4.491698	237	-0.07877075
-4.491698	23S	-0.091052
-4.491698	249	-0.08897518
-3.792728	25	-0.1647643
-4.491698	2533CUP	-0.091052
-4.014576	26	-0.09046363
-4.491698	263	-0.09071589
-4.014576	27	-0.2112813
-4.491698	277%	-0.0905057
-2.900633	27S	-0.7697917
-4.491698	27s2015	-0.0886093
-4.491698	27srac1	-0.091052
-4.491698	28	-0.091024
-4.491698	288	-0.09046365
-4.491698	295	-0.091052
-4.014576	2a	-0.5160426
-4.491698	2grans	-0.091052
-4.491698	2n	-0.090996
-4.491698	2set	-0.091052
-3.236425	3	-0.1162875
-4.491698	30	-0.09078594
-4.190668	30%	-0.04651074
-4.491698	30'	-0.08530247
-4.014576	300	-0.5158885
-4.491698	300anys	-0.06961695
-4.491698	303%	-0.07877075
-4.190668	31	-0.09044963
-4.491698	31%	-0.090996
-4.491698	319	-0.091052
-4.491698	32%	-0.09088399
-4.190668	324	-0.08894705
-3.491698	324cat	-0.08128093
-4.491698	3261%	-0.0811547
-4.491698	33%	-0.091052
-4.491698	335	-0.09098201
-4.190668	3358913	-0.0595893
-4.491698	3360000	-0.090968
-4.491698	337%	-0.05973978
-4.491698	33no	-0.09092599
-4.190668	34	-0.3098527
-4.491698	34%	-0.07877075
-4.491698	346	-0.090968
-4.014576	35	-0.2238449
-4.190668	35%	-0.06857147
-4.491698	35'	-0.08469206
-4.491698	35'9%	-0.09019722
-4.491698	356	-0.09037953
-4.491698	3563CUP	-0.091052
-4.190668	37	-0.08955152
-4.491698	37%	-0.0811547
-4.491698	3720%	-0.090996
-4.491698	376%	-0.0811547
-4.190668	3785%	-0.08941101
-4.491698	37B	-0.08973409
-4.491698	38	-0.0905057
-4.491698	384%	-0.08352564
-4.190668	38a	-0.303818
-4.491698	396	-0.0849193
-4.491698	398%	-0.05973978
-4.491698	3cops	-0.08392428
-4.491698	3er	-0.09092599
-4.491698	3gerardpique	-0.08925641
-4.491698	3x9N	-0.06961695
-3.377754	4	-0.03084455
-3.6466	40	-0.4227709
-4.491698	40%	-0.09019722
-4.491698	400km	-0.08922829
-4.491698	40e	-0.091038
-4.190668	40min	-0.07826643
-4.491698	42%	-0.09019722
-4.491698	422%	-0.091024
-4.491698	43	-0.08875006
-4.491698	43%	-0.07877075
-4.491698	430%	-0.091024
-4.491698	46	-0.091024
-4.491698	47%	-0.091038
-4.491698	4905%	-0.0906038
-4.491698	490874	-0.091052
-4.491698	4951%	-0.0811547
-3.34557	5	-0.2014817
-4.190668	5%	-0.0830696
-4.190668	50	-0.09058979
-4.014576	50%	-0.2085329
-4.491698	5095%	-0.08988852
-4.491698	52	-0.06961695
-4.491698	52%	-0.09005693
-4.491698	521%	-0.09088399
-4.491698	53%	-0.09019722
-4.491698	531	-0.09046365
-4.491698	5314%	-0.06961695
-4.190668	5314736	-0.3099227
-4.190668	55%	-0.2976695
-4.491698	57%	-0.07877075
-4.491698	58Txell	-0.091052
-4.491698	59	-0.0905057
-4.491698	5minuts	-0.090954
-4.491698	5no	-0.09082796
-3.792728	6	-0.2919487
-4.491698	6%	-0.07877075
-4.491698	60	-0.09078594
-4.190668	60%	-0.06169133
-4.491698	60'30%	-0.09082796
-4.491698	61	-0.08897518
-4.491698	6148%	-0.090954
-4.190668	6166%	-0.06944043
-4.491698	6179JxS	-0.091052
-4.014576	62	-0.2238309
-4.491698	63	-0.09037953
-4.014576	63%	-0.2118289
-4.491698	63'18	-0.09101
-4.014576	6314%	-0.2118001
-4.491698	6315%	-0.07877075
-4.190668	632%	-0.3099367
-3.6466	6366	-0.1358588
-4.190668	64	-0.09074391
-4.491698	65	-0.091052
-4.491698	66	-0.091038
-4.491698	66%	-0.08698729
-4.491698	67	-0.091024
-4.491698	67%	-0.0905057
-4.491698	671%	-0.07877075
-4.491698	6867%	-0.08239891
-4.491698	69	-0.09039354
-4.491698	69%	-0.09078594
-4.491698	691%	-0.0811547
-4.491698	6965%	-0.08239891
-3.6466	7	-0.2982798
-4.491698	70	-0.09056176
-4.014576	70%	-0.0886656
-4.491698	708%	-0.09088399
-4.491698	71	-0.091038
-4.491698	73%	-0.09088399
-4.190668	730	-0.09101
-4.491698	7396%JxS1302CUP	-0.091052
-4.491698	74%	-0.09019722
-4.491698	743%	-0.05973978
-4.491698	75%	-0.07877075
-4.491698	7504%	-0.091024
-4.491698	7558JxS415CUP	-0.091052
-4.491698	76	-0.09068787
-4.491698	76%	-0.06961695
-4.491698	78%	-0.07877075
-4.491698	7805%	-0.07877075
-4.491698	7879%	-0.07877075
-4.491698	7926%	-0.090954
-4.491698	7anys	-0.08900331
-4.491698	7h	-0.091038
-3.588608	8	-0.06976398
-4.190668	80	-0.08738278
-4.491698	80%	-0.09101
-4.491698	80'	-0.07877075
-4.491698	81%	-0.07877075
-4.491698	811	-0.09098201
-4.491698	82	-0.09056176
-4.491698	8293%	-0.09088399
-4.190668	83%	-0.04651074
-4.491698	84	-0.09056176
-4.491698	8439%	-0.08973409
-4.190668	86%	-0.07787699
-4.491698	8636%	-0.07877075
-4.491698	87%	-0.09037953
-4.491698	87'14%	-0.09068787
-4.491698	8714%	-0.07877075
-4.491698	875	-0.09101
-4.491698	888%	-0.08973409
-4.491698	89%	-0.09075792
-4.491698	895%	-0.091052
-4.491698	8aldia	-0.05973978
-4.190668	8tv	-0.0688515
-3.491698	9	-0.1399688
-4.190668	9%	-0.08096848
-4.491698	9'6%	-0.09088399
-4.014576	90	-0.05918272
-4.491698	90%	-0.09019722
-4.491698	900h	-0.09077193
-4.491698	903	-0.09054774
-4.491698	909	-0.0905057
-4.491698	90a	-0.08352564
-4.190668	91	-0.09054775
-4.491698	91%	-0.09088399
-4.014576	911	-0.2238029
-4.190668	92	-0.09054775
-4.491698	930h	-0.08469206
-4.190668	95	-0.3094605
-4.491698	96	-0.09056176
-4.491698	97	-0.09056176
-4.491698	98	-0.09046365
-4.491698	98anys	-0.091038
-4.491698	99%	-0.07877075
-4.491698	9Barris	-0.091038
-3.792728	9N	-0.1413191
-4.491698	9Nlarevolta	-0.08530247
-4.491698	9e	-0.091038
-4.190668	9h	-0.08776379
-1.157445	</s>
-99	<s>	-0.5775206
-4.491896	<unk>
-2.284872	A	-0.361591
-4.491698	ADBALLART	-0.05973978
-4.491698	AHHH	-0.090996
-4.014576	AL	-0.091024
-4.491698	ALEGRIA	-0.091038
-4.491698	AM	-0.09033746
-4.491698	ANCCorberadeLlo	-0.05973978
-4.491698	ANCEngland	-0.090968
-4.190668	ANCLHospitalet	-0.08990256
-4.491698	ANCPrades	-0.05973978
-4.491698	ANCValldelGes	-0.05973978
-4.491698	ANIMS	-0.091052
-4.491698	APMTV3	-0.0811547
-4.491698	AQUI	-0.06961695
-4.491698	ARA	-0.090996
-3.889638	AUDIO	-0.1868114
-4.491698	AVI	-0.08352564
-3.792728	AVUI	-0.2907489
-4.014576	Abans	-0.06839451
-4.491698	Acabada	-0.091024
-4.014576	Acabo	-0.2113823
-4.491698	Acava	-0.07877075
-4.491698	Acompanyant	-0.0811547
-4.491698	Acompanyantlos	-0.0811547
-4.491698	Acostumo	-0.0811547
-4.491698	ActualidadRT	-0.06961695
-4.491698	Acusacio	-0.07877075
-4.491698	Acusacions	-0.07877075
-3.889638	Adeu	-0.365245
-4.491698	Agradi	-0.08946721
-4.491698	Ah	-0.08783431
-4.190668	Ahir	-0.09016917
-3.889638	Ai	-0.08449313
-4.491698	Aiii	-0.09002887
-4.491698	Aires	-0.09091199
-4.491698	Aixecarse	-0.08805991
-4.014576	Aixi	-0.07575053
-3.212944	Aixo	-0.2444328
-4.491698	Aixxxx	-0.091052
-4.491698	AjSCFarners	-0.05973978
-4.491698	Ajuntament	-0.091038
-3.060334	Al	-0.2367052
-4.491698	Albiol	-0.091052
-3.889638	AlbiolXG	-0.07295735
-4.491698	Ale	-0.091038
-4.491698	Alea	-0.091052
-4.491698	Alegria	-0.091052
-4.491698	Alerta	-0.091052
-4.491698	AlfredBosch	-0.05973978
-3.261249	Algu	-0.2535211
-4.491698	Algun	-0.08769326
-4.491698	Algunes	-0.091052
-4.491698	Alguns	-0.091024
-4.491698	Alla	-0.09072991
-4.190668	Allo	-0.3035908
-4.491698	Almacelles	-0.08900331
-4.491698	Almenys	-0.08925641
-4.491698	Als	-0.09071589
-4.491698	Altos	-0.07877075
-4.491698	Alucinant	-0.08392428
-2.775694	Amb	-0.343806
-4.190668	Ambientas	-0.08803172
-4.491698	Ambiente	-0.08392428
-4.491698	Ambulatorio	-0.09086998
-4.491698	Amer	-0.0886093
-4.491698	Amic	-0.08993063
-4.491698	Amics	-0.09065985
-4.491698	AmicsiAmiguesEH	-0.05973978
-4.491698	Amigues	-0.08469206
-4.190668	Amunt	-0.06958754
-4.190668	Anaconda	-0.06898408
-3.889638	Anar	-0.7534329
-4.491698	Andalusiadiria	-0.08469206
-3.588608	Anem	-0.1965907
-4.491698	Anims	-0.08352564
-4.491698	AnimsGuanyarem#27S	-0.08988852
-4.491698	Anna	-0.091052
-4.190668	AnnaGaSabate	-0.0895796
-4.491698	AnnaPoch	-0.05973978
-4.491698	AnnaSimo	-0.091024
-4.491698	Anoia	-0.09029539
-4.491698	Antonio	-0.091052
-4.491698	Anxaneta	-0.091024
-4.491698	Anxo	-0.05973978
-4.491698	Apa	-0.091052
-4.491698	Apoderats	-0.07877075
-4.491698	App	-0.09064584
-4.491698	Aprofiteml'ho	-0.06961695
-4.014576	Apunt	-0.2059276
-4.491698	Aquell	-0.091052
-4.491698	Aquella	-0.091024
-3.537455	Aquest	-0.2703458
-3.261249	Aquesta	-0.3022344
-3.889638	Aquestes	-0.1851984
-3.588608	Aqui	-0.1118707
-2.858229	Ara	-0.2915716
-3.792728	Araeslhora	-0.3896238
-4.491698	Aramrp	-0.091052
-4.491698	Aravaca	-0.05973978
-4.491698	Arbitrooooo	-0.08239891
-4.491698	Arbucies	-0.0849193
-4.491698	ArranBarcelona	-0.091052
-4.491698	Arriba	-0.08392428
-4.190668	Arrimadas	-0.09049168
-4.491698	Arrivat	-0.08392428
-4.190668	Artesa	-0.09074391
-3.588608	Artur	-0.2876576
-4.190668	ArturMasCat	-0.08890484
-4.491698	Assumiras	-0.08239891
-4.491698	Asterix	-0.08392428
-4.491698	Astucia	-0.091052
-4.491698	Ataca	-0.091052
-4.491698	Atencio	-0.09068787
-4.491698	Atenes	-0.08352564
-4.014576	Au	-0.08585536
-4.491698	Aurelia	-0.091052
-4.491698	Auria	-0.091024
-4.491698	Ausias	-0.091052
-4.491698	Australia	-0.091052
-4.190668	Autonomiques	-0.3000534
-3.889638	Avi	-0.06425997
-4.491698	Aviam	-0.09037953
-4.491698	Aviat	-0.091052
-4.491698	Aviu	-0.08783431
-2.122482	Avui	-0.3447406
-4.491698	B	-0.091052
-4.491698	BANArme	-0.0849193
-4.491698	BARRIS	-0.091052
-3.792728	BCN	-0.1655217
-4.491698	BLANC	-0.09071589
-4.491698	BLES	-0.09029539
-3.792728	BON	-0.2948147
-4.491698	BONA	-0.091052
-4.491698	BONNNN	-0.091052
-4.491698	BOOON	-0.091052
-4.491698	BOOOOON	-0.091052
-4.491698	Badal	-0.091052
-4.190668	Baga	-0.09088399
-4.190668	Baix	-0.3099367
-4.491698	Banderes	-0.091038
-4.491698	Banos	-0.09037953
-4.491698	Bany	-0.07877075
-4.491698	Banyolesorgullosa	-0.06961695
-4.491698	Barbera	-0.06961695
-4.491698	Barbie	-0.09088399
-4.491698	BarcaMadrid	-0.091052
-3.450305	Barcelona	-0.1015905
-4.014576	Barreja	-0.2118145
-4.491698	Barri	-0.07877075
-3.792728	Barris	-0.07984945
-4.190668	Bas	-0.3098667
-4.491698	Batlle	-0.05973978
-3.713547	Bcn	-0.08942504
-4.491698	Bdia	-0.08897518
-4.190668	Be	-0.08750983
-4.491698	Bellpuig	-0.09054774
-4.190668	Ben	-0.09098201
-3.889638	Benvinguts	-0.3531174
-4.491698	BerNius	-0.09036551
-4.190668	Berga	-0.05972473
-4.491698	Bernat	-0.091052
-4.491698	Beure	-0.09033746
-4.491698	Bibero	-0.08352564
-4.491698	Blanc	-0.09071589
-4.491698	Blanc1	-0.08988852
-4.491698	BlancheRomeu	-0.06961695
-4.491698	Bloqueig	-0.091052
-4.491698	BocaNord	-0.09101
-4.491698	Boi	-0.091024
-4.491698	Boig	-0.08392428
-4.491698	Boil	-0.07877075
-4.491698	Bolet	-0.05973978
-2.659189	Bon	-1.032417
-4.014576	Bona	-0.223943
-4.491698	Bondia	-0.091052
-4.491698	Bones	-0.091052
-4.491698	Bonissim	-0.0849193
-4.491698	Bonn	-0.08805991
-4.491698	Bons	-0.09053373
-4.491698	Boom	-0.0811547
-4.491698	Booon	-0.08769326
-4.491698	Boooon	-0.08769326
-4.491698	Bordeta	-0.09079995
-4.491698	Born	-0.08530247
-4.491698	Brasil	-0.091052
-4.491698	Brillants	-0.08765093
-4.491698	Brindis	-0.08530247
-4.491698	Brugges	-0.06961695
-4.491698	Brusselles	-0.0900008
-4.190668	Brutal	-0.08104011
-4.491698	Bruxelles	-0.0811547
-4.491698	Buenos	-0.091052
-4.491698	Buff	-0.091052
-4.491698	Busqueta	-0.091052
-4.491698	Butlleti	-0.091052
-4.190668	Bye	-0.3099087
-3.889638	C	-0.09095399
-4.491698	C'S	-0.091038
-3.149275	C's	-0.1876307
-4.491698	C's&lt20	-0.09078594
-4.491698	C's11	-0.091052
-4.491698	CAT	-0.09089798
-4.491698	CATALANES	-0.07877075
-4.190668	CATALANS	-0.08952342
-3.713547	CATALUNYA	-0.08605792
-4.491698	CDC	-0.08872191
-3.6466	CEIP	-0.1337752
-4.491698	CERA	-0.0906038
-4.491698	CI	-0.091052
-4.491698	COLLONS	-0.091052
-4.491698	COMENCA	-0.08880635
-4.190668	CPAOLOT	-0.08980429
-4.491698	CREJuventud	-0.0906038
-4.491698	CS	-0.09101
-3.889638	CSQEP	-0.08288419
-4.014576	CSQP	-0.09081394
-4.491698	CSQP10	-0.09037953
-2.801502	CUP	-0.1301871
-4.491698	CUPBarcelona	-0.08469206
-4.491698	CUPGirona	-0.09001483
-4.190668	CUPGracia	-0.09103801
-4.491698	CUPSantMarti	-0.09001483
-4.491698	CUPesparreguera	-0.09001483
-4.190668	Cada	-0.09078594
-4.491698	Cagometre	-0.091052
-4.014576	Cal	-0.09019721
-4.491698	Calia	-0.06961695
-4.491698	Camacho	-0.08825721
-4.491698	Cameres	-0.091052
-4.014576	Cami	-0.0661024
-4.190668	Caminant	-0.08510383
-4.491698	Camisa	-0.090996
-4.491698	Campanes	-0.07877075
-4.491698	Campanyes	-0.07877075
-4.491698	Canapes	-0.08352564
-4.491698	Cancons&ampcampanya	-0.091052
-4.491698	Candidatures	-0.091052
-4.491698	Candy	-0.091052
-4.491698	Canviem	-0.08392428
-4.491698	Caos	-0.091052
-3.491698	Cap	-0.1494662
-4.491698	Capmany	-0.07877075
-4.491698	Cardus	-0.09084196
-4.491698	Cares	-0.09101
-4.491698	CarlesCapde	-0.09081395
-4.190668	Carme	-0.08924235
-4.491698	Carrers	-0.091052
-4.491698	Casal	-0.091052
-4.491698	Casals	-0.09084196
-4.491698	Casino	-0.091052
-4.491698	Castellar	-0.07877075
-4.491698	Castellciutat	-0.09098201
-4.491698	Castello	-0.08352564
-4.491698	CastiJordi	-0.09051971
-4.190668	Cat	-0.0835114
-4.491698	CatSi	-0.08817266
-4.491698	CatSiQueEsPot	-0.08530247
-4.190668	CatSiqueesPot	-0.3097547
-4.190668	Catala	-0.07875635
-4.014576	Catalana	-0.06164638
-4.491698	Catalanes	-0.091052
-3.412517	Catalans	-0.2129315
-4.190668	Catalonia	-0.09095401
-4.491698	Cataloniagoestothepollslive	-0.05973978
-3.713547	Cataluna	-0.192345
-2.318511	Catalunya	-0.2378452
-4.190668	CatalunyaPlural	-0.05972473
-4.190668	CatalunyaRadio	-0.08870784
-4.491698	CatarresInvenciblesLletra	-0.090968
-4.491698	Catinformacio	-0.090968
-4.491698	Catsiqueespot1	-0.091052
-4.491698	Cel	-0.09089798
-4.491698	Celebrant	-0.08805991
-4.491698	Celra	-0.0849193
-3.713547	Centre	-0.1521112
-4.491698	Cerdanyola	-0.07877075
-4.014576	Cervia	-0.5040975
-4.491698	CescVilalta	-0.0886093
-3.713547	Champions	-0.03619848
-4.491698	Champions#27s	-0.05973978
-4.491698	CiU	-0.09086998
-4.491698	Cinisme	-0.09081395
-4.491698	Ciu	-0.091024
-4.491698	CiuERC	-0.09086998
-4.491698	Ciudadanos	-0.09101
-3.792728	CiudadanosCs	-0.08440785
-4.491698	Ciutadaaans	-0.091024
-3.060334	Ciutadans	-0.1036813
-4.491698	CiutadansCs	-0.09068787
-4.491698	Ciutadella	-0.09077193
-4.190668	Civic	-0.2976695
-4.491698	ClaraaMendez	-0.05973978
-4.190668	Coats	-0.07525722
-4.491698	Codorniu	-0.08392428
-4.491698	Coi	-0.090968
-4.491698	Colegi	-0.09086998
-4.491698	Coll	-0.091038
-3.889638	Collegis	-0.1864472
-4.491698	CollegitJujol	-0.06961695
-4.491698	Collons	-0.090968
-4.491698	Coloma	-0.06961695
-3.093758	Com	-0.106933
-4.491698	Combatrem	-0.09065985
-3.315607	Comenca	-0.5272732
-4.491698	Comencar	-0.09078594
-3.889638	Comencem	-0.1693567
-4.491698	Comienza	-0.08239891
-4.491698	Comissari	-0.09051971
-4.491698	Companys	-0.091052
-4.491698	Companyses	-0.09091199
-4.491698	Complint	-0.08805991
-4.491698	Comprar	-0.08392428
-4.491698	Compte	-0.091024
-4.491698	Coneixent	-0.08392428
-4.491698	Confia	-0.08988852
-4.014576	Confiem	-0.514555
-4.491698	Consulat	-0.091052
-4.491698	Contenint	-0.08239891
-4.014576	Contenta	-0.2210482
-4.491698	Continuen	-0.09064584
-4.491698	ConvergenciaCAT	-0.091024
-4.491698	Conversa	-0.08805991
-4.491698	Cor	-0.07877075
-3.491698	Cornella	-0.1303492
-4.491698	Corredera7	-0.091052
-4.491698	Correllengua	-0.091052
-4.014576	Corts	-0.2026892
-4.491698	Coses	-0.091052
-4.491698	Coterto	-0.06961695
-4.014576	Crec	-0.5100188
-4.491698	Creia	-0.08469206
-4.491698	Crescendo	-0.09061781
-4.491698	Cridem	-0.09074391
-4.491698	Criden	-0.09098201
-4.491698	Cruilla	-0.09047766
-4.491698	Crush	-0.06961695
-4.014576	Cs	-0.08346865
-4.491698	CsHospitalet	-0.091024
-4.491698	CsPSCPPCSQP	-0.09085597
-3.450305	Cua	-0.2785421
-3.076725	Cues	-0.4495503
-4.491698	Cuitat	-0.091052
-3.713547	Cup	-0.08719919
-4.491698	Cup11	-0.091052
-4.491698	Curiosa	-0.091052
-3.889638	D	-0.05308396
-4.491698	D'IPSCUP	-0.07877075
-4.491698	D'aixo	-0.09088399
-4.014576	D'aqui	-0.08867968
-4.491698	D'educacio	-0.0899587
-3.713547	DE	-0.4378936
-4.491698	DEMA	-0.0877779
-4.491698	DEMATI	-0.091052
-4.491698	DEMOCRACIA	-0.08884856
-3.588608	DIA	-0.1141454
-4.491698	DIAA	-0.09098201
-4.491698	DIAAAAA	-0.05973978
-4.491698	DIAAAAAAAAAA	-0.05973978
-4.491698	DIIIIAAAAA	-0.09086998
-4.491698	DIRECTO	-0.08922829
-3.792728	DNI	-0.162696
-4.491698	Daayzale	-0.09001483
-4.491698	Dada	-0.09078594
-3.713547	Dades	-0.4257656
-4.491698	Dalt	-0.09061781
-4.491698	Danipgb2	-0.09001483
-4.491698	Darrers	-0.09046365
-4.491698	Day	-0.06961695
-3.149275	De	-0.1574696
-3.889638	Decidim	-0.3581857
-4.491698	Deien	-0.08988852
-4.190668	Deixa'm	-0.3099367
-4.491698	Del	-0.091052
-4.491698	Dels	-0.091052
-4.491698	Demanem	-0.09089798
-4.014576	Democracia	-0.06167634
-4.491698	DemocratesCAT	-0.091052
-4.491698	Democraticament	-0.090954
-4.491698	Democratitzada	-0.091052
-4.491698	Demostrem	-0.0811547
-4.491698	DempeusTossudament	-0.091052
-3.236425	Des	-0.7065226
-3.792728	Desde	-0.08386735
-4.491698	Desitjant	-0.091052
-4.491698	Desperta	-0.09089798
-4.491698	Despertarte	-0.08805991
-4.190668	Despes	-0.2976695
-4.491698	Desplegament	-0.091052
-4.014576	Despres	-0.07871313
-4.491698	Desti	-0.08239891
-4.014576	Deu	-0.0830981
-4.491698	Deuen	-0.09022527
-4.491698	Deures	-0.091038
-3.093758	Dia	-0.2207238
-4.491698	Diada	-0.05973978
-4.491698	Diagonal	-0.06961695
-4.190668	DiariARA	-0.090996
-4.491698	DiegoRios71	-0.09051971
-4.491698	Dificil	-0.09065985
-4.491698	Digueuli	-0.08872191
-4.491698	Dinar	-0.091052
-4.190668	Dinars	-0.07875635
-4.491698	Dipositat	-0.08392428
-4.491698	Diputats	-0.091052
-4.491698	Diria	-0.08469206
-4.491698	Disfrutem	-0.09098201
-3.792728	Districte	-0.2439469
-4.190668	Diuen	-0.08237036
-4.491698	Diumenge	-0.07877075
-4.491698	Doblem	-0.09053373
-4.491698	Doblen	-0.08877821
-4.491698	Doha	-0.091052
-4.491698	Dominiques	-0.07877075
-3.889638	Don't	-0.365371
-4.491698	Dona	-0.08805991
-3.377754	Doncs	-0.1037095
-4.491698	Donemnos	-0.0895796
-4.190668	Donostia	-0.3099367
-4.491698	Dorotea	-0.09075792
-4.190668	Dos	-0.09077194
-4.491698	Dow	-0.091052
-4.491698	Dp	-0.091024
-3.792728	Dret	-0.414124
-4.491698	Dubai	-0.09092599
-4.014576	Dues	-0.2116273
-3.792728	Duran	-0.2863591
-4.491698	Duty	-0.091052
-4.491698	E15	-0.0811547
-3.588608	EL	-0.3080986
-3.491698	ELECCIONS	-0.2535348
-4.491698	EN	-0.091052
-4.491698	ENDARRERA	-0.09101
-4.491698	ENDAVANT	-0.091052
-4.491698	ENQUESTA	-0.09081395
-4.491698	ENS	-0.091052
-4.014576	ERC	-0.09049167
-4.491698	ERCSJD	-0.05973978
-3.792728	ES	-0.1657318
-4.491698	ESP	-0.091052
-4.491698	ESPERA	-0.06961695
-4.190668	Ebre	-0.06946986
-4.491698	Eclipse	-0.07877075
-4.491698	Ei	-0.09075792
-2.32438	El	-0.4427665
-4.190668	ElBornCC	-0.08813038
-4.491698	ElTorraor	-0.090954
-4.491698	Eleanor	-0.091052
-4.491698	Elecccions27s	-0.0849193
-2.923496	Eleccions	-1.172808
-4.190668	Electoral	-0.07690909
-4.491698	Elforn	-0.091052
-4.014576	Ell	-0.08976216
-4.190668	Ella	-0.08820084
-4.491698	Elles	-0.09002887
-4.491698	Ells	-0.09002887
-4.491698	EloiMallafre	-0.08469206
-2.810457	Els	-0.193857
-3.377754	Em	-0.1343938
-4.491698	Emigro	-0.06961695
-3.6466	Emocio	-0.08562861
-3.792728	Emocionada	-0.07729939
-4.014576	Emocionant	-0.079332
-4.491698	Emocionantme	-0.091024
-4.190668	Emocions	-0.3000534
-4.491698	Empenyent	-0.08239891
-4.491698	Emunfm	-0.091052
-2.986548	En	-0.1664852
-4.491698	Encants	-0.0811547
-3.450305	Encara	-0.2794187
-4.491698	Encarant	-0.08805991
-3.588608	Endavant	-0.1385891
-4.491698	Endesa	-0.06961695
-4.190668	Enganxada	-0.3000534
-4.190668	Enhorabona	-0.08112606
-4.491698	Enorme	-0.091052
-4.491698	Enpuy	-0.091038
-4.491698	Enric	-0.05973978
-4.491698	EnricMillo	-0.09098201
-3.491698	Ens	-0.08776378
-4.491698	Enserio	-0.08239891
-4.491698	Entonava	-0.08392428
-4.491698	Entre	-0.09092599
-4.491698	Entrem	-0.0811547
-4.491698	Entretinguts	-0.090968
-4.491698	EnverAzMe	-0.09070189
-4.491698	Enyorantte	-0.09033746
-4.491698	Equip	-0.08825721
-4.491698	Equipazo	-0.06961695
-4.190668	Equo	-0.2786385
-4.491698	Erem	-0.09077193
-4.491698	ErrejonRT	-0.091038
-3.000336	Es	-0.2102451
-4.491698	Escarp	-0.091052
-3.713547	Escola	-0.08612444
-4.190668	Escolta	-0.302823
-4.491698	Escoltat	-0.0900008
-4.491698	Escoltemlo	-0.09056176
-4.491698	Escolteu	-0.090968
-4.014576	Escons	-0.2235226
-4.491698	Escrutado	-0.091052
-4.491698	Escrutini	-0.091024
-4.491698	Escutat	-0.08392428
-4.491698	Esmorzar	-0.08352564
-4.491698	Espadaque	-0.06961695
-4.491698	Espana	-0.09049167
-3.450305	Espanya	-0.08416648
-4.491698	Espanyol	-0.0811547
-4.014576	Espectacular	-0.05805137
-3.315607	Esperant	-0.1658002
-3.792728	Esperem	-0.2849718
-3.450305	Espero	-0.2822293
-4.491698	Espigo	-0.091052
-4.491698	EspluguesDI	-0.090954
-4.491698	Espot	-0.091052
-4.190668	Espriu	-0.07848264
-4.491698	Esquena	-0.08352564
-4.014576	EsquerraERC	-0.05969463
-4.491698	Est	-0.0906038
-4.491698	Esta	-0.09074391
-4.491698	Estacadebares	-0.09074391
-4.190668	Estan	-0.308127
-4.190668	Estas	-0.07875635
-3.6466	Estem	-0.1914556
-4.491698	EsterPinter	-0.08530247
-4.014576	Esteu	-0.090996
-2.784128	Estic	-0.5378552
-4.491698	Estimacio	-0.091052
-4.491698	Estimar	-0.0811547
-4.491698	Estimo	-0.08239891
-4.491698	Estirem	-0.09044962
-4.491698	Estoy	-0.091038
-4.491698	Estupenda	-0.091052
-4.491698	Ets	-0.0811547
-4.491698	Evahynojosa	-0.06961695
-4.491698	Excellent	-0.091038
-3.792728	Exercint	-0.5067436
-4.491698	Expectants	-0.0811547
-4.491698	Ey	-0.09002887
-4.491698	F1	-0.0811547
-4.491698	FAV	-0.0906038
-4.491698	FAVOR	-0.091052
-4.491698	FELIC	-0.06961695
-4.491698	FESTA	-0.091052
-4.491698	FEU	-0.090954
-4.491698	FI	-0.091052
-4.190668	FM	-0.3099367
-4.190668	FOIX	-0.3095165
-4.014576	FORMATGES	-0.06249939
-4.190668	FUTUR	-0.09103801
-3.450305	Fa	-0.1208988
-4.190668	Fabra	-0.3024244
-4.491698	Fabulos	-0.08825721
-4.491698	Fadri	-0.07877075
-4.190668	Faig	-0.08956556
-4.491698	Falten	-0.091038
-4.190668	Familia	-0.08072484
-4.491698	Fantastic	-0.09101
-4.491698	Fantastica	-0.090996
-4.491698	Fantes	-0.0811547
-4.491698	Faran	-0.08239891
-3.792728	Farem	-0.5209863
-4.491698	Farrera5287JxS	-0.091052
-4.491698	Feeeet	-0.090996
-4.014576	Feia	-0.08976216
-2.935395	Feina	-1.646668
-3.315607	Felic	-0.2469869
-4.491698	Felicidades	-0.091052
-4.491698	Felicitat	-0.09082796
-4.014576	Felicitats	-0.07400689
-4.491698	Felicito	-0.091052
-4.491698	Felipe	-0.091052
-4.190668	Feliu	-0.08824312
-3.6466	Fem	-0.338731
-3.889638	Femho	-0.1805929
-4.491698	Feminisme	-0.08959365
-4.491698	Femla	-0.09075792
-4.491698	Femnos	-0.091038
-4.491698	Fenr	-0.08392428
-3.377754	Fent	-0.3696752
-4.014576	Fer	-0.2235647
-4.491698	FermiFdes	-0.08993063
-4.491698	Ferran53027892	-0.091052
-4.190668	Ferrater	-0.06858622
-4.491698	Ferreres	-0.09101
-3.169478	Fet	-0.0691186
-4.491698	Fetper	-0.08239891
-4.190668	Feu	-0.090996
-4.491698	Feuho	-0.08469206
-4.491698	Feula	-0.091038
-4.491698	Feune	-0.09081395
-4.491698	Final	-0.07877075
-3.792728	Fins	-0.06519702
-4.491698	Flipa	-0.06961695
-4.491698	Flipant	-0.08805991
-4.491698	Flipar	-0.08872191
-4.491698	Flipo	-0.08805991
-4.491698	Fonlladosa	-0.06961695
-4.491698	Fora	-0.091052
-4.190668	Forca	-0.0905057
-3.889638	ForcadellCarme	-0.08801761
-4.491698	Formar	-0.09094
-4.491698	Formentera	-0.09036551
-4.491698	Formiguejant	-0.08530247
-4.190668	Foto	-0.08779201
-4.491698	Fotos	-0.07877075
-4.491698	Fotre	-0.091052
-4.491698	Fracas	-0.07877075
-4.491698	Fraga	-0.0811547
-4.491698	Franca	-0.07877075
-4.491698	France	-0.09081395
-4.491698	Frec	-0.0811547
-4.491698	Friquisme	-0.091052
-4.491698	Fructuos	-0.091052
-4.491698	GARRIGAS	-0.091052
-4.491698	GErvasi	-0.09098201
-4.190668	GRAN	-0.08867969
-4.190668	Gabriel	-0.3099367
-4.491698	Galicia	-0.091052
-4.190668	Gallina	-0.2976695
-4.491698	GaloTuneu	-0.09085597
-4.491698	Ganes	-0.07877075
-4.491698	Garrofer	-0.05973978
-4.491698	Garrotxa	-0.08239891
-4.491698	Gaudint	-0.09072991
-4.491698	Gaudintlo	-0.0811547
-4.491698	Gaudiu	-0.08825721
-4.491698	Gelabert	-0.08825721
-4.491698	Gene	-0.091052
-4.491698	Generalitat	-0.0849193
-4.014576	Genial	-0.5077257
-4.491698	Genova	-0.091052
-4.491698	Gens	-0.07877075
-3.6466	Gent	-0.127086
-4.491698	Gentada	-0.08872191
-4.190668	Gerard	-0.09103801
-4.491698	Germanespunts	-0.0906038
-4.491698	Germaneta	-0.08392428
-4.491698	Ges	-0.08530247
-4.491698	Gi	-0.08352564
-3.792728	Girona	-0.1400877
-4.491698	Gironins	-0.091024
-4.491698	Go	-0.091038
-4.491698	Goita	-0.09061781
-3.6466	Governemnos	-0.06895461
-4.014576	Gracia	-0.08741101
-3.412517	Gracies	-0.05199799
-3.6466	Gran	-0.1909215
-4.190668	Granada	-0.09102401
-3.792728	Guanyarem	-0.2335578
-4.190668	Guanyem	-0.06960225
-4.491698	Guardamar	-0.08352564
-4.491698	Guardia	-0.091052
-4.190668	Guinardo	-0.06849775
-4.491698	Guineueta	-0.07877075
-4.491698	GxIANC	-0.091052
-4.491698	HO	-0.091052
-4.491698	HOMEEEE	-0.06961695
-3.236425	Ha	-0.7434097
-4.491698	Habemus	-0.091052
-4.491698	Habla	-0.091052
-4.014576	Han	-0.0880599
-4.491698	Has	-0.09081395
-4.491698	Haure	-0.090954
-3.014576	He	-0.5407868
-3.450305	Hem	-0.2293991
-4.491698	Here	-0.09101
-3.412517	Hi	-0.6910492
-3.6466	HiginiaRoig	-0.1418819
-4.014576	Historia	-0.083725
-3.6466	Ho	-0.134647
-3.889638	Hola	-0.09091198
-4.491698	Homo	-0.091052
-4.491698	Hotel	-0.091052
-4.014576	Hoy	-0.09072989
-4.190668	Hui	-0.08619526
-4.491698	Husa	-0.091052
-4.491698	Huserrsu	-0.0849193
-2.594071	I	-0.2599179
-4.491698	I'm	-0.091052
-4.014576	ICV	-0.06874834
-4.491698	ICVRubi	-0.09051971
-4.491698	IES	-0.091024
-4.491698	II	-0.091052
-3.889638	IIII	-0.05037129
-4.491698	IMPARABLES	-0.06961695
-4.190668	IMPORTANT	-0.2885157
-4.491698	IMatavera	-0.091052
-4.491698	IN	-0.091052
-4.491698	INDECIS	-0.091052
-4.190668	INDEPENDENCIA	-0.0688073
-4.491698	Iaia	-0.091038
-4.491698	Iberia	-0.09061781
-4.014576	Iceta	-0.07842498
-4.491698	Iglesias	-0.08530247
-4.491698	Igualada	-0.091052
-4.491698	Igualment	-0.091038
-4.190668	Ildefons	-0.08697317
-4.014576	Illusio	-0.07989254
-4.190668	Illusionada	-0.08232751
-4.491698	Illusionats	-0.09092599
-4.491698	Illusions	-0.08352564
-4.491698	Imatge	-0.091052
-4.190668	Impacient	-0.3042012
-4.491698	Impedint	-0.08392428
-4.190668	Impossible	-0.08780611
-4.491698	Imprescindible	-0.08469206
-4.491698	Impressionada	-0.06961695
-3.889638	Impressionant	-0.1757945
-4.190668	In	-0.09103801
-4.491698	Incognita	-0.09065985
-4.014576	Increible	-0.05970968
-3.6466	Independencia	-0.08827129
-4.491698	IndependenciaJuntsPelSi	-0.09058978
-4.491698	Indignada	-0.08239891
-4.491698	Indignant	-0.091052
-4.190668	IndySants	-0.3099227
-4.014576	InesArrimadas	-0.08694489
-4.491698	Infinita	-0.091052
-4.491698	Iniciativa	-0.08783431
-4.491698	Inindeindependencia	-0.08817266
-4.491698	Insomni	-0.091052
-4.491698	Instants	-0.09089798
-4.491698	Institut	-0.091052
-4.491698	Intenten	-0.091052
-4.491698	Intervenint	-0.08805991
-3.713547	Isaranjuez	-0.4492491
-4.491698	Itaca	-0.09063183
-4.491698	Italia	-0.091052
-4.491698	J	-0.05973978
-4.014576	JA	-0.2179921
-4.491698	JFinestres	-0.09098201
-4.491698	JXSi	-0.08925641
-2.381108	Ja	-0.7091329
-4.491698	Jaen	-0.08352564
-4.491698	Jajajajajajaja	-0.091052
-4.491698	Jaume	-0.0899587
-4.491698	JaumeBarbera	-0.09084196
-4.491698	Jaumet80	-0.09101
-4.491698	Jeroni	-0.09001483
-4.190668	Jesus	-0.3099367
-2.583213	Jo	-0.685271
-4.491698	JoanOliu	-0.091052
-4.491698	Joana	-0.08988852
-4.491698	Jones	-0.06961695
-4.190668	Jornada	-0.3097407
-4.491698	Jose	-0.091052
-4.491698	Josep	-0.091038
-4.190668	JosepdeNicols	-0.06960225
-4.491698	Joseplluispena	-0.06961695
-4.491698	Jotorna	-0.05973978
-4.491698	JovesValls	-0.09061781
-4.491698	JpScup&gt70	-0.091052
-4.491698	Junta	-0.091038
-4.491698	Juntdaddy	-0.05973978
-4.491698	Juntos	-0.091052
-3.111486	Junts	-0.4188347
-2.775694	JuntsPelSi	-0.3606904
-4.491698	JuntsPelSi2015	-0.08886264
-4.491698	JuntsxSi98	-0.091052
-3.713547	JxS	-0.08324064
-3.450305	JxSi	-0.1491358
-4.491698	Jxs	-0.091052
-4.491698	Jxsi	-0.091052
-4.491698	KOPoficial	-0.091038
-4.491698	Karmele	-0.09085597
-4.491698	Kin	-0.091052
-4.491698	L'	-0.091052
-4.491698	L'Alianca	-0.08825721
-4.491698	L'Estaca	-0.08352564
-4.491698	L'ansietat	-0.09101
-4.491698	L'apuente	-0.091052
-4.491698	L'artesa	-0.07877075
-4.491698	L'inici	-0.08825721
-4.491698	L'unica	-0.09037953
-3.588608	LA	-0.1867274
-4.491698	LES	-0.09092599
-4.491698	LLIURE	-0.091052
-2.986548	La	-0.1619379
-4.190668	LaVanguardia	-0.2786385
-4.491698	Las	-0.090954
-4.491698	LauraBorras	-0.091052
-4.491698	LausanaGinebra	-0.091052
-3.6466	Les	-0.2005346
-4.491698	LesBasses	-0.091052
-4.491698	Lima	-0.09047766
-4.014576	Llach	-0.08867968
-4.190668	Llacuna	-0.08822903
-4.491698	Llagrimeta	-0.0811547
-4.491698	Llambilles	-0.05973978
-4.491698	Llavorsi4667JxS	-0.091052
-3.6466	Lleida	-0.03892194
-4.491698	Lleo	-0.05973978
-3.889638	Llibertat	-0.08332617
-4.491698	Llistars	-0.0886093
-3.889638	Lliure	-0.05245711
-3.889638	Llobregat	-0.05398443
-4.491698	Llorenc	-0.091052
-4.190668	Llorers	-0.07343872
-4.491698	Lluc	-0.08352564
-4.190668	Lluis	-0.3099227
-3.889638	LluisRabell	-0.0883699
-4.491698	Lluita	-0.0811547
-4.491698	Lluitant	-0.08530247
-4.491698	Lluna	-0.09084196
-4.014576	Londres	-0.2237328
-4.491698	Los	-0.091052
-4.491698	Luis	-0.091052
-4.491698	M'ESTIC	-0.091052
-4.491698	M'ESTICPOSANTNERVIOSA	-0.06961695
-4.491698	M'agafara	-0.08774969
-4.491698	M'alegro	-0.09033746
-4.491698	M'estan	-0.091052
-4.491698	M'estic	-0.09084196
-4.491698	M'expliques	-0.08469206
-4.491698	M'he	-0.091038
-4.491698	MAI	-0.09092599
-4.491698	MAJOR	-0.09064584
-4.491698	MAXIM	-0.07877075
-4.491698	MEUA	-0.090996
-4.190668	MEVA	-0.09096801
-4.491698	MILLOR	-0.091038
-4.491698	MIREU	-0.091052
-4.190668	MOLT	-0.09102401
-4.491698	MOLTES	-0.090968
-4.190668	Macia	-0.09042159
-3.792728	Madrid	-0.08261307
-3.889638	Mai	-0.08889076
-4.491698	Maig	-0.08825721
-4.491698	Majoria	-0.09098201
-4.491698	Mal	-0.091052
-4.491698	Malagrida	-0.06961695
-4.491698	Malalt	-0.091052
-4.014576	Malgrat	-0.2136684
-4.491698	Mallorca	-0.09061781
-4.491698	Mals	-0.091052
-4.491698	Mandela	-0.091052
-4.491698	Manel	-0.091052
-4.491698	ManuGuix	-0.091052
-4.491698	Mao	-0.06961695
-4.190668	Mar	-0.2786385
-4.190668	Maragall	-0.0835114
-4.190668	Marcal	-0.05970969
-4.491698	Marcelino	-0.091052
-4.491698	March	-0.07877075
-4.491698	Mare	-0.09032344
-4.190668	Maria	-0.09075793
-4.491698	MariaMerc	-0.091038
-4.491698	MariaMerce	-0.091038
-4.491698	Marina	-0.08352564
-4.491698	Marti	-0.08352564
-3.491698	Mas	-0.07234393
-4.014576	Masnou	-0.05903204
-4.190668	Matadepera	-0.09035148
-4.014576	Mataro	-0.09074391
-4.491698	Me	-0.091052
-4.190668	Me'n	-0.3098247
-4.491698	Meinelx	-0.091052
-4.190668	Memoria	-0.3024244
-4.491698	Menorca	-0.08805991
-4.491698	Mercat	-0.08825721
-4.491698	Merce	-0.091052
-4.190668	Meridiana	-0.05972473
-4.491698	Mes	-0.08825721
-4.014576	Mesa	-0.08873598
-4.491698	Mi	-0.08352564
-4.491698	Minds	-0.091052
-4.491698	Minnesota	-0.0900008
-4.491698	Minut	-0.091024
-4.491698	Minuto	-0.0811547
-3.889638	Miquel	-0.1724356
-4.491698	Miravet	-0.08959365
-4.491698	Mireu	-0.08392428
-4.491698	Mocit	-0.09085597
-4.491698	Moiasortiu	-0.09044962
-3.889638	Molt	-0.09023929
-3.6466	Molta	-0.1409261
-4.491698	Moltissima	-0.09037953
-4.491698	Molts	-0.09065985
-4.491698	MonDiari	-0.091052
-4.491698	MonicaAragonesP	-0.06961695
-4.491698	Monistrol	-0.07877075
-4.491698	Montblanc673	-0.090968
-4.491698	Montmajor	-0.08869376
-4.491698	Montobbio	-0.091038
-4.014576	Montserrat	-0.08773557
-4.491698	MontserratiCat	-0.05973978
-4.491698	Motogp	-0.09001483
-4.491698	Moviment	-0.0811547
-4.491698	Munic	-0.08805991
-4.491698	Municipal	-0.091052
-4.190668	Murcia	-0.08338318
-4.190668	NERVIS	-0.2885157
-4.491698	NIT	-0.09098201
-3.713547	NO	-0.05664438
-4.491698	NOMES	-0.091052
-4.190668	NOSTRA	-0.3098947
-4.491698	NOSTRE	-0.090996
-4.491698	NOTICIA	-0.08884856
-4.491698	NUL	-0.09081395
-4.491698	NYC	-0.08817266
-4.491698	NaKiSeRGi	-0.08959365
-4.491698	NacioBergueda	-0.091052
-4.491698	Nancy	-0.0849193
-4.491698	Nervioooosaaa	-0.091052
-3.792728	Nervis	-0.2553809
-4.491698	Nervissssss	-0.09101
-4.491698	Neymar	-0.09058978
-4.190668	Ni	-0.08055277
-4.014576	Nit	-0.2118289
-2.973184	No	-0.1595371
-4.491698	Noel	-0.091052
-4.491698	Noi	-0.07877075
-4.014576	Nomes	-0.07993563
-4.491698	Normal	-0.091052
-4.491698	Normalment	-0.091052
-3.713547	Nou	-0.4379636
-4.491698	NousCatalans	-0.090996
-4.491698	Nova	-0.091038
-4.491698	Now	-0.06961695
-4.491698	NuriaPicas	-0.08352564
-4.014576	O	-0.07806453
-4.491698	OUI	-0.091038
-4.491698	Obertura	-0.09071589
-4.491698	Obren	-0.08877821
-4.190668	Obrim	-0.3084783
-4.491698	Odena	-0.091024
-4.491698	Olivella	-0.06961695
-4.190668	Omplim	-0.0875945
-4.491698	On	-0.09040757
-4.491698	OnaMalgrat	-0.09057577
-4.491698	Ordre	-0.0849193
-4.014576	Orgullosa	-0.208968
-4.190668	Orista	-0.06958754
-4.190668	Ovidi	-0.08237036
-3.889638	PACMA	-0.05835335
-4.491698	PACMA1	-0.091052
-4.491698	PARLAMENT	-0.08884856
-4.491698	PER	-0.091052
-4.491698	PETEM	-0.09101
-4.491698	PLENES	-0.06961695
-4.491698	PODEN	-0.09101
-4.491698	PODER	-0.06961695
-4.190668	POT	-0.09051971
-2.900633	PP	-0.1834424
-4.491698	PP#27Srac1	-0.06961695
-4.491698	PP11	-0.091052
-4.491698	PP9	-0.09089798
-4.491698	PPC'sPsc	-0.08783431
-3.6466	PPCatalunya	-0.08789071
-2.889638	PSC	-0.1539554
-4.491698	PSC6	-0.091052
-3.889638	PSOE	-0.04192636
-4.190668	PV	-0.08887671
-4.491698	Pa	-0.08469206
-4.491698	Pablo	-0.091052
-4.014576	PabloIglesias	-0.08085383
-4.190668	Pacma	-0.09060381
-3.889638	Pais	-0.1653889
-4.190668	Paisos	-0.3097967
-4.491698	Palafrugell	-0.09092599
-4.491698	Palau	-0.0811547
-4.491698	Pallaresos	-0.0849193
-4.491698	PallarsAlins	-0.091052
-4.491698	Palma	-0.08469206
-4.491698	Palmada	-0.091038
-4.491698	Pals	-0.09098201
-4.491698	Papa	-0.091052
-4.491698	Paperetes	-0.07877075
-4.491698	Papiol	-0.091038
-4.491698	Parc	-0.091052
-4.491698	Paris	-0.09039354
-4.491698	Park	-0.091052
-2.868448	Parlament	-0.7027072
-4.491698	Parlant	-0.08805991
-3.588608	Participacio	-0.09366339
-4.491698	Participem	-0.091052
-4.491698	Partits	-0.091052
-4.014576	Passi	-0.2169259
-4.491698	Pastor	-0.06961695
-3.889638	Pau	-0.06164638
-4.491698	Paula	-0.08392428
-4.014576	Pel	-0.2230878
-4.190668	Pell	-0.2976695
-3.792728	Pels	-0.1591842
-4.491698	Penal	-0.0811547
-4.491698	Penedes	-0.08530247
-4.190668	Pensant	-0.308127
-4.491698	Pep	-0.091052
-4.491698	Pepe	-0.090996
-2.94763	Per	-0.162542
-4.491698	Pere	-0.091052
-4.491698	Perfecte	-0.06961695
-3.537455	Pero	-0.218861
-3.889638	Perque	-0.08381041
-4.491698	Petit	-0.090968
-4.491698	Petits	-0.08352564
-4.491698	Pic	-0.07877075
-4.491698	Piccadilly	-0.08805991
-4.491698	Pileu	-0.09033746
-4.491698	Pineda	-0.09101
-4.491698	Pique	-0.091052
-4.491698	Pirineu	-0.091052
-4.491698	Pl	-0.091052
-4.491698	Pla	-0.091038
-4.491698	Platja	-0.091052
-4.190668	Plus	-0.3099367
-4.491698	Poble	-0.091024
-4.190668	Poblenou	-0.08790483
-4.491698	Pobre	-0.090996
-4.491698	Poc	-0.0811547
-4.190668	Podem	-0.09096801
-4.014576	Podemos	-0.07871313
-4.491698	PodemosGramenet	-0.05973978
-4.491698	Podriem	-0.09081395
-4.190668	Pol	-0.07828085
-4.491698	Pontevedra	-0.091052
-4.491698	Pontons	-0.091052
-4.491698	Populisme	-0.091052
-4.491698	Por	-0.06961695
-4.190668	Pot	-0.09084197
-4.014576	Potser	-0.08705794
-4.190668	Pp	-0.09079995
-4.491698	Prat	-0.07877075
-4.190668	Prats	-0.3024244
-4.491698	Preparada	-0.08530247
-4.491698	Preparat	-0.06961695
-4.491698	Preparats	-0.08530247
-4.491698	Presdident	-0.091052
-4.491698	President	-0.091052
-4.491698	Presidenta	-0.08825721
-4.491698	Primer	-0.08955151
-4.491698	Problema	-0.09092599
-4.491698	Projecte	-0.05973978
-4.491698	Prosperitat	-0.06961695
-4.014576	Psc	-0.09081394
-4.491698	Puja	-0.0811547
-4.491698	Pura	-0.08352564
-4.491698	Pza	-0.091052
-4.014576	Q	-0.09011304
-4.491698	QUE	-0.090996
-4.491698	QUINS	-0.091038
-4.491698	Quan	-0.091052
-3.12997	Que	-0.102463
-4.491698	Qui	-0.08877821
-4.491698	Quim	-0.09101
-4.491698	QuimMonzo	-0.05973978
-3.889638	Quin	-0.18341
-4.014576	Quina	-0.09093998
-3.6466	Quins	-0.3756431
-4.491698	REPULICA	-0.09098201
-4.491698	RES	-0.08817266
-4.491698	REVOLUCIO	-0.08959365
-3.588608	RT	-0.09042157
-4.491698	Rabell	-0.091038
-4.491698	Raco	-0.09098201
-4.491698	RadioTiana	-0.091052
-4.190668	Rajoy	-0.08801762
-4.491698	Rambla	-0.07877075
-4.491698	Ramon	-0.08988852
-4.190668	RamonEspadaler	-0.09103801
-4.491698	Rapida	-0.091038
-4.491698	Razon	-0.09061781
-4.491698	RdP	-0.09063183
-4.491698	Realitzacio	-0.08530247
-4.491698	Really	-0.09094
-4.491698	RebekaUbera	-0.091052
-4.491698	Record	-0.091038
-4.491698	Recorda	-0.08469206
-4.491698	Recordeuho	-0.0811547
-4.491698	Referent	-0.08352564
-4.190668	Reis	-0.08476309
-4.491698	Reivindicant	-0.06961695
-4.190668	Republica	-0.3099227
-4.491698	Res	-0.0811547
-4.491698	Residencia	-0.0899587
-4.491698	Responem	-0.09084196
-4.491698	Resultats	-0.09033746
-4.491698	ReusDiari	-0.06961695
-4.491698	Rialp	-0.091052
-4.491698	Ribot	-0.08698729
-4.491698	Ripollet	-0.091052
-4.491698	Rita	-0.091052
-4.491698	Rodoreda	-0.08805991
-4.491698	RogerVinton	-0.05973978
-4.491698	Roig	-0.05973978
-4.014576	Roma	-0.06949927
-4.491698	Romania	-0.09064584
-4.014576	Romeva	-0.08527409
-4.491698	Roosevelt	-0.091052
-4.491698	Rovira	-0.091052
-4.190668	RubenMartinez	-0.3098387
-4.491698	Rubi	-0.091038
-4.491698	S'ha	-0.091052
-4.491698	S'han	-0.091024
-4.491698	SAPMOSSOS	-0.091052
-4.491698	SCC	-0.09068787
-4.491698	SERA	-0.091024
-4.491698	SEREM	-0.090996
-3.412517	SI	-0.239291
-4.491698	SJDxIND	-0.0811547
-4.491698	SOBRE	-0.06961695
-4.014576	SOM	-0.08983236
-4.190668	SP	-0.08128358
-4.491698	SPCme	-0.05973978
-4.491698	SSiguen17	-0.08988852
-4.014576	Sabadell	-0.08748158
-4.491698	Sabes	-0.091052
-4.491698	Sagrada	-0.091038
-4.491698	Sagrat	-0.091052
-4.491698	Salle	-0.07877075
-4.491698	Salses	-0.0811547
-4.014576	Salvador	-0.224111
-4.491698	Sanchez	-0.091052
-4.190668	Sansor	-0.09103801
-3.34557	Sant	-0.1826318
-4.190668	Sants	-0.09095401
-4.491698	Saps	-0.09072991
-4.491698	Sardenya	-0.08530247
-4.190668	Sarria	-0.08510383
-4.491698	Sasha	-0.08352564
-4.491698	Sasserra	-0.08239891
-4.491698	Savall	-0.05973978
-4.491698	Seccio	-0.09086998
-4.491698	Secretari	-0.091052
-4.190668	Sedeta	-0.05860988
-4.190668	Segons	-0.09058979
-4.491698	Segre	-0.091038
-4.491698	Segria	-0.091052
-4.190668	Segueix	-0.08045237
-4.491698	Seguim	-0.090968
-4.014576	Seguint	-0.2135393
-4.491698	Seguiras	-0.091052
-4.491698	Seguiuho	-0.0811547
-4.491698	Segur	-0.08469206
-4.491698	Selva	-0.0905057
-4.190668	Sembla	-0.08904551
-4.491698	Sempre	-0.08805991
-3.713547	Sense	-0.4136477
-4.491698	Sera	-0.0895796
-4.014576	Serem	-0.08939695
-4.491698	SergiCastanye	-0.0905057
-4.491698	Seria	-0.09070189
-4.491698	Seu	-0.09046365
-4.491698	Shame	-0.09072991
-2.935395	Si	-0.09125957
-4.491698	Siguem	-0.09101
-4.491698	Sils	-0.08877821
-4.491698	Silvia	-0.09032344
-4.491698	Simple	-0.091052
-4.491698	Sisi	-0.091052
-4.491698	Siusplau	-0.09098201
-4.491698	Sobres	-0.08805991
-4.491698	Soc	-0.091052
-4.491698	Socialisme	-0.08352564
-3.713547	Som	-0.0784538
-4.491698	SomEnergia	-0.091038
-3.169478	Somhi	-0.2116358
-4.491698	Somrient	-0.06961695
-4.491698	Somrieu	-0.09082796
-4.491698	Somriure	-0.09036551
-4.190668	Son	-0.08755216
-4.190668	Sondeig	-0.2976695
-4.491698	Sooniafarran	-0.091052
-4.190668	Sort	-0.07995
-4.491698	Sortidor	-0.06961695
-4.190668	Sortim	-0.07875635
-4.491698	Sortir	-0.07877075
-4.491698	Sortiu	-0.09044962
-3.889638	Spain	-0.3337546
-4.491698	Sr	-0.09092599
-4.491698	Sta	-0.091052
-4.491698	Stop	-0.091052
-4.491698	Sumant	-0.08765093
-4.491698	Supos	-0.08469206
-4.014576	Suria	-0.5064814
-4.491698	Surti	-0.08392428
-4.491698	TANT	-0.09086998
-4.491698	TC	-0.06961695
-4.491698	TELITA	-0.05973978
-4.190668	TEVA	-0.09096801
-4.491698	TOT	-0.06961695
-4.491698	TOTS	-0.0895796
-4.190668	TT	-0.08953746
-4.491698	TTIP	-0.06961695
-3.236425	TV3	-0.1132873
-4.491698	Tal	-0.09037953
-4.491698	Tambe	-0.091052
-4.491698	Tan	-0.07877075
-4.491698	Tanquen	-0.08877821
-4.190668	Tant	-0.2976695
-4.491698	Taula	-0.091052
-4.491698	Teatre	-0.091024
-4.491698	Tecnocasa	-0.08884856
-4.491698	Tecnologic	-0.07877075
-4.491698	Tenen	-0.091038
-4.014576	Ter	-0.2225823
-4.190668	Terrassa	-0.08783432
-4.190668	Tgn	-0.08866561
-4.491698	Tic	-0.091038
-4.491698	Tindrem	-0.0895796
-4.190668	Toca	-0.09098201
-4.491698	Today	-0.09101
-4.491698	Torello	-0.090996
-4.491698	Toronto	-0.090996
-4.491698	Torre	-0.091052
-4.190668	Tortosa	-0.08983237
-4.491698	Tortosacap	-0.07877075
-4.491698	Tossudament	-0.091052
-3.713547	Tot	-0.05752238
-4.014576	Tota	-0.2154573
-3.713547	Tothom	-0.4279491
-3.6466	Tots	-0.1841875
-4.491698	Tradicionarius	-0.05973978
-4.491698	Treball	-0.05973978
-4.491698	Trobemnos	-0.091024
-4.491698	Tsipras	-0.091052
-4.190668	Tu	-0.09074391
-4.491698	Tunis	-0.09085597
-4.491698	Tura	-0.08530247
-4.491698	Turo	-0.07877075
-4.491698	Tv3	-0.090968
-4.190668	Twitter	-0.09079995
-4.491698	Txiki	-0.09088399
-3.792728	UDC	-0.1638369
-4.491698	UELlagostera	-0.08872191
-4.491698	UK	-0.08352564
-3.889638	UN	-0.1866574
-4.491698	Uffffffff	-0.08875006
-4.491698	Ulleres	-0.07877075
-4.190668	Ultra	-0.08879228
-3.315607	Un	-0.2724776
-3.889638	Una	-0.1864332
-3.190668	Unio	-0.09451156
-4.491698	Unio6	-0.091052
-4.491698	Universitat	-0.07877075
-4.491698	Urbana	-0.07877075
-4.491698	Urgell	-0.08765093
-4.491698	Urnes	-0.091052
-4.014576	Us	-0.09092598
-4.491698	VEN	-0.091052
-4.491698	VENT	-0.08875006
-4.491698	VIATGE#27S	-0.05973978
-4.190668	VICTORIA	-0.3099367
-3.792728	VIDA	-0.1043836
-4.190668	VISCA	-0.3098807
-3.713547	VOT	-0.4377955
-4.190668	VOTA	-0.08998677
-4.491698	VOTANT	-0.08880635
-3.889638	VOTAR	-0.0876086
-4.014576	VOTAT	-0.2026892
-4.491698	VOTEU	-0.0899587
-3.792728	Va	-0.153661
-4.491698	Vaaaaaa	-0.08469206
-4.491698	Vaig	-0.08825721
-4.491698	Vaja	-0.06961695
-4.491698	Vale	-0.091052
-4.491698	Valencia	-0.08352564
-4.491698	Vall	-0.08825721
-4.491698	Valldan	-0.09077193
-4.491698	Vallespinos	-0.08698729
-4.491698	Vamcats	-0.091038
-4.190668	Vamos	-0.07963393
-4.491698	Vazquez	-0.091052
-4.491698	Ventura	-0.05973978
-4.190668	Veurem	-0.08399543
-4.491698	Via	-0.091038
-4.491698	Vic	-0.091052
-4.491698	Victor	-0.091038
-4.491698	VigileuEsteu	-0.091052
-4.190668	Vila	-0.05668986
-4.190668	VilaWeb	-0.09103801
-4.491698	Viladecans	-0.09098201
-4.491698	Vilafranca	-0.08825721
-4.491698	Vilamos	-0.09005693
-4.491698	Vilanova	-0.07877075
-4.491698	Villa	-0.07877075
-4.491698	Villegas	-0.09098201
-4.491698	Vinaixa	-0.091052
-4.491698	Vine	-0.0811547
-4.190668	Vinga	-0.07881396
-4.491698	Vingaaaa	-0.09051971
-3.169478	Visca	-0.9826291
-4.491698	VisitCerdanya	-0.08875006
-4.491698	Vivim	-0.0811547
-4.491698	Vocal	-0.09071589
-4.491698	Vocal1	-0.090996
-4.491698	Volem	-0.091052
-4.491698	Voleu	-0.091038
-4.491698	Vols	-0.07877075
-4.014576	Vosaltres	-0.08464944
-4.491698	Vot	-0.0811547
-4.190668	Vota	-0.08081084
-4.491698	Vota't	-0.09049167
-4.491698	Votao	-0.0886093
-4.014576	Votar	-0.07722713
-4.491698	Votare	-0.08530247
-3.6466	Votem	-0.2187603
-3.491698	Voteu	-0.2958238
-4.190668	Voto	-0.09036551
-4.014576	Vots	-0.221316
-4.491698	Vull	-0.090968
-4.491698	WATER	-0.091052
-4.491698	X	-0.09081395
-4.491698	XD	-0.08884856
-4.491698	XSalaimartin	-0.091052
-4.491698	XXI	-0.06961695
-4.491698	XXSS	-0.08877821
-4.491698	Xicots	-0.091052
-4.491698	Y	-0.08469206
-4.491698	YouTube	-0.091052
-1.6466	a	-0.3079828
-3.588608	abans	-0.1046128
-4.491698	abertms	-0.091052
-4.491698	abns	-0.0906038
-4.491698	absolut	-0.091038
-3.713547	absoluta	-0.08427988
-4.491698	absolutament	-0.09081395
-4.491698	abusos	-0.08352564
-4.190668	acaba	-0.2976695
-4.190668	acabar	-0.08086817
-4.014576	acabat	-0.08728393
-4.014576	acabi	-0.09053372
-4.014576	acabo	-0.07864112
-4.491698	accions	-0.08872191
-4.190668	aclaparadora	-0.07875635
-4.491698	acompanyada	-0.07877075
-4.491698	acompanyant	-0.091038
-4.491698	acompanyar	-0.08239891
-4.491698	aconsegueixi	-0.09101
-4.491698	aconseguint	-0.06961695
-4.491698	aconseguir	-0.08774969
-4.491698	aconseguirem	-0.06961695
-4.491698	aconseguirho	-0.08877821
-4.491698	aconseguit	-0.091038
-4.491698	aconseguits	-0.06961695
-4.491698	acords	-0.08922829
-4.491698	actes	-0.08825721
-4.190668	adeu	-0.09086998
-4.491698	administratiu	-0.08884856
-4.491698	adults	-0.09008499
-4.491698	adverso	-0.090954
-4.491698	aescarp	-0.09033746
-4.491698	afavoreixi	-0.08872191
-4.491698	afavoria	-0.091052
-4.491698	afinant	-0.090996
-4.491698	afirmar	-0.08698729
-4.491698	afluencia	-0.07877075
-4.491698	aforeixi	-0.0811547
-4.190668	agafa	-0.09063183
-4.491698	agafar	-0.08774969
-4.491698	agafat	-0.08392428
-4.491698	agents	-0.091024
-4.491698	agilment	-0.0877779
-4.491698	agradat	-0.09077193
-4.491698	agredir	-0.08774969
-4.190668	aguanta	-0.08363958
-4.491698	aguantar	-0.08239891
-4.491698	ahhhhhh	-0.08990256
-4.491698	ahir	-0.05973978
-4.491698	ahora	-0.091052
-3.713547	ahorapodemos	-0.2212223
-4.014576	ai	-0.2026598
-4.491698	aillat	-0.091052
-4.491698	ainallabrs	-0.09001483
-4.190668	aixecat	-0.09064584
-4.491698	aixequem	-0.08805991
-3.6466	aixi	-0.06166136
-3.076725	aixo	-0.1017407
-4.491698	ajigualada	-0.06961695
-4.190668	ajuda	-0.08796123
-4.491698	ajudat	-0.0811547
-4.491698	ajustat	-0.09085597
-2.268981	al	-0.2790814
-4.491698	albertbotran	-0.091052
-4.491698	albertcalatrava	-0.091052
-4.491698	alcantse	-0.09028137
-4.491698	alcanyis	-0.0811547
-4.491698	alcar	-0.08239891
-4.491698	alcats	-0.08875006
-4.491698	alcatsI	-0.091038
-4.014576	alegre	-0.2103575
-4.190668	alegria	-0.08078218
-4.491698	alegriaPodrien	-0.091038
-4.491698	alemany1993	-0.09046365
-4.491698	alerta	-0.08469206
-4.491698	aleshores	-0.09072991
-4.491698	alexmiquel	-0.05973978
-3.491698	algu	-0.1190384
-4.190668	algun	-0.08767916
-4.190668	alguna	-0.3098947
-4.491698	algunes	-0.090968
-4.190668	alguns	-0.08237036
-4.491698	alhoratot	-0.091038
-3.792728	alla	-0.05931829
-4.491698	alliberar	-0.05973978
-4.491698	allo	-0.08469206
-4.491698	allucinant	-0.08805991
-4.190668	almenys	-0.08208463
-3.060334	als	-0.1819581
-4.190668	alt	-0.08467786
-4.014576	alta	-0.222807
-4.491698	alternativa	-0.091052
-4.190668	altissima	-0.06315672
-4.491698	altissimies	-0.06961695
-4.491698	altra	-0.08987448
-4.014576	altre	-0.09075791
-3.792728	altres	-0.1110425
-4.491698	amagat	-0.08922829
-2.161284	amb	-0.463396
-4.491698	amb12'5	-0.091052
-3.792728	ambient	-0.05770384
-4.491698	ambiguitat	-0.08783431
-4.491698	ambulatorio	-0.09086998
-4.491698	amenaces	-0.08875006
-4.491698	amic	-0.08352564
-3.889638	amics	-0.09040756
-4.491698	amicsdelesarts	-0.06961695
-4.491698	ammistia	-0.08352564
-4.491698	amor	-0.09058978
-4.491698	ampla	-0.08352564
-4.491698	ample	-0.09092599
-4.491698	ampolles	-0.0906038
-4.190668	amunt	-0.08221322
-4.491698	anaconda	-0.0905057
-4.491698	analisistot	-0.091052
-4.491698	analitza	-0.091052
-4.491698	anamirandapaz	-0.05973978
-4.190668	anant	-0.3000534
-4.491698	anapastor	-0.090954
-3.236425	anar	-0.6058735
-3.315607	anat	-0.7764861
-4.491698	anau	-0.0811547
-4.491698	anava	-0.09075792
-4.491698	ancSuisse	-0.05973978
-4.491698	ancianos	-0.08352564
-4.491698	and	-0.091052
-4.190668	andalusa	-0.0835114
-4.190668	anecdota	-0.08319791
-4.491698	anecdotes	-0.09088399
-3.588608	anem	-0.298109
-4.491698	aneu	-0.0811547
-4.190668	angles	-0.07101192
-4.491698	anima	-0.0895796
-4.491698	aniol3	-0.09082796
-4.491698	anira	-0.09051971
-4.491698	anirem	-0.0811547
-4.190668	aniversari	-0.07875635
-4.491698	annallobet	-0.091052
-4.491698	annapifa	-0.08825721
-4.491698	anneruizb	-0.08993063
-4.491698	anomena	-0.09091199
-4.491698	ansia	-0.08392428
-4.491698	ansiosa	-0.08530247
-4.491698	anticapitalista#27s	-0.08959365
-4.491698	anticapitalistes	-0.08352564
-4.491698	antiguitat	-0.091052
-4.491698	antiindepe	-0.091052
-4.491698	antonibassas	-0.06961695
-3.377754	antoniobanos	-0.09801283
-3.792728	any	-0.06406636
-2.935395	anys	-0.07108016
-4.491698	anysNi	-0.08946721
-4.491698	anyscastellanoparlant	-0.08925641
-4.491698	apassionada	-0.08352564
-4.491698	apoderada	-0.08825721
-4.190668	apoderades	-0.07875635
-4.014576	apoderat	-0.2111083
-3.6466	apoderats	-0.3276123
-4.491698	apoyare	-0.08392428
-4.491698	aproditin	-0.08765093
-4.491698	aprofitat	-0.08392428
-4.190668	aprop	-0.06315672
-4.491698	apropiantse	-0.09019722
-4.190668	aprox	-0.07635916
-4.190668	apunta	-0.07744387
-4.491698	aq	-0.091052
-4.491698	aqest	-0.091024
-3.792728	aquell	-0.07405058
-4.190668	aquella	-0.09035148
-4.491698	aquelles	-0.09085597
-4.014576	aquells	-0.5100188
-3.149275	aquest	-0.2027268
-3.236425	aquesta	-0.1726374
-3.713547	aquestes	-0.1511854
-3.588608	aquests	-0.1854653
-4.491698	aquets	-0.091052
-3.149275	aqui	-0.1545601
-2.986548	ara	-0.2091893
-4.491698	araa	-0.091038
-4.491698	araeslhora	-0.09077193
-4.491698	aramateix	-0.08872191
-4.491698	arbre	-0.0811547
-4.491698	arguments	-0.0849193
-4.491698	aritzurruela	-0.09101
-4.014576	arreu	-0.09058978
-4.190668	arriba	-0.09098201
-3.6466	arribar	-0.2943341
-4.014576	arribara	-0.08489089
-2.868448	arribat	-0.506676
-4.190668	arriben	-0.09065986
-4.491698	arribin	-0.08765093
-4.491698	arrivat	-0.08880635
-4.491698	artesa	-0.091052
-4.491698	asco	-0.08352564
-4.491698	assabentat	-0.08988852
-4.190668	assassinats	-0.08704382
-4.014576	assemblea	-0.09078593
-4.491698	assembleasmxi	-0.0849193
-4.491698	assenyala	-0.08392428
-4.491698	assolir	-0.08392428
-4.491698	astrolegs	-0.08469206
-4.491698	asturia	-0.08946721
-4.491698	atac	-0.07877075
-4.491698	atacs	-0.0811547
-4.491698	aten	-0.091052
-4.491698	atencio	-0.09091199
-4.491698	atentsQue	-0.08783431
-4.491698	atribueixen	-0.0811547
-4.491698	atur	-0.06961695
-4.190668	aturara	-0.08849666
-4.491698	auf	-0.091052
-4.491698	augment	-0.07877075
-4.491698	augmenta	-0.09101
-4.491698	augmentat	-0.08239891
-4.491698	auguri	-0.08530247
-4.491698	auguris	-0.09039354
-4.491698	autentic	-0.091024
-4.491698	autentica	-0.090954
-4.491698	autonomiaAra	-0.091052
-4.491698	autonomiques	-0.091052
-4.491698	avall	-0.08392428
-4.491698	avanca	-0.08897518
-4.190668	avancar	-0.08893298
-4.491698	ave	-0.09051971
-3.6466	avi	-0.05257949
-4.014576	avia	-0.07828084
-4.190668	aviat	-0.06291781
-4.491698	avies	-0.09074391
-4.491698	avio	-0.06961695
-3.34557	avis	-0.2973995
-4.491698	aviseu	-0.08988852
-2.610884	avui	-0.08077376
-4.491698	avuiS'estrena	-0.091052
-4.491698	ayuda	-0.0811547
-4.491698	azul	-0.08990256
-4.491698	b	-0.0886093
-4.014576	baby	-0.091024
-4.491698	baila	-0.08392428
-4.491698	baixa	-0.08392428
-4.491698	baixen	-0.08946721
-4.491698	baixes	-0.09039354
-4.491698	baixos	-0.09074391
-4.491698	balanc	-0.05973978
-4.491698	balco	-0.08946721
-3.792728	ball	-0.1534017
-4.491698	balla	-0.091052
-4.491698	ballar	-0.08392428
-4.491698	ballat	-0.09092599
-4.491698	banca	-0.091052
-4.190668	banda	-0.06960225
-4.491698	bandarres	-0.091052
-4.014576	bandera	-0.07803568
-4.491698	banderes	-0.091038
-4.491698	banderoles	-0.08825721
-4.491698	barat	-0.06961695
-4.491698	barceloninses	-0.09092599
-4.491698	barrejat	-0.091024
-3.713547	barri	-0.109957
-4.491698	basada	-0.08922829
-4.491698	basca	-0.08352564
-4.190668	bat	-0.07343872
-4.491698	bategan	-0.091038
-4.491698	batucadaq	-0.091052
-3.190668	be	-0.2005434
-4.491698	belgues	-0.05973978
-4.491698	bellesa	-0.09019722
-3.149275	ben	-0.1648191
-4.491698	berenar	-0.091052
-4.491698	bernatvilaro	-0.091052
-4.491698	besavia	-0.091038
-4.491698	besneta	-0.09063183
-4.491698	bevem	-0.09094
-4.491698	bici	-0.09063183
-4.491698	bipartidista	-0.090954
-4.491698	birra	-0.09101
-4.014576	blanc	-0.2236487
-4.491698	blancs	-0.09063183
-4.491698	blat	-0.09065985
-4.491698	bleda	-0.06961695
-4.491698	blog	-0.08530247
-3.713547	bo	-0.06044633
-4.491698	boca	-0.090968
-4.491698	boig	-0.09039354
-4.491698	bolets	-0.08352564
-4.491698	bombolla	-0.09072991
-3.537455	bon	-0.1710533
-3.287578	bona	-0.1124627
-4.491698	bonament	-0.09072991
-4.491698	bones	-0.091052
-4.491698	bonic	-0.09094
-4.190668	bonica	-0.09036551
-4.491698	boniques	-0.08469206
-4.491698	bonissima	-0.091052
-4.491698	bons	-0.090954
-4.491698	boom	-0.08880635
-4.491698	boom#27S	-0.08988852
-4.190668	boques	-0.3024244
-4.491698	bossa	-0.08825721
-4.190668	bracos	-0.3098667
-4.491698	brillen	-0.08877821
-4.491698	brinda	-0.08239891
-4.491698	broma	-0.09088399
-4.491698	bronquitis	-0.091052
-4.491698	brownie	-0.07877075
-4.014576	bruta	-0.07872754
-4.491698	brutal	-0.09018319
-3.169478	btvnoticies	-0.6420051
-4.491698	bucle	-0.08392428
-4.491698	bulleta	-0.09077193
-4.491698	bus	-0.08469206
-4.190668	buscar	-0.09103801
-4.491698	buscarlo	-0.09016916
-4.491698	butlleta	-0.0811547
-4.190668	butlleti	-0.09094
-3.889638	bye	-0.09070188
-4.190668	c's	-0.09070189
-4.491698	cViladomat	-0.090996
-4.491698	cabas	-0.07877075
-4.491698	cacat	-0.091052
-3.792728	cada	-0.1609012
-4.491698	cadascu	-0.08698729
-4.491698	caducat	-0.091038
-4.014576	cafe	-0.08767914
-4.491698	cafeteries	-0.09019722
-4.491698	caganera	-0.08352564
-4.491698	cagant	-0.09074391
-4.491698	cagar	-0.06961695
-4.491698	cague	-0.06961695
-4.491698	caient	-0.0811547
-4.190668	caiguda	-0.07855469
-4.491698	caigui	-0.091052
-4.190668	cal	-0.09037953
-4.491698	calamars	-0.05973978
-4.491698	calendari	-0.07877075
-4.491698	calgui	-0.05973978
-4.491698	calgut	-0.091052
-4.491698	calli	-0.05973978
-4.491698	calls	-0.090996
-4.014576	calma	-0.09086997
-4.491698	cambra	-0.08884856
-3.377754	cami	-0.1558808
-3.889638	caminar	-0.1588387
-3.889638	caminem	-0.7575807
-4.491698	camins	-0.09089798
-4.491698	camp	-0.06961695
-4.190668	campanada	-0.08917207
-4.491698	campanades	-0.06961695
-4.190668	campanes	-0.09054775
-3.713547	campanya	-0.07092392
-4.491698	campanyia	-0.08805991
-4.491698	campusmagnus	-0.09074391
-4.491698	canal	-0.091038
-4.491698	cancapablanca	-0.091052
-4.190668	canco	-0.0783241
-4.491698	cancons	-0.08946721
-3.889638	candidat	-0.09070188
-4.014576	candidats	-0.08786251
-4.491698	cano	-0.09037953
-4.491698	cantada	-0.08530247
-4.491698	cantant	-0.091052
-4.491698	cantar	-0.090954
-4.491698	cantonada	-0.08530247
-3.315607	canvi	-0.195771
-4.491698	canviant	-0.08392428
-3.412517	canviar	-0.250951
-4.190668	canviara	-0.07891473
-4.491698	canviarem	-0.08239891
-3.889638	canviarho	-0.7626858
-4.491698	canviaven	-0.091024
-4.491698	canvio	-0.091052
-4.190668	canvis	-0.06355958
-2.900633	cap	-0.3847756
-4.491698	capac	-0.07877075
-4.491698	capital	-0.08825721
-4.491698	capitalitzat	-0.08392428
-4.491698	caps	-0.091052
-3.588608	cara	-0.1155868
-4.190668	caracter	-0.08780611
-4.491698	carbasso	-0.08530247
-4.491698	cardedeu	-0.09001483
-4.014576	cares	-0.0901411
-4.491698	carlosabadiaj	-0.091052
-4.491698	carnet	-0.07877075
-4.491698	carquimel	-0.091052
-4.491698	carregar	-0.08392428
-4.014576	carregat	-0.07864112
-3.377754	carrer	-0.07958123
-3.889638	carrers	-0.1443239
-4.491698	carretera	-0.08352564
-4.491698	carta	-0.08352564
-3.792728	cas	-0.2278463
-3.014576	casa	-0.1840394
-4.491698	casat	-0.08922829
-4.491698	case	-0.09046365
-4.491698	casolana	-0.09094
-4.491698	caspa	-0.091052
-4.491698	castella	-0.091038
-4.491698	castellar	-0.07877075
-4.491698	castig	-0.09019722
-4.491698	cat	-0.09063183
-3.450305	catala	-0.1842189
-3.537455	catalana	-0.1394215
-3.6466	catalanes	-0.07345328
-3.0293	catalans	-0.131389
-4.190668	catalunya	-0.05951403
-4.491698	catalunya#27S	-0.05973978
-4.491698	catalunyaa	-0.090968
-2.900633	catsiqueespot	-0.1465939
-4.491698	catsiquespotbdn	-0.091052
-4.014576	cattestimo	-0.06237977
-4.491698	cau	-0.08805991
-4.190668	caure	-0.08052409
-3.537455	cava	-0.1126172
-4.190668	cc	-0.09103801
-4.491698	ceba	-0.08352564
-4.491698	cedeixen	-0.06961695
-4.491698	cedir	-0.08392428
-3.889638	cel	-0.1803514
-4.014576	celebracio	-0.07243162
-4.190668	celebrant	-0.08391005
-3.889638	celebrar	-0.07270917
-4.491698	celebrarho	-0.06961695
-4.491698	celiaboix	-0.091052
-3.889638	cens	-0.1521426
-4.491698	censal	-0.08352564
-4.491698	censats	-0.0811547
-4.491698	centenars	-0.07877075
-3.889638	centre	-0.090982
-4.491698	cercle	-0.07877075
-4.491698	cero	-0.09074391
-4.491698	cert	-0.091038
-4.491698	certesa	-0.07877075
-4.491698	certificat	-0.08993063
-4.491698	chao	-0.091052
-4.491698	charnega	-0.09098201
-4.491698	churros	-0.09094
-4.491698	ciclicno	-0.091038
-4.491698	cigarreta	-0.09082796
-4.491698	ciment	-0.08352564
-3.792728	cinc	-0.2943384
-4.491698	cine	-0.08805991
-4.014576	cintagsentis	-0.09044962
-4.190668	cinturo	-0.09103801
-4.491698	circuit	-0.07877075
-4.491698	cita	-0.091052
-4.491698	ciu	-0.08783431
-4.491698	ciudadania	-0.06961695
-4.491698	ciuerc	-0.08825721
-4.491698	ciutada	-0.08946721
-4.491698	ciutadana	-0.09064584
-3.377754	ciutadans	-0.1051407
-4.190668	ciutat	-0.08678942
-4.190668	civic	-0.08780611
-4.491698	civilERC	-0.08783431
-3.12997	clar	-0.2182132
-4.491698	clara	-0.091052
-4.491698	clarablaat	-0.09001483
-4.190668	clarament	-0.09094
-4.491698	clares	-0.091052
-4.190668	clarificant	-0.06960225
-4.491698	clars	-0.05973978
-4.491698	classic	-0.08352564
-3.792728	clau	-0.1315202
-4.491698	club	-0.08825721
-4.491698	cobrant	-0.091052
-4.491698	cobreix	-0.08239891
-4.491698	cobriment	-0.08884856
-4.491698	codines	-0.09086998
-4.190668	coi	-0.09037953
-4.491698	coincideix	-0.08805991
-4.491698	cola	-0.08869376
-4.491698	cole	-0.09072991
-4.491698	colegis	-0.09074391
-4.190668	coleta	-0.09103801
-4.491698	collectiu	-0.09092599
-3.111486	collegi	-0.495468
-3.093758	collegis	-0.4105775
-4.190668	collons	-0.06958754
-4.491698	collonut	-0.09072991
-4.491698	collonuts	-0.0849193
-4.491698	colors	-0.08352564
-4.190668	colzes	-0.06315672
-2.801502	com	-0.3305514
-4.014576	comarques	-0.2026892
-4.190668	combatiu	-0.0531298
-4.491698	comcadavegadaquehihaeleccions#jahemvotat#undretquevacostarmoltaconseguir#aviaineta	-0.0849193
-3.315607	comenca	-0.1733995
-3.412517	comencar	-0.3540533
-4.190668	comencat	-0.07806455
-4.190668	comencem	-0.07807897
-3.889638	comencen	-0.7534329
-4.491698	comenci	-0.09082796
-4.491698	comentat	-0.0811547
-4.491698	comenzar	-0.0811547
-4.491698	comercials	-0.091052
-4.190668	comicis	-0.06857147
-4.491698	company	-0.09101
-4.190668	companyes	-0.08164137
-4.491698	companyia	-0.08886264
-4.190668	companys	-0.08311237
-4.491698	compara	-0.091052
-4.491698	comparables	-0.09068787
-4.014576	compareixenca	-0.2112381
-4.491698	compartides	-0.06961695
-4.491698	compartim	-0.091024
-4.491698	compartint	-0.09039354
-4.491698	compartir	-0.09039354
-4.491698	compartire	-0.0811547
-4.491698	compartits	-0.08805991
-4.491698	compas	-0.07877075
-4.014576	complert	-0.2107619
-4.491698	complirse	-0.08392428
-4.491698	comportat	-0.08392428
-4.491698	comprant	-0.091052
-4.190668	comprar	-0.07806455
-4.491698	compromis	-0.07877075
-4.491698	comprovat	-0.08469206
-4.491698	compta	-0.091052
-4.190668	comptant	-0.09077194
-4.014576	comptar	-0.08856706
-4.190668	compte	-0.08464944
-4.491698	compten	-0.08877821
-4.491698	comptes	-0.091052
-4.491698	compti	-0.091052
-4.491698	comu	-0.06961695
-4.190668	comunicacio	-0.0848909
-4.491698	comunicatiu	-0.08352564
-4.491698	conclusions	-0.09071589
-4.491698	conduir	-0.091038
-4.491698	conec	-0.09063183
-4.190668	conegut	-0.0835114
-4.491698	coneguts	-0.08352564
-4.190668	coneixer	-0.08006488
-4.491698	confessar	-0.08469206
-4.491698	confianca	-0.09072991
-4.491698	confiem	-0.08922829
-3.792728	confirma	-0.1568604
-4.491698	confirmar	-0.09082796
-4.491698	confirmen	-0.08469206
-4.491698	confonent	-0.0811547
-4.491698	conformem	-0.08805991
-4.491698	confort	-0.0849193
-4.491698	connexio	-0.08805991
-4.014576	consciencia	-0.2117713
-4.190668	conscient	-0.07221239
-4.491698	conscients	-0.08469206
-4.491698	consideran	-0.08946721
-4.491698	consolidaria	-0.08392428
-4.491698	consten	-0.08872191
-4.491698	construeix	-0.09101
-4.491698	construeixi	-0.0895796
-3.792728	construir	-0.2829186
-4.190668	construirem	-0.3066484
-4.491698	consulat	-0.08469206
-4.491698	consulta	-0.07877075
-4.491698	contar	-0.091038
-4.491698	contenir	-0.08239891
-4.491698	content	-0.09002887
-4.014576	contenta	-0.07763159
-4.491698	contents	-0.08805991
-4.491698	contestat	-0.091052
-4.491698	continguda	-0.090968
-4.491698	continua	-0.090968
-4.491698	continuo	-0.09085597
-4.014576	contra	-0.07209541
-4.491698	contruir	-0.08392428
-4.491698	convenc	-0.09088399
-4.491698	convencio	-0.091052
-4.014576	convencuda	-0.07464704
-4.491698	convencut	-0.08469206
-4.491698	convencuts	-0.08469206
-4.491698	convergents	-0.09081395
-4.491698	converteix	-0.08922829
-4.491698	convertir	-0.08392428
-4.491698	conviccio	-0.08980429
-4.491698	convidats	-0.06961695
-4.491698	convoca	-0.09085597
-3.537455	cop	-0.254971
-4.491698	copees	-0.09091199
-3.6466	cor	-0.05503516
-4.491698	corcada	-0.09101
-4.491698	corda	-0.0811547
-4.491698	cordovesa	-0.08469206
-4.491698	corren	-0.0811547
-4.491698	correr	-0.08469206
-4.491698	correspon	-0.0811547
-3.588608	correu	-0.03732476
-4.491698	correuTupinazo	-0.091052
-4.491698	correus	-0.0849193
-4.491698	corri	-0.09068787
-4.491698	corro	-0.08530247
-4.491698	cors	-0.091052
-3.792728	cosa	-0.0817987
-4.491698	cosa#mamapor	-0.091024
-3.6466	coses	-0.07586652
-4.491698	cosins	-0.09101
-4.491698	costa	-0.0811547
-4.491698	costar	-0.08239891
-4.190668	costat	-0.09101
-4.491698	cot	-0.091052
-4.491698	cotitzat	-0.09077193
-4.491698	cotxe	-0.08530247
-4.491698	covards	-0.06961695
-4.491698	cplamerci	-0.08783431
-4.190668	crec	-0.08349715
-4.190668	creix	-0.09079995
-4.491698	creixen	-0.08875006
-4.190668	creu	-0.08282713
-4.190668	creuen	-0.08282713
-4.491698	creure	-0.08922829
-4.190668	crida	-0.07525722
-4.190668	cridant	-0.09044963
-4.190668	cridats	-0.3000534
-4.491698	crideu	-0.091052
-4.491698	cridones	-0.06961695
-4.190668	crispetes	-0.08308385
-4.491698	cristinamas	-0.05973978
-4.491698	crits	-0.08352564
-4.491698	crjoventut	-0.091052
-4.491698	croniques	-0.07877075
-4.491698	cronologia	-0.091038
-4.491698	crucial	-0.08530247
-4.491698	cs	-0.08239891
-4.491698	csqep	-0.091038
-4.491698	csqp	-0.091052
-2.923496	cua	-0.5026656
-4.491698	cua#27S	-0.05973978
-4.190668	cuaHE	-0.3099227
-4.491698	cuapreparada	-0.08530247
-4.491698	cuasualitat	-0.06961695
-4.491698	cuatro	-0.09092599
-3.315607	cues	-0.2031821
-4.491698	cuina	-0.09089798
-4.491698	culet	-0.08922829
-4.491698	culminem	-0.08875006
-4.491698	culpa	-0.091052
-3.713547	cup	-0.08976215
-4.491698	cupcakes	-0.08817266
-4.491698	cupcerdanyola	-0.05973978
-2.616637	cupnacional	-0.2220424
-4.491698	cupvila	-0.091038
-4.491698	curios	-0.08469206
-4.491698	currar	-0.08922829
-4.491698	currat	-0.09081395
-4.190668	curta	-0.07101192
-4.491698	custodiades	-0.08817266
-4.491698	cutre	-0.07877075
-2.973184	d	-0.1267307
-4.491698	d'	-0.091052
-4.491698	d'#Hongria	-0.09047766
-4.190668	d'#anaconda	-0.06835028
-4.491698	d'AAVV	-0.091052
-4.491698	d'Alacant	-0.08469206
-4.491698	d'Alcoi	-0.09065985
-4.491698	d'Artesa	-0.07877075
-4.491698	d'Eleccions	-0.0811547
-4.491698	d'Espanya	-0.09039354
-4.491698	d'Horta	-0.091038
-4.491698	d'Hosteleria	-0.07877075
-4.491698	d'Iceta	-0.08783431
-4.491698	d'Iglesias	-0.06961695
-4.190668	d'Igualada	-0.08801762
-4.190668	d'Irlanda	-0.08734043
-4.491698	d'Ors	-0.07877075
-3.889638	d'Unio	-0.08235606
-4.491698	d'abans	-0.08352564
-4.491698	d'absentisme	-0.0811547
-4.491698	d'acord	-0.08922829
-4.190668	d'agafar	-0.08956556
-4.491698	d'aguantar	-0.08877821
-4.491698	d'ahir	-0.09001483
-4.491698	d'aixafar	-0.0895796
-4.190668	d'aixo	-0.08873599
-4.491698	d'algo	-0.09074391
-4.491698	d'alla	-0.091052
-4.491698	d'altres	-0.08922829
-4.491698	d'altrs	-0.091052
-4.491698	d'amor	-0.08986045
-4.491698	d'ampranyadors	-0.08875006
-3.588608	d'anar	-0.2987399
-4.491698	d'anhels	-0.091052
-4.491698	d'antena3	-0.08352564
-4.491698	d'any	-0.08352564
-4.491698	d'apoderades	-0.091052
-4.491698	d'apoderat	-0.06961695
-4.190668	d'aquells	-0.3097827
-3.713547	d'aquest	-0.409931
-3.792728	d'aquesta	-0.1650029
-4.190668	d'aquestes	-0.08963579
-4.190668	d'aquests	-0.09086998
-3.713547	d'aqui	-0.3283687
-4.190668	d'ara	-0.08086817
-4.491698	d'arreglar	-0.091052
-4.014576	d'arribar	-0.06817322
-4.491698	d'arribar'	-0.06961695
-4.491698	d'aturar	-0.091052
-4.190668	d'avis	-0.2976695
-3.412517	d'avui	-0.1061004
-4.491698	d'edat	-0.06961695
-4.491698	d'eixos	-0.09088399
-4.190668	d'eleccions	-0.06724259
-4.491698	d'elegir	-0.09074391
-4.491698	d'elles	-0.08986045
-4.014576	d'emocio	-0.05003293
-4.491698	d'emocions	-0.091052
-4.491698	d'en	-0.091052
-4.491698	d'escandol	-0.08872191
-4.491698	d'escons	-0.06961695
-4.190668	d'escrutini	-0.07881396
-4.491698	d'especulacio	-0.09068787
-4.491698	d'espera	-0.090996
-4.491698	d'esperanca	-0.09061781
-4.190668	d'esquerres	-0.05668986
-4.190668	d'estar	-0.08869377
-4.491698	d'estimar	-0.06961695
-4.491698	d'estirar	-0.0811547
-4.491698	d'estudi	-0.07877075
-4.190668	d'exercir	-0.07625778
-4.491698	d'exit	-0.06961695
-4.190668	d'haver	-0.08722746
-3.588608	d'hora	-0.1269487
-4.491698	d'horaAmb	-0.09039354
-4.491698	d'iceta	-0.08925641
-4.014576	d'illusio	-0.2040989
-4.491698	d'illusions	-0.06961695
-4.491698	d'illusiosom	-0.08774969
-4.491698	d'impunitat	-0.06961695
-4.491698	d'infartar	-0.0849193
-4.491698	d'iniciar	-0.08239891
-4.491698	d'interventors	-0.07877075
-4.491698	d'oli	-0.0849193
-4.190668	d'on	-0.09086998
-4.491698	d'or	-0.0811547
-4.014576	d'orella	-0.5064814
-3.111486	d'un	-0.2006249
-3.412517	d'una	-0.1504546
-4.491698	d'ungles	-0.09079995
-4.491698	d'uns	-0.07877075
-3.792728	d'urna	-0.05212038
-4.491698	d1	-0.08352564
-4.190668	dada	-0.05970969
-3.588608	dades	-0.3139102
-4.491698	dalt	-0.09092599
-4.190668	darrer	-0.09102401
-4.190668	darrera	-0.09077194
-4.190668	darrere	-0.08824312
-4.491698	darreres	-0.0849193
-4.491698	darrers	-0.09056176
-4.491698	dates	-0.090996
-3.6466	davant	-0.07031687
-4.491698	davidpsc	-0.091052
-4.491698	day	-0.091038
-1.55418	de	-0.3117599
-4.190668	debat	-0.08990256
-4.491698	debe	-0.091052
-4.190668	decepcio	-0.06169133
-4.491698	deciSIdim	-0.08392428
-3.889638	decideix	-0.1796545
-4.491698	decideixi	-0.08352564
-4.491698	decideixo	-0.08392428
-3.6466	decidim	-0.09545308
-3.287578	decidir	-0.1530989
-4.491698	decidiran	-0.08530247
-3.889638	decidit	-0.07409425
-4.491698	decisio	-0.09019722
-4.190668	decisiu	-0.07907306
-4.491698	declaracio	-0.07877075
-4.491698	declaracions	-0.09101
-4.491698	declive	-0.08825721
-4.491698	defendre	-0.08392428
-4.491698	defensant	-0.08392428
-4.190668	defensar	-0.3012976
-4.491698	defensat	-0.08469206
-4.491698	defensen	-0.08239891
-4.491698	definicio	-0.08922829
-4.491698	definitiu	-0.08880635
-4.491698	definitves	-0.09094
-4.014576	deia	-0.08983236
-4.491698	deien	-0.08239891
-4.014576	deixar	-0.0698228
-4.491698	deixarnos	-0.0877779
-4.491698	deixarpq	-0.08877821
-4.491698	deixat	-0.08392428
-4.014576	deixem	-0.2235787
