
\data\
ngram 1=6561
ngram 2=21958
ngram 3=2077

\1-grams:
-4.25835	#25STV3	-0.0494502
-4.55938	#25STv3	-0.09130652
-3.95732	#272S2015	-0.06454521
-1.464909	#27S	-0.4494881
-2.86041	#27S2015	-0.4496908
-4.55938	#27SCamp	-0.09222987
-4.082259	#27SCatRadio	-0.06546348
-4.55938	#27SEspanaIndivisible	-0.07709128
-4.55938	#27SFoto	-0.09222987
-4.55938	#27SMi	-0.09222987
-2.760039	#27STV3	-0.5644134
-4.55938	#27STVE	-0.06557813
-4.25835	#27Sen	-0.2749474
-4.25835	#27SenCuatro	-0.09216996
-3.65629	#27Srac1	-0.08380227
-2.44879	#27s	-0.3642867
-4.082259	#27s2015	-0.06390637
-4.25835	#27s8aldia	-0.0906698
-4.55938	#27sARV	-0.06557813
-3.65629	#27sTVE	-0.2604195
-3.86041	#27srac1	-0.1325293
-3.95732	#27stv3	-0.09060971
-4.082259	#28S	-0.1772602
-4.25835	#3%	-0.06556538
-4.55938	#40GlobalShow	-0.06557813
-4.55938	#9N	-0.09222987
-4.55938	#A3F1Japon	-0.09222987
-4.55938	#ARAESLHORA	-0.09193029
-4.55938	#ARRIMADAS	-0.0916665
-4.55938	#Aclaracion	-0.09211007
-4.25835	#AdeuEspanya	-0.09193029
-4.55938	#Albiol	-0.09221789
-4.25835	#AlbiolPresident	-0.06556538
-4.25835	#Almeria	-0.0655399
-3.781229	#Amiquemeloexpliquen	-0.5930672
-4.55938	#AnacondaElectoral	-0.09069386
-3.068018	#ApoderadosCs	-0.2091997
-3.714282	#ArturMas	-0.05819188
-4.55938	#Avotar	-0.06557813
-4.25835	#BCN	-0.06067223
-4.55938	#BILDU	-0.08721785
-4.55938	#BORRELL	-0.09222987
-4.55938	#Badalona	-0.07709128
-3.781229	#Barcelona	-0.07168695
-4.55938	#BonDia	-0.06557813
-4.55938	#Brunete	-0.07709128
-4.55938	#BuenoDias	-0.09222987
-3.95732	#CATALUNA	-0.09147455
-4.55938	#CATALUNAESESPANA	-0.09222987
-4.55938	#CATALUNYA	-0.09207412
-3.328931	#CATNaranja	-0.4786316
-3.517987	#CUP	-0.05428773
-4.55938	#CachitosItalia	-0.09222987
-4.25835	#CambioSensato	-0.05595779
-4.25835	#CasaBatllo	-0.05616609
-4.25835	#Cat	-0.2483197
-3.714282	#CatParlaCtxt	-0.3652728
-3.383289	#CatSiQueEsPot27S	-0.4126937
-3.95732	#CatalanYEspanol	-0.150251
-4.55938	#CatalanYEspaol	-0.09221789
-4.55938	#Catalogne	-0.06557813
-3.86041	#Catalonia	-0.06073663
-4.082259	#CataloniaVotes	-0.1784466
-4.25835	#CataluNa	-0.06538702
-2.568154	#Cataluna	-0.1951317
-4.25835	#CatalunaDecide	-0.09215798
-3.179169	#CatalunaEsEspana	-0.2384102
-4.55938	#CatalunaEsNaranja	-0.06557813
-4.55938	#Catalunaantes	-0.08357938
-4.55938	#CatalunaesEspana	-0.08999606
-2.936131	#Catalunya	-0.5491455
-4.55938	#Catalunya2015	-0.06557813
-4.55938	#CatalunyaFree	-0.06557813
-4.25835	#CatalunyaSiQueEsPot	-0.08339603
-4.55938	#CatalunyaesEspana	-0.07709128
-4.55938	#Catalunyaisdifferent	-0.06557813
-4.55938	#CatsiqueesPot27S	-0.09216997
-3.55938	#Ciudadanos	-0.1092098
-4.55938	#Ciutadans	-0.06557813
-4.25835	#Ciutadans25	-0.06541251
-4.55938	#Cornella	-0.08386035
-4.55938	#Cs	-0.09206213
-4.25835	#Cs25	-0.06258738
-4.55938	#Cunadismo	-0.09221789
-4.55938	#Dali	-0.09129451
-4.55938	#Datazo	-0.07557538
-4.55938	#DemocraciaDirecta	-0.09213403
-4.55938	#DerogacionLeyElectoral	-0.08388478
-4.55938	#DiaInteresante	-0.09222987
-4.55938	#Drama	-0.09221789
-4.55938	#ESPANA	-0.09177443
-4.55938	#ESPANAunida	-0.09222987
-4.55938	#ESPNaranja	-0.06557813
-4.55938	#EitbNoticias	-0.06557813
-4.55938	#ElMundoAlReves	-0.07709128
-4.55938	#ElPrat	-0.09211007
-3.605137	#Elecciones	-0.2297688
-3.65629	#Elecciones27S	-0.3147358
-2.696057	#EleccionesCatalanas	-0.7390023
-3.65629	#EleccionesCataluna	-0.2639432
-3.714282	#Eleccionescatalanas	-0.3237296
-3.65629	#Eleccions2015	-0.1358292
-3.517987	#Eleccions27S	-0.4934897
-4.25835	#EleccionsCatalanes	-0.08337159
-4.55938	#EleccionsCatalunya	-0.09222987
-4.55938	#EleccionsParlament	-0.06557813
-4.082259	#ElecionesCatalanas	-0.04939733
-4.55938	#ElectionDay	-0.09218195
-4.55938	#Elpais	-0.09106636
-3.65629	#EnDirecto	-0.09022477
-4.55938	#EnTierraHostil	-0.08388478
-4.25835	#EncrucijadaCatalana	-0.06552716
-4.55938	#EndavantCiutadans	-0.06557813
-4.55938	#Esoesasi	-0.06557813
-3.179169	#Espana	-0.1351735
-4.55938	#EspanaConCataluna	-0.06557813
-4.55938	#EspanaUnidad	-0.06557813
-4.55938	#Espanaindivisible	-0.06557813
-4.25835	#Espanya	-0.2483197
-4.55938	#Esperemos	-0.07709128
-4.55938	#Esplugues	-0.08932126
-4.55938	#EstaEsMiEstelada	-0.06557813
-4.55938	#Estafa	-0.0891162
-4.55938	#EstoEsAsin	-0.07709128
-4.55938	#EstudiandoHistoriadeEspana	-0.07709128
-4.55938	#FB	-0.06557813
-3.86041	#FelizDomingo	-0.3826666
-4.25835	#FemHistoria	-0.2483197
-4.55938	#FormacionNaranja	-0.06557813
-4.55938	#FotemElCamp	-0.06557813
-4.55938	#GameOver	-0.07709128
-4.55938	#Gatillazoindependendentista	-0.09205015
-4.25835	#Gava	-0.0494502
-4.55938	#Generalitat	-0.09158253
-4.25835	#Girona	-0.09183437
-3.86041	#Governemnos	-0.335828
-3.86041	#GuanyemJunts	-0.2365921
-4.55938	#HEMEROTECA	-0.06557813
-4.25835	#ICV	-0.09212203
-4.55938	#Iceta27	-0.09211007
-3.517987	#Iceta27S	-0.2298846
-4.55938	#IcetaLoPeta	-0.06557813
-3.95732	#Independencia	-0.07456599
-4.55938	#IndependientementeDemente	-0.06557813
-3.714282	#InesPresidenta	-0.2558379
-4.55938	#Ironia	-0.06557813
-4.55938	#IroniaPura	-0.06557813
-4.55938	#JaHeVotat	-0.09222987
-4.55938	#Junqueras	-0.0912585
-4.55938	#JunstPelSi	-0.08762966
-4.55938	#JuntosPodemos	-0.09222987
-4.55938	#JuntosSomosMas	-0.06557813
-4.55938	#JuntsGuanyem	-0.09211007
-3.95732	#JuntsPel3Percent	-0.07866372
-4.082259	#JuntsPelNo	-0.06469839
-3.144407	#JuntsPelSi	-0.1357921
-4.25835	#JuntsPerEspanya	-0.0655399
-4.55938	#JuntsiMillor	-0.09222987
-4.55938	#JuntspelSi	-0.08439735
-4.082259	#Juntspelsi	-0.08939362
-4.25835	#JxSi	-0.08068586
-4.55938	#Katalonienwahl	-0.06557813
-3.605137	#L6Cat	-0.8854042
-2.835104	#L6cat	-0.7649351
-4.55938	#La6Cat	-0.09216997
-4.082259	#La6cat	-0.1784975
-4.55938	#Literatura	-0.09089817
-4.55938	#Llefia	-0.09222987
-4.55938	#Loop	-0.06557813
-4.55938	#LosTeques	-0.09222987
-4.25835	#Madrid	-0.07505227
-4.55938	#Manresa	-0.09173845
-4.55938	#ManresaEspanol	-0.09222987
-4.55938	#MarcaEspana	-0.06557813
-4.55938	#Marketing	-0.06557813
-4.25835	#MarxemQueJaFemTard	-0.09221788
-3.95732	#Mas	-0.03944816
-4.55938	#MasDimision	-0.08386035
-4.55938	#MejorJuntos	-0.06557813
-3.781229	#MejorUnidos	-0.428756
-4.25835	#Memoria	-0.0494502
-4.55938	#MercenarioAlbiol	-0.09214601
-4.55938	#Mexico	-0.06557813
-4.55938	#Miedo	-0.08388478
-4.55938	#MillorUnits	-0.09216997
-4.55938	#NOIndependencia	-0.09221789
-4.55938	#Naranjitos	-0.07557538
-4.55938	#NoALaIndependencia	-0.09222987
-4.55938	#NoAlFascismo	-0.06557813
-4.55938	#NoEstaMal	-0.09219393
-4.55938	#NoPasaran	-0.09218195
-4.55938	#NoPuedoEvitar	-0.06557813
-4.55938	#NohayMiedo	-0.07709128
-4.55938	#NouBarris	-0.07709128
-4.55938	#NouPais	-0.09222987
-4.25835	#NuevaCatTodos	-0.06458349
-4.55938	#PODEMOS	-0.08922478
-3.714282	#PP	-0.1066488
-4.55938	#PPSOE	-0.09222987
-4.55938	#PPSOE&ampCo	-0.07709128
-4.25835	#PSC	-0.09167848
-4.55938	#PSOE	-0.0832004
-4.55938	#Parlamentarias2015	-0.06557813
-4.55938	#Participacion	-0.09214601
-4.55938	#PeriodismoTerrorismo	-0.06557813
-4.25835	#PlantemCara	-0.06840923
-3.517987	#PlantemosCara	-0.2193356
-4.55938	#Podemos	-0.08762966
-4.55938	#PorLaUnidadDeEspana	-0.09211007
-4.55938	#Porlaunion	-0.09222987
-4.55938	#PostParty	-0.07709128
-4.55938	#President	-0.06557813
-4.55938	#Prou	-0.06557813
-3.86041	#PublicoCAT27S	-0.3665514
-4.55938	#Pujol	-0.09221789
-4.55938	#QueCrisis	-0.06557813
-4.55938	#Quedaos	-0.09222987
-4.55938	#RIVERA	-0.06557813
-4.55938	#RNE	-0.09222987
-4.55938	#RTVE	-0.08439735
-4.55938	#RadioTiana	-0.06557813
-4.55938	#Rajoyquemevoy	-0.06557813
-4.55938	#Recuento	-0.06557813
-4.55938	#Regimen78	-0.08439735
-4.55938	#RepublicaCatalana	-0.06557813
-4.55938	#Respect	-0.09205015
-4.55938	#RubiCity	-0.09203816
-4.55938	#SOLANA	-0.09222987
-4.55938	#Sants	-0.09220591
-4.082259	#Seny	-0.190011
-4.55938	#Separatismo	-0.09219393
-4.55938	#SiSI	-0.09222987
-4.55938	#SiaEspanaSiaCatalunya	-0.07709128
-3.95732	#SinMiedo	-0.06547622
-4.55938	#SocSocialista	-0.06557813
-4.55938	#SomLaHistoria	-0.07709128
-4.55938	#SomriureCUP	-0.06557813
-4.55938	#StopGolpismo	-0.09221789
-4.082259	#TV3	-0.09035714
-4.25835	#TVE	-0.2749474
-4.25835	#TenimSolucions	-0.06556538
-4.55938	#Tiana	-0.09222987
-4.55938	#TitoRabat	-0.0920861
-4.55938	#TrasTrasPorDetras	-0.06557813
-4.55938	#TuConoEsMiDroga	-0.06557813
-4.55938	#Turen	-0.09222987
-4.55938	#UDC	-0.09218195
-4.55938	#UE	-0.07709128
-4.55938	#UnSinVivir	-0.09219393
-4.55938	#UnitsGuanyem	-0.07709128
-4.55938	#VIVAESPANA	-0.06557813
-4.55938	#VOTOS	-0.07709128
-4.55938	#Viladecans	-0.09211007
-4.55938	#Vilafranca	-0.07709128
-4.55938	#Vilaseca	-0.09220591
-4.082259	#VivaEspana	-0.1623823
-4.55938	#Vota	-0.09222987
-4.55938	#VotaIceta	-0.09219393
-3.95732	#VotaSocialista	-0.1473436
-4.55938	#Votonaranja	-0.06557813
-4.55938	#Vox	-0.09137853
-4.55938	#YLaEuropea	-0.06557813
-4.55938	#YoQuieroACatalunaEnEspana	-0.08388478
-4.55938	#YoVotoaInes27S	-0.08388478
-4.55938	#aCambioDeQue	-0.07709128
-4.55938	#acagaralavia	-0.09164251
-4.55938	#actualidad	-0.06557813
-4.55938	#ajoyagua	-0.09195427
-4.25835	#albiol	-0.08914033
-4.55938	#analistasBez	-0.06557813
-4.55938	#anims	-0.06557813
-4.55938	#aniversari	-0.06557813
-3.95732	#apoderadosCs	-0.1469485
-4.55938	#apoderadosPP	-0.09221789
-4.25835	#apoderadoscs	-0.06552716
-4.55938	#arrimadesAlLogopeda	-0.09219393
-4.55938	#arvcataluna	-0.06557813
-4.55938	#asisi	-0.06557813
-4.55938	#avotar	-0.09069386
-4.55938	#banquillo	-0.06557813
-4.55938	#bigben	-0.09220591
-4.55938	#bloodmoon	-0.07709128
-4.55938	#broma	-0.09213403
-4.55938	#cadiz	-0.09221789
-4.25835	#cambiosensato	-0.08998401
-4.55938	#catalanes	-0.09222987
-4.55938	#catalanyespanol	-0.09069386
-4.25835	#catalonia	-0.09221788
-3.781229	#cataluna	-0.07485283
-4.55938	#catalunaciudadana	-0.09172647
-4.082259	#catalunaesespana	-0.1775029
-3.714282	#catalunya	-0.22264
-4.55938	#catnaranja	-0.08922478
-4.082259	#catparlaCtxt	-0.1784975
-4.25835	#catparlactxt	-0.2483197
-4.55938	#catweapon	-0.06557813
-3.95732	#ciutadans	-0.1312397
-4.55938	#contigomismo	-0.09215799
-4.55938	#corralito	-0.06557813
-4.55938	#corrupcion	-0.07709128
-4.55938	#dato	-0.07709128
-4.55938	#decadencia	-0.07709128
-3.86041	#democracia	-0.1208437
-4.55938	#descanso	-0.08388478
-4.55938	#deunido	-0.06557813
-4.082259	#directoGarcia	-0.4328309
-4.55938	#dretadecidir	-0.07709128
-4.55938	#dumb&ampdumber	-0.09221789
-4.55938	#eclipse	-0.09222987
-4.55938	#efectomiedo	-0.08388478
-3.35526	#elecccionescatalanas	-1.250346
-4.25835	#eleccio2016	-0.0838237
-3.86041	#elecciones	-0.04759559
-4.25835	#elecciones2015	-0.05668642
-3.86041	#elecciones27S	-0.2192654
-3.480199	#eleccionesA3	-0.7644027
-4.55938	#eleccionescatalana	-0.09171447
-1.719902	#eleccionescatalanas	-0.7682251
-4.55938	#eleccionescatalanes	-0.06557813
-4.55938	#eleccionescataluna	-0.07709128
-4.55938	#eleccions	-0.07709128
-3.86041	#eleccionscatalanes	-0.3823353
-4.55938	#elvotdelatevavida	-0.09193029
-4.55938	#elvotosensato	-0.09211007
-4.55938	#eslahora	-0.09222987
-4.55938	#espana	-0.06557813
-4.55938	#espanasomostodos	-0.06557813
-4.55938	#espanoles	-0.08339605
-4.55938	#estafatal	-0.09221789
-4.55938	#estudio	-0.09222987
-4.55938	#exito	-0.07557538
-4.55938	#exitpoll	-0.09215799
-4.55938	#fanatico	-0.06557813
-4.55938	#fascista	-0.09222987
-4.25835	#fb	-0.2483197
-4.082259	#felizdomingo	-0.4064308
-4.25835	#flipo	-0.06490253
-4.55938	#fotemelcamp	-0.09069386
-4.55938	#fracasodeMas	-0.06557813
-4.55938	#gatillazoindependentista	-0.06557813
-4.55938	#guanyemjunts	-0.06557813
-4.55938	#gudarieguna	-0.09221789
-4.55938	#habraqueesperar	-0.09222987
-4.55938	#historia	-0.06557813
-4.55938	#homeporfavor#Espana	-0.06557813
-4.55938	#iceta27s	-0.06557813
-4.55938	#icontinuaranroban	-0.06557813
-4.55938	#independence	-0.07709128
-3.781229	#independencia	-0.1596507
-4.55938	#independenciacatalana	-0.08999606
-4.55938	#independenciacataluna	-0.09222987
-4.55938	#independenciacatalunya	-0.09220591
-4.55938	#indepes	-0.06557813
-4.55938	#inespresidenta	-0.06557813
-4.55938	#israelitas	-0.09222987
-4.55938	#juntFeimMenysVots	-0.09171447
-4.55938	#juntos	-0.07709128
-4.55938	#juntshuhemaconseguit	-0.09222987
-4.082259	#juntspelsi	-0.1884204
-3.86041	#l6cat	-0.3826411
-4.55938	#la6cat	-0.06557813
-4.55938	#limpiandomicasacatalana	-0.06557813
-4.55938	#llobregatpower	-0.06557813
-4.55938	#loexplicatodo	-0.08388478
-4.55938	#maalouf	-0.07709128
-4.55938	#mataro	-0.09222987
-4.55938	#matematicas	-0.0832004
-4.55938	#mayoriaporelNO	-0.06557813
-4.55938	#medios	-0.06557813
-4.55938	#mejorjuntos	-0.09216997
-4.55938	#mejorunidos	-0.09069386
-4.55938	#minoentender	-0.08388478
-4.25835	#mitjacatalunya	-0.2483197
-4.55938	#molinsderei	-0.09069386
-4.55938	#nuevasmatematicas	-0.07709128
-4.55938	#oCUPemLesUrnes	-0.06557813
-4.55938	#ojito	-0.07709128
-4.55938	#oletu	-0.07709128
-4.55938	#ondacero27S	-0.06557813
-4.55938	#palomitasyaesperar	-0.09221789
-4.55938	#parlament	-0.09216997
-4.25835	#participacion	-0.09169047
-4.55938	#pensando	-0.09196626
-4.55938	#peramas	-0.06557813
-4.55938	#periodigno	-0.07709128
-4.25835	#pinchazo	-0.2483197
-4.25835	#politica	-0.2483197
-3.95732	#pp	-0.0725276
-4.55938	#pregunto	-0.07709128
-3.65629	#prensadigital	-0.953055
-4.55938	#psc	-0.06557813
-4.55938	#quelentosiyo	-0.07709128
-4.55938	#quenaaprenguin	-0.06557813
-4.55938	#radiotiana	-0.08388478
-4.55938	#raro	-0.06557813
-4.55938	#regeneracion	-0.06557813
-4.55938	#resultados27S	-0.06557813
-4.55938	#resultadoselecciones	-0.06557813
-4.55938	#sensatez	-0.09222987
-4.55938	#sindentidopolitico	-0.09222987
-4.55938	#sinsorpresas	-0.09222987
-3.16144	#somriureCUP	-0.4857504
-4.55938	#somriurecup	-0.06557813
-4.55938	#supermotivado	-0.07709128
-4.55938	#tantopana	-0.07709128
-4.25835	#tatarlak	-0.06528506
-4.55938	#terrazadel027s	-0.08388478
-4.55938	#timestamp	-0.06557813
-4.55938	#titular	-0.06557813
-4.55938	#todosavotar	-0.06557813
-4.55938	#todosoniguales	-0.08388478
-4.55938	#tristepais	-0.06557813
-4.55938	#tv3	-0.09212205
-4.55938	#unidosganamos	-0.06557813
-4.55938	#vascos	-0.09220591
-4.55938	#vergonyeta	-0.09213403
-4.55938	#viladecans	-0.08762966
-4.55938	#viscaEspana	-0.06557813
-4.55938	#vota	-0.09222987
-4.55938	#votaNo	-0.09222987
-4.55938	#votaaar	-0.09220591
-4.55938	#votaiceta	-0.09222987
-4.55938	#votapsc	-0.06557813
-4.55938	#votarnaranjaesvotarazul	-0.07709128
-4.55938	#votasocialista	-0.09221789
-4.55938	#vote	-0.09222987
-4.55938	#ymanana28S	-0.06557813
-4.55938	#yomevoy	-0.06557813
-4.55938	#yonodigonada	-0.06557813
-4.55938	$2271	-0.09181041
-3.517987	%	-0.2531103
-4.25835	%votos	-0.07700444
-4.25835	&gt	-0.0655399
-4.55938	'#eleccionescatalanas	-0.06557813
-4.55938	'CUP'	-0.09140254
-4.55938	'Catalunya	-0.0912705
-4.55938	'Junts	-0.09189433
-4.55938	'Los	-0.09157053
-4.55938	'No'	-0.08386035
-4.082259	'Si'	-0.4326871
-4.55938	'Si'''	-0.09222987
-4.55938	'empaitada	-0.09222987
-4.55938	'fifty	-0.09222987
-4.55938	'frikindepes'	-0.09069386
-4.55938	'hostia'	-0.09158253
-4.55938	'la	-0.09221789
-4.55938	'lastre'	-0.09211007
-4.55938	'mayoria	-0.09222987
-4.55938	'no	-0.09222987
-4.55938	'nuevos'	-0.08339605
-4.55938	'president'	-0.08876617
-4.55938	'que	-0.09222987
-4.55938	'separatistas	-0.09222987
-4.55938	'sobran'	-0.09220591
-4.55938	'unionista'	-0.09222987
-4.55938	'victoria	-0.07557538
-4.55938	--Catalan	-0.09202618
-4.082259	0	-0.2010095
-4.55938	0'11%	-0.0904654
-4.55938	001%	-0.0904654
-4.55938	002%	-0.07709128
-4.55938	005%	-0.0904654
-4.25835	011%	-0.09008033
-3.95732	016%	-0.3028245
-4.55938	029%	-0.0904654
-4.25835	047%	-0.07525162
-4.25835	069%	-0.08821037
-4.55938	0910	-0.08921272
-4.55938	0950	-0.09218195
-4.55938	0tegui	-0.08922478
-3.16144	1	-0.1055428
-4.25835	1%	-0.08732688
-2.534074	10	-0.5990759
-3.65629	10%	-0.3123206
-4.082259	100	-0.2027235
-4.25835	100%	-0.2583169
-4.082259	100000	-0.08874203
-4.55938	1000000	-0.09220591
-4.55938	1006122	-0.09157053
-4.55938	100pm	-0.09222987
-4.55938	101	-0.08982746
-4.55938	1012	-0.09211007
-4.55938	102	-0.08386035
-4.55938	108	-0.09222987
-4.55938	10CUP	-0.09097026
-2.733305	11	-0.5084537
-4.082259	11%	-0.2018432
-4.55938	11'9	-0.09211007
-4.25835	1113	-0.09188233
-4.55938	1114902	-0.08339605
-4.55938	1130	-0.09222987
-4.55938	114%	-0.08388478
-4.55938	1142%	-0.09222987
-4.25835	119%	-0.2732069
-4.55938	11CSP	-0.09222987
-3.65629	12	-0.06091692
-4.25835	12%	-0.08583419
-4.55938	1214	-0.08982746
-4.55938	126435	-0.09220591
-4.55938	1281%	-0.09216997
-3.605137	13	-0.1024091
-3.86041	1300	-0.08082116
-4.55938	13000	-0.09050147
-4.082259	1300h	-0.07706648
-4.55938	131%	-0.08942978
-4.55938	1317h	-0.08357938
-4.55938	1330h	-0.09219393
-4.55938	1335%	-0.09068184
-3.86041	135	-0.1383249
-4.55938	13H	-0.0912705
-4.25835	13TV	-0.08219633
-4.082259	13h	-0.2016742
-3.86041	14	-0.07992249
-4.25835	14%	-0.08379927
-4.55938	140000	-0.09050147
-4.55938	140707	-0.09050147
-4.55938	1426%	-0.0904654
-4.55938	1434905	-0.09050147
-4.55938	14h	-0.09211007
-3.86041	15	-0.2290633
-4.25835	15%	-0.2732069
-4.55938	15000	-0.09222987
-4.55938	150000	-0.09050147
-4.25835	155	-0.06617635
-4.55938	1574821	-0.09050147
-3.237161	16	-0.2489351
-4.25835	1617	-0.09059767
-4.55938	164247	-0.09211007
-3.027901	17	-0.6006663
-4.55938	17%	-0.09207412
-4.55938	17'3%	-0.0904654
-4.082259	1716%	-0.05790677
-4.55938	175000000	-0.07557538
-4.55938	178%	-0.07557538
-4.55938	1788%	-0.09093422
-4.55938	1792%	-0.09216997
-4.55938	17PP	-0.09222987
-3.383289	18	-0.4530162
-4.082259	1800	-0.09187036
-4.55938	1812	-0.08439735
-4.55938	1830	-0.09222987
-4.55938	1850	-0.09184638
-4.55938	1861103	-0.09050147
-4.55938	1861753	-0.09222987
-4.55938	1882	-0.06557813
-3.95732	18h	-0.08692692
-3.65629	19	-0.1772415
-4.55938	1917	-0.09218195
-4.25835	1921	-0.09169047
-4.55938	1932	-0.07709128
-4.25835	1945	-0.08870579
-4.55938	195533	-0.09157053
-4.55938	1975	-0.09203816
-4.55938	19752015	-0.07709128
-4.25835	1977	-0.0922059
-4.25835	1980	-0.07623456
-4.55938	1982	-0.09222987
-4.082259	1984	-0.07238969
-4.55938	1996	-0.09222987
-4.55938	1998	-0.08147246
-4.55938	1Batacazo	-0.0891162
-4.55938	1Cup	-0.09222987
-4.25835	1Se	-0.09081405
-4.25835	1a	-0.08915239
-4.55938	1as	-0.09221789
-4.55938	1de	-0.08147246
-4.55938	1er	-0.09214601
-4.55938	1lider	-0.08339605
-4.25835	1r	-0.09201419
-4.55938	1x1	-0.09215799
-3.068018	2	-0.121619
-4.55938	2'22%47	-0.09212205
-3.86041	20	-0.1452381
-3.65629	20%	-0.2385072
-4.55938	20'5	-0.09211007
-4.55938	2000	-0.08439735
-4.25835	2000000	-0.2748156
-4.55938	2002	-0.09163051
-4.55938	2005h	-0.0832004
-4.55938	2006	-0.09190632
-3.781229	2010	-0.07602324
-4.25835	2011	-0.09215798
-2.702047	2012	-0.204412
-4.55938	201274	-0.08982746
-4.55938	2012CiU	-0.09214601
-4.55938	2012Nunca	-0.09211007
-3.237161	2015	-0.09079021
-4.55938	2015Junts	-0.09189433
-4.25835	2030	-0.09100629
-4.55938	2046	-0.08357938
-4.082259	2050%	-0.2016259
-4.55938	20H	-0.07709128
-4.25835	20h	-0.09216996
-4.25835	20m	-0.09068183
-4.55938	20m#27Sen	-0.09220591
-3.95732	21	-0.1627364
-4.55938	2111	-0.08439735
-4.55938	21h	-0.0832004
-4.082259	22	-0.1886693
-4.55938	22%	-0.0904654
-4.25835	2230	-0.08144789
-4.55938	2230h	-0.07709128
-4.55938	2233h	-0.09160652
-3.304107	23	-0.5901415
-4.55938	2392015	-0.09214601
-3.413252	24	-0.5924362
-4.55938	240	-0.09222987
-4.55938	2417%	-0.09137853
-4.55938	2451%	-0.0904654
-4.55938	24948748	-0.09219393
-3.86041	24htve	-0.1399951
-2.766988	25	-0.7502893
-4.25835	25%	-0.2583169
-4.55938	25C's	-0.09212205
-4.55938	25PSC	-0.09222987
-4.25835	26	-0.08881446
-4.25835	26%	-0.07497749
-4.55938	2633	-0.09222987
-4.55938	2697	-0.09203816
-4.25835	27	-0.2749355
-4.55938	27%	-0.09205015
-4.25835	271%	-0.08764175
-3.714282	27S	-0.06321537
-4.55938	27s	-0.09211007
-4.55938	28	-0.09219393
-4.55938	282	-0.0904654
-4.082259	2827%	-0.08535983
-4.55938	283%	-0.09222987
-4.55938	2832	-0.09218195
-4.25835	28S	-0.06466008
-4.55938	29	-0.09219393
-4.55938	2943	-0.0832004
-3.95732	2943%	-0.1492883
-4.55938	2El	-0.09215799
-4.55938	2Jxsi	-0.09222987
-3.55938	2a	-0.3295561
-4.55938	2del	-0.09222987
-4.55938	2horas	-0.08876617
-3.112222	3	-0.1609812
-3.237161	3%	-0.118206
-4.55938	3%#27S	-0.06557813
-4.55938	3%q	-0.09032104
-4.082259	30	-0.09183439
-4.25835	30%	-0.08905587
-4.55938	30000	-0.09050147
-3.95732	300000	-0.2730505
-4.55938	31	-0.09212205
-4.55938	31%	-0.07557538
-4.55938	3100	-0.09222987
-4.082259	32%	-0.08708453
-4.55938	324cat	-0.07709128
-4.55938	325786	-0.090778
-4.25835	326%	-0.2732069
-4.25835	3261%	-0.08821037
-4.55938	33'78	-0.09199023
-4.55938	336239	-0.08439735
-4.55938	33anos	-0.07557538
-4.25835	34	-0.2749235
-4.55938	3400	-0.09222987
-4.082259	344000	-0.4330586
-4.55938	3454%	-0.09205015
-4.55938	3474%	-0.09222987
-4.25835	3478%	-0.0836649
-4.55938	3486%	-0.07557538
-4.082259	35	-0.2048385
-3.95732	35%	-0.1551833
-4.25835	3500%	-0.06518309
-4.55938	35000	-0.09050147
-4.25835	3507%	-0.0922059
-4.55938	351%	-0.08386035
-4.55938	3512%	-0.0832004
-4.55938	357mill	-0.09221789
-4.25835	36	-0.08433635
-4.55938	36%	-0.0904654
-4.25835	36'53%	-0.08258843
-4.55938	365	-0.09183439
-4.25835	365%	-0.2732069
-4.082259	3653%	-0.1866614
-3.86041	39%	-0.136046
-4.55938	39'38%	-0.09188234
-4.55938	391%	-0.07557538
-4.55938	3915%	-0.09158253
-4.55938	3942%	-0.09152254
-4.55938	3955%	-0.09222987
-4.55938	3959%	-0.09216997
-4.25835	396%	-0.07372927
-4.082259	3969%	-0.1881838
-4.55938	397%	-0.0904654
-4.55938	3Csqsp	-0.09222987
-4.55938	3Del	-0.09222987
-4.55938	3X100se	-0.09216997
-4.55938	3a	-0.09176244
-4.55938	3gerardpique	-0.09222987
-3.280626	4	-0.3547769
-4.55938	40	-0.09220591
-3.86041	40%	-0.05602289
-4.55938	40%escrutado	-0.06557813
-4.55938	40GlobalShow	-0.08977927
-4.55938	4203%	-0.09149854
-4.082259	43%	-0.1884951
-4.082259	438%	-0.1955206
-3.95732	4385%	-0.1691318
-4.082259	44%	-0.07355425
-4.55938	44'41%	-0.08388478
-4.55938	4441%	-0.09220591
-4.55938	4442%	-0.09199023
-4.25835	45%	-0.08138648
-4.55938	452%	-0.0904654
-4.25835	46	-0.08981541
-4.55938	46%	-0.09216997
-3.95732	47	-0.1618749
-3.445436	47%	-0.1938881
-4.55938	47'36%	-0.0891162
-4.55938	47'49%	-0.07557538
-4.55938	4715%	-0.07709128
-4.25835	4718%	-0.2666263
-4.55938	4728%	-0.07709128
-4.082259	473%	-0.2042267
-4.55938	4736%	-0.09213403
-4.55938	4737%	-0.09207412
-4.55938	4739%	-0.0891162
-4.55938	4749%	-0.07557538
-4.55938	475%	-0.09213403
-4.55938	4752	-0.09218195
-4.55938	47647	-0.08147246
-4.55938	4766%	-0.09211007
-4.55938	4775	-0.09221789
-4.55938	4778%	-0.0912705
-4.55938	478%	-0.08977927
-4.55938	4784%	-0.09171447
-4.55938	4788	-0.09221789
-4.25835	479%	-0.2748756
-4.25835	4796%	-0.07301617
-4.25835	48	-0.08997197
-3.413252	48%	-0.4055923
-4.55938	48'27%	-0.07709128
-4.55938	4807%	-0.0912585
-4.55938	4827%	-0.07557538
-4.55938	49'05%	-0.0891162
-4.25835	49'8%	-0.07376677
-4.55938	4905%	-0.09161852
-4.55938	491%	-0.09222987
-4.55938	4956	-0.09178642
-4.55938	498%	-0.07557538
-4.55938	4986	-0.09222987
-4.55938	4Psc	-0.09222987
-4.55938	4a	-0.09221789
-3.237161	5	-0.2984996
-3.86041	5%	-0.2039808
-3.95732	50	-0.09128251
-3.015312	50%	-0.3824203
-4.55938	50'95%	-0.0891162
-4.55938	500	-0.09207412
-4.55938	502%	-0.07557538
-4.55938	5037%	-0.08762966
-4.55938	5082%	-0.08922478
-4.55938	514	-0.09190632
-4.55938	5173%	-0.07709128
-4.55938	5187%	-0.07557538
-4.082259	52	-0.07693001
-3.413252	52%	-0.1699498
-4.55938	52%Recuerda	-0.09160652
-4.55938	5208%	-0.07557538
-4.25835	521%	-0.09029696
-3.781229	5214%	-0.3192184
-4.55938	5234%	-0.08388478
-4.55938	5238%	-0.0891162
-4.55938	5242%	-0.0891162
-4.55938	5245%	-0.0891162
-4.55938	5256%	-0.07709128
-4.55938	5261%	-0.07557538
-4.55938	5263%	-0.09184638
-4.25835	5263%de	-0.274
-4.55938	5264%	-0.0891162
-4.55938	5275%	-0.08762966
-3.714282	53%	-0.2623135
-4.55938	53%Conclusion	-0.08147246
-4.55938	5314736	-0.08922478
-4.55938	535	-0.09199023
-4.55938	548%	-0.09222987
-4.25835	55	-0.09182239
-3.95732	55%	-0.3164115
-4.082259	5510713	-0.189887
-4.55938	56%	-0.0904654
-4.55938	563	-0.07709128
-4.55938	563%	-0.0904654
-4.55938	5630	-0.0832004
-4.25835	5630%	-0.07683071
-4.55938	5637%	-0.07709128
-4.55938	565%	-0.09221789
-4.55938	566	-0.08439735
-4.55938	569	-0.09062172
-4.55938	57	-0.09199023
-4.55938	58	-0.08439735
-4.55938	58%	-0.06557813
-4.55938	5C's	-0.09222987
-4.55938	5a	-0.09222987
-4.55938	5min	-0.08977927
-4.082259	6	-0.08905588
-4.55938	6%	-0.0904654
-4.55938	60	-0.09211007
-3.65629	60%	-0.1718259
-4.25835	6008%	-0.2732069
-4.55938	604%	-0.07557538
-2.878139	62	-0.4489406
-4.55938	6210	-0.09206213
-4.55938	62Cs	-0.09222987
-3.015312	63	-0.4136993
-3.781229	63%	-0.1368002
-4.55938	6313	-0.09211007
-4.55938	6314	-0.0919183
-4.082259	6314%	-0.09029698
-4.55938	6319%	-0.0832004
-4.25835	6320%	-0.06523408
-4.55938	6362	-0.07709128
-3.95732	6366	-0.08934539
-4.55938	637%	-0.0904654
-4.55938	6373%	-0.09221789
-3.445436	64	-0.2861195
-4.55938	65%	-0.09219393
-4.55938	659	-0.08439735
-3.95732	66	-0.1714156
-3.95732	67%	-0.3152146
-4.55938	673%	-0.0904654
-4.55938	6731%	-0.0904654
-3.95732	68	-0.04677175
-4.55938	684	-0.09199023
-4.55938	685%	-0.08439735
-4.55938	689	-0.09062172
-4.55938	69	-0.08982746
-4.55938	6PP	-0.09222987
-3.517987	7	-0.1416196
-3.95732	7%	-0.2732069
-4.55938	70	-0.0894539
-3.86041	70%	-0.132795
-4.55938	70'80%	-0.09167849
-4.55938	7000	-0.09050147
-4.082259	700000	-0.4324232
-4.55938	707%	-0.0904654
-4.55938	7078%	-0.0904654
-3.480199	71	-0.5161819
-4.25835	71%	-0.08436074
-3.383289	72	-0.2606539
-4.55938	72%	-0.07557538
-3.55938	73	-0.2187546
-3.605137	74	-0.287672
-3.95732	743%	-0.3178698
-4.25835	7479	-0.08976722
-4.55938	75%	-0.09069386
-4.25835	76	-0.272569
-4.55938	76%	-0.07557538
-4.082259	7649%	-0.200259
-4.55938	765%	-0.0904654
-4.55938	7652%	-0.07709128
-4.082259	7688%	-0.09219394
-4.55938	7695%	-0.08762966
-4.25835	77%	-0.09036915
-4.55938	78	-0.09032104
-4.25835	78%	-0.08191428
-4.55938	786%	-0.0904654
-4.55938	7954%	-0.08439735
-4.55938	7M	-0.08922478
-4.55938	7Unio	-0.09221789
-3.517987	8	-0.1198475
-4.55938	8'2%	-0.0891162
-3.65629	80%	-0.1964768
-4.25835	808%	-0.07525162
-4.55938	8083%	-0.09221789
-4.55938	8181	-0.09213403
-4.55938	82%	-0.09137853
-4.25835	8293%	-0.2732069
-4.55938	83	-0.09220591
-4.25835	84%	-0.2583169
-4.55938	844%	-0.06557813
-4.25835	847%	-0.08732688
-4.55938	85%	-0.0904654
-4.55938	86%	-0.09177443
-4.25835	865%	-0.2732069
-4.55938	8653%	-0.0904654
-4.55938	88	-0.08982746
-4.55938	88%	-0.0904654
-4.25835	8826%	-0.2583169
-4.55938	893%	-0.09216997
-4.55938	8955%	-0.08439735
-2.896622	9	-0.3519147
-4.55938	9#estonoesserio	-0.08388478
-4.55938	9'63%	-0.0904654
-4.25835	90	-0.0918104
-4.25835	90%	-0.08866955
-4.55938	90000	-0.09050147
-4.55938	91'74%	-0.0904654
-4.55938	912	-0.09222987
-4.55938	917%	-0.0904654
-4.55938	92%	-0.0904654
-4.55938	9255%	-0.07557538
-4.55938	9343%	-0.09200221
-4.25835	95%	-0.2732069
-4.55938	956%	-0.0904654
-4.55938	9588%	-0.0904654
-4.55938	96%	-0.0904654
-4.55938	962	-0.09178642
-3.95732	963%	-0.1711625
-4.25835	99	-0.08981541
-4.55938	999%	-0.09218195
-4.55938	9Independentistas	-0.08998402
-4.55938	9N	-0.06557813
-1.225127	</s>
-4.55938	<<El	-0.09218195
-4.55938	<<No	-0.09221789
-4.55938	<<esperanzado	-0.09213403
-99	<s>	-0.5780702
-4.558804	<unk>
-2.386194	A	-0.4178855
-4.55938	A3Noticias	-0.09222987
-4.25835	ABC	-0.09197823
-4.55938	ABanos	-0.07557538
-4.55938	ABlancas	-0.09222987
-4.55938	ACABAR	-0.09218195
-4.55938	ACTUALES	-0.08932126
-4.55938	ACTUALIZACION	-0.09136653
-4.55938	AE	-0.06557813
-4.55938	ALBERT	-0.09222987
-4.55938	ALEGRAN	-0.09222987
-4.55938	AM	-0.09221789
-4.55938	ANALISIS	-0.07709128
-4.55938	ANCIANOS	-0.08439735
-4.55938	ANCXile	-0.09222987
-4.55938	AP	-0.09222987
-4.55938	ARRQ7	-0.08922478
-4.55938	ARTUR	-0.09218195
-4.55938	ARTURMASCAT	-0.09106636
-4.55938	ASISTE	-0.09222987
-4.55938	ATENCION	-0.09222987
-4.55938	AUMENTO	-0.09222987
-4.55938	AUTONOMICAS	-0.09219393
-4.082259	AVANCE	-0.1962793
-4.55938	AbeInfanzon	-0.06557813
-4.082259	Abren	-0.4280705
-4.55938	Abrete	-0.09041728
-4.25835	Absoluta	-0.08301689
-4.55938	Abstenerse	-0.08762966
-4.55938	Abucheos	-0.08439735
-4.55938	Acaba	-0.08357938
-4.25835	Acaban	-0.2583169
-3.216957	Acabo	-1.41745
-4.55938	Acaso	-0.09222987
-4.55938	Acertada	-0.09220591
-4.55938	Acertado	-0.09219393
-4.55938	Acompanamos	-0.09222987
-4.55938	Acompanenos	-0.0832004
-4.55938	Acordaos	-0.07557538
-4.25835	ActualidadRT	-0.2483197
-4.55938	Adelante	-0.08999606
-4.082259	Ademas	-0.06281818
-4.55938	Adeu	-0.09222987
-3.86041	Adios	-0.1479093
-4.55938	Adivina	-0.09195427
-4.55938	Adivine	-0.0832004
-4.55938	Admiro	-0.08386035
-4.55938	Adria	-0.0891162
-4.55938	Agradece	-0.09050147
-4.55938	Agradecido	-0.08439735
-4.55938	Aguantamos	-0.08357938
-4.55938	Aguilicho	-0.0832004
-3.86041	Ah	-0.06997553
-2.896622	Ahora	-0.1869097
-4.55938	Ahora13tveszapeando	-0.08932126
-4.55938	Aire	-0.09222987
-4.55938	Aixi	-0.08762966
-2.788528	Al	-0.1908254
-4.55938	AlRinconA3	-0.09158253
-4.55938	Ala	-0.0912585
-4.55938	Alarmante	-0.08339605
-4.55938	Alba	-0.06557813
-4.55938	AlbaceteBPSAD	-0.09222987
-4.55938	AlbanoDante76	-0.09222987
-3.65629	Albert	-0.9946965
-3.05423	AlbertRivera	-0.1306537
-4.25835	Alberto	-0.0922059
-4.55938	AlbertoBGomez	-0.09221789
-4.55938	AlbertoHLopo	-0.09220591
-3.216957	Albiol	-0.09237366
-2.936131	AlbiolXG	-0.08955267
-4.25835	Ale	-0.08346938
-4.25835	Alea	-0.2749594
-4.55938	Alegrome	-0.09222987
-4.55938	Aleluya	-0.09045336
-4.55938	Alerta	-0.07709128
-4.55938	Alexander	-0.06557813
-4.55938	Alfonso	-0.09222987
-3.95732	Algo	-0.07068107
-4.25835	Algu	-0.09081405
-3.383289	Alguien	-0.297687
-4.55938	Algun	-0.09200221
-4.082259	Alguna	-0.09202619
-4.25835	Algunas	-0.07556292
-3.781229	Algunos	-0.1402778
-4.25835	Alicia	-0.09216996
-3.86041	AliciaSCamacho	-0.09047741
-4.55938	Almasyrunner	-0.08876617
-4.55938	Als	-0.08339605
-4.55938	Alsina	-0.08439735
-4.25835	Alta	-0.2737238
-4.55938	Altisima	-0.09098227
-4.55938	Alto	-0.09222987
-4.25835	Alucinante	-0.08729053
-4.55938	Amanece	-0.0832004
-4.55938	Amanecio	-0.08439735
-4.25835	Ambientazo	-0.2659419
-4.082259	Ambiente	-0.07500243
-4.55938	Amenazas	-0.09222987
-4.55938	America	-0.08439735
-4.55938	Amigo	-0.09197824
-4.55938	Ana	-0.09222987
-4.55938	AnaGonzlezPinto	-0.09222987
-4.55938	Anadiria	-0.08339605
-3.95732	Analisis	-0.1556584
-4.55938	Analista	-0.07557538
-4.55938	Analistas	-0.09222987
-4.25835	Anda	-0.2661376
-4.082259	Andalucia	-0.08434856
-4.25835	Andorra	-0.08387255
-4.55938	Andresmourenza	-0.09222987
-4.25835	Android	-0.08318816
-4.55938	Anglada	-0.09207412
-3.86041	Animo	-0.1381875
-4.55938	Animos	-0.08386035
-4.55938	Anna	-0.09222987
-4.25835	AnnaGaSabate	-0.06539977
-4.55938	Anoeta	-0.09222987
-4.55938	Anos	-0.09218195
-4.55938	Ansioso	-0.08998402
-4.55938	Antartida	-0.08439735
-4.082259	Ante	-0.0694204
-4.082259	Antes	-0.06630354
-4.55938	Antidisturbiosok	-0.09222987
-4.55938	Antiguo	-0.09222987
-3.95732	Antoni	-0.3031358
-3.55938	Antonio	-1.041213
-4.55938	AntonioRNaranjo	-0.09194228
-4.55938	AntonioSaldanaM	-0.09222987
-4.55938	Aparte	-0.07557538
-4.55938	Apenas	-0.09182239
-4.55938	Apertura	-0.07557538
-4.55938	Aplausos	-0.0832004
-4.55938	Aplazarlo	-0.09062172
-4.082259	Apocalipsis	-0.07071882
-4.55938	Apoderada	-0.09222987
-4.55938	Apoderados	-0.09171447
-4.55938	Apoderando	-0.08147246
-4.55938	Apoderats	-0.08339605
-4.55938	Apostando	-0.08998402
-3.95732	Apoyando	-0.3097692
-4.55938	Apoyara	-0.09212205
-4.55938	App	-0.09219393
-4.55938	Aprended	-0.08942978
-4.55938	Aprender	-0.09222987
-4.55938	Apuntes	-0.09205015
-4.55938	Aquesta	-0.09222987
-3.328931	Aqui	-0.06978887
-4.25835	Ara	-0.08920064
-4.55938	Aragon	-0.08876617
-4.55938	Aran	-0.09135453
-4.55938	Arbitro	-0.08147246
-4.55938	Arbrito	-0.08147246
-4.55938	Arcadia	-0.09222987
-4.55938	Area	-0.09222987
-4.55938	Arenas	-0.09221789
-4.55938	Arnaldo	-0.09222987
-4.55938	ArnaldoOtegi	-0.09218195
-4.25835	Arranca	-0.264214
-4.55938	Arrancarla	-0.09209808
-4.55938	Arriba	-0.09123448
-3.781229	Arrimadas	-0.06984943
-4.55938	Arthur	-0.08942978
-4.55938	Articulo	-0.09187035
-2.392063	Artur	-1.521925
-4.55938	ArturMASderrotado	-0.08388478
-3.55938	ArturMasCat	-0.1615701
-4.55938	Arturin	-0.07709128
-4.55938	Arturito	-0.07709128
-4.55938	Arturmas	-0.0916665
-3.517987	Arturo	-0.2867687
-4.55938	Arturono	-0.09221789
-4.55938	Asamblea	-0.07557538
-4.55938	Asesor	-0.09068184
-3.096982	Asi	-0.147474
-4.55938	Asume	-0.09222987
-3.95732	Atencion	-0.1639887
-4.55938	Atendamos	-0.09216997
-4.25835	Atento	-0.08088265
-4.55938	Atentos	-0.08386035
-4.55938	Atiende	-0.09214601
-4.25835	Aumenta	-0.08146017
-4.55938	Aumento	-0.07557538
-4.082259	Aun	-0.08697543
-3.445436	Aunque	-0.1578202
-4.25835	Autonoma	-0.07556292
-4.55938	Autonomicas	-0.07557538
-3.95732	Avance	-0.15728
-4.082259	Aviso	-0.2022413
-3.86041	Ay	-0.1468697
-4.55938	Ayer	-0.08876617
-4.55938	Ayotzinapa	-0.09222987
-4.55938	Ayudando	-0.08386035
-4.55938	Azana	-0.09188234
-4.55938	Aznar	-0.09206213
-4.55938	BADAJOZ	-0.06557813
-4.55938	BAILARINven	-0.09222987
-3.65629	BCN	-0.06548896
-4.55938	BOADELLA	-0.09222987
-4.55938	BRAVO	-0.08998402
-4.55938	BTW	-0.090778
-4.55938	BUENOS	-0.09222987
-4.55938	BUSCAN	-0.09216997
-4.082259	Badalona	-0.06839659
-4.55938	Badia	-0.0891162
-4.25835	Baja	-0.08355493
-4.55938	Bajada	-0.07557538
-4.55938	Bajo	-0.09169049
-4.55938	Bajona	-0.0832004
-4.25835	Baleares	-0.2671389
-4.55938	Baltica	-0.09222987
-4.082259	Bancos	-0.1803532
-4.55938	Bandas	-0.09222987
-4.55938	Bandera	-0.08439735
-4.55938	Banderas	-0.07557538
-4.55938	Bando	-0.09182239
-3.383289	Banos	-0.1503264
-4.55938	Bar	-0.07557538
-4.55938	Barbera	-0.09216997
-4.55938	Barbijaputa	-0.09222987
-3.86041	Barca	-0.06333059
-4.55938	Barcelo	-0.09216997
-3.040866	Barcelona	-0.006276301
-4.55938	Barcelones	-0.09193029
-4.55938	Barcenas	-0.06557813
-4.55938	BardisaIsmael	-0.09220591
-4.55938	Barrio	-0.09222987
-4.55938	Bas	-0.07557538
-4.25835	Basta	-0.08822246
-3.95732	Batacazo	-0.2998998
-4.55938	Batasuna	-0.09222987
-4.25835	BatuecasOficial	-0.08875409
-4.55938	Bdias	-0.09205015
-4.55938	Belen	-0.09222987
-4.55938	Bendita	-0.09222987
-4.55938	Berlustinho	-0.09222987
-4.55938	BertaBarbet	-0.0832004
-4.55938	Besos	-0.09206213
-4.25835	Bien	-0.08418994
-4.55938	Bienvenido	-0.09221789
-4.25835	Bienvenidos	-0.09155852
-4.55938	Bildu	-0.09222987
-4.55938	Bilinguismo	-0.08922478
-4.55938	BlaiRVS	-0.09200221
-4.55938	Blanco	-0.08439735
-4.55938	Boadilla	-0.0891162
-4.25835	BobEstropajo	-0.2748995
-4.55938	Boi	-0.09222987
-4.55938	Bolano	-0.09222987
-4.55938	Bolivar	-0.07557538
-4.55938	Bolivariano	-0.07557538
-4.55938	Bomba	-0.07557538
-3.95732	Bon	-0.5447127
-4.25835	Bonito	-0.09221788
-4.55938	Borbonica	-0.09221789
-4.55938	Boreal	-0.08386035
-4.082259	Born	-0.08315148
-3.86041	Borrell	-0.1036315
-4.55938	Brava	-0.09220591
-3.714282	Bravo	-0.2026144
-4.55938	Brillante	-0.09219393
-4.55938	Brisas	-0.07557538
-4.55938	BrujaLola	-0.09140254
-4.082259	Bruselas	-0.0829802
-3.86041	Brutal	-0.07301616
-4.55938	Bueeeeno	-0.09215799
-3.86041	Buen	-0.140567
-3.714282	Buena	-0.09059768
-3.86041	Buenas	-0.2633102
-3.280626	Bueno	-0.1055152
-3.216957	Buenos	-1.434185
-4.55938	Buff	-0.09218195
-4.55938	Burguesia	-0.09212205
-4.55938	Buscando	-0.08439735
-4.25835	Bye	-0.2749594
-4.55938	C	-0.09222987
-3.95732	C'S	-0.3107488
-2.781229	C's	-0.4289407
-4.55938	C's21	-0.09220591
-4.25835	CAMPEONES	-0.09218194
-4.55938	CAP	-0.09181041
-3.781229	CAT	-0.07777295
-3.714282	CATALUNA	-0.3924093
-4.55938	CATALUNYA	-0.09207412
-4.082259	CATSiqueesPot	-0.431823
-4.25835	CC	-0.08976722
-4.55938	CCAA	-0.09220591
-3.55938	CDC	-0.1675766
-4.25835	CDCERC	-0.09211005
-4.55938	CDCUDC	-0.09173845
-4.55938	CDialoga	-0.0832004
-4.55938	CELEBRAR	-0.09216997
-4.55938	CERC	-0.09222987
-4.55938	CHAVALES	-0.09222987
-4.55938	CIA	-0.09222987
-3.714282	CIU	-0.1785522
-4.55938	CIUCDC	-0.09207412
-4.55938	CIUDADANA	-0.09205015
-4.55938	CIUDADANOS	-0.08439735
-3.86041	CIUERC	-0.1550815
-4.55938	CIUERCCUP	-0.09213403
-4.25835	CIUTADANS	-0.09218194
-4.55938	CLARA	-0.09216997
-4.55938	COCAINA	-0.09148654
-4.55938	COMO	-0.09215799
-4.55938	CONO	-0.09216997
-4.55938	CONSULADO	-0.09216997
-4.55938	CONTRA	-0.09216997
-4.55938	CORIA	-0.08876617
-4.55938	CORRIJO	-0.09098227
-4.55938	CSEP	-0.0832004
-4.25835	CSP	-0.09039321
-4.55938	CSPCUP	-0.09022477
-3.413252	CSQEP	-0.1081239
-3.237161	CSQP	-0.6759821
-2.193892	CUP	-0.2715614
-4.55938	CUP4737%	-0.09222987
-4.55938	CUPArgentona	-0.09158253
-4.55938	CUPBarcelona	-0.09222987
-4.55938	CUPJPS	-0.09219393
-4.55938	CUPsiguiendo	-0.09202618
-4.55938	CUPstap	-0.09207412
-4.55938	Caaaataaalunaaa	-0.08922478
-4.55938	Cabellero	-0.09222987
-4.25835	Cabeza	-0.2583169
-4.55938	Cabrera	-0.08439735
-3.86041	Cada	-0.1544803
-4.55938	Cae	-0.08921272
-4.55938	Caen	-0.08721785
-4.55938	Cafe	-0.09222987
-4.55938	Caida	-0.07557538
-4.55938	Calculadoras	-0.08439735
-4.55938	Calma	-0.09222987
-4.25835	Camacho	-0.08383591
-4.55938	Cambian	-0.09221789
-4.55938	Cambio	-0.09221789
-4.55938	Cambio16	-0.06557813
-4.55938	Cambo	-0.0832004
-4.082259	Camino	-0.1936057
-4.25835	Campana	-0.08856084
-4.25835	Canada	-0.2483197
-4.55938	Canarias	-0.09219393
-4.55938	Canciones	-0.08339605
-4.55938	CangrejoSur	-0.09175045
-4.55938	Canis	-0.08439735
-4.25835	Canizares	-0.06556538
-4.55938	Cantar	-0.08921272
-4.55938	Capturando	-0.09199023
-4.55938	CarSiQueesPot	-0.08388478
-4.55938	Caradura	-0.08439735
-4.55938	Cardenal	-0.09221789
-4.55938	Carles	-0.09222987
-4.55938	Carme	-0.09221789
-4.55938	CarmenSanCarlos	-0.0912585
-4.55938	CarmendMairena	-0.08439735
-4.55938	Carrer	-0.09222987
-4.55938	Cartas	-0.09222987
-3.605137	Casi	-0.16328
-4.55938	Caso	-0.09222987
-4.55938	Castelldefells	-0.09163051
-4.55938	Castilla	-0.08147246
-4.55938	Castro	-0.0832004
-4.55938	Casualidad	-0.07709128
-3.86041	Cat	-0.1551536
-4.55938	CatSQP	-0.09143854
-4.55938	CatSiEsPot	-0.09195427
-4.55938	CatSiQueEsPot	-0.09097026
-4.55938	CatSiQueesPot	-0.09097026
-3.35526	CatSiqueesPot	-0.6914054
-4.55938	Catala	-0.09199023
-3.65629	Catalan	-0.2252603
-4.55938	CatalanEspanol	-0.08439735
-4.082259	Catalana	-0.04510598
-3.65629	Catalanes	-0.0929771
-4.55938	Catalanito	-0.08339605
-4.55938	Catalans	-0.09222987
-4.55938	Catalinos	-0.09161852
-4.55938	Catalnuya	-0.07557538
-2.334071	Cataluna	-0.2415827
-4.55938	CatalunaNo	-0.09182239
-4.55938	Catalunas	-0.09082607
-2.915927	Catalunya	-0.1134983
-4.55938	CatalunyaEnhorabuena	-0.08386035
-4.25835	CatalunyaIndep	-0.06550169
-4.55938	Cath82	-0.09182239
-4.55938	CatsiqueesPot	-0.09178642
-4.55938	Caty	-0.08827083
-4.55938	Cautela	-0.0832004
-4.55938	Cazatalentos	-0.09188234
-4.55938	CdC	-0.09173845
-4.55938	Cdialoga	-0.08977927
-4.55938	Cedera	-0.09213403
-4.55938	Celebrando	-0.08357938
-4.55938	Censo	-0.0832004
-4.55938	Centre	-0.09222987
-4.55938	Cerdo	-0.09194228
-4.55938	Cerveza	-0.0832004
-4.25835	Cesar	-0.08959853
-4.55938	CesarCalderon	-0.09219393
-4.55938	Ceuta	-0.07709128
-4.25835	Chacon	-0.08318816
-4.55938	Channel	-0.09187035
-4.55938	Chantaje	-0.08439735
-4.55938	Chao	-0.08942978
-4.55938	Checoslovaquia	-0.08439735
-4.55938	Chile	-0.09222987
-3.517987	CiU	-0.2213108
-3.605137	CiUERC	-0.1084602
-3.781229	CiUERCCUP	-0.144604
-4.55938	Cientos	-0.07557538
-3.95732	Cierran	-0.2659419
-4.55938	Cierto	-0.08339605
-3.95732	Cinco	-0.1738673
-4.25835	CincoDiascom	-0.06497906
-4.55938	Cinismo	-0.09221789
-4.55938	CitaconBenejam	-0.07709128
-3.95732	Ciu	-0.1648338
-4.55938	CiuERC	-0.09178642
-4.55938	CiudaDANOS	-0.08388478
-4.55938	Ciudad	-0.09222987
-4.55938	Ciudadano	-0.09220591
-4.25835	CiudadanoVille	-0.09195426
-2.925911	Ciudadanos	-0.08369015
-2.287538	CiudadanosCs	-0.1663527
-4.55938	CiudadanosCsCiutadansCs	-0.08339605
-4.55938	Ciudadanoscs	-0.08339605
-4.55938	Ciudadans	-0.09214601
-3.237161	Ciutadans	-0.05772125
-3.413252	CiutadansCs	-0.09872331
-4.55938	Civismo	-0.07709128
-4.55938	Claramente	-0.09200221
-3.95732	Claro	-0.1660801
-4.55938	ClaudiaaParajon	-0.09129451
-4.55938	Clave	-0.08827083
-4.082259	Claves	-0.07246492
-4.55938	Clos	-0.09216997
-4.55938	Cmo	-0.09149854
-4.55938	Coats	-0.09202618
-4.55938	Cogiendo	-0.09214601
-4.55938	Coinciden	-0.08827083
-4.55938	Coincido	-0.08932126
-4.55938	Coja	-0.08921272
-4.55938	Cola	-0.08977927
-4.55938	Colaborando	-0.08932126
-3.55938	Colas	-0.20272
-4.55938	Colega	-0.09222987
-4.082259	Colegio	-0.08061206
-4.55938	Colegios	-0.09222987
-3.714282	Coleta	-0.4935505
-4.55938	ColetaMoradaNecesitaReflexionUrgente	-0.08388478
-4.55938	Colmenero	-0.09182239
-4.55938	Colombians	-0.08998402
-4.55938	Colon	-0.09221789
-4.55938	Comenzo	-0.08357938
-3.605137	Comienza	-0.3319317
-4.25835	Comienzan	-0.07981157
-4.55938	Comin	-0.09222987
-2.946596	Como	-0.09150161
-4.55938	Companys	-0.08388478
-4.55938	Comparacion	-0.08762966
-4.55938	Comparando	-0.08982746
-4.55938	Comparar	-0.08721785
-4.55938	Comparece	-0.08147246
-4.55938	Compilado	-0.07557538
-4.55938	Completamente	-0.07557538
-4.55938	Comprendo	-0.08339605
-4.25835	Comunidad	-0.2749594
-2.438806	Con	-0.6052276
-4.25835	Concentracion	-0.08318816
-4.25835	Conclusion	-0.0908501
-4.25835	Conectamos	-0.2720628
-4.55938	Confidencial	-0.06557813
-4.55938	Confiemos	-0.08339605
-4.082259	Confio	-0.1870987
-4.25835	Confirmado	-0.08317593
-4.55938	Confluencias	-0.09222987
-4.55938	Congreso	-0.07557538
-4.55938	Consciente	-0.07557538
-4.55938	Consecuencias	-0.07557538
-4.55938	Conseguira	-0.08942978
-4.55938	Consejo	-0.08977927
-3.714282	Constitucion	-0.1870452
-4.55938	Constitucional	-0.09214601
-4.55938	Constituyendo	-0.09209808
-4.55938	Constructivo	-0.09218195
-4.55938	Consulta	-0.09164251
-4.55938	Contamos	-0.09050147
-4.55938	Contencion	-0.0832004
-4.55938	Contento	-0.08998402
-3.95732	Continua	-0.05415699
-4.55938	Continuan	-0.08827083
-4.55938	Continuidad	-0.0916665
-4.55938	Contra	-0.08147246
-3.517987	Convergencia	-0.1429106
-3.65629	ConvergenciaCAT	-0.2007017
-4.55938	ConvergenciaERC	-0.09216997
-4.55938	Convergentes	-0.08439735
-4.55938	Cop	-0.08386035
-4.55938	Copa	-0.07557538
-4.55938	CopeCatalunya	-0.08932126
-4.55938	Cordon	-0.07557538
-4.55938	Corona	-0.07557538
-4.55938	Corpoelec	-0.0912585
-4.55938	Correos	-0.09172647
-4.55938	Corrupcion	-0.09222987
-4.55938	Cortaran	-0.08147246
-4.55938	Cosas	-0.09220591
-4.55938	Costa	-0.09222987
-4.55938	Costara	-0.09222987
-4.55938	Creeis	-0.08339605
-3.35526	Creo	-1.221603
-4.55938	CristinaGnlz	-0.06557813
-4.55938	Cruzada	-0.07709128
-3.280626	Cs	-0.1770276
-4.55938	CsAlaquas	-0.09089817
-4.55938	CsAsturias	-0.09222987
-4.55938	CsBarbera	-0.09218195
-4.55938	CsCValenciana	-0.09222987
-4.55938	CsCordoba	-0.06557813
-4.55938	CsDosHermanas	-0.09222987
-3.95732	CsExtremadura	-0.1463871
-4.55938	CsHospitalet	-0.09130652
-4.55938	CsLeganes	-0.09215799
-4.55938	CsMadrid	-0.09219393
-4.55938	CsMadridCiudad	-0.09219393
-4.082259	CsMelilla	-0.2049823
-4.55938	CsMotril	-0.09195427
-4.55938	CsOviedo	-0.08999606
-3.86041	CsPP	-0.5869489
-4.55938	CsPlasencia	-0.09222987
-4.55938	CsRegionMurcia	-0.09187035
-4.55938	CsRubi	-0.06557813
-4.55938	CsSantcugat	-0.09216997
-4.55938	CsSevilla	-0.09022477
-4.25835	CsqP	-0.2737118
-4.25835	Cual	-0.0892127
-4.55938	Cuales	-0.09159452
-4.55938	Cualquier	-0.09222987
-3.413252	Cuando	-0.0934739
-4.55938	Cuanta	-0.09222987
-4.25835	Cuantas	-0.09218194
-3.95732	Cuantos	-0.1727634
-4.55938	Cuartel	-0.09215799
-4.55938	Cuarto	-0.09222987
-4.55938	Cuatro	-0.09199023
-4.55938	Cucha	-0.08762966
-4.55938	Cuenta	-0.09222987
-4.55938	Cuentas	-0.09222987
-4.55938	Cuentos	-0.09221789
-4.55938	Cues	-0.09222987
-4.55938	Cuidadin	-0.08977927
-3.714282	Cuidado	-0.2808108
-3.65629	Cup	-0.06991249
-4.55938	Curiosamente	-0.08721785
-4.55938	Curiosidad	-0.0891162
-4.55938	Curiosidades	-0.07557538
-3.781229	Curioso	-0.212028
-4.55938	CxS	-0.08439735
-3.95732	D	-0.04835166
-4.55938	D'Ont	-0.09222987
-4.55938	DATOS	-0.09222987
-3.781229	DE	-0.1448916
-4.55938	DEJAME	-0.09222987
-4.55938	DEL	-0.09216997
-4.55938	DEN	-0.09222987
-4.55938	DIAS	-0.09123448
-4.55938	DIMISION	-0.09222987
-4.55938	DISPARA	-0.09220591
-4.25835	DNI	-0.07686795
-4.55938	DOGMA	-0.07709128
-4.55938	DOS	-0.08982746
-3.86041	Da	-0.1453978
-4.55938	Dad	-0.0920861
-4.55938	Dado	-0.08339605
-4.55938	Dais	-0.08998402
-4.55938	DalasReview	-0.09149854
-4.55938	DaniPintoB	-0.09222987
-4.55938	Danimetalcrew	-0.08388478
-4.55938	Dato	-0.09219393
-3.95732	Datos	-0.1560457
-3.65629	David	-0.4176062
-4.55938	DavidJimenezTW	-0.0832004
-3.003077	De	-0.3378459
-4.25835	Debajo	-0.2718577
-4.082259	DebatAlRojoVivo	-0.08750858
-4.55938	Debatiendo	-0.09222987
-4.55938	Debe	-0.09215799
-4.55938	Deberia	-0.0916545
-4.55938	Deberiamos	-0.09218195
-4.55938	Debieron	-0.09222987
-4.55938	Decenas	-0.07557538
-4.55938	Decepcionado	-0.08932126
-4.25835	Decia	-0.09213402
-4.25835	Decian	-0.2661376
-4.55938	Decidiendo	-0.08357938
-4.55938	Decidle	-0.08386035
-4.25835	Decir	-0.2661376
-4.55938	Declaraciones	-0.09188234
-4.55938	Declevela9Nd	-0.09194228
-3.86041	Dedicado	-0.3527648
-4.55938	Definitivamente	-0.08827083
-4.55938	Defraudado	-0.08932126
-4.55938	Deja	-0.08386035
-4.55938	Dejad	-0.07557538
-4.25835	Dejame	-0.2749355
-4.55938	Dejando	-0.08386035
-4.55938	Dejaos	-0.07557538
-4.55938	Dejar	-0.07557538
-4.55938	Deje	-0.08827083
-4.082259	Del	-0.09137854
-4.55938	Delirio	-0.09222987
-4.55938	Dels	-0.09222987
-4.55938	Delsurgr	-0.09185836
-4.55938	Demagogiaok	-0.09222987
-3.95732	Democracia	-0.08315148
-4.55938	Democratica	-0.07557538
-4.55938	Demos	-0.09222987
-4.55938	Demuestra	-0.08762966
-3.781229	Dentro	-0.4547691
-4.55938	Depende	-0.07557538
-4.55938	Dependera	-0.07557538
-4.55938	Derrota	-0.09220591
-4.55938	Desastre	-0.07557538
-3.25835	Desde	-0.1293983
-4.55938	Deseando	-0.08339605
-4.25835	Deseo	-0.08138648
-4.55938	Desobedecemos	-0.09214601
-4.55938	Desplome	-0.09197824
-3.517987	Despues	-1.11372
-3.65629	Dia	-0.2949648
-4.25835	Diada	-0.0922059
-4.55938	Dialogante	-0.09222987
-4.55938	Dias	-0.07709128
-4.25835	Diaz	-0.08326154
-4.25835	Dice	-0.08159523
-4.25835	Diciembre	-0.09059767
-4.55938	Dificil	-0.09221789
-4.55938	Digo	-0.09193029
-4.25835	Dios	-0.09000809
-4.082259	Diputados	-0.06895304
-4.55938	Disfrutar	-0.07557538
-4.55938	Disney	-0.09222987
-4.55938	Divide	-0.08439735
-4.55938	Domingo	-0.07557538
-4.55938	Donde	-0.09106636
-3.95732	Duran	-0.3195511
-4.55938	Duro	-0.08932126
-4.55938	E	-0.09220591
-4.55938	EHFinSemana	-0.09221789
-4.55938	EL	-0.07709128
-4.55938	ELLOS	-0.08388478
-4.082259	EN	-0.09207412
-4.55938	ENCANTAN	-0.09222987
-4.55938	ENFRENTE	-0.0912705
-4.55938	ENHORABUENA	-0.09221789
-4.55938	ENTIENDO	-0.06557813
-2.936131	ERC	-0.1156298
-4.55938	ERCCIU	-0.09209808
-3.605137	ES	-0.1947715
-4.55938	ESCRUTADO	-0.09222987
-4.55938	ESCUCHANDO	-0.09045336
-4.55938	ESP	-0.09187035
-3.65629	ESPANA	-0.06872642
-4.55938	ESPIAN	-0.09032104
-4.55938	ESTA	-0.09220591
-4.55938	ESTAT	-0.07557538
-4.55938	ESTATde	-0.08721785
-4.25835	Ebro	-0.08818619
-4.55938	EfectoCocuyo	-0.06557813
-4.55938	Eing	-0.09222987
-4.55938	EjemSon	-0.09105435
-4.55938	Ekaizer	-0.0832004
-2.85181	El	-0.1248437
-3.197652	ElCambioQueUne	-1.379672
-4.55938	ElPratEsports	-0.08439735
-4.25835	ElRegimen	-0.08875409
-3.714282	Elecciones	-0.07262786
-4.55938	Eleccions	-0.07709128
-3.86041	Electoral	-0.07192548
-4.55938	Emm	-0.08942978
-4.082259	Empieza	-0.1855224
-3.082259	En	-0.188696
-4.55938	Encomiable	-0.08339605
-4.55938	Encrucijada	-0.09178642
-4.082259	Encuesta	-0.07481544
-4.25835	Endavant	-0.2747318
-4.55938	EnekoHumor	-0.09221789
-3.35526	Enhorabuena	-0.1885661
-4.55938	Enorme	-0.09219393
-4.55938	Enric	-0.09222987
-4.55938	Entre	-0.09032104
-4.55938	Era	-0.09213403
-4.25835	Erasmus	-0.2747198
-4.55938	Ercconvergencia	-0.0920861
-4.55938	Ernesto	-0.09222987
-4.25835	Errejon	-0.08200014
-4.55938	Error	-0.09222987
-3.25835	Es	-0.1172882
-4.55938	Esa	-0.09222987
-4.25835	Escanos	-0.274312
-4.55938	Escoge	-0.09207412
-4.55938	Esconded	-0.08386035
-4.55938	EscribanoR	-0.09221789
-3.517987	Escrutado	-1.070519
-4.25835	Escrutinio	-0.08318816
-4.55938	Escuchalo	-0.09211007
-4.55938	Escucho	-0.08386035
-4.55938	Escuela	-0.09219393
-4.55938	Escull	-0.08357938
-4.55938	Ese	-0.09220591
-3.86041	Eso	-0.1511102
-4.55938	Espadaler	-0.08921272
-2.635101	Espana	-0.1615596
-4.55938	EspanaArtur	-0.08942978
-4.082259	Espanol	-0.2047545
-4.25835	Espanola	-0.0655399
-4.082259	Espanoles	-0.08957444
-4.55938	EspanolesCatalanes	-0.08876617
-4.55938	Especial	-0.09105435
-4.55938	Esperando	-0.08721785
-4.55938	Esperemos	-0.08921272
-3.65629	Espero	-0.3874865
-4.55938	Espidifen	-0.09222987
-4.55938	Esplugues	-0.08357938
-3.95732	Esquerra	-0.05645237
-3.605137	EsquerraERC	-0.1090594
-4.55938	Essspaaanaahasta	-0.09197824
-3.65629	Esta	-0.1874032
-3.605137	Estado	-0.2570773
-3.86041	Estamos	-0.07907135
-4.55938	Estariamos	-0.0832004
-4.55938	Estas	-0.09105435
-4.55938	Estatuto	-0.07557538
-3.86041	Este	-0.09135451
-4.55938	Esteban	-0.09195427
-4.55938	Estimaciones	-0.07557538
-3.65629	Esto	-0.1776249
-4.55938	Estos	-0.09159452
-4.082259	Estoy	-0.1960592
-4.55938	Etiopia	-0.09213403
-4.55938	Euforia	-0.07557538
-4.55938	Euro	-0.08147246
-4.082259	Europa	-0.04943699
-4.55938	Europeo	-0.08998402
-4.55938	Europeos	-0.09222987
-4.55938	Excelente	-0.09221789
-4.55938	Expulsan	-0.08386035
-4.55938	Ezpana	-0.09194228
-4.55938	FAMIGLIA	-0.09222987
-4.55938	FCBarcelona	-0.09182239
-4.55938	FERNANDEZ	-0.09220591
-4.25835	FRACASADO	-0.07706647
-4.55938	Fabra	-0.09216997
-4.55938	Falsas	-0.09222987
-4.25835	Falta	-0.07547578
-4.55938	Fdez	-0.09141454
-3.781229	Felicidades	-0.04024551
-4.55938	Felicita	-0.08386035
-4.55938	Felicitaciones	-0.09189433
-4.082259	Feliz	-0.083726
-4.55938	Fem	-0.08147246
-3.65629	Fernandez	-0.1110788
-4.25835	Fernando	-0.2749594
-4.25835	Ferreras	-0.08967083
-4.55938	Fijaros	-0.0832004
-4.55938	Fijemonos	-0.09195427
-4.55938	Filas	-0.07557538
-4.25835	Flandes	-0.0831637
-4.55938	ForcadellCarme	-0.09202618
-4.55938	Forges	-0.06557813
-4.55938	Fot	-0.08357938
-4.25835	Foto	-0.2583169
-4.55938	Fracaso	-0.09178642
-4.25835	FranHervias	-0.09202617
-4.55938	Francesc	-0.09222987
-4.55938	FrancescRobert	-0.09222987
-4.25835	Francia	-0.0598212
-4.55938	FrancisRubioGme	-0.08999606
-4.25835	Franco	-0.08761754
-4.55938	Freddy	-0.09222987
-4.55938	Fuente	-0.06557813
-4.55938	Fuerte	-0.09220591
-4.25835	Fusilaron	-0.08998401
-4.25835	Futbol	-0.09052552
-4.55938	GAD3com	-0.06557813
-4.55938	GANADO	-0.09218195
-4.55938	GH	-0.09222987
-4.55938	GIF	-0.09200221
-4.55938	GINER	-0.09222987
-4.55938	GLOBAL	-0.09222987
-4.55938	GRANADA	-0.08876617
-4.55938	Ga	-0.09221789
-4.55938	Gabriel	-0.0894539
-4.25835	Galicia	-0.08924889
-4.25835	Gana	-0.08326154
-4.55938	Ganan	-0.08721785
-4.55938	Ganancias	-0.09188234
-4.55938	Ganas	-0.07557538
-4.55938	Gane	-0.09195427
-4.55938	Gante	-0.09221789
-3.714282	Garcia	-0.4910869
-4.55938	Garzon	-0.08977927
-4.55938	Gasol	-0.0832004
-4.55938	GemmaMndza	-0.09222987
-4.55938	GeneralDavila	-0.09222987
-4.082259	Generales	-0.07640854
-3.714282	Generalitat	-0.06343303
-4.55938	Genial	-0.09130652
-4.55938	Genova	-0.09218195
-4.55938	Gent	-0.09221789
-3.95732	Girona	-0.0881862
-4.55938	Gobenacion	-0.07709128
-3.95732	Gobierno	-0.06109714
-4.55938	Google	-0.09222987
-4.55938	Govern	-0.07709128
-4.55938	Gozadera	-0.09140254
-3.86041	Gracias	-0.08117764
-3.714282	Gran	-0.09151055
-4.55938	Granados	-0.06557813
-4.25835	Grandes	-0.0922059
-4.55938	Grandioso	-0.09212205
-4.55938	Gritos	-0.07557538
-4.55938	Guerra	-0.09089817
-4.55938	Gurtel	-0.09215799
-4.55938	HAN	-0.09222987
-4.25835	HAY	-0.2748995
-4.55938	HB	-0.08439735
-4.55938	HOOLIGANS	-0.09221789
-4.55938	HORAS	-0.09222987
-4.55938	HOY	-0.09213403
-3.517987	Ha	-0.3479842
-4.55938	Haber	-0.09222987
-4.55938	Habria	-0.08339605
-4.082259	Han	-0.09139054
-4.55938	HansPeterT	-0.09190632
-4.25835	Hasta	-0.08339603
-3.65629	Hay	-0.17739
-4.25835	HectordeAyala	-0.2749594
-4.55938	Hem	-0.09222987
-3.95732	Hemos	-0.1735316
-4.55938	Hermano	-0.09222987
-4.55938	HerreraenCOPE	-0.09222987
-4.082259	HiginiaRoig	-0.09164251
-4.55938	Hipocresiaok	-0.09221789
-4.25835	Historia	-0.09172645
-4.55938	Hitler	-0.07709128
-4.55938	Hola	-0.09222987
-4.55938	Hombre	-0.09193029
-4.55938	Hora	-0.07557538
-4.082259	Hospitalet	-0.07555049
-4.55938	Hostion	-0.07557538
-3.040866	Hoy	-0.1221817
-4.55938	HuescaCs	-0.06557813
-3.517987	ICV	-0.07668748
-4.55938	ICVEU	-0.08388478
-4.25835	II	-0.09221788
-4.55938	INDEPENDEN	-0.09222987
-4.082259	INDEPENDENCIA	-0.04937089
-4.082259	INDEPENDENTISTAS	-0.07609785
-4.55938	INES	-0.09220591
-4.55938	IUnizando	-0.0832004
-3.328931	Iceta	-0.1136792
-4.25835	Iglesias	-0.09157052
-4.55938	Imbecil	-0.07709128
-4.082259	Importante	-0.2036981
-4.55938	Impresionante	-0.06557813
-4.55938	Impulso	-0.09221789
-4.55938	Incidentes	-0.09211007
-4.55938	Increible	-0.09032104
-4.25835	Indep	-0.2749474
-4.55938	Indepas	-0.09205015
-3.65629	Independencia	-0.1861444
-4.55938	Independentismo	-0.09222987
-4.55938	Independentista	-0.09222987
-4.25835	Independentistas	-0.09177443
-4.55938	IndependentistasCatalanes	-0.08876617
-4.55938	Indignante	-0.09222987
-3.781229	Ines	-0.2948725
-2.667285	InesArrimadas	-0.1691806
-4.55938	Inigo	-0.09221789
-4.55938	InigoErrejon	-0.09222987
-3.86041	Inmovilismo	-0.1563293
-4.55938	Inoxcrom	-0.08386035
-4.55938	Integrador	-0.09222987
-4.55938	Intercambio	-0.07557538
-4.55938	Interior	-0.07557538
-4.25835	Interventores	-0.2583169
-4.55938	Ir	-0.08998402
-4.55938	Iros	-0.08386035
-4.55938	JAEN	-0.08439735
-4.55938	JEREZ	-0.08876617
-4.55938	JOAN	-0.09222987
-3.096982	JPS	-0.7113313
-4.55938	JPSCUP	-0.09146255
-4.55938	JPSi	-0.09206213
-4.55938	JUMILLA	-0.09220591
-4.55938	JUNQUERAS	-0.0916665
-4.55938	JXS	-0.0832004
-3.95732	JXSI	-0.08881448
-4.55938	JXSi	-0.08439735
-4.55938	Jaen	-0.09222987
-4.55938	Jaja	-0.08388478
-4.25835	Jason	-0.092146
-4.55938	Javea	-0.06557813
-4.55938	Javier	-0.09222987
-4.55938	JavierBello2015	-0.06557813
-4.55938	Jefe	-0.09222987
-4.55938	Jerez	-0.08386035
-4.55938	Joder	-0.08339605
-4.55938	Jodido	-0.09190632
-4.55938	Jonqueras	-0.08339605
-4.55938	Jordi	-0.09212205
-4.55938	Jornada	-0.09218195
-4.55938	Jose	-0.09218195
-3.95732	Josep	-0.5452762
-3.781229	JpS	-0.07803295
-3.86041	JpSCUP	-0.08720571
-4.55938	Juan	-0.09222987
-4.55938	JuanMaMoreno	-0.09197824
-4.55938	Juez	-0.06557813
-4.55938	Jugada	-0.09222987
-4.55938	Julian	-0.09222987
-3.179169	Junqueras	-0.06928907
-4.55938	Junt	-0.09213403
-4.55938	Junta	-0.09218195
-4.082259	Juntos	-0.4308367
-4.55938	JuntosporelSi	-0.09205015
-2.887282	Junts	-0.8669338
-4.55938	JuntsCUP	-0.09222987
-4.55938	JuntsPel3%	-0.09222987
-3.05423	JuntsPelSi	-0.1502195
-4.55938	JuntsPelSiCUP	-0.09220591
-4.55938	JuntsXsi	-0.0894539
-4.55938	JuntspelSi	-0.0832004
-4.55938	JuntsxSi	-0.08439735
-3.35526	JxS	-0.1219947
-3.86041	JxSCUP	-0.6135527
-3.95732	JxSI	-0.07962666
-2.811192	JxSi	-0.3749112
-4.082259	JxSiCUP	-0.09117445
-4.55938	Jxsi	-0.09182239
-4.55938	KO	-0.09181041
-4.55938	Krueger	-0.08439735
-4.55938	L'Estatut	-0.09222987
-4.55938	L'H	-0.09216997
-3.781229	LA	-0.1449036
-4.55938	LAS	-0.09222987
-4.25835	LO	-0.09221788
-4.55938	LOGSE'S	-0.07557538
-2.915927	La	-0.1618268
-4.082259	La1tve	-0.2044547
-4.55938	LaSexta	-0.09219393
-4.55938	LaSotana	-0.09222987
-3.95732	LaVanguardia	-0.1585233
-3.35526	Las	-0.08732688
-4.55938	Leccion	-0.07557538
-4.55938	Legionario	-0.09222987
-4.55938	Legitima	-0.09222987
-4.55938	Lenazo	-0.08977927
-4.55938	Les	-0.09222987
-4.55938	Levi	-0.08439735
-3.95732	Ley	-0.1473309
-4.55938	LibertadFMradio	-0.08932126
-4.25835	Liga	-0.07553802
-4.55938	Listo	-0.09221789
-4.55938	Llama	-0.08386035
-3.95732	Lleida	-0.07939229
-4.55938	Llobregat	-0.09222987
-4.55938	Llueve	-0.09222987
-4.25835	Lluis	-0.09221788
-3.517987	Lo	-0.2178236
-4.55938	Lopez	-0.08439735
-3.328931	Los	-0.07764402
-4.55938	Ls	-0.09196626
-4.55938	LuisSalvador	-0.09207412
-4.25835	Luna	-0.09103031
-4.55938	M	-0.09203816
-4.55938	MA	-0.08357938
-4.55938	MAD	-0.09219393
-4.55938	MADRID	-0.06557813
-3.86041	MAS	-0.09185835
-4.55938	ME	-0.09222987
-4.55938	MEJOR	-0.08922478
-4.25835	MENOS	-0.08335936
-4.55938	MIA	-0.09222987
-4.55938	MIERDA	-0.07557538
-4.55938	MIgnatieff	-0.0832004
-4.55938	MJLecha	-0.09222987
-4.55938	MOVILIZACION	-0.09220591
-4.55938	MURCIA	-0.06557813
-4.55938	MUY	-0.09214601
-4.55938	Macia	-0.06557813
-4.55938	Madre	-0.07557538
-3.328931	Madrid	-0.06423245
-4.55938	Madridsolo	-0.09203816
-4.55938	Madrit	-0.09022477
-4.55938	Mago	-0.09222987
-4.55938	Mahou	-0.08439735
-4.55938	Mal	-0.09222987
-4.55938	Maldito	-0.09221789
-4.55938	Mallorca	-0.09214601
-4.25835	Manana	-0.07915778
-4.55938	Mancha	-0.08357938
-4.55938	Manipulador	-0.08339605
-4.55938	Manresa	-0.09211007
-4.55938	Marc	-0.09222987
-4.55938	Marca	-0.08932126
-4.55938	MarcosLamelas	-0.07709128
-4.55938	Maresme	-0.06557813
-4.25835	Margallo	-0.09151053
-4.55938	MariaCasadoTVE	-0.07709128
-3.65629	Mariano	-0.1028454
-4.55938	Marquez	-0.08876617
-4.55938	Marquezhoy	-0.09222987
-4.55938	Martinez	-0.09222987
-2.190164	Mas	-0.142711
-4.55938	Mas'	-0.08388478
-4.55938	MasGran	-0.09172647
-4.55938	MasPero	-0.09221789
-4.55938	Masfurroll	-0.08388478
-4.55938	Masse	-0.09219393
-4.55938	Masvaya	-0.09214601
-4.55938	Mataro	-0.09163051
-4.55938	Mayabs	-0.09219393
-4.55938	MayoralRafa	-0.06557813
-3.86041	Mayoria	-0.1465512
-3.86041	Me	-0.08924888
-4.55938	Medio	-0.09221789
-4.55938	Medios	-0.09214601
-4.55938	Mejide	-0.09222987
-3.95732	Mejor	-0.1688531
-4.55938	Melilla	-0.0916665
-4.55938	Mendo	-0.09222987
-4.55938	MengualAlbert	-0.09149854
-4.55938	Menor	-0.09098227
-4.55938	Menuda	-0.09221789
-4.55938	Messi	-0.08977927
-4.55938	Metropolitana	-0.08876617
-4.082259	Mi	-0.09107838
-4.55938	Mientras	-0.09213403
-4.55938	MikiyDuarte	-0.08388478
-4.55938	MinppalOficial	-0.09082607
-3.714282	Miquel	-0.9028863
-4.55938	Miqueliceta	-0.09220591
-3.280626	Mira	-1.36964
-4.55938	MirenCsalou	-0.09130652
-4.55938	Mis	-0.09062172
-4.55938	Misma	-0.09199023
-4.55938	Moderado	-0.09216997
-4.55938	Molt	-0.09222987
-4.55938	Momentos	-0.0832004
-4.55938	Monte	-0.09203816
-4.55938	Montones	-0.08977927
-4.082259	Morada	-0.0881862
-4.55938	Movimiento	-0.09222987
-4.25835	Mucha	-0.2748396
-4.55938	Muchas	-0.09220591
-4.55938	MuchasFelicidades	-0.09130652
-4.55938	Mucho	-0.08339605
-4.25835	Muchos	-0.0635354
-4.25835	Mundo	-0.08908
-4.55938	Munoz	-0.09222987
-4.55938	Murcia	-0.09221789
-4.55938	Muro	-0.08876617
-4.55938	Musica	-0.09222987
-4.25835	Muy	-0.09199022
-4.55938	N1	-0.09222987
-4.55938	NADAEstamos	-0.09221789
-4.55938	NADIE	-0.09222987
-4.55938	NNGGAlcala	-0.09222987
-3.040866	NO	-0.156744
-4.25835	NOU	-0.09221788
-4.55938	NOW	-0.06557813
-4.55938	NOindependentistas	-0.09218195
-4.25835	NSNC	-0.06548895
-4.55938	NUESTRA	-0.09222987
-4.082259	Nada	-0.4242487
-4.082259	Nadie	-0.08971904
-4.55938	Naranja	-0.09184638
-4.25835	Naranjito	-0.08761754
-4.55938	Narcisista	-0.09220591
-3.95732	NatxoSaenz	-0.1739991
-4.55938	Navarra	-0.08921272
-4.55938	Navidad	-0.0832004
-4.55938	Necesitais	-0.08386035
-4.55938	Necesitamos	-0.08147246
-4.55938	Necesitan	-0.08357938
-4.55938	Necesito	-0.09141454
-4.55938	Neolengua	-0.08388478
-3.95732	Ni	-0.06444306
-4.55938	Nivel	-0.09222987
-4.55938	Nivelon	-0.07557538
-2.819017	No	-0.1413574
-4.55938	Normalidad	-0.08439735
-4.25835	Nos	-0.0920741
-4.55938	Nosaltres	-0.09222987
-4.55938	Nosotros	-0.08762966
-4.55938	Nuestro	-0.09220591
-3.86041	O	-0.07550067
-4.082259	OE	-0.2051261
-4.55938	OJO	-0.09221789
-4.55938	ON	-0.06557813
-4.55938	OPCIONES	-0.09220591
-4.55938	OTAN	-0.08439735
-4.55938	Objetivo	-0.09222987
-4.55938	ObjetivoLaSexta	-0.06557813
-4.55938	Ojala	-0.09221789
-4.55938	Ojito	-0.08388478
-4.55938	Ojo	-0.08932126
-4.55938	Ole	-0.07709128
-4.25835	OndaCeroes	-0.08930919
-4.25835	Onega	-0.08219633
-4.55938	OnofrioC	-0.06557813
-4.55938	Oposicion	-0.06557813
-4.55938	Orgullosa	-0.07557538
-4.55938	Orgullosos	-0.07557538
-3.781229	Oriol	-0.6194434
-4.55938	Ortega	-0.08439735
-4.25835	Os	-0.09143853
-4.55938	Otegi	-0.09222987
-4.25835	Otra	-0.09194227
-4.55938	Otros	-0.09211007
-4.55938	PARTICIPACION	-0.09216997
-4.25835	PEN	-0.09215798
-4.55938	PIglesias	-0.09032104
-4.55938	PLAZAS	-0.09221789
-4.55938	POBREZA	-0.0916665
-4.25835	PODEMOS	-0.05668642
-4.25835	POT	-0.09079001
-2.445436	PP	-0.3157118
-4.25835	PPBarcelona	-0.06552716
-4.55938	PPBizkaia	-0.09222987
-4.55938	PPCLM	-0.09195427
-3.35526	PPCatalunya	-0.1051745
-4.55938	PPCiudadanos	-0.09170248
-4.55938	PPCiutadans	-0.09222987
-4.55938	PPGetxo	-0.06557813
-4.55938	PPPSCC'sCsiPot	-0.08439735
-4.55938	PPPSOECs	-0.09213403
-4.55938	PPRajoy	-0.09222987
-4.55938	PPSOE	-0.09182239
-4.55938	PPdeBilbao	-0.09222987
-4.55938	PPen	-0.09218195
-4.55938	PPero	-0.09222987
-3.112222	PPopular	-0.1874172
-4.082259	PRESIDENTA	-0.06547622
-4.082259	PRIMER	-0.4330586
-4.55938	PRONTO	-0.08998402
-2.521953	PSC	-0.4654292
-4.082259	PSC18	-0.200816
-3.95732	PSCCSP	-0.5452762
-4.55938	PSCCSPU	-0.09218195
-4.55938	PSCPORQUE	-0.09222987
-4.55938	PSCTarragona	-0.06557813
-2.906167	PSOE	-0.42296
-4.55938	PSOEBOADILLA	-0.08999606
-4.55938	PUBLICIDAD	-0.09222987
-4.082259	PUEDE	-0.2040225
-4.55938	PUJOLFERRUSOLA	-0.09069386
-4.55938	Pa	-0.09221789
-4.55938	Pablito	-0.09222987
-4.25835	Pablo	-0.2749594
-3.86041	PabloIglesias	-0.03769965
-4.55938	PabloPardo1	-0.08386035
-4.55938	PabloSanchez	-0.06557813
-4.55938	Paciencia	-0.09200221
-4.55938	Pais	-0.08439735
-4.55938	Paisos	-0.09222987
-4.55938	Pajaro	-0.09222987
-4.55938	Palau	-0.07709128
-4.55938	Palo	-0.09222987
-4.55938	Panama	-0.09218195
-4.55938	Pantoja	-0.0912585
-3.781229	Para	-0.07750041
-4.55938	Parece	-0.08339605
-4.55938	Paris	-0.09221789
-3.082259	Parlament	-0.6013992
-4.55938	Parlamento	-0.09214601
-3.781229	Participacion	-0.195202
-4.25835	Partido	-0.08930919
-4.55938	Partidos	-0.09222987
-4.55938	Pasan	-0.07557538
-4.082259	Pase	-0.4311737
-4.55938	Pasen	-0.08439735
-4.55938	Pastor	-0.08386035
-4.55938	Patetico	-0.08388478
-4.55938	Pau	-0.0891162
-4.55938	Payaso	-0.09219393
-4.25835	Paz	-0.08930919
-4.55938	Pedazo	-0.07557538
-4.25835	Pedro	-0.2749235
-3.413252	Pel	-1.17512
-4.55938	Pelayo	-0.08439735
-4.55938	Pena	-0.08339605
-4.55938	Penaltis	-0.09219393
-4.55938	Pendiente	-0.07557538
-4.55938	Pensar	-0.08339605
-4.55938	Pequeno	-0.09212205
-4.25835	Per	-0.09125848
-4.55938	Perdidos	-0.09137853
-4.55938	Perdo	-0.09137853
-4.55938	Perezgo	-0.09209808
-3.304107	Pero	-0.07886972
-4.55938	Pidiendo	-0.08147246
-4.55938	Pierden	-0.08921272
-4.55938	Pillo	-0.09222987
-4.55938	Pique	-0.07709128
-4.55938	Pla	-0.08339605
-4.55938	Plasma	-0.09215799
-4.55938	Plaza	-0.09222987
-4.55938	Poble	-0.09196626
-4.082259	Pod	-0.431823
-4.55938	Podem	-0.09222987
-4.55938	PodemIgualada	-0.09205015
-3.216957	Podemos	-0.1182427
-4.55938	Podemos11	-0.08982746
-4.082259	PodemosICV	-0.07994716
-4.55938	Podemtgn	-0.09222987
-4.55938	Podido	-0.09218195
-4.55938	Podre	-0.09222987
-4.55938	Polacos	-0.09222987
-4.55938	Politicas	-0.09222987
-4.55938	Politicos	-0.09157053
-4.55938	Pop	-0.07557538
-4.55938	Popular	-0.09184638
-4.55938	PopularesSMRA	-0.09222987
-4.55938	PopularsMataro	-0.06557813
-3.280626	Por	-0.2372387
-4.25835	Porque	-0.09107836
-4.55938	Porta	-0.0832004
-4.082259	Pot	-0.06578188
-4.55938	Pot'	-0.0832004
-4.55938	Pp	-0.08977927
-4.55938	Prat	-0.09218195
-4.55938	Prediccion	-0.0891162
-4.55938	Predominio	-0.09215799
-4.55938	Preferiria	-0.09222987
-4.55938	Pregunta	-0.08386035
-4.55938	Premio	-0.0906097
-4.55938	Preocupante	-0.08147246
-4.25835	Preparado	-0.2725208
-4.082259	Preparados	-0.430632
-4.55938	Preparativos	-0.07557538
-4.55938	Prepotencia	-0.09222987
-4.55938	Presidencia	-0.07557538
-4.082259	President	-0.1966215
-4.55938	Presidenta	-0.08357938
-4.55938	Presidente	-0.07557538
-4.55938	Pretender	-0.08339605
-4.55938	Prim	-0.06557813
-3.445436	Primer	-0.2840669
-3.86041	Primera	-0.09127048
-3.781229	Primeras	-0.1449276
-4.55938	Primero	-0.09220591
-3.55938	Primeros	-0.7903005
-4.55938	Principales	-0.09216997
-4.55938	Probablemente	-0.09047742
-4.55938	Probando	-0.08147246
-4.25835	Proces	-0.07707887
-4.55938	Prodigioso	-0.08932126
-4.082259	Programa	-0.1884204
-4.55938	Pronto	-0.08827083
-4.55938	Proponen	-0.08386035
-4.55938	Propongo	-0.08339605
-4.55938	Prorroga	-0.08439735
-4.55938	Prosperitat	-0.08439735
-4.55938	Prudencia	-0.0916665
-4.55938	Psc	-0.09082607
-4.55938	Psoe	-0.08439735
-3.95732	Puede	-0.08141107
-4.55938	Puedes	-0.09222987
-4.55938	Puedo	-0.09222987
-4.55938	Puera	-0.0891162
-4.25835	Puerta	-0.2718577
-2.7532	Pues	-0.2516532
-4.55938	Puesta	-0.0832004
-3.55938	Pujol	-0.07217648
-4.55938	Putos	-0.09222987
-3.781229	Q	-0.08833126
-3.714282	QUE	-0.1865537
-4.55938	QUEDE	-0.09222987
-4.55938	QUINTA	-0.09176244
-4.55938	Qe	-0.09216997
-2.766988	Que	-0.1333966
-3.714282	Queda	-0.2062093
-3.95732	Quien	-0.08410453
-4.25835	Quiero	-0.09035712
-4.55938	Quizas	-0.09214601
-4.55938	R	-0.07709128
-4.55938	RATAS	-0.07709128
-4.55938	REFERENDUM	-0.09181041
-4.55938	REVOLTA	-0.09222987
-4.55938	RIEN	-0.09216997
-4.55938	ROMA	-0.09222987
-4.55938	ROMEVA	-0.09222987
-4.55938	RT	-0.09222987
-3.714282	RTVECatalunya	-0.9030061
-4.55938	Rabell	-0.08922478
-4.55938	RafaJapon	-0.09163051
-4.55938	Rafita	-0.0916665
-3.304107	Rajoy	-0.06901228
-4.55938	RajoyMorenes	-0.08439735
-4.55938	Rato	-0.06557813
-4.55938	Rauda	-0.08439735
-4.55938	Raul	-0.09221789
-4.55938	RaulRomeva	-0.08388478
-4.55938	Ravel	-0.08339605
-4.55938	Rayo	-0.09222987
-4.55938	Real	-0.09203816
-4.55938	RealAthletic	-0.0832004
-4.55938	Realcon	-0.08147246
-4.55938	Realidades	-0.08876617
-4.55938	Realmente	-0.09106636
-4.55938	Recompensa	-0.08386035
-4.55938	Record	-0.07557538
-4.55938	Recuento	-0.0832004
-4.55938	Referendum	-0.09207412
-4.55938	Reflejo	-0.09171447
-3.86041	Reforma	-0.6135287
-4.55938	Refuerza	-0.09221789
-4.55938	RegXLasBases	-0.09222987
-4.55938	Reinos	-0.06557813
-4.55938	Reinstauracion	-0.09222987
-4.55938	Relax	-0.09220591
-4.25835	Renan	-0.09221788
-4.55938	Renegociacion	-0.07557538
-4.55938	Reportan	-0.09062172
-4.55938	ReporteYa	-0.07709128
-4.55938	Representan	-0.0919183
-4.55938	Republica	-0.09220591
-4.55938	Resultado	-0.07557538
-4.25835	Resultados	-0.08930919
-4.55938	Resumen	-0.08357938
-4.55938	Rey	-0.09211007
-4.55938	ReyesAmaMori	-0.09222987
-4.55938	Risto	-0.09222987
-4.55938	Rita	-0.09222987
-3.605137	Rivera	-0.04221234
-4.55938	Roma	-0.09222987
-4.55938	Romero	-0.0832004
-4.25835	Romeva	-0.06843454
-4.55938	Ronaldos	-0.09218195
-4.55938	Roses	-0.07557538
-4.55938	Rota	-0.09082607
-4.55938	Rozara	-0.08721785
-4.55938	RubenAmon	-0.09221789
-4.25835	RuizNoticias	-0.2483197
-4.55938	S	-0.07557538
-4.55938	SABEIS	-0.09222987
-4.55938	SABES	-0.07709128
-4.55938	SALEN	-0.09045336
-4.55938	SALUD	-0.09222987
-3.781229	SE	-0.2299814
-4.25835	SER	-0.2749115
-3.413252	SI	-0.1234098
-4.55938	SIN	-0.09220591
-4.55938	SINO	-0.06557813
-4.55938	SPOILER	-0.08942978
-4.55938	SQEP	-0.06557813
-4.55938	SRodrigoteleSUR	-0.06557813
-4.55938	SUBLIMINAL	-0.09178642
-4.55938	SUFICIENTE	-0.09222987
-4.55938	SUMAR	-0.06557813
-4.25835	Sabe	-0.09208609
-4.55938	Sacan	-0.09199023
-4.55938	Saludos	-0.07709128
-4.55938	Samsa	-0.0920861
-3.86041	Sanchez	-0.0911384
-4.55938	SanchezCamacho	-0.08876617
-4.55938	Sanchezcastejon	-0.09222987
-3.86041	Sant	-0.2636937
-4.55938	Santander	-0.09045336
-4.55938	Santiago	-0.07557538
-4.55938	Savater	-0.07709128
-3.383289	Se	-0.162261
-4.25835	Seamos	-0.08720572
-4.55938	Sector	-0.09205015
-4.55938	Sed	-0.09222987
-4.55938	Seguimos	-0.09195427
-4.55938	Seguis	-0.09218195
-4.25835	Segun	-0.09167848
-4.55938	Segunda	-0.09176244
-4.55938	Segundo	-0.09214601
-4.55938	Seguramente	-0.08721785
-4.25835	Seguro	-0.08329822
-4.55938	Sera	-0.08357938
-4.55938	Serian	-0.09199023
-4.55938	Serrano	-0.09136653
-4.55938	Serrat	-0.09184638
-4.55938	Sesamo	-0.09216997
-4.25835	Sexta	-0.08338381
-2.650895	Si	-0.1090706
-4.25835	SiQueEsPot	-0.2737118
-4.25835	SiSi	-0.07231444
-4.55938	Sibuenono	-0.09207412
-4.55938	Siempre	-0.09140254
-4.55938	Siento	-0.09218195
-4.55938	Sigan	-0.09212205
-4.55938	Significan	-0.08339605
-4.082259	Sigue	-0.08253945
-4.55938	Siguelo	-0.0832004
-4.25835	Siguiente	-0.08299242
-4.55938	Simbolico	-0.09221789
-3.86041	Sin	-0.4091873
-4.25835	SintNiklaaskerk	-0.09221788
-4.55938	Situacion	-0.09221789
-4.55938	Sobraba	-0.09106636
-4.55938	Sobremesa	-0.09222987
-3.714282	Sol	-0.0725276
-4.25835	Solo	-0.09219392
-4.082259	Son	-0.2001379
-3.95732	Sondeo	-0.1573049
-4.55938	Spagna	-0.09222987
-4.55938	Spain	-0.09222987
-4.55938	SputnikMundo	-0.08439735
-4.082259	Sr	-0.08903175
-4.25835	Sube	-0.09074193
-4.55938	Sudemos	-0.07557538
-4.55938	Suecia	-0.06557813
-4.25835	Suerte	-0.08317593
-4.55938	Sumadle	-0.08357938
-4.55938	Sumarian	-0.09062172
-4.55938	Superarian	-0.0832004
-4.25835	Supondria	-0.2747917
-4.55938	Supuestos	-0.09184638
-4.55938	TODAS	-0.08827083
-4.25835	TODOS	-0.09145053
-4.55938	TODS	-0.09221789
-3.781229	TOLON	-0.2748635
-4.25835	TOLONCiudadanosCs	-0.2749115
-4.55938	TOMA	-0.09222987
-4.55938	TRAED	-0.09218195
-4.55938	TT	-0.09221789
-4.55938	TUS	-0.09222987
-4.55938	TUYA	-0.0916665
-3.86041	TV	-0.2526892
-3.328931	TV3	-0.07716653
-4.082259	TVE	-0.09135453
-4.55938	TVE1	-0.09222987
-4.55938	Taitantos	-0.08932126
-4.55938	Tambien	-0.0832004
-4.55938	Tampoco	-0.09221789
-4.55938	Tan	-0.09221789
-4.55938	Tanquesok	-0.09222987
-3.781229	Tarragona	-0.0827966
-4.55938	Tartessos	-0.09218195
-4.55938	Tb	-0.0832004
-4.55938	Te	-0.09216997
-4.55938	Telecinco	-0.06557813
-4.55938	Telediario	-0.09219393
-4.55938	Teletexto	-0.07709128
-4.55938	Tema	-0.09222987
-4.55938	Templarios	-0.09129451
-4.55938	Tendria	-0.08339605
-4.55938	Teneis	-0.08147246
-4.55938	Tenemos	-0.08339605
-4.55938	Tercera	-0.09178642
-4.55938	Terrassa	-0.0916665
-4.55938	Terroristas	-0.09218195
-4.55938	Tines	-0.08357938
-4.55938	Tipo	-0.08388478
-4.25835	Toca	-0.08236792
-4.55938	Toda	-0.09173845
-4.082259	Todas	-0.4291235
-4.55938	Todavia	-0.09182239
-3.781229	Todo	-0.1939869
-3.781229	Todos	-0.07771102
-4.55938	Tomaca	-0.07709128
-4.25835	Toni	-0.09221788
-4.55938	TonyAguilar	-0.09222987
-4.25835	Total	-0.2738079
-4.55938	Tragamos	-0.08388478
-4.55938	Tranquilidad	-0.09187035
-4.55938	Tranquilos	-0.09141454
-4.55938	Tras	-0.08827083
-4.55938	Tres	-0.09194228
-4.55938	Tsipras	-0.09200221
-4.55938	Tu	-0.09222987
-4.55938	Tu#ApoderadosCs	-0.06557813
-4.55938	Tuberia	-0.07557538
-3.86041	Twitter	-0.08836751
-4.55938	U	-0.09222987
-4.55938	UBendirecte	-0.07709128
-3.714282	UDC	-0.1819233
-4.082259	UE	-0.03988081
-4.55938	UEFA	-0.07557538
-4.55938	ULTIMO	-0.09200221
-4.55938	UNIO	-0.09220591
-4.25835	UPyD	-0.07928122
-4.55938	Ud	-0.08921272
-3.35526	Un	-0.1809267
-3.781229	Una	-0.08997197
-4.55938	Unas	-0.09105435
-4.55938	Unida	-0.09069386
-3.35526	Unio	-0.03180624
-4.55938	Unio5095	-0.09211007
-4.55938	Union	-0.09222987
-4.55938	Unionismo	-0.0832004
-4.55938	Unos	-0.09222987
-4.55938	Utilizando	-0.08147246
-4.55938	VALE	-0.08339605
-4.55938	VAMOS	-0.09163051
-4.25835	VICTORIA	-0.07707887
-4.55938	VISCA	-0.09221789
-4.082259	VIVA	-0.4329987
-4.55938	VOTA	-0.06557813
-4.082259	VOTAR	-0.189117
-4.55938	VOX	-0.06557813
-4.082259	Va	-0.1965726
-4.55938	Vaaaaamosssssss	-0.06557813
-4.55938	Valen	-0.08977927
-4.25835	Valencia	-0.09202617
-4.55938	Vallecano	-0.09189433
-4.55938	Valles	-0.09169049
-4.55938	Vallirana	-0.07557538
-3.517987	Vamos	-0.2648527
-4.55938	Van	-0.09089817
-4.082259	Vaya	-0.09213404
-4.082259	Vega2Santos	-0.06553992
-4.55938	Vendrell	-0.09184638
-4.55938	Veras	-0.09196626
-4.55938	Vergara	-0.08977927
-4.55938	Vergonzoso	-0.08721785
-4.55938	Vete	-0.09212205
-4.082259	Via	-0.092158
-4.55938	Vic	-0.08439735
-4.55938	Vicepdte	-0.09222987
-4.55938	Victoria	-0.07557538
-4.25835	VictoriaCsPla	-0.0912945
-4.082259	Vilamajor	-0.4064308
-4.55938	Vineta	-0.09222987
-4.55938	Vip4	-0.09221789
-4.55938	Visca	-0.09123448
-4.55938	Vistazo	-0.08386035
-4.55938	Viva	-0.09123448
-4.25835	VoX	-0.09215798
-4.55938	Vol	-0.09187035
-4.55938	Volkswagen	-0.07709128
-4.55938	Volver	-0.08386035
-4.55938	Vorem	-0.0832004
-4.25835	Vota	-0.08980336
-4.55938	Votad	-0.09157053
-4.25835	Votar	-0.08871786
-4.55938	Voten	-0.07709128
-4.25835	Votos	-0.09134252
-4.25835	Vox	-0.08968288
-4.55938	Voy	-0.08386035
-4.25835	Vs	-0.09221788
-4.55938	Vuelta	-0.08386035
-4.55938	Wert	-0.09032104
-4.55938	X	-0.09216997
-4.55938	XD	-0.09069386
-4.55938	XXI	-0.08762966
-4.55938	Xabia	-0.09222987
-4.55938	Xavier	-0.09215799
-2.878139	Y	-0.09836256
-4.55938	YA	-0.06557813
-3.605137	Ya	-0.05945965
-3.605137	Yo	-0.1185367
-4.55938	YouTube	-0.06557813
-4.55938	Yugoslavia	-0.07709128
-4.25835	ZP	-0.0828578
-4.55938	Zaplana	-0.08439735
-1.718647	a	-0.3974307
-4.55938	aaaaaah	-0.09222987
-4.55938	aantoniobanos	-0.09167849
-4.55938	aaunes	-0.08439735
-4.55938	abajo	-0.06557813
-4.55938	abandonado	-0.09106636
-4.55938	abarca	-0.09200221
-4.55938	abces#EleccionesCatalanas	-0.09220591
-4.55938	abierto	-0.09209808
-4.55938	abismal	-0.08932126
-3.95732	abrazo	-0.05663444
-4.55938	abril	-0.09220591
-4.082259	abrir	-0.1970855
-4.55938	abrumadora'	-0.09220591
-3.068018	absoluta	-0.09298518
-4.55938	absolutaPero	-0.08721785
-4.55938	absolutaay	-0.09207412
-4.55938	absolutamente	-0.09222987
-3.55938	abstencion	-0.5923875
-4.55938	abstenciones	-0.08762966
-4.082259	abstenerse	-0.08000877
-4.55938	abstiene	-0.08942978
-4.25835	absurdo	-0.09131851
-4.55938	abuelas	-0.08339605
-4.55938	abuelos	-0.08439735
-4.55938	abultada	-0.09214601
-4.55938	aburren	-0.09045336
-3.65629	acaba	-0.2832549
-4.55938	acababa	-0.08932126
-4.082259	acabado	-0.07707889
-4.55938	acabamos	-0.09201419
-4.55938	acaban	-0.07557538
-3.95732	acabar	-0.0892489
-3.95732	acabara	-0.06418757
-4.55938	acabe	-0.08147246
-4.55938	acabo	-0.08147246
-4.55938	acallar	-0.08147246
-4.55938	acceder	-0.08386035
-4.55938	acentua	-0.08339605
-4.55938	acepta	-0.08147246
-4.55938	aceptable	-0.09068184
-4.55938	aceptado	-0.08339605
-4.55938	aceptan	-0.08147246
-4.55938	aceptar	-0.08921272
-4.55938	acepte	-0.08827083
-4.55938	acerca	-0.07557538
-4.55938	acercandose	-0.08977927
-4.55938	acercarme	-0.09169049
-4.55938	acertado	-0.08932126
-4.55938	acertando	-0.07709128
-4.55938	aclarando	-0.07557538
-4.25835	aclarar	-0.09030899
-4.55938	aclare	-0.08147246
-4.55938	acojonados	-0.09213403
-4.55938	acompanado	-0.07709128
-4.55938	acompanar	-0.08386035
-4.55938	acordado	-0.07557538
-4.55938	acordamos	-0.07557538
-4.25835	acoso	-0.0724273
-4.55938	acreditado	-0.08977927
-4.55938	actas	-0.07709128
-4.55938	actitud	-0.08439735
-4.55938	activo	-0.0832004
-4.25835	actual	-0.09201419
-4.55938	actualidad	-0.09062172
-4.55938	actualizada	-0.07557538
-4.55938	actualizado	-0.07709128
-4.55938	actuan	-0.08721785
-4.55938	actuando	-0.08386035
-4.55938	actuante	-0.09213403
-4.55938	actue	-0.08147246
-4.082259	acuerdo	-0.2042987
-4.55938	acusa	-0.08386035
-4.55938	adelanta	-0.09216997
-4.55938	adelantado	-0.09220591
-3.714282	adelante	-0.1292425
-4.55938	adelanten	-0.0906097
-4.082259	ademas	-0.08731478
-4.55938	adeu	-0.09158253
-3.714282	adios	-0.08945562
-4.55938	admitiendo	-0.08339605
-4.082259	adoctrinamiento	-0.4326751
-4.55938	adoctrinar	-0.0832004
-4.55938	aduena	-0.07557538
-4.55938	advirtio	-0.07557538
-4.55938	aedas	-0.07557538
-4.55938	aeprat1945	-0.08932126
-4.082259	afecta	-0.08190203
-4.55938	aferrado	-0.0906097
-4.25835	afirma	-0.2661376
-4.55938	afirmando	-0.08339605
-4.25835	afluencia	-0.07547578
-4.55938	agarrandose	-0.08386035
-4.55938	agarzon	-0.07557538
-4.55938	agoreros	-0.08439735
-4.55938	agradece	-0.08357938
-4.55938	agradeciendo	-0.08386035
-4.55938	agradezco	-0.08386035
-4.55938	agregan	-0.09220591
-4.55938	agridulce	-0.09136653
-4.55938	agua	-0.0891162
-3.95732	aguanta	-0.156844
-4.25835	aguantado	-0.09151053
-4.55938	aguantamos	-0.08357938
-4.55938	aguantan	-0.08357938
-4.55938	aguantar	-0.08147246
-4.25835	aguante	-0.08320039
-4.55938	aguas	-0.08876617
-4.55938	aguila	-0.09203816
-4.25835	ahi	-0.08338381
-3.003077	ahora	-0.06909717
-4.55938	ahora#eleccionescatalanas	-0.09069386
-3.280626	ahorapodemos	-0.1916364
-4.55938	aireque	-0.0832004
-4.55938	aires	-0.08388478
-4.55938	aislado	-0.09196626
-4.55938	ajdelamo	-0.08439735
-4.55938	ajustada	-0.09201419
-2.425841	al	-0.2113147
-4.55938	alabaitua	-0.09222987
-4.55938	alambrada	-0.07557538
-4.25835	albertofdezxbcn	-0.09203815
-4.55938	albertpierres	-0.09222987
-4.55938	alborozo	-0.09205015
-4.55938	alcanza	-0.08357938
-4.55938	alcanzado	-0.08147246
-4.55938	alcanzan	-0.09139054
-3.781229	alegria	-0.31291
-4.55938	alegro	-0.08388478
-4.55938	alexUCM1	-0.09045336
-4.55938	alexbg	-0.06557813
-4.55938	alexcubero	-0.09222987
-4.55938	alfonsomerlos#27S	-0.09222987
-4.55938	alfonsoussia	-0.09222987
-4.55938	alforjas	-0.08388478
-3.197652	algo	-0.1164472
-4.55938	algu	-0.09221789
-3.55938	alguien	-0.6050383
-3.86041	algun	-0.09208608
-3.95732	alguna	-0.0834205
-4.25835	algunas	-0.09203815
-4.25835	alguno	-0.09119845
-3.86041	algunos	-0.08903172
-4.55938	alianza	-0.08932126
-4.55938	aliara	-0.08932126
-4.55938	aliarse	-0.08932126
-4.55938	aligerar	-0.08357938
-4.55938	aliviado	-0.09201419
-4.55938	alla	-0.07557538
-4.25835	alli	-0.08857293
-4.55938	alsnchez	-0.09187035
-3.65629	alta	-0.3211114
-4.55938	altaOjala	-0.09202618
-3.86041	alternativa	-0.1438099
-4.55938	alternativo	-0.0906097
-4.55938	altisima	-0.09222987
-4.55938	altura	-0.06557813
-4.25835	alturas	-0.08020584
-4.55938	alucinante	-0.08942978
-4.55938	aman	-0.09221789
-4.25835	amb	-0.09221788
-4.55938	ambas	-0.09222987
-4.25835	ambiente	-0.09219392
-4.55938	ambienteahora	-0.08386035
-4.55938	ambiguo	-0.09220591
-4.082259	ambos	-0.06553992
-4.55938	amenazaron	-0.07709128
-4.25835	amigo	-0.08356715
-3.781229	amigos	-0.07339164
-4.55938	amo	-0.08439735
-4.55938	amor	-0.09140254
-4.55938	ampliacion	-0.07557538
-3.781229	analisis	-0.1758528
-4.082259	analistas	-0.2050063
-4.55938	analizando	-0.08721785
-4.55938	analizar	-0.08147246
-3.781229	anapastor	-0.2679497
-4.55938	anarcanil	-0.09221789
-4.55938	anarse'n	-0.09221789
-4.25835	anchos	-0.0916305
-4.082259	ancianos	-0.1973173
-4.55938	anda	-0.08339605
-4.55938	andaluzas	-0.08439735
-4.55938	andar	-0.09207412
-4.55938	ande	-0.09183439
-4.55938	andrestofe	-0.08439735
-4.25835	andreubarnils	-0.274048
-4.55938	anecdotico	-0.09220591
-4.25835	anexion	-0.2583169
-4.55938	anferga87	-0.0832004
-4.55938	anillo	-0.0906097
-4.55938	anima	-0.08386035
-4.55938	animado	-0.08357938
-3.86041	animo	-0.1453364
-4.55938	animos	-0.08932126
-4.082259	ano	-0.09116244
-4.55938	ano#27S	-0.06557813
-4.55938	anoEl	-0.0920861
-3.197652	anos	-0.1383639
-4.55938	anos#Espana	-0.09222987
-4.55938	ansiada	-0.09139054
-4.55938	ansias	-0.09159452
-4.55938	antano	-0.06557813
-3.605137	ante	-0.0896828
-4.55938	antena3com	-0.09069386
-3.95732	anteriores	-0.3185912
-3.517987	antes	-0.3183671
-4.55938	antesala	-0.07557538
-4.082259	anticapitalista	-0.1972929
-4.25835	anticapitalistas	-0.07502735
-4.55938	anticipadas	-0.06557813
-4.55938	anticuado	-0.08439735
-4.55938	antieuropea	-0.09220591
-4.55938	antioligarquico	-0.08339605
-4.25835	antipodas	-0.06686266
-4.55938	antisistema	-0.07557538
-4.55938	antonio	-0.09195427
-3.413252	antoniobanos	-0.1146815
-4.55938	antoniocano	-0.09218195
-4.55938	antoniofraguas	-0.09222987
-4.55938	anulan	-0.09194228
-4.55938	anunciara	-0.09129451
-4.55938	apadrinada	-0.08998402
-4.55938	aparece	-0.0832004
-4.55938	aparecen	-0.09089817
-4.25835	aparte	-0.08069816
-4.25835	apasionante	-0.07707887
-4.55938	apelando	-0.0906097
-4.55938	apellida	-0.09222987
-4.55938	apellido	-0.0912585
-4.55938	apellidos	-0.09062172
-4.55938	apenas	-0.09220591
-4.25835	aplaudo	-0.07611027
-4.55938	aplauso	-0.09222987
-4.082259	aplausos	-0.08068588
-4.55938	aplicacion	-0.07557538
-4.25835	aplicar	-0.08353049
-4.55938	aplicara	-0.08357938
-4.55938	apoderada	-0.09188234
-4.082259	apoderado	-0.08916447
-3.95732	apoderados	-0.1480182
-4.55938	aportacion	-0.07557538
-4.55938	apostar	-0.08998402
-4.25835	apoya	-0.2666019
-4.55938	apoyada	-0.08998402
-4.55938	apoyan	-0.08147246
-3.95732	apoyando	-0.3097692
-4.55938	apoyandose	-0.09181041
-3.95732	apoyar	-0.1636698
-3.95732	apoyara	-0.310761
-4.25835	apoye	-0.2666019
-3.781229	apoyo	-0.1145714
-4.55938	apoyos	-0.07709128
-4.25835	app	-0.09124648
-4.55938	aprender	-0.07557538
-4.55938	aprendido	-0.09149854
-4.55938	aprieta	-0.08388478
-4.55938	aprovecha	-0.09129451
-4.55938	aprovecharan	-0.07709128
-4.55938	aproximan	-0.08386035
-4.55938	apuente	-0.09222987
-4.082259	apuesta	-0.1938271
-4.55938	apuestan	-0.08998402
-4.55938	apuntalar	-0.09221789
-4.55938	apunto	-0.07557538
-4.55938	aquello	-0.07557538
-4.25835	aquellos	-0.09201419
-4.55938	aquells	-0.09141454
-4.55938	aquestes	-0.09219393
-3.714282	aqui	-0.06840924
-4.55938	ara	-0.09221789
-4.55938	arbitro	-0.08147246
-4.55938	archivo	-0.09222987
-4.55938	arco	-0.09222987
-4.55938	ardiendo	-0.07709128
-4.082259	area	-0.4330586
-4.55938	argumentacion	-0.0912585
-4.55938	argumentaron	-0.09222987
-4.55938	argumento	-0.08977927
-4.25835	argumentos	-0.08894725
-4.55938	armas	-0.09171447
-4.25835	arrasa	-0.07435382
-4.55938	arrastra	-0.0832004
-4.55938	arrebatando	-0.08982746
-4.55938	arregla	-0.08932126
-4.55938	arreglar	-0.09032104
-4.55938	arremetia	-0.09197824
-4.55938	arrepientas	-0.08998402
-4.55938	arrepiente	-0.07557538
-4.25835	arriba	-0.09221788
-4.25835	arrimaba	-0.07611027
-4.55938	arrimar	-0.08386035
-4.55938	arrodillada	-0.09213403
-4.55938	arrogante	-0.08388478
-4.25835	arrollador	-0.2583169
-3.95732	articulo	-0.1559832
-4.55938	artur	-0.09062172
-4.55938	arvaldivia	-0.07709128
-4.55938	asamblearismo	-0.07557538
-4.55938	ascenso	-0.08147246
-4.082259	asco	-0.03588958
-4.55938	aseguradas	-0.09220591
-4.55938	ashifak	-0.09209808
-3.25835	asi	-0.00513489
-4.55938	asno	-0.09194228
-4.55938	asociaciones	-0.0894539
-4.55938	aspavientos	-0.08357938
-4.55938	aspira	-0.08386035
-4.55938	aspiraria	-0.09089817
-4.55938	asturiano	-0.09032104
-4.55938	asuma	-0.09222987
-4.55938	asumen	-0.09141454
-4.55938	asumir	-0.08339605
-4.55938	asuntos	-0.09220591
-4.55938	asusten	-0.09206213
-4.55938	ataca	-0.08386035
-4.55938	atacar	-0.08386035
-4.55938	atasca	-0.08357938
-4.55938	atencion	-0.08339605
-4.55938	atentar	-0.09197824
-4.55938	atento	-0.08386035
-4.55938	atiende	-0.08386035
-4.55938	atracciones	-0.08977927
-4.55938	atrapado	-0.0832004
-4.25835	atras	-0.07542598
-4.55938	atril	-0.08977927
-4.55938	aturacion	-0.06557813
-4.55938	augura	-0.09041728
-4.55938	auguran	-0.09041728
-4.082259	aumenta	-0.1927437
-3.55938	aumento	-0.2432168
-3.65629	aun	-0.1128694
-3.86041	aunque	-0.1408278
-4.55938	aupa	-0.0894539
-4.55938	auronplay	-0.08762966
-4.55938	austericidas	-0.09220591
-4.55938	austeridad	-0.09222987
-4.55938	autentica	-0.09193029
-4.55938	autentics	-0.09222987
-4.55938	autocreerse	-0.09141454
-4.55938	autoctonos	-0.08977927
-4.55938	autoestima	-0.09172647
-4.55938	autogobierno	-0.0912705
-4.55938	autonomia	-0.07557538
-3.55938	autonomicas	-0.09321259
-4.55938	autonomicos	-0.06557813
-4.55938	autoritario	-0.09200221
-4.55938	autorizado	-0.08357938
-3.65629	avance	-0.2744207
-4.55938	avanza	-0.08147246
-4.55938	avanzado	-0.08977927
-4.25835	avecina	-0.08318816
-4.55938	avion	-0.08977927
-4.55938	avisais	-0.09219393
-4.55938	aviva	-0.08921272
-3.86041	ay	-0.2315272
-4.55938	ayer	-0.09137853
-4.25835	ayuda	-0.07466577
-4.25835	ayudar	-0.08306583
-4.55938	ayuden	-0.08386035
-4.25835	azulejos	-0.07556292
-4.55938	azules	-0.0912585
-3.95732	baila	-0.07359176
-4.25835	bailan	-0.09086212
-4.082259	bailando	-0.07472815
-3.781229	bailar	-0.184129
-3.95732	baile	-0.07998413
-4.25835	bailes	-0.07555047
-3.383289	baja	-0.222848
-4.25835	bajado	-0.09197823
-4.25835	bajan	-0.06537428
-3.714282	bajando	-0.08003341
-3.95732	bajar	-0.07192551
-3.95732	bajo	-0.08146019
-4.55938	balcon	-0.09222987
-4.55938	balones	-0.08386035
-4.55938	bancos	-0.09203816
-3.445436	bandera	-0.3354327
-3.714282	banderas	-0.1058257
-4.25835	banderasno	-0.09208609
-4.25835	bando	-0.08909206
-4.55938	banqueros	-0.09220591
-4.55938	bar	-0.09213403
-4.55938	barcelonesa	-0.08762966
-4.25835	barrera	-0.09185836
-4.55938	barrica	-0.07557538
-4.082259	barrio	-0.03854092
-4.55938	barsa	-0.09222987
-4.55938	basado	-0.0832004
-4.55938	base	-0.07557538
-4.55938	bases	-0.09171447
-4.55938	basket	-0.09222987
-4.25835	basta	-0.08930919
-4.55938	bastan	-0.09222987
-4.25835	bastante	-0.07536371
-4.55938	bastantes	-0.08982746
-4.55938	bastaria	-0.08147246
-4.55938	basura	-0.06557813
-4.55938	bata	-0.08721785
-3.781229	batacazo	-0.03165479
-4.55938	batasuna	-0.09183439
-4.55938	batasunos	-0.08147246
-4.55938	batiburrillo	-0.07557538
-4.55938	be	-0.06557813
-4.55938	beber	-0.09062172
-4.55938	becas	-0.0891162
-4.082259	beneficia	-0.04725031
-4.55938	beneficiado	-0.09221789
-4.55938	besote	-0.06557813
-4.55938	bestias	-0.08388478
-4.55938	bet365	-0.07709128
-4.55938	betico	-0.09137853
-4.55938	bieennn	-0.06557813
-3.304107	bien	-0.1216338
-4.55938	bienmanteniendo	-0.0919183
-4.55938	bilis	-0.06557813
-4.25835	billetes	-0.08329822
-4.55938	bipartidismo	-0.08762966
-4.55938	birras	-0.06557813
-4.55938	bisagra	-0.09220591
-4.55938	bizco	-0.08388478
-4.55938	blancas	-0.08439735
-4.082259	blanco	-0.07362927
-4.55938	blog	-0.09184638
-3.95732	bloque	-0.158424
-4.55938	bloqueado	-0.09137853
-4.25835	bloques	-0.09196624
-4.55938	blytheclub	-0.09222987
-4.55938	bobo	-0.09202618
-4.25835	boca	-0.07232698
-4.55938	bocata	-0.0891162
-4.55938	bolsillo	-0.07557538
-4.55938	boludo	-0.09222987
-4.55938	bona	-0.0891162
-4.55938	bondades	-0.07557538
-4.25835	bonita	-0.09109037
-4.25835	bonito	-0.2719663
-4.55938	bonitos	-0.09222987
-4.55938	borbones	-0.09222987
-4.55938	borbonica	-0.08439735
-4.55938	borrico	-0.0832004
-4.55938	botar	-0.08147246
-3.95732	bote	-0.1652008
-4.55938	botella	-0.08762966
-4.55938	botox	-0.07709128
-4.55938	bplleida	-0.08439735
-4.55938	bravo	-0.08998402
-4.55938	brecha	-0.07709128
-4.55938	breve	-0.09209808
-4.55938	brindando	-0.08932126
-3.95732	broma	-0.1696283
-4.25835	brutal	-0.09077799
-4.55938	bucle	-0.0832004
-3.383289	buen	-0.1731984
-3.714282	buena	-0.1075858
-3.95732	bueno	-0.06839659
-3.86041	buenos	-0.6132051
-4.55938	bulto	-0.09205015
-4.55938	burguesia	-0.06557813
-4.55938	burguesias	-0.07557538
-4.25835	burlan	-0.06509384
-4.082259	busca	-0.09062173
-4.55938	buscaba	-0.09222987
-4.55938	buscado	-0.08439735
-4.55938	buscafallas	-0.06557813
-4.25835	buscar	-0.08171797
-4.55938	busqueda	-0.07557538
-4.25835	bye	-0.07707887
-4.55938	c	-0.09222987
-4.55938	cabe	-0.09220591
-4.55938	caben	-0.09222987
-3.781229	cabeza	-0.06510659
-4.55938	cabinas	-0.09171447
-4.55938	cabra	-0.08388478
-4.55938	cachondo	-0.09069386
-3.65629	cada	-0.2206674
-4.55938	cadena	-0.07709128
-4.25835	cadenas	-0.09215798
-4.55938	cadera	-0.09163051
-3.86041	cae	-0.05174422
-4.55938	caen	-0.09106636
-4.55938	caer	-0.0832004
-4.55938	caeria	-0.08998402
-4.55938	cafe	-0.09222987
-4.55938	cagada	-0.09216997
-4.55938	cagare	-0.06557813
-4.55938	cagarle	-0.08147246
-4.082259	caida	-0.080095
-4.25835	caido	-0.07826804
-4.55938	caigas	-0.0832004
-4.55938	cajas	-0.07709128
-4.55938	calana	-0.09193029
-4.55938	calandina	-0.09169049
-4.55938	calculos	-0.08388478
-4.55938	calendario	-0.08386035
-4.55938	calixtorivero	-0.09149854
-4.55938	calle	-0.09221789
-4.55938	calledpablo	-0.09221789
-4.25835	calles	-0.09193029
-4.55938	calma	-0.09201419
-4.55938	calmo	-0.08998402
-4.25835	cambia	-0.08355493
-4.55938	cambiaJunts	-0.09189433
-4.082259	cambian	-0.07629672
-4.55938	cambiando	-0.07709128
-3.86041	cambiar	-0.08639302
-4.55938	cambiara	-0.0912585
-4.55938	cambiaremos	-0.08827083
-4.55938	cambiemos	-0.08827083
-3.445436	cambio	-0.1207862
-4.55938	cambio#eleccionescatalanas	-0.07709128
-4.082259	cambios	-0.1966459
-4.55938	camello	-0.07709128
-3.714282	camino	-0.2245724
-4.55938	camisetas	-0.07557538
-4.55938	camp	-0.09047742
-3.25835	campana	-0.2232196
-4.55938	campeona	-0.08388478
-4.55938	campeones	-0.08388478
-4.55938	canales	-0.0906097
-4.55938	canallada	-0.08942978
-4.55938	cancion	-0.09169049
-4.55938	candidata	-0.09222987
-3.781229	candidato	-0.1781407
-3.781229	candidatos	-0.06604914
-4.082259	candidatura	-0.05645237
-4.082259	candidaturas	-0.0618686
-4.25835	cansinos	-0.08384813
-4.55938	canta	-0.0832004
-4.25835	cantan	-0.07807007
-4.082259	cantando	-0.07839174
-4.55938	cantant	-0.09218195
-4.55938	canvia	-0.06557813
-4.55938	capaces	-0.07709128
-4.55938	capital	-0.09222987
-4.25835	capitulo	-0.07552557
-4.55938	caquita	-0.08388478
-3.383289	cara	-0.1911023
-4.082259	caracter	-0.2051021
-4.55938	caras	-0.09205015
-4.55938	carcel	-0.08998402
-4.55938	carente	-0.09171447
-4.55938	careta	-0.07709128
-4.55938	cargas	-0.08721785
-4.55938	cariacontecido	-0.09221789
-4.55938	carinosa	-0.08932126
-4.55938	carismatico	-0.08977927
-4.082259	carlosabadiaj	-0.2042146
-4.55938	carlosherreracr	-0.07709128
-4.082259	carmechacon	-0.08563966
-4.55938	carmenpicazo3	-0.09222987
-4.55938	carnet	-0.09171447
-4.55938	caro	-0.09222987
-4.55938	carpeta	-0.08932126
-4.082259	carrera	-0.07510214
-4.55938	cartas	-0.09222987
-4.55938	carteles	-0.09214601
-4.082259	cartera	-0.0752018
-3.413252	casa	-0.05890003
-4.55938	casado	-0.08998402
-4.55938	casados	-0.08388478
-4.55938	cascaba	-0.09203816
-3.128016	casi	-0.149811
-4.25835	casino	-0.08845211
-3.95732	caso	-0.06509386
-4.55938	castana	-0.07557538
-4.082259	castellano	-0.2048864
-4.55938	castigados	-0.08388478
-4.55938	casualidad	-0.09214601
-4.55938	casualmentesimilar	-0.08386035
-4.55938	cat	-0.09207412
-4.55938	catala	-0.09211007
-3.216957	catalan	-0.02472975
-3.55938	catalana	-0.03780831
-3.216957	catalanas	-0.07026716
-2.811192	catalanes	-0.07454307
-4.55938	catalanes#Ciutadans	-0.09222987
-4.55938	catalanistas	-0.09196626
-3.95732	cataluna	-0.1659825
-4.55938	catalunya	-0.090778
-4.55938	cateto	-0.07557538
-4.55938	catetos	-0.08439735
-4.55938	catsiespot	-0.06557813
-3.015312	catsiqueespot	-0.05492737
-4.55938	cautivo	-0.08439735
-4.25835	cava	-0.08667219
-4.55938	cayendo	-0.09193029
-4.55938	ccarnicero	-0.09207412
-4.55938	cclasbrisaspa	-0.09222987
-4.55938	cececebe	-0.08439735
-4.55938	ceda	-0.08386035
-4.55938	cede	-0.08921272
-4.25835	celebra	-0.08928507
-4.082259	celebracion	-0.1875231
-4.55938	celebrado	-0.09129451
-4.55938	celebramos	-0.08147246
-3.781229	celebrando	-0.2096616
-3.86041	celebrar	-0.08618658
-4.55938	celebrara	-0.09089817
-4.55938	celebres	-0.07557538
-4.55938	cena	-0.09171447
-4.55938	cenizos	-0.09222987
-4.55938	ceno	-0.09222987
-4.55938	cens	-0.09177443
-3.781229	censo	-0.1277083
-4.55938	censurado	-0.08998402
-4.082259	cent	-0.08361605
-4.55938	central	-0.08977927
-4.55938	centro	-0.07557538
-4.55938	cepillar	-0.09222987
-3.95732	cerca	-0.3160492
-4.55938	cercanas	-0.08386035
-4.55938	cercanos	-0.09219393
-4.55938	cerrados	-0.0832004
-3.95732	cerrar	-0.3147786
-4.55938	chafas	-0.08388478
-4.55938	champan	-0.09222987
-4.55938	chandal	-0.08439735
-4.082259	charnego	-0.1967681
-4.55938	chaval	-0.09221789
-4.55938	cheque	-0.0832004
-4.55938	chica	-0.09221789
-4.25835	chico	-0.06686266
-4.25835	chinos	-0.07701685
-4.55938	chip	-0.09207412
-4.55938	chollo	-0.07557538
-4.55938	chulisimo	-0.08439735
-4.55938	chungo	-0.06557813
-4.55938	chupito	-0.07557538
-4.55938	churros	-0.09158253
-4.25835	cia	-0.06536154
-4.55938	cideoficial	-0.07557538
-4.55938	ciego	-0.08339605
-4.55938	ciegos	-0.08388478
-4.55938	cielo	-0.09222987
-4.55938	ciencia	-0.09222987
-4.55938	ciencias	-0.07709128
-4.55938	cientifica	-0.09216997
-4.55938	ciento	-0.07557538
-4.55938	cierran	-0.08827083
-3.95732	cierre	-0.2979265
-4.55938	cierres	-0.09163051
-4.25835	cierta	-0.09221788
-3.86041	cierto	-0.1509768
-4.55938	cifra	-0.0832004
-4.55938	cimente	-0.0832004
-4.082259	cinco	-0.2026391
-4.55938	cinismo	-0.0832004
-3.95732	cinturon	-0.5452881
-4.55938	circunscripcion	-0.07557538
-4.25835	circunscripciones	-0.07548822
-4.55938	cisa	-0.08922478
-4.55938	cita	-0.08932126
-4.55938	ciu	-0.09221789
-3.781229	ciudad	-0.1247436
-4.082259	ciudadana	-0.06823204
-4.082259	ciudadania	-0.1898994
-4.25835	ciudadano	-0.08628375
-3.605137	ciudadanos	-0.138724
-4.55938	ciudadanosCs	-0.09222987
-4.25835	ciudades	-0.0598212
-4.55938	ciutadana	-0.09130652
-4.55938	ciutadans	-0.09187035
-4.55938	civico	-0.09161852
-4.55938	civilizados	-0.08721785
-4.55938	claaaaaro	-0.08388478
-4.55938	clan	-0.09212205
-4.082259	clara	-0.07912076
-4.25835	claramente	-0.08318816
-4.55938	claramente#eleccionescatalanas	-0.07709128
-4.55938	claras	-0.09211007
-4.55938	clarisimo	-0.08357938
-3.25835	claro	-0.1749725
-4.25835	clase	-0.2746718
-4.55938	claudialunapale	-0.08922478
-4.55938	clavado	-0.09188234
-3.65629	clave	-0.1079684
-3.95732	claves	-0.1382815
-4.55938	clavo	-0.09222987
-4.55938	cmo	-0.09221789
-4.082259	cn	-0.09122248
-3.714282	coalicion	-0.09618057
-4.55938	cobardes	-0.08339605
-4.25835	cobardia	-0.09216996
-3.55938	cobertura	-1.083188
-4.55938	cobraba	-0.09129451
-4.55938	cocinada	-0.09221789
-4.55938	coherente	-0.08439735
-4.55938	coherentes	-0.08439735
-4.55938	coinciden	-0.08339605
-4.55938	coincidido	-0.08388478
-4.25835	cojones	-0.09136652
-4.25835	cola	-0.08958647
-4.55938	cola'	-0.09222987
-4.55938	colaboran	-0.08932126
-4.55938	colaborando	-0.0832004
-3.86041	colas	-0.07094531
-4.55938	colectivo	-0.08998402
-4.25835	colegas	-0.07707887
-3.304107	colegio	-0.8023798
-3.328931	colegios	-0.5976298
-4.55938	coles	-0.07709128
-4.55938	coleta	-0.09218195
-4.55938	collons	-0.08388478
-4.55938	coloca	-0.0832004
-4.55938	colocada	-0.0912585
-4.55938	colocaria	-0.09089817
-4.55938	columna	-0.07557538
-4.55938	com	-0.09222987
-4.55938	comarca	-0.0891162
-4.082259	comarcas	-0.09032104
-4.55938	combatiente	-0.09148654
-4.25835	come	-0.08356715
-4.55938	comentan	-0.08339605
-4.55938	comentar	-0.08721785
-4.55938	comentarios	-0.09089817
-4.55938	comente	-0.08932126
-4.55938	comenzado	-0.08357938
-4.25835	comenzar	-0.08968288
-4.55938	comenzaremos	-0.09202618
-4.55938	comenzaste	-0.09196626
-4.55938	comenzo	-0.09196626
-4.55938	comer	-0.09045336
-4.25835	comicios	-0.07556292
-4.082259	comido	-0.08202469
-4.55938	comiendo	-0.09220591
-4.25835	comienza	-0.2663209
-2.510162	como	-0.1418027
-4.55938	comodin	-0.0906097
-4.55938	companeras	-0.07557538
-4.55938	companero	-0.09169049
-3.35526	companeros	-0.15993
-4.55938	companeros#ApoderadosCs	-0.06557813
-4.55938	companers	-0.09163051
-4.55938	compania	-0.09202618
-4.55938	comparacion	-0.0906097
-4.55938	comparando	-0.09159452
-4.55938	comparativa	-0.08932126
-4.25835	comparece	-0.09103031
-4.25835	comparecencia	-0.09076597
-4.55938	comparecera	-0.08388478
-4.55938	comparta	-0.09194228
-4.55938	compas	-0.07557538
-4.25835	compatriotas	-0.09199022
-4.55938	competencias	-0.08339605
-4.55938	compi	-0.09222987
-4.55938	compis	-0.07557538
-4.55938	complejidad	-0.09218195
-4.55938	componentes	-0.09216997
-4.25835	compra	-0.07845356
-4.55938	comprar	-0.09222987
-4.25835	comprobar	-0.2661376
-4.55938	compromiso	-0.08439735
-3.95732	comun	-0.05389539
-4.55938	comunes	-0.0832004
-4.55938	comunica	-0.08339605
-4.25835	comunicacion	-0.09115042
-4.55938	comunismo	-0.09062172
-2.173774	con	-0.3400565
-4.55938	cona	-0.09209808
-4.55938	conazo	-0.06557813
-4.55938	concebida	-0.08998402
-4.25835	concejal	-0.08561531
-4.55938	concepto	-0.07557538
-4.55938	conchajua	-0.09205015
-4.55938	conciso	-0.08922478
-4.25835	conclusion	-0.09221788
-4.55938	conclusionPSC	-0.09219393
-3.95732	conclusiones	-0.09154654
-4.55938	concordia	-0.07709128
-4.55938	concurren	-0.09129451
-4.25835	condal	-0.09201419
-4.55938	condenado	-0.08386035
-4.55938	condiciones	-0.07557538
-4.55938	conduciria	-0.08386035
-4.55938	confesaos	-0.06557813
-4.55938	confia	-0.0832004
-4.55938	confiando	-0.0832004
-4.25835	confianza	-0.09127049
-4.25835	confirma	-0.2661376
-4.55938	confirman	-0.08147246
-3.95732	confirmarse	-0.1491614
-3.95732	confluencia	-0.06818141
-4.55938	conforma	-0.08922478
-4.55938	congratulandose	-0.07709128
-4.55938	conmigo	-0.07709128
-3.95732	conocer	-0.1509465
-4.55938	conocido	-0.0832004
-4.25835	conscientes	-0.2583169
-3.95732	conseguido	-0.06868755
-4.55938	conseguidos	-0.0832004
-4.55938	conseguir	-0.08147246
-4.55938	conseguira	-0.09222987
-4.25835	conseguiria	-0.08899552
-4.55938	consejera	-0.07557538
-4.55938	consensuado	-0.07709128
-4.55938	considera	-0.09222987
-4.55938	considerable	-0.07709128
-4.55938	considerablemente	-0.08357938
-4.55938	consideran	-0.08339605
-4.55938	consigan	-0.09097026
-4.082259	consigue	-0.08115309
-3.86041	consiguen	-0.08331045
-4.55938	consigues	-0.09222987
-4.55938	consiguio	-0.09211007
-4.082259	consolida	-0.2038183
-4.55938	constante	-0.08386035
-3.95732	constitucion	-0.06183006
-4.25835	constitucionalista	-0.08438513
-4.082259	constitucionalistas	-0.06790277
-4.55938	constituye	-0.08147246
-4.25835	constituyente	-0.09134252
-4.55938	construccion	-0.07557538
-4.55938	construido	-0.08977927
-4.082259	construir	-0.1975002
-4.55938	construyendo	-0.09220591
-4.55938	consuelo	-0.07557538
-4.55938	consultando	-0.08721785
-4.55938	consultar	-0.0832004
-4.55938	consuma	-0.09187035
-4.55938	cont	-0.06557813
-4.55938	contaban	-0.08932126
-4.55938	contados	-0.09185836
-4.25835	contamos	-0.08981541
-4.55938	contando	-0.09050147
-3.605137	contar	-0.1955481
-4.55938	contemos	-0.08721785
-4.55938	contenidaComo	-0.090778
-4.55938	contentan	-0.0832004
-4.082259	contento	-0.08897141
-4.25835	contentos	-0.09087413
-4.55938	contestar	-0.08386035
-4.55938	contigomismo	-0.09222987
-4.55938	continuar	-0.08147246
-3.216957	contra	-0.2379655
-4.55938	contradiciendose	-0.08388478
-4.25835	contraria	-0.09221788
-4.25835	contrario	-0.2598328
-4.55938	contrarios	-0.08386035
-4.55938	contundencia	-0.09218195
-4.55938	convence	-0.0832004
-4.55938	convencer	-0.0832004
-4.55938	convencional	-0.09222987
-4.55938	convenga	-0.0916665
-4.55938	convergen	-0.0916665
-4.55938	convergencia	-0.08762966
-4.55938	convergera	-0.08932126
-4.55938	conversacion	-0.08977927
-4.25835	convertido	-0.2659419
-4.55938	conviene	-0.09069386
-4.55938	convierte	-0.0832004
-3.714282	convivencia	-0.05960174
-3.95732	convocar	-0.1727754
-4.25835	convoco	-0.08386034
-4.55938	convulsas	-0.07709128
-4.55938	cop	-0.09214601
-3.605137	copees	-0.3358215
-4.082259	corazon	-0.1808603
-4.25835	cordura	-0.09221788
-4.55938	corner	-0.09188234
-4.55938	correlacion	-0.07709128
-4.55938	correlaciones	-0.09171447
-3.95732	correo	-0.0631001
-4.55938	correspondian	-0.08386035
-4.55938	corresponsal	-0.0832004
-3.95732	corrupcion	-0.07439129
-4.55938	corrupcionpara	-0.09141454
-4.55938	corrupta	-0.09222987
-4.55938	corruptos	-0.08386035
-4.25835	cortes	-0.2703712
-4.55938	cos	-0.08339605
-3.517987	cosa	-0.04899409
-3.413252	cosas	-0.07305453
-4.25835	cosecha	-0.2663209
-4.55938	costara	-0.09137853
-4.55938	coste	-0.08388478
-4.55938	cotidiano	-0.09221789
-4.55938	covertura	-0.09222987
-4.55938	cread	-0.09221789
-4.55938	creada	-0.09222987
-4.55938	creado	-0.09222987
-4.55938	creadors	-0.07557538
-4.25835	crece	-0.08318816
-4.082259	creciendo	-0.07587401
-4.25835	crecimiento	-0.04783449
-4.25835	credito	-0.08137421
-4.082259	cree	-0.1870987
-4.55938	creeis	-0.08339605
-4.55938	creen	-0.08339605
-4.55938	crees	-0.08339605
-3.480199	creo	-0.8606907
-4.25835	creyendo	-0.08235566
-4.25835	crisis	-0.07220156
-4.25835	crispapin	-0.0655399
-4.55938	crispar	-0.09201419
-4.082259	critica	-0.2051261
-4.55938	criticaadoctrinamiento	-0.09182239
-4.55938	criticando	-0.0906097
-4.55938	cromos	-0.07709128
-4.55938	cruzcampo	-0.09222987
-4.55938	ctxtes	-0.08388478
-4.55938	cua	-0.07709128
-4.55938	cuadra	-0.09222987
-4.55938	cuadrado	-0.09200221
-3.517987	cual	-0.03774042
-4.55938	cualitativamente	-0.09220591
-3.65629	cualquier	-0.1305367
-4.25835	cualquiera	-0.0598212
-3.197652	cuando	-0.1315278
-4.25835	cuanto	-0.0922059
-4.082259	cuantos	-0.08376265
-4.25835	cuartel	-0.2748995
-4.55938	cuarto	-0.07557538
-4.082259	cuatro	-0.08132509
-4.55938	cubano	-0.08439735
-4.55938	cubatilla	-0.08762966
-4.25835	cuela	-0.0769424
-3.445436	cuenta	-0.1092755
-3.781229	cuentan	-0.2975541
-4.25835	cuentas	-0.0748653
-4.55938	cuenten	-0.08827083
-4.55938	cuentes	-0.09089817
-4.25835	cuento	-0.07983623
-4.25835	cuestion	-0.07545087
-4.55938	cueta	-0.08339605
-4.25835	cuidado	-0.08387255
-4.55938	culebron	-0.08388478
-3.86041	culo	-0.1304995
-4.25835	culpa	-0.06686266
-4.55938	culpabilidad	-0.09222987
-4.55938	culparemos	-0.08386035
-4.55938	cultura	-0.08339605
-4.55938	cultural	-0.08357938
-4.55938	cumplen	-0.09164251
-4.55938	cumplir	-0.09219393
-4.55938	cumpliran	-0.08721785
-4.55938	cunados	-0.09220591
-4.25835	cup	-0.0838237
-4.55938	cupcake	-0.09205015
